tree
version=v4
num_class=1
num_tree_per_iteration=1
label_index=0
max_feature_idx=26
objective=binary sigmoid:1
feature_names=Column_0 Column_1 Column_2 Column_3 Column_4 Column_5 Column_6 Column_7 Column_8 Column_9 Column_10 Column_11 Column_12 Column_13 Column_14 Column_15 Column_16 Column_17 Column_18 Column_19 Column_20 Column_21 Column_22 Column_23 Column_24 Column_25 Column_26
feature_infos=[-2.4859211000000001:3.7538165999999999] [-1.9773529000000001:3.7538165999999999] [-1.6821858000000001:1.7115288] [-1.6821858000000001:1.7115288] [0.0425233211097132:1.21795618587506] [-0.20258886928571421:0.1648654817857142] [-2.4859211000000001:3.7538165999999999] [-2.4859211000000001:3.7538165999999999] [-2.4859211000000001:3.7538165999999999] [0:50] [0.0047619047619046999:1] [0:6.2397377000000001] [-1.6071043857142857:3.7538165999999999] [-20.8955135:46.9885278] [0.22562619:0.49812856] [0.22680907857142851:0.48080359571428571] [-0.043703799999999897:0.1432048099999999] [0.22562619:0.49812856] [0.22562619:0.49812856] [0.66739007714285725:4.8692490428571427] [-6.4436203800000005:6.5878532100000005] [-0.53922667434832594:1.7928247547820368] [0:5.219784787738492] [-1:1] [-1:1] [-1:1] [-1:1]
tree_sizes=3277 3327 3320 3334 3345 3348 3338 3347 3340 3369 3346 3370 3374 3365 3382 3365 3346 3357 3380 3387 3374

Tree=0
num_leaves=31
num_cat=0
split_feature=14 15 10 10 0 0 13 18 0 1 13 15 15 1 16 24 14 11 4 0 14 0 6 18 1 21 5 7 26 15
split_gain=4599.27 631.322 292.526 217.065 229.497 178.848 171.019 234.664 126.948 126.576 113.648 66.372 65.3889 91.3037 41.6595 29.1294 40.5942 46.8109 26.2533 13.2886 59.2612 39.2629 12.9446 26.0408 20.165 27.5784 7.26294 7.32601 8.23483 16.1095
threshold=0.43366744000000007 0.45764751357142858 0.63690476190476197 0.82738095238095244 0.42367449000000007 0.45301515000000009 4.449749895000001 0.45399129500000007 1.4505907500000002 2.0178394500000008 16.107682335000003 0.47492227928571423 0.34256280928571431 0.63883741500000013 -0.0071597099999999988 -0.9330127018922193 0.46906992500000005 1.9364698500000002 0.37499233176743602 0.74485740000000011 0.46188089000000004 1.3387543000000004 2.1841016000000004 0.23161438000000004 3.1181061500000005 1.3086457560317253 -0.056051675714285647 0.53125656500000007 -0.85421994577343296 0.47045403642857148
decision_type=2 2 2 2 2 2 2 2 2 2 2 2 2 2 2 2 2 2 2 2 2 2 2 2 2 2 2 2 2 2
left_child=3 2 -2 9 -5 10 -4 14 -9 -1 11 -3 -6 -14 -8 16 17 -7 -10 -16 21 -21 23 -17 25 -24 -25 28 29 -28
right_child=1 5 6 4 12 15 7 8 18 -11 -12 -13 13 -15 19 22 -18 -19 -20 20 -22 -23 24 26 -26 -27 27 -29 -30 -31
leaf_value=-1.6616771431666812 -1.6610636633450742 -1.6604081331797822 -1.6602263722933071 -1.6609681219513104 -1.3070353433997852 -1.3905124123957431 -1.5118378178627179 -1.6607860958814873 -1.5168826325934677 -1.3905124123957431 -1.3415847305667679 -1.3232127586772864 -1.3136938408464003 -1.6591840271566736 -1.3133343366034067 -1.645032849547134 -1.3336594703595086 -1.6575382117861934 -1.3449143497265656 -1.6577518817327295 -1.3274264176935797 -1.3692214002001799 -1.3608326245088949 -1.3541566455199885 -1.3065496831248562 -1.5168826325934677 -1.3406612736628454 -1.3142359676131949 -1.3192929591981446 -1.4504674632292585
leaf_weight=148.9623197466135 15.915374368429182 8.097295731306076 7.1200359016656867 13.960854709148409 10.051815748214723 4.3278650790452984 3.9090393781661978 11.308292314410211 4.048647925257681 4.3278650790452948 7.3992532342672339 1.6753026247024543 3.3506052494049063 4.1882564127445221 29.178187355399132 0.55843418836593528 12.704378202557562 2.5129538476467133 5.5843420624732971 2.6525623947382 16.054983451962471 1.9545197188854215 11.866726860404013 21.360108360648155 11.727118372917175 4.0486479252576837 12.983595296740534 445.35128059983253 24.431496575474739 5.5843420028686515
leaf_count=1067 114 58 51 100 6 9 17 81 18 9 9 1 2 30 22 4 14 18 7 19 16 3 19 32 7 18 16 352 21 18
internal_value=-1.4084 -1.34768 -1.46547 -1.62925 -1.51007 -1.32768 -1.42734 -1.40502 -1.54764 -1.65386 -1.488 -1.60087 -1.39036 -1.50453 -1.34975 -1.32277 -1.38682 -1.48872 -1.41506 -1.33734 -1.37271 -1.53407 -1.32049 -1.31847 -1.35893 -1.39944 -1.31809 -1.31658 -1.34154 -1.37243
internal_weight=857.197 672.355 97.726 184.842 31.5515 574.629 81.8106 74.6906 20.9413 153.29 17.1719 9.7726 17.5907 7.53886 53.7493 557.457 19.5452 6.84082 9.63299 49.8403 20.6621 4.60708 537.912 510.269 27.6425 15.9154 509.711 488.351 42.9994 18.5679
internal_count=2158 944 348 1214 138 596 234 183 106 1076 68 59 38 32 77 528 41 27 25 60 38 22 487 443 44 37 439 407 55 34
is_linear=0
shrinkage=1


Tree=1
num_leaves=31
num_cat=0
split_feature=14 15 10 10 1 13 18 4 25 18 21 15 10 1 16 21 13 14 25 5 6 9 1 13 25 11 1 11 5 17
split_gain=3167.18 371.067 224.057 193.357 159.813 126.348 152.555 110.426 100.295 114.577 86.9995 78.0428 46.7479 46.2293 24.8814 20.4214 49.3793 43.6399 13.3767 16.5892 14.4372 87.8567 43.0283 6.6022 37.4415 61.1034 5.38784 24.3315 6.26418 13.8323
threshold=0.43366744000000007 0.45764751357142858 0.63690476190476197 0.82738095238095244 0.47257522000000002 4.449749895000001 0.45399129500000007 0.62228708479743833 0.060268340127661829 0.32025531000000007 0.89476782052440174 0.35764394357142865 0.99880952380952392 0.57037663000000005 -0.0071597099999999988 0.32811290627381889 8.5329628900000021 0.48409312500000007 -0.85421994577343319 -0.082490974999999939 1.9884987000000003 36.500000000000007 3.0594259500000005 8.7187861350000002 -0.95297903005573337 1.5403743700000001 1.8515771500000002 0.96823502000000017 0.024101090714285702 0.43862433000000006
decision_type=2 2 2 2 2 2 2 2 2 2 2 2 2 2 2 2 2 2 2 2 2 2 2 2 2 2 2 2 2 2
left_child=3 2 -2 7 -5 -4 14 -1 15 -10 12 -6 -8 -13 -7 16 17 -3 19 -17 26 22 -22 -16 -25 -26 27 -20 29 -29
right_child=1 8 5 4 11 6 10 -9 9 -11 -12 13 -14 -15 23 18 -18 -19 20 -21 21 -23 -24 24 25 -27 -28 28 -30 -31
leaf_value=-0.059427766894471747 -0.058785460695675085 -0.057271399491291279 -0.057928073339614861 -0.058636245284858501 0.2329253883343291 0.080586171882906565 -0.058848215574123168 0.18077427432132498 0.19799751910389191 -0.059070907798489142 0.19424186901663548 0.22240007260325836 0.17786864741094752 -0.057292475707816273 0.22792404738964311 -0.043787617871815933 0.22123380219395405 0.2270345731117196 0.084254873398375715 0.231082023281938 -0.059767495209664193 0.22914376922896451 0.20390907081153303 0.23074013527796744 0.22219355349648484 -0.058065634542914683 0.22834710652128304 -0.043747354743736089 0.23028554828958697 0.20666611901447937
leaf_weight=143.17067170143127 15.292068690061567 3.7452120035886791 6.8450887352228156 12.610070437192915 14.072513580322267 4.1447327136993399 12.3831142783165 4.8454080820083609 11.411140754818918 6.8529628515243521 6.9223340153694144 2.0037689208984366 2.400032401084899 4.8342774510383606 34.921313762664795 0.48983138799667258 12.570220723748205 1.9726322889328001 3.9963669329881659 336.10391756892204 4.8243781477212933 20.420169577002525 2.1506925225257874 16.231178268790245 4.110267877578738 3.5116549730300903 117.13239820301533 0.489264115691184 55.094532147049904 104.35625568032265
leaf_count=1067 114 27 51 94 7 17 91 9 16 48 11 1 4 36 23 3 11 1 14 203 31 13 2 10 3 24 76 3 36 112
internal_value=0.161418 0.204771 0.117818 -0.0268349 0.0813801 0.14743 0.164148 -0.0514141 0.218363 0.101473 0.0492582 0.165932 -0.0191446 0.02597 0.203562 0.221559 0.166054 0.04217 0.223098 0.230654 0.214765 0.177001 0.0225607 0.211998 0.187618 0.0933422 0.218364 0.211066 0.214148 0.205409
internal_weight=969.908 788.372 106.762 181.537 33.5206 91.4697 84.6246 148.016 681.61 18.2641 21.7055 20.9106 14.7831 6.83805 62.9191 663.346 18.2881 5.71784 645.058 336.594 308.464 27.3952 6.97507 58.7744 23.8531 7.62192 281.069 163.936 159.94 104.846
internal_count=2158 944 348 1214 138 234 183 1076 596 64 106 44 95 37 77 532 39 28 493 206 287 46 33 60 37 27 241 165 151 115
is_linear=0
shrinkage=0.05


Tree=2
num_leaves=31
num_cat=0
split_feature=14 13 1 26 10 4 5 14 21 4 14 11 26 10 5 10 11 11 8 10 10 21 13 16 4 26 26 2 14 4
split_gain=2360.63 260.556 175.251 177.322 125.267 86.1644 42.7734 37.7379 57.2106 102.973 36.5182 30.1192 18.6054 20.7288 64.4147 33.2836 29.3095 20.6014 18.8033 34.0894 13.0122 61.2525 12.4711 10.2369 9.50317 9.20104 13.8327 6.94761 10.3311 4.74137
threshold=0.43366744000000007 4.449749895000001 0.47257522000000002 -0.61559370248597534 0.39578977932636472 0.62228708479743833 -0.10443799617857139 0.45600298000000006 0.73793153921396548 0.20250773283398132 0.43616551000000009 2.3081167300000005 -0.78574730703237872 0.94365079365079374 -0.0052393178571427989 0.93138528138528154 0.092911719999999962 2.2152049500000008 1.7537757 0.93882783882783893 0.92738095238095253 0.64983754576201458 26.415970700000003 -0.00044957999999994995 0.26954000595957611 0.5163939593874618 0.70581670320594814 -0.10758319999999995 0.47911962000000002 0.053311953049322305
decision_type=2 2 2 2 2 2 2 2 2 2 2 2 2 2 2 2 2 2 2 2 2 2 2 2 2 2 2 2 2 2
left_child=2 -2 -1 23 10 -5 -6 8 9 11 -3 -8 13 14 17 -16 -15 18 19 -9 21 -13 -10 -4 -24 29 -27 28 -18 -14
right_child=1 4 3 5 6 -7 7 12 22 -11 -12 20 25 16 15 -17 27 -19 -20 -21 -22 -23 24 -25 -26 26 -28 -29 -30 -31
leaf_value=-0.058859882103649411 -0.05826764012078111 0.15583064738604824 0.10807756687365917 -0.058616125321711912 -0.055518562121536066 0.16077003234192203 -0.054431680603545689 -0.057965601685774054 0.19522012925976182 -0.059578910296716851 -0.058715131897653351 -0.058523010923735956 -0.026459865264159957 0.056261295294244909 -0.059092613134039955 0.10950459556324504 0.099283481235957372 0.19093267629365962 0.17882209621262898 0.1885866406213115 0.1714363658310338 0.18947365145821546 0.072589039716414533 0.1880354426290847 0.16360979185237801 0.094221444800201809 0.18539172776146223 0.18672639862772708 0.18976694988634571 0.19030424994079675
leaf_weight=123.97997638583183 11.880768090486525 2.6199766844511014 6.869663834571841 27.651622653007507 1.8694878369569767 5.2308901399373999 1.7877719402313221 3.3372248858213407 48.015321642160416 7.587048888206481 7.2230697274208069 3.7557629346847516 0.18894635140895744 4.9042768627405158 4.9628164321184141 6.7936002612113953 7.2008705437183362 32.597852751612663 4.8041658997535706 2.2563068866729736 25.158736765384674 6.9308883100748062 4.2762490957975414 14.032819345593451 12.984529748558996 7.429384410381318 11.81995502114296 149.22889207303524 6.9463561326265335 504.10460671782494
leaf_count=963 91 4 20 214 13 8 13 23 25 53 53 26 1 18 34 18 19 25 4 1 28 4 14 9 17 20 9 113 5 313
internal_value=0.140009 0.173555 -0.026156 0.0491062 0.176737 -0.0231834 0.178769 0.179293 0.151294 0.10737 -0.000112569 0.141229 0.183409 0.17063 0.142673 0.0380137 0.179607 0.17102 0.10689 0.0421754 0.151251 0.102119 0.181435 0.162635 0.141896 0.18881 0.151131 0.183242 0.145082 0.190208
internal_weight=1058.43 880.665 177.765 53.785 868.784 32.8825 858.941 857.072 110.496 45.2202 9.84305 37.6332 746.575 223.032 54.752 11.7564 168.28 42.9956 10.3977 5.59353 35.8454 10.6867 65.2761 20.9025 17.2608 523.543 19.2493 163.376 14.1472 504.294
internal_count=2158 944 1214 251 853 222 796 783 180 124 57 71 603 260 105 52 155 53 28 24 58 30 56 29 31 343 29 137 24 314
is_linear=0
shrinkage=0.05


Tree=3
num_leaves=31
num_cat=0
split_feature=21 10 21 13 26 8 26 5 21 17 10 25 26 13 17 10 20 20 8 7 2 13 9 13 13 5 5 25 1 7
split_gain=1862.76 283.155 98.2926 94.0748 57.6426 118.065 50.4156 40.2687 29.4656 22.7683 47.3709 44.3289 17.9894 62.7794 58.1872 26.0734 20.7702 42.5142 12.8423 23.5932 46.7707 10.1507 51.964 91.129 20.3163 42.0296 8.44121 6.89339 14.4942 10.916
threshold=0.13255984829307491 0.45119047619047625 0.98264020140952246 4.6257926500000002 0.5163939593874618 1.2452073000000003 -0.98182534576205283 -0.10443799617857139 0.52144929727884148 0.47335623500000007 0.64642857142857157 -0.46472317204376817 -0.91023613416931237 6.5475957800000009 0.45429444000000008 0.88214285714285723 0.24216905000000002 -2.0169109999999999 0.33565367000000007 0.21931211000000003 0.35208560000000011 29.100631350000004 21.500000000000004 30.792595890000005 30.132436700000003 0.053790775357142856 -0.091514324999999938 -0.12053668025532319 1.4212501000000002 0.29653239000000003
decision_type=2 2 2 2 2 2 2 2 2 2 2 2 2 2 2 2 2 2 2 2 2 2 2 2 2 2 2 2 2 2
left_child=6 2 -2 -3 7 -6 -1 -5 9 10 -9 -11 13 -12 -15 -16 17 -17 19 -10 -21 26 23 24 25 -23 -20 -28 29 -29
right_child=1 3 -4 4 5 -7 -8 8 18 11 12 -13 -14 14 15 16 -18 -19 21 20 -22 22 -24 -25 -26 -27 27 28 -30 -31
leaf_value=0.16590341492511385 -0.058272520956107493 -0.057053886747439254 0.14082420565641385 -0.055360308136579751 -0.059738674622666799 0.15000440447527935 -0.058355236999712262 -0.055040980746059343 0.17204045748595717 0.13677986557056052 0.17274886391378172 -0.059244145022851726 0.16004921687315443 -0.058737772377282962 -0.055419493212775311 0.15052838196743776 0.15098578251323905 -0.059189273085554633 -0.045403400905780697 -0.062627059011748643 0.15962758542267005 -0.061933796790161456 0.17009605499028996 -0.060131090915418642 0.16008559740747849 0.15866722797223609 0.16611087548515924 0.16576429755351921 0.17238780441544474 0.038522150932774349
leaf_weight=2.4514098167419425 21.991182386875156 5.2555940747261038 8.5162081718444806 2.174117110669612 9.5592796280980128 21.840793170034885 127.01619904488325 2.886844113469123 9.8504437357187289 8.638093985617159 37.033826418220997 4.1933885663747779 104.33906039595604 6.1840397939085952 2.1697745099663761 5.4170716404914865 19.115373022854328 4.1827705204486856 0.40093579888343711 4.2086478024721128 5.1288914382457733 3.5560125634074193 84.848445624113083 7.1884590834379187 23.40856559574604 5.1470397859811783 573.77640485018492 2.4526650905609149 9.8074340820312482 5.6905497834086418
leaf_count=1 175 41 11 16 69 24 1028 23 5 11 19 28 79 44 16 7 24 28 2 24 3 21 42 48 17 3 321 1 4 23
internal_value=0.124436 0.147563 -0.00225234 0.152287 0.153441 0.0860056 -0.0539456 0.155698 0.156203 0.138397 0.142999 0.0723689 0.14626 0.126588 0.0799948 0.108034 0.120708 0.0589682 0.160878 0.118038 0.0593203 0.162002 0.147934 0.0996501 0.135649 0.0682834 0.164917 0.165076 0.130972 0.0789989
internal_weight=1128.43 998.962 30.5074 968.455 963.199 31.4001 129.468 931.799 929.625 194.16 181.329 12.8315 178.442 74.1029 37.069 30.885 28.7152 9.59984 735.464 19.188 9.33754 716.277 124.149 39.3001 32.1116 8.70305 592.128 591.727 17.9506 8.14321
internal_count=2158 1129 186 943 902 93 1029 809 793 279 240 39 217 138 119 75 59 35 514 32 27 482 131 89 41 24 351 349 28 24
is_linear=0
shrinkage=0.05


Tree=4
num_leaves=31
num_cat=0
split_feature=0 15 26 26 18 0 13 11 26 25 25 5 13 20 25 14 14 10 14 24 5 22 18 18 5 16 8 12 11 0
split_gain=1505.38 238.483 155.52 153.153 122.75 76.145 67.5257 44.0525 40.8702 39.8929 25.6123 49.0415 12.8869 23.322 6.36803 11.6808 8.21951 5.88239 14.9011 23.6606 5.84105 10.0965 13.4127 11.2674 5.00898 4.04055 3.99575 12.5096 32.7182 26.0602
threshold=0.25741112500000002 0.45715297214285716 0.40966402954315179 -0.95297903005573337 0.43969976500000002 1.5581728000000001 4.7724960200000011 3.4817340350000001 -0.99635443704902682 -0.99635443704902682 0.060268340127661829 0.034230549999999957 6.1466117685000006 4.9328927500000015 -0.85421994577343319 0.43478030000000006 0.43366744000000007 0.80595238095238109 0.46373060000000005 -0.24999999999999994 -0.054489477142857096 0.10215853040892162 0.45644221500000004 0.4740603100000001 -0.082490974999999939 -0.031379549999999999 1.2452073000000003 2.1449816500000005 0.91737242000000008 2.6926700000000006
decision_type=2 2 2 2 2 2 2 2 2 2 2 2 2 2 2 2 2 2 2 2 2 2 2 2 2 2 2 2 2 2
left_child=3 2 4 12 6 8 -2 -4 -6 -5 14 -12 -1 -14 15 -3 -16 18 19 -8 21 22 -18 -24 -17 -26 27 -22 -29 -30
right_child=1 10 7 9 5 -7 17 -9 -10 -11 11 -13 13 -15 16 24 20 -19 -20 -21 26 -23 23 -25 25 -27 -28 28 29 -31
leaf_value=0.13472043328226233 -0.055622613157822166 -0.0488457508070404 -0.058641827777296311 0.12160924689533928 0.14590422461736471 0.11729330076725741 -0.055038385182673157 0.15535786827194586 -0.059851110404970875 -0.057998251134556401 -0.059412380803319446 0.12870882014469984 -0.055383450149209645 0.14549675899366379 -0.042160639236582698 -0.032985378023608125 0.16466529846784517 0.14785657724260237 0.15162626907658505 0.14881610297338657 0.14057989620440167 0.14313101030458458 0.075773414890102836 -0.063220935043395307 -0.0346434658063597 0.15028574775555653 0.14813327994186506 0.1433776955230231 -0.06381388447313209 0.12549319604432532
leaf_weight=11.576736010611059 4.5049829408526412 0.65839236974716087 23.158822394907478 3.0590473785996428 2.6370527744293204 12.732281863689421 2.8727473244071007 2.5758516862988463 19.937106616795067 129.56733246147633 4.3999895676970509 14.887545153498648 2.9292460680007926 2.6409034729003906 0.53380802273750205 0.29599140584468742 2.4626040458679217 67.684225670993328 7.8885552883148193 2.6095647811889631 196.54021894931793 11.047551289200781 4.021896556019783 2.1318750828504562 0.21762651205062766 443.98463059961796 183.90420942008495 13.760114192962648 4.4077913910150519 2.9382956027984619
leaf_count=15 38 4 184 5 1 21 23 2 144 1087 29 17 23 1 4 2 1 39 3 1 149 8 9 11 1 201 98 9 25 3
internal_value=0.112581 0.134063 0.0748399 -0.0355113 0.0986003 0.0199186 0.130949 -0.0365101 -0.0350573 -0.0537294 0.143845 0.0854505 0.104605 0.0398618 0.145129 0.149719 0.140237 0.141436 0.107705 0.0420277 0.14049 0.110998 0.0680559 0.0265806 0.150036 0.150176 0.141894 0.136533 0.0981249 0.0119023
internal_weight=1182.57 1032.79 146.601 149.773 120.867 35.3064 85.5601 25.7347 22.5742 132.626 886.193 19.2875 17.1469 5.57015 866.905 445.157 421.748 81.0551 13.3709 5.48231 421.215 19.6639 8.61638 6.15377 444.498 444.202 401.551 217.646 21.1062 7.34609
internal_count=2158 1027 456 1131 270 166 104 186 145 1092 571 46 39 24 525 208 317 66 27 24 313 29 21 20 204 202 284 186 37 28
is_linear=0
shrinkage=0.05


Tree=5
num_leaves=31
num_cat=0
split_feature=21 15 10 18 26 13 21 18 25 17 0 12 15 10 15 13 25 5 25 7 5 18 5 11 12 0 25 16 25 2
split_gain=1292.39 210.776 203.734 81.6082 41.3234 32.6445 28.1795 27.4712 36.5801 30.4731 26.8155 35.6491 24.3304 10.1689 30.25 7.327 42.7306 28.5904 6.47247 12.7973 10.7605 9.93905 6.29665 4.86794 5.36092 39.9924 38.8678 3.43239 3.2999 15.2427
threshold=0.13255984829307491 0.4587125335714286 0.63690476190476197 0.47262148000000004 -0.98182534576205283 4.6257926500000002 0.98264020140952246 0.44122187000000007 1.0000000180025095e-35 0.45802505000000004 0.42367449000000007 0.8457267907142858 0.45764751357142858 0.89595238095238106 0.45715297214285716 8.7187861350000002 -0.85421994577343319 0.089069125000000013 -0.85421994577343319 0.012908679000000001 -0.091514324999999938 0.23161438000000004 -0.082490974999999939 0.092911719999999962 2.1449816500000005 1.9884987000000003 -0.78574730703237861 -0.031379549999999999 0.060268340127661829 0.11736275000000002
decision_type=2 2 2 2 2 2 2 2 2 2 2 2 2 2 2 2 2 2 2 2 2 2 2 2 2 2 2 2 2 2
left_child=4 2 6 5 -1 -4 -2 15 9 13 11 -3 -11 14 -9 -7 -17 -18 22 -20 -21 -22 -12 -23 28 26 -26 -24 -25 -30
right_child=1 10 3 -5 -6 7 -8 8 -10 12 18 -13 -14 -15 -16 16 17 -19 19 20 21 23 27 24 25 -27 -28 -29 29 -31
leaf_value=0.13554537027297545 -0.057527020941459853 -0.057097671020192822 -0.054979911226787859 -0.059553465723000944 -0.057427814328853369 0.13303372084917459 0.085682829036411362 -0.056725204479861416 -0.057479112442985647 -0.059368181109502129 -0.039506736724755541 0.10782482332367778 0.11537476440403041 0.12998055925285684 0.13331756363538355 0.1374284125505327 -0.059616650188619627 0.13424028897532189 -0.055148767565758462 -0.052642839686942958 -0.050727517153093205 0.090891296013721645 -0.033756597292820642 0.1321236664549007 0.11595847299999636 0.13196861759250597 -0.064308663459458973 0.13601309636782308 0.036414377030854282 0.13960366782841674
leaf_weight=2.7346432209014884 29.321509696543217 4.2353153973817852 3.045527182519435 7.9074643403291693 116.79948242753744 65.708402335643768 3.7739687114953986 3.1807488650083524 4.5618564859032622 5.3017849922180158 0.42791394889354606 13.183376371860502 3.0520131886005402 23.267424069344997 5.6400082558393478 22.233377635478977 5.6200201958417875 2.7467992305755615 0.87785379588603873 0.74387727677822013 0.69453084468841453 10.889525026082991 0.21487441658973594 349.96806424856186 6.1278889179229719 54.433250710368156 5.6281031370162964 454.29491624236107 5.616285681724551 11.070607498288153
leaf_count=1 252 32 25 56 1028 42 9 24 34 37 3 20 3 18 3 9 39 1 5 4 4 19 1 199 5 32 32 195 20 6
internal_value=0.103241 0.120154 0.071396 0.0958339 -0.0528617 0.104415 -0.0408369 0.107923 0.0750815 0.0902625 0.12998 0.0673419 0.00449131 0.112353 0.0643603 0.123123 0.101315 0.00426922 0.131178 0.126495 0.126876 0.1272 0.13573 0.127501 0.128389 0.113902 0.0294206 0.135914 0.130959 0.105595
internal_weight=1223.3 1103.77 185.361 152.265 119.534 144.358 33.0955 141.312 45.0038 40.442 918.406 17.4187 8.3538 32.0882 8.82076 96.3086 30.6002 8.36682 900.988 446.05 445.172 444.428 454.938 443.734 432.844 66.1892 11.756 454.51 366.655 16.6869
internal_count=2158 1129 552 291 1029 235 261 210 119 85 577 52 40 45 27 91 49 40 525 326 321 317 199 313 294 69 37 196 225 26
is_linear=0
shrinkage=0.05


Tree=6
num_leaves=31
num_cat=0
split_feature=21 15 10 17 19 4 13 15 10 10 17 25 5 13 14 7 13 25 7 5 5 14 11 10 8 1 17 8 12 9
split_gain=1108.46 171.265 177.504 30.4214 47.9101 40.0982 27.1798 26.241 22.1841 19.1866 36.1682 17.6406 43.1227 8.62506 55.1187 6.07993 7.63511 5.48627 16.2099 9.24417 8.20301 6.27946 3.92846 3.79949 10.6781 17.1567 20.4138 5.17555 3.7155 17.5316
threshold=0.13255984829307491 0.4587125335714286 0.63690476190476197 0.45387688000000009 3.7602847785714295 0.31051771586087934 4.6257926500000002 0.45619160571428569 0.97637648809523825 0.80595238095238109 0.23282502500000005 0.060268340127661829 0.034230549999999957 8.7187861350000002 0.46090257500000004 1.1643385000000002 17.520923995000008 -0.85421994577343319 0.012908679000000001 -0.091514324999999938 -0.082490974999999939 0.43366744000000007 3.4034938050000005 0.87738095238095248 1.2452073000000003 2.2525635000000004 0.45591098000000002 1.7831163500000002 1.9947861928571433 24.500000000000004
decision_type=2 2 2 2 2 2 2 2 2 2 2 2 2 2 2 2 2 2 2 2 2 2 2 2 2 2 2 2 2 2
left_child=8 2 7 6 5 -5 -4 -2 -1 10 -8 17 -13 -11 -15 16 -16 20 -19 -20 -3 -21 -6 24 25 26 -23 -26 -25 -30
right_child=1 11 3 4 22 -7 9 -9 -10 13 -12 12 -14 14 15 -17 -18 18 19 21 -22 23 -24 28 27 -27 -28 -29 29 -31
leaf_value=-0.05700104662586733 -0.057144346181418865 -0.046668259919949627 -0.053793969938822239 -0.060573849398618151 0.074906185227208502 0.087024059418575619 0.12537309583646103 0.079340070799499271 0.05136004673586704 0.12444627633833101 -0.057356535513491291 -0.057929865859280151 0.11202426257831768 -0.057909045792937631 0.036480306375176901 0.12888566751555047 0.12122955850098389 -0.055785724489345913 -0.051569479518008512 -0.042026731893327056 0.12458146423419066 0.10054013711853663 0.12515542012477784 0.12192871811174891 0.12543681145757754 0.12586171524591019 -0.066906036772253305 0.089691797689571834 0.077796352646796366 0.12710621430395627
leaf_weight=109.93116796016693 28.116440057754517 0.61065898835658927 2.6464820578694335 12.198338672518732 7.9090778529644039 7.2467721849679938 5.705713748931883 3.907107174396514 4.8118290007114402 61.359685681760311 4.9500745236873627 4.7721611186862019 15.727613300085066 5.16637860238552 5.4167404845356923 25.77823106944561 5.846323549747467 1.2763647288084019 0.72398050129413505 0.52970266342162986 476.46225221455097 3.2461923062801343 11.529454842209814 302.17383261024952 37.807102784514427 5.6976108551025391 3.8767265230417252 17.548189759254456 30.839823387563229 48.806611135601997
leaf_count=1010 251 4 23 85 18 13 2 10 19 34 38 35 15 40 18 12 3 8 4 4 201 3 5 169 18 2 21 20 54 19
internal_value=0.0956775 0.110614 0.0668614 0.0889054 0.0501443 -0.00514767 0.101705 -0.0401415 -0.0523725 0.105395 0.0402784 0.119249 0.0721286 0.112002 0.0935406 0.114898 0.0815909 0.120274 0.115949 0.116458 0.124342 0.11675 0.105454 0.116957 0.104692 0.0619214 0.00904892 0.114378 0.119107 0.108197
internal_weight=1252.62 1137.88 187.777 155.753 38.8836 19.4451 116.87 32.0235 114.743 114.223 10.6558 950.099 20.4998 103.567 42.2077 37.0413 11.2631 929.599 452.526 451.25 477.073 450.526 19.4385 449.996 68.1758 12.8205 7.12292 55.3553 381.82 79.6464
internal_count=2158 1129 552 291 121 98 170 261 1029 147 40 577 50 107 73 33 21 527 322 314 205 310 23 306 64 26 24 38 242 73
is_linear=0
shrinkage=0.05


Tree=7
num_leaves=31
num_cat=0
split_feature=21 15 10 18 26 26 13 21 17 8 1 0 2 13 11 25 7 5 18 5 11 5 2 7 11 11 18 7 11 16
split_gain=963.859 142.525 156.128 64.6099 50.1328 36.3967 26.6352 24.3632 22.0225 22.2492 43.2469 19.7729 26.9878 17.0054 7.64866 5.0721 9.9988 8.0457 7.89297 4.66769 4.53976 4.31566 6.1894 8.52255 4.17679 8.41095 3.07065 8.86893 24.9577 2.89168
threshold=0.13255984829307491 0.4587125335714286 0.63690476190476197 0.47262148000000004 0.40966402954315179 -0.98182534576205283 4.6257926500000002 0.98264020140952246 0.45387688000000009 0.85298398500000017 0.33565367000000007 0.42367449000000007 -0.24450476349999992 16.107682335000003 0.81664304000000021 -0.85421994577343319 0.012908679000000001 -0.091514324999999938 0.23161438000000004 -0.082490974999999939 0.092911719999999962 -0.054489477142857096 0.12714208499999999 1.4114694500000002 1.4914725000000002 3.4034938050000005 0.44122187000000007 1.1643385000000002 3.4230527100000008 -0.031379549999999999
decision_type=2 2 2 2 2 2 2 2 2 2 2 2 2 2 2 2 2 2 2 2 2 2 2 2 2 2 2 2 2 2
left_child=5 2 7 4 6 -1 -4 -2 14 10 -10 12 -3 -14 -8 19 -17 -18 -19 -13 -20 22 23 -22 -11 -26 -16 28 -28 -21
right_child=1 11 3 -5 -6 -7 8 -9 9 24 -12 15 13 -15 26 16 17 18 20 29 21 -23 -24 -25 25 -27 27 -29 -30 -31
leaf_value=0.12063956438513004 -0.056666879599824797 0.11901903492691535 -0.053863199571665833 -0.058793932939895502 -0.058316582865319322 -0.056622457759673839 -0.046187886062237921 0.073834443463255947 0.11652789298447737 0.12425330720878498 -0.060805339491861315 -0.03782493145635013 -0.058158739260572405 0.079123252362148511 0.11648428332852456 -0.054055728614094481 -0.050540569202391972 -0.050657203531397056 0.074705479786975879 -0.036099586061002074 0.12276586558379687 0.11019705375527927 0.11276564051700209 0.018315848463973768 0.029865824073499993 0.11677038939049307 -0.057181102882231973 0.11491803314374456 0.11269358675796506 0.11565954243521621
leaf_weight=2.8676385879516593 26.97863727062941 8.9329541251063365 2.8132727444171897 7.5351563543081275 5.3723222687840453 107.33921759575605 0.68390582501888175 4.002008229494094 5.8418374061584464 8.6085629463195819 8.0376702919602376 0.40400809049606223 5.4835535138845426 3.6813416332006454 80.383503451943398 0.85913413763046165 0.70432014763355155 0.68554477393627067 11.666554644703863 0.22191755473613639 2.8497769832611102 440.86489051580429 9.088627025485037 6.355974406003952 5.7814026772975904 5.83831787109375 3.2350315302610415 18.157131068408489 5.9786384850740433 481.42442202568054
leaf_count=1 252 6 25 56 42 1028 5 9 2 3 56 3 41 5 39 5 4 4 19 1 1 269 5 19 21 2 25 12 3 195
internal_value=0.0893919 0.102791 0.0629712 0.0830668 0.0902259 -0.0518595 0.0957866 -0.0394648 0.0988108 0.063106 0.0137756 0.110521 0.0576746 -0.00221701 0.109927 0.111511 0.107489 0.107805 0.108063 0.115425 0.108316 0.109142 0.0829895 0.052159 0.0964735 0.0745814 0.111006 0.0943692 0.0525381 0.115572
internal_weight=1272.68 1162.47 189.247 158.267 150.732 110.207 145.359 30.9806 142.546 34.1078 13.8795 973.223 18.0978 9.1649 108.438 955.125 473.075 472.216 471.511 482.05 470.826 459.159 18.2944 9.20575 20.2283 11.6197 107.754 27.3708 9.21367 481.646
internal_count=2158 1129 552 291 235 1029 193 261 168 84 58 577 52 46 84 525 326 321 317 199 313 294 25 20 26 23 79 40 28 196
is_linear=0
shrinkage=0.05


Tree=8
num_leaves=31
num_cat=0
split_feature=21 15 26 13 26 13 18 21 14 15 25 5 7 12 25 7 5 5 5 2 8 19 11 12 11 5 5 8 1 13
split_gain=847.095 120.549 130.195 50.7401 33.5746 29.0629 24.7291 56.0463 34.5247 23.8492 12.8515 33.4238 12.5157 35.412 4.56456 12.6034 7.12316 6.53324 3.10458 4.96979 3.01604 10.3634 9.93071 7.77239 24.7494 18.4148 5.21354 10.4543 16.5425 18.2891
threshold=0.13255984829307491 0.45945206142857148 0.40966402954315179 29.628756750000004 -0.98182534576205283 4.6257926500000002 0.44122187000000007 0.70802935717250415 0.46044486500000009 0.45619160571428569 0.060268340127661829 0.034230549999999957 2.1841016000000004 0.32657109357142861 -0.85421994577343319 0.012908679000000001 -0.091514324999999938 -0.082490974999999939 -0.054489477142857096 0.12714208499999999 1.2452073000000003 1.1668486085714289 0.092911719999999962 2.1449816500000005 0.91737242000000008 0.12225197071428572 0.0055887514285713506 0.8198093500000001 2.2525635000000004 24.567529300000007
decision_type=2 2 2 2 2 2 2 2 2 2 2 2 2 2 2 2 2 2 2 2 2 2 2 2 2 2 2 2 2 2
left_child=4 2 3 5 -1 -2 -7 8 -8 -4 14 -12 13 -10 17 -16 -17 -3 19 -18 22 -22 -20 26 -25 -26 27 -24 29 -29
right_child=1 10 9 -5 -6 6 7 -9 12 -11 11 -13 -14 -15 15 16 18 -19 20 -21 21 -23 23 24 25 -27 -28 28 -30 -31
leaf_value=0.11234681624487736 -0.05412822550451632 -0.046015291545626953 -0.056972391807682446 -0.059870261191919717 -0.056248422645923925 0.10098755850413484 -0.058330683981915057 0.10384295777333091 0.1095207936022187 0.07445437616623167 -0.057595783079414077 0.096153918429152038 0.11201179963544557 -0.059779725270166818 -0.054252339961713983 -0.049551626493407074 0.050641276862224097 0.10831244760538546 0.030467186298154786 0.1050947004965201 -0.069697212086691607 0.10799944219110279 0.10097190999649686 0.10774255593138003 -0.065007442464283222 0.086396753928653938 0.10711806862082779 -0.074312503273938124 0.10965472335256382 0.081077432917099818
leaf_weight=2.9309413433074942 3.702190361917018 0.59042370319366355 24.264280676841739 6.3956254944205275 102.76662852615118 101.57903739064932 11.293165780603887 34.593364894390106 5.9289064407348651 3.902970813214778 4.3728539496660259 16.534768715500832 5.9003970623016349 6.2075391486287117 1.2112427651882161 0.6849474310874929 9.1789497733116168 488.62716691195965 5.6520372629165641 9.266698554158209 0.72642432153224845 197.62182338535786 38.262564651668072 15.32865619659424 4.6174169331788999 3.3967884629964828 165.47728422284126 3.9605749249458295 5.9275188446044922 3.4460467100143433
leaf_count=1 35 4 228 47 1028 82 94 24 2 8 33 15 2 45 8 4 19 195 15 5 3 89 32 8 25 3 81 18 2 3
internal_value=0.0841036 0.0962649 0.061177 0.0771886 -0.0514243 0.082431 0.0855468 0.0608127 0.00971022 -0.0383855 0.103587 0.0636379 0.0526742 0.0227376 0.10445 0.100568 0.100995 0.108107 0.101239 0.0786863 0.102146 0.107289 0.0979392 0.0994913 0.0707152 0 0.102529 0.0875344 0.0481385 -0.00123186
internal_weight=1284.35 1178.65 203.767 175.6 105.698 169.205 165.502 63.9234 29.33 28.1673 974.884 20.9076 18.0368 12.1364 953.977 464.759 463.548 489.218 462.863 18.4456 444.417 198.348 246.069 240.417 23.3429 8.01421 217.074 51.5967 13.3341 7.40662
internal_count=2158 1129 567 331 1029 284 249 167 143 236 562 48 49 47 514 315 307 199 303 24 279 92 187 172 36 28 136 55 23 21
is_linear=0
shrinkage=0.05


Tree=9
num_leaves=31
num_cat=0
split_feature=0 26 15 10 26 11 25 18 15 19 8 3 20 12 18 19 23 14 3 18 11 26 0 25 5 10 11 14 8 16
split_gain=717.282 101.434 92.6364 90.4201 39.0807 31.4861 27.8867 22.5808 38.3175 22.6818 13.1109 15.6853 10.889 18.2136 6.10516 20.2365 5.71131 29.8116 4.89136 5.77427 3.8351 12.746 26.2495 3.19666 6.68579 16.5522 23.3646 3.73455 3.38967 2.56606
threshold=0.25741112500000002 -0.95297903005573337 0.45945206142857148 0.63690476190476197 0.40966402954315179 3.4817340350000001 -0.99635443704902682 0.43969976500000002 0.45219798285714286 1.4598189000000004 1.3038885500000001 -0.0097817599999999484 -1.0782137699999994 0.31765259214285718 0.40673713500000003 3.7952414385714284 1.0000000180025095e-35 0.46188089000000004 0.10758324500000001 0.47083714500000001 2.4356862500000003 -0.78574730703237872 0.31609244500000006 -0.85421994577343319 -0.054489477142857096 0.9240896358543419 3.1443198250000006 0.43478030000000006 0.33565367000000007 -0.031379549999999999
decision_type=2 2 2 2 2 2 2 2 2 2 2 2 2 2 2 2 2 2 2 2 2 2 2 2 2 2 2 2 2 2
left_child=1 14 3 5 7 -2 -3 20 9 -9 11 -10 -13 -14 -1 -16 23 -18 19 -19 -5 22 -22 27 25 26 -25 -4 -29 -30
right_child=2 6 16 4 -6 -7 -8 8 10 -11 -12 12 13 -15 15 -17 17 18 -20 -21 21 -23 -24 24 -26 -27 -28 28 29 -31
leaf_value=0.10283229680716979 -0.05668066205857708 0.085409323790724259 -0.042678979050208017 0.1045793362742809 -0.057474061843483464 0.11505858609804637 -0.056150124696700089 0.091979004051603447 -0.063718547758678454 -0.057698494949184942 0.095395370900577009 0.093680224132755147 0.10041879355711621 -0.063093601408249295 -0.057025171712199646 0.095510685237399653 -0.062449027906485578 0.025606951557672265 0.10490228802831769 0.096237675288708913 0.098368136582795376 0.095079967030594459 -0.059891480698010938 -0.069343437214087283 0.09672436878647267 0.10757463321115435 0.10961351282420613 -0.05373941835046795 -0.038007431642192627 0.10233594687277719
leaf_weight=9.3651200383901614 19.809745840728286 3.4845426976680747 0.34648952633142371 42.371998570859432 5.4760402739047995 2.971853367984294 105.24070212244987 3.2398433089256278 2.8873588144779232 10.226985044777392 29.052819907665253 9.8069456517696416 2.9919972419738743 3.6743648052215576 3.1689510196447355 6.3001272976398468 3.3322389647364608 5.8010873124003393 24.396275736391544 6.4321205466985703 6.1742459461092931 41.45829900354147 4.3730861693620682 4.2280247211456325 431.07080710679293 8.9340541362762433 3.0473335385322571 0.24940134584903617 0.22708901762962241 488.71439717710018
leaf_count=7 194 5 2 19 46 2 1087 3 18 84 25 10 1 25 27 5 20 18 12 5 4 35 30 21 256 3 2 1 1 190
internal_value=0.0795903 -0.0329044 0.0919531 0.0593357 0.0724776 -0.0336539 -0.051493 0.0770976 0.0532827 -0.0209081 0.0740234 0.0413702 0.0603646 0.00995459 0.0738446 0.0438776 0.0981028 0.0783821 0.0914649 0.0636286 0.0925864 0.0825371 0.0323354 0.0989302 0.0955036 0.0623386 0.00540586 0.102031 0.102152 0.102253
internal_weight=1288.85 127.559 1161.29 184.516 161.734 22.7816 108.725 156.258 61.8803 13.4668 48.4135 19.3607 16.4733 6.66636 18.8342 9.46908 976.779 39.9617 36.6295 12.2332 94.3776 52.0056 10.5473 936.818 447.28 16.2094 7.27536 489.537 489.191 488.941
internal_count=2158 1131 1027 496 300 196 1092 254 166 87 79 54 36 26 39 32 531 55 35 23 88 69 34 476 282 26 23 194 192 191
is_linear=0
shrinkage=0.05


Tree=10
num_leaves=31
num_cat=0
split_feature=21 10 14 26 26 7 26 1 5 7 4 21 24 21 5 25 0 6 0 11 19 2 26 7 13 13 7 0 21 13
split_gain=672.713 96.5476 36.9576 29.01 22.8783 20.7345 18.7132 19.2002 19.0352 18.013 17.8057 15.9037 8.42675 38.9164 6.71152 6.59186 8.63137 12.3651 24.9291 8.4994 26.79 5.87871 4.8958 23.1557 38.1823 4.77138 14.7825 18.8084 4.35454 2.98684
threshold=0.13255984829307491 0.38214285714285717 0.45018913500000007 -0.98182534576205283 0.78574730703237883 -0.075113314999999986 -0.95297903005573337 0.33565367000000007 -0.075446758678571382 0.12774501000000002 0.09944084816407657 0.98264020140952246 -0.5 0.57436020683978206 -0.10443799617857139 -0.85421994577343319 1.2745479500000003 1.1318719000000002 0.86959952000000007 1.5403743700000001 2.3590595599999999 0.058681299999999957 -0.91023613416931237 0.3943338400000001 18.978169530000002 7.0512768800000005 0.091148902500000017 1.1571853000000003 0.91965830917747049 16.177878415000002
decision_type=2 2 2 2 2 2 2 2 2 2 2 2 2 2 2 2 2 2 2 2 2 2 2 2 2 2 2 2 2 2
left_child=3 11 4 -1 6 -4 7 -3 -8 -10 -11 -2 -12 -14 -7 -16 17 19 -19 20 -17 -20 23 25 -25 -21 -27 -28 29 -15
right_child=1 2 5 -5 -6 14 8 -9 9 10 12 -13 13 28 15 16 -18 18 21 22 -22 -23 -24 24 -26 26 27 -29 -30 -31
leaf_value=0.099741336316316154 -0.055452367482879794 0.096103584943122933 -0.056069697858659839 -0.05558551000931599 -0.053361752126380606 -0.045905146010585964 -0.056247072015950708 -0.057362162897348939 -0.053197134627616709 -0.060822093377311676 0.093953270720390877 0.052956856494467464 -0.060941301548355677 0.088494729266165376 0.095370004328784716 -0.066553642709960378 0.092917227396361379 -0.069604098478837334 0.038275925223281194 0.098392632430432336 0.08097635260641603 0.096108077053757845 0.092566250770081349 -0.067813900066165375 0.1046620513592609 0.10514186358560924 -0.065643430719035376 0.099461352776703246 0.09321241184785152 0.02533284096353184
leaf_weight=2.9938485622405997 13.597717657685282 2.9997208118438703 2.2961257323622695 94.313135430216789 4.1131022945046416 0.78936827182769675 2.7457117065787306 5.8353072330355644 2.5741434171795836 2.1477510780096045 56.439817115664475 4.3619004040956488 5.3652040213346543 3.1467778384685499 519.99822120368481 3.7995935231447246 296.38055185973644 3.8879849314689663 9.3881857991218585 39.903944335877895 14.236069135367869 9.3390550613403303 127.29747716337442 6.6909970194101316 5.9691455364227295 9.123207822442053 3.7848107814788809 2.9945487976074219 25.598764836788177 5.4992983639240265
leaf_count=1 143 1 20 1028 44 7 22 48 25 15 36 8 47 2 242 22 162 21 20 22 21 5 86 41 2 4 24 1 18 20
internal_value=0.0756687 0.0860034 0.0877671 -0.0506577 0.0608004 0.0907308 0.065068 -0.00420455 0.0710269 0.0745966 0.0780481 -0.0286984 0.0812654 0.0628696 0.0910608 0.0911726 0.0870494 0.079636 0.0437045 0.0833912 0.0494247 0.067739 0.0864681 0.0749388 0.0132981 0.0887842 0.0638973 0.00694479 0.0825339 0.0496416
internal_weight=1287.61 1190.3 1172.34 97.307 116.466 1055.88 112.352 8.83503 103.517 100.772 98.1976 17.9596 96.0499 39.61 1053.58 1052.79 532.796 236.415 22.6152 213.8 18.0357 18.7272 195.764 68.4667 12.6601 55.8065 15.9026 6.77936 34.2448 8.64608
internal_count=2158 1129 978 1029 278 700 234 49 185 163 138 151 123 87 680 673 431 269 46 223 43 25 180 94 43 51 29 25 40 22
is_linear=0
shrinkage=0.05


Tree=11
num_leaves=31
num_cat=0
split_feature=21 10 15 10 26 26 18 20 14 7 21 8 7 21 25 2 4 25 7 6 9 9 21 15 19 14 10 15 26 8
split_gain=604.031 86.0648 51.5941 67.6404 33.4775 27.0717 21.9573 30.5721 24.6716 15.6462 15.1186 15.8825 16.42 14.854 7.89234 15.3961 20.7405 4.39322 10.1495 4.18449 30.8328 20.5302 3.71126 5.92414 9.22661 5.22978 4.74792 17.0032 19.9308 4.2655
threshold=0.13255984829307491 0.38214285714285717 0.45945206142857148 0.63690476190476197 0.40966402954315179 -0.98182534576205283 0.44122187000000007 1.3169306500000002 0.43969976500000002 -0.075113314999999986 0.64140834476450637 -0.18269419499999998 2.1841016000000004 0.98264020140952246 0.060268340127661829 0.11736275000000002 0.33232624130748073 -0.85421994577343319 0.012908679000000001 1.9884987000000003 36.500000000000007 33.500000000000007 0.87684481116385993 0.47254942214285717 2.2144093828571436 0.43862433000000006 0.87738095238095248 0.46574312785714284 -0.91023613416931237 0.42367449000000007
decision_type=2 2 2 2 2 2 2 2 2 2 2 2 2 2 2 2 2 2 2 2 2 2 2 2 2 2 2 2 2 2
left_child=5 13 3 -3 6 -1 9 8 -8 -5 11 -10 -13 -2 17 16 -16 -4 -19 22 21 -21 23 25 -25 -20 27 28 -27 -24
right_child=1 2 14 4 -6 -7 7 -9 10 -11 -12 12 -14 -15 15 -17 -18 18 19 20 -22 -23 29 24 -26 26 -28 -29 -30 -31
leaf_value=0.094722132719458285 -0.055090312035546346 -0.055985611872626365 0.092224832152648206 -0.054831010840747624 -0.057496557540306442 -0.055272779954860102 -0.056022518752769007 -0.061481704312525878 0.088953930415889476 0.087972632993465694 0.084218306680172592 -0.057327486942048561 0.075337119020384646 0.049795333166901906 -0.061208370084161981 0.090135932666569774 0.10350308229522642 -0.054637292903456681 -0.05943614357973892 -0.065853004120320552 0.09256748403584987 0.092105884816924166 0.054106353701707334 0.0035510321499757527 0.08175503516027674 0.093608820811601587 0.088524556244183844 0.082815350219951955 -0.074234135076229599 0.094669175542774986
leaf_weight=2.9999377727508536 13.018046274781229 11.823935985565184 492.70588155835867 1.8486462011933316 5.123174622654914 90.20872075855732 4.2451973259448996 5.6999115049839011 6.1762629300355902 101.41596409678459 39.427030183374882 6.7310886308550852 3.4278674572706223 4.4118949025869361 4.9312991052866009 12.685461707413195 2.9809749126434326 1.1917245090007771 0.52157877385616203 5.9882124215364438 30.499109536409378 2.9968218803405762 7.8290171176195136 6.273219212889674 9.9490559250116331 2.9992039203643799 196.45307052135468 36.339104861021042 4.0165808051824561 167.01996314525604
leaf_count=1 143 120 196 17 44 1028 36 42 4 69 32 56 4 8 34 9 1 8 3 32 13 1 10 16 7 1 112 28 19 64
internal_value=0.0721969 0.0818092 0.0834516 0.0591458 0.0670215 -0.0502952 0.0708582 0.0479635 0.0585275 0.0853172 0.0674224 0.0263135 -0.011778 -0.0281237 0.088026 0.0562072 0.000740462 0.0886943 0.08498 0.0853555 0.0686333 -0.0121839 0.0868582 0.0826772 0.0520266 0.0847029 0.0850618 0.0690886 -0.0014725 0.0929135
internal_weight=1281.94 1188.73 1171.3 185.919 174.095 93.2087 168.972 65.7074 60.0074 103.265 55.7622 16.3352 10.159 17.4299 985.38 20.5977 7.91227 964.783 472.077 470.885 39.4841 8.98503 431.401 256.552 16.2223 240.33 239.808 43.3549 7.01578 174.849
internal_count=2158 1129 978 424 304 1029 260 174 132 86 96 64 60 151 554 44 35 510 314 306 46 33 260 186 23 163 160 48 20 74
is_linear=0
shrinkage=0.05


Tree=12
num_leaves=31
num_cat=0
split_feature=21 10 15 10 26 26 18 21 17 21 15 0 12 12 7 6 7 25 7 5 17 24 19 17 8 13 0 5 6 9
split_gain=545.721 77.2899 46.1384 61.4606 30.3607 25.3273 19.4152 24.9731 20.9832 13.8952 10.8637 10.1044 22.6337 7.1189 9.96529 4.86607 18.3347 3.84745 6.81327 5.05946 3.77679 10.0499 12.7929 3.28765 5.43119 5.09774 11.9595 3.2779 3.15603 28.538
threshold=0.13255984829307491 0.38214285714285717 0.45945206142857148 0.63690476190476197 0.40966402954315179 -0.98182534576205283 0.44122187000000007 0.70802935717250415 0.45123581500000004 0.98264020140952246 0.44213214500000003 0.42367449000000007 0.8457267907142858 0.30701119478571431 -0.075113314999999986 0.06180823400000001 2.1841016000000004 -0.85421994577343319 0.012908679000000001 -0.091514324999999938 0.45907742000000001 -0.68301270189221952 1.1461895985714288 0.45482589500000009 0.98114365000000003 4.9045302000000008 0.31609244500000006 -0.082490974999999939 1.9884987000000003 36.500000000000007
decision_type=2 2 2 2 2 2 2 2 2 2 2 2 2 2 2 2 2 2 2 2 2 2 2 2 2 2 2 2 2 2
left_child=5 9 3 -3 6 -1 13 8 10 -2 -8 12 -4 -5 -15 -12 -17 27 -19 -20 -9 -22 -23 -16 25 -25 -27 -13 -21 -30
right_child=1 2 11 4 -6 -7 7 20 -10 -11 15 17 -14 14 23 16 -18 18 19 28 21 22 -24 24 -26 26 -28 -29 29 -31
leaf_value=0.090376735898549887 -0.054745976797722876 -0.055587152120084096 -0.057054561598692259 -0.046339528769385102 -0.056921024043117364 -0.054978033343795529 -0.053752002983643847 0.083041865199181386 -0.058019637342460961 0.046908378991162847 0.089574264745227006 -0.038115119989044793 0.076229596534216418 -0.053509310632656973 0.088783779154542289 -0.058048174157526104 0.081341616060309013 -0.053502424386596463 -0.047662510049411064 0.083067473136874792 0.094068734342252519 0.074686233174581076 -0.062321535800161178 0.087780077224113517 0.091274202838912494 0.073502769723701261 -0.062440385094860197 0.08826791038846199 -0.011833232634646182 0.090009031608831558
leaf_weight=2.9919278621673575 12.459678851068022 11.326558023691176 4.01452708244324 0.97339688241481681 4.9223272353410712 86.258106574416161 2.634165942668921 25.842479757964611 8.0860794112086278 4.4542612284421912 5.9535081386566153 0.40703520178794761 13.732801862061022 1.2214356884360302 82.643791325390339 3.5677744969725591 6.4261251986026764 0.82691524922847648 0.64713685214519401 438.98216762393713 5.9849832057952863 3.2350964099168777 3.3738527968525887 2.9797272682189959 8.9458007812499982 3.283361554145813 2.9852364063262939 482.95521792769432 8.778351888060568 30.024589359760284
leaf_count=1 143 120 32 10 44 1028 24 19 68 8 2 3 15 11 40 30 5 5 4 261 2 2 22 1 3 3 18 190 33 11
internal_value=0.069185 0.0781911 0.0797333 0.0566407 0.0640427 -0.0499537 0.0676454 0.0459721 0.00852732 -0.0275632 0.0379095 0.0840652 0.0456492 0.081234 0.0825439 0.0536022 0.0310027 0.0847635 0.0813266 0.0815813 0.0717324 0.0476603 0.00411241 0.0842928 0.063246 0.0349134 0.00801481 0.0881433 0.0817767 0.0668696
internal_weight=1270.92 1181.67 1164.75 184.386 173.059 89.25 168.137 65.1041 26.6677 16.9139 18.5816 980.369 17.7473 103.033 102.059 15.9474 9.9939 962.621 479.259 478.432 38.4364 12.5939 6.60895 100.838 18.1941 9.24833 6.2686 483.362 477.785 38.8029
internal_count=2158 1129 978 424 304 1029 260 174 129 151 61 554 47 86 76 37 35 507 314 309 45 26 24 65 25 22 21 193 305 44
is_linear=0
shrinkage=0.05


Tree=13
num_leaves=31
num_cat=0
split_feature=21 15 26 13 26 13 15 18 21 14 0 2 6 20 12 26 5 15 13 11 18 21 8 21 8 6 8 13 8 2
split_gain=495.14 65.5808 77.823 36.5713 23.7456 18.2442 18.1218 13.8879 33.1955 24.2163 9.30981 22.4558 16.9162 9.0645 14.4995 2.78111 5.46461 3.20798 12.9252 4.06921 4.371 6.9862 3.0868 2.53341 23.573 21.4383 4.67889 7.62223 10.9376 15.3877
threshold=0.13255984829307491 0.45945206142857148 0.40966402954315179 29.628756750000004 -0.98182534576205283 4.6257926500000002 0.45619160571428569 0.44122187000000007 0.70802935717250415 0.46044486500000009 0.45301515000000009 -0.20538469999999978 0.21931211000000003 -1.0782137699999994 0.32657109357142861 -0.51639395938746235 -0.070556874999999936 0.46342820428571424 14.968304785000003 1.7848768500000003 0.44214387000000005 1.026535185180981 0.33565367000000007 0.65481263749354146 0.74485740000000011 0.70729822500000006 0.47257522000000002 15.085661835000002 0.42367449000000007 0.29340432500000013
decision_type=2 2 2 2 2 2 2 2 2 2 2 2 2 2 2 2 2 2 2 2 2 2 2 2 2 2 2 2 2 2
left_child=4 2 3 5 -1 -2 -4 -7 9 -9 11 -3 -13 -11 -15 16 -12 19 -19 -17 -21 -22 -20 24 -18 -26 27 -25 29 -29
right_child=1 10 6 -5 -6 7 -8 8 -10 13 15 12 -14 14 -16 17 23 18 22 20 21 -23 -24 26 25 -27 -28 28 -30 -31
leaf_value=0.086578393096834155 -0.052423902790291466 0.085866964517347058 -0.055429916131704698 -0.059875668354249928 -0.054700015632463031 0.078434638223680478 0.058789289392770797 -0.056767776366449842 0.079929391357900989 0.07222039489141488 0.024281371394723254 0.07860195576168344 -0.061263522572178958 0.083484997714888765 -0.057814024494171883 0.082341130881575214 0.08101099085194835 -0.086151703877023922 -0.061741560893831066 0.086856235946219634 -0.0037724029904719174 0.069268055474418264 0.085822772557090532 0.084853393301775965 -0.088893642644809659 0.045728678843259943 0.083191513149929217 -0.072110698850500421 0.080976030073421024 0.071874664301664268
leaf_weight=2.9718875885009757 3.1479284539818755 15.485302597284319 19.890933603048328 5.9962924867868415 82.458223700523376 101.71896584331989 4.0770034939050666 9.6729315891861933 35.194110050797462 10.004158303141596 5.0716223791241637 3.2196812406182271 6.0538387298583984 2.9444100856780997 4.3967016041278839 30.140556663274765 107.7959311529994 0.99230456352233787 0.24903875589370628 5.909204006195071 6.2274628877639753 6.5068648234009743 452.40516768395901 15.586624443531038 3.529945686459544 15.60187593102455 285.6239155381918 4.1204456239938718 6.1654983162879944 3.1994006633758545
leaf_count=1 35 9 228 47 1028 82 8 94 24 12 13 3 44 1 36 13 68 4 1 2 16 5 174 8 15 21 141 20 3 2
internal_value=0.0664954 0.0749758 0.048561 0.0602626 -0.0496314 0.0646374 -0.0356297 0.0669464 0.0479868 0.00605235 0.0803095 0.0491652 -0.0118496 0.0414964 -0.000108834 0.0811114 0.0779388 0.083906 0.0853111 0.0705905 0.0509889 0.0334084 0.0857169 0.0785381 0.0719221 0.0202969 0.081167 0.060888 0.0323996 -0.00838238
internal_weight=1256.36 1170.93 197.043 173.075 85.4301 167.079 23.9679 163.931 62.2123 27.0182 973.885 24.7588 9.27352 17.3453 7.34111 949.126 446.695 502.431 453.647 48.7841 18.6435 12.7343 452.654 441.624 126.928 19.1318 314.696 29.072 13.4853 7.31985
internal_count=2158 1129 567 331 1029 284 236 249 167 143 562 56 47 49 37 506 291 215 179 36 23 21 175 278 104 36 174 33 25 22
is_linear=0
shrinkage=0.05


Tree=14
num_leaves=31
num_cat=0
split_feature=21 10 26 21 10 7 17 17 25 13 6 12 19 26 8 18 8 7 19 4 18 13 8 5 2 9 18 17 17 5
split_gain=450.808 63.8874 22.3026 15.8424 20.3629 18.8575 12.7245 9.05589 19.9111 7.8848 7.80201 16.0296 13.4068 8.21126 24.6117 7.35513 7.33405 10.508 26.8422 6.74262 4.74006 4.60969 29.9117 23.9513 18.3804 5.36227 7.32448 7.27871 4.50319 14.7552
threshold=0.13255984829307491 0.38214285714285717 -0.98182534576205283 0.52773568328006981 0.48214285714285715 -0.075113314999999986 0.46318169000000003 0.47335623500000007 -0.46472317204376817 4.6257926500000002 0.35521373000000006 0.57736211214285726 1.3232801907142859 -0.91023613416931237 0.47257522000000002 0.24143755500000005 0.33565367000000007 0.18879067000000002 0.88539488142857159 0.09944084816407657 0.23161438000000004 29.100631350000004 1.3625699500000001 -0.070556874999999936 0.61126074000000008 24.500000000000004 0.45696532000000006 0.45907742000000001 0.47715055500000009 -0.039819139642857097
decision_type=2 2 2 2 2 2 2 2 2 2 2 2 2 2 2 2 2 2 2 2 2 2 2 2 2 2 2 2 2 2
left_child=2 6 -1 4 -3 -6 -2 9 -9 -7 15 -12 -13 14 -14 -11 17 -5 -19 -17 -15 -18 24 -24 -23 26 -25 -28 29 -29
right_child=1 3 -4 16 5 7 -8 8 -10 10 11 12 13 20 -16 19 21 18 -20 -21 -22 22 23 25 -26 -27 27 28 -30 -31
leaf_value=0.083230127457777456 -0.055789194155147374 -0.052217984031567535 -0.054437572305769802 0.079242631980728673 -0.055015340039428554 -0.050029621112976798 0.040570770164121826 0.064314317996511217 -0.063704282294157533 -0.053667922679719642 -0.060747271015151566 -0.071781550240164541 0.063427748717100357 -0.055860648627669221 -0.064621232035806567 -0.050979344071665759 0.079146623772379965 0.084833006385826581 -0.069803079705113708 0.079867533348967984 0.072591677986596589 -0.065882655815531599 -0.059303267948601135 0.083332436127412229 0.083164001526869147 0.085197257336671064 0.068125999281364549 0.062203423411300557 0.058030135229133077 -0.078546081383003757
leaf_weight=2.9416351318359366 11.246063575148584 3.7146510630846015 78.805735237896442 12.657013081014158 3.1723269000649443 1.2921070381999005 4.7647464200854293 10.073622323572634 4.2061166986823073 0.94702348113059898 2.6269347369670859 1.7365556955337513 17.681520491838459 0.61207135021686454 4.6336545050144187 0.88294145464897056 717.56977958977222 5.8684220314025861 5.1810638830065727 117.60017375648022 80.499563574790955 6.3046644702553731 3.1496187821030608 23.68246391415596 2.940901517868042 90.656217008829117 12.959653533995153 3.4837845563888523 3.4559368193149567 3.7554226666688928
leaf_count=1 135 46 1028 10 33 13 16 12 28 6 18 11 31 3 31 7 383 2 27 87 84 40 22 10 1 32 12 4 4 21
internal_value=0.0640662 0.0720834 -0.0493269 0.0734761 0.062158 0.0639262 -0.0267287 0.0655229 0.0260778 0.0679535 0.0686681 0.0585831 0.0616663 0.0640223 0.0364462 0.0776718 0.0766324 0.0482467 0.0119005 0.0788081 0.0714932 0.0773963 0.0689647 0.074676 -0.0175551 0.0778109 0.0634101 0.0429871 0.0117133 -0.0102061
internal_weight=1239.1 1157.36 81.7474 1141.34 249.679 245.965 16.0108 242.792 14.2797 228.513 227.22 107.79 105.163 103.427 22.3152 119.43 891.665 23.7065 11.0495 118.483 81.1116 867.958 150.389 141.143 9.24557 137.993 47.3373 23.6548 10.6951 7.23921
internal_count=2158 1129 1029 978 410 364 151 331 40 291 278 178 160 149 62 100 568 39 29 94 87 529 146 105 41 83 51 41 29 25
is_linear=0
shrinkage=0.05


Tree=15
num_leaves=31
num_cat=0
split_feature=21 10 14 26 4 7 5 26 1 26 21 17 26 12 9 14 22 0 11 10 26 8 10 5 14 7 10 1 0 4
split_gain=411.413 58.1315 23.987 20.9794 15.0759 13.2286 12.3979 12.3835 13.7737 13.6565 41.4311 11.9431 5.88095 7.57274 21.0296 7.14543 8.90735 15.1865 7.77334 11.1988 4.14113 10.5739 14.1905 4.87506 3.62149 3.5669 16.7405 16.2704 6.28288 14.6403
threshold=0.13255984829307491 0.38214285714285717 0.45018913500000007 -0.98182534576205283 0.09944084816407657 -0.075113314999999986 -0.075446758678571382 -0.95297903005573337 0.33565367000000007 -0.35460488704253562 0.57436020683978206 0.46318169000000003 -0.78574730703237872 2.4893826000000003 12.500000000000002 0.45766817500000007 0.29118024204724197 1.8711372000000004 0.092911719999999962 0.82738095238095244 0.5163939593874618 1.3038885500000001 0.58452380952380967 -0.10443799617857139 0.43366744000000007 1.2549867500000003 0.93882783882783893 0.9463193700000001 0.46279577000000005 0.29931427635996127
decision_type=2 2 2 2 2 2 2 2 2 2 2 2 2 2 2 2 2 2 2 2 2 2 2 2 2 2 2 2 2 2
left_child=3 11 4 -1 -3 -4 -6 8 -8 -9 -11 -2 13 15 -15 16 17 -7 -17 -20 23 22 -22 -14 -12 26 27 28 29 -21
right_child=1 2 5 -5 6 12 7 9 -10 10 24 -13 20 14 -16 18 -18 -19 19 25 21 -23 -24 -25 -26 -27 -28 -29 -30 -31
leaf_value=0.080256456405869647 -0.055446286624660196 -0.059722458934156487 -0.053902425845305441 -0.054189641983151515 -0.055073559514697945 -0.069709273945561825 0.078680953642107462 0.07455492257093542 -0.057057363788264884 -0.059398238123694838 0.023366558496585768 0.038197791408198484 -0.044404099933259403 0.083058661380416066 -0.064559347141318876 0.012772938034516951 0.066785267930176334 0.078476041388861995 -0.0585299982203785 -0.057785678787462651 0.075250801031553183 0.073784144395014628 -0.070289051318024029 0.076846792828502056 0.071213868726788421 0.082449166528479917 0.073385521577758017 -0.069358301759527924 0.084658413117159201 0.091506263859723241
leaf_weight=2.9027700424194327 10.762678682804106 3.0097952187061301 1.931726537644862 75.297080457210541 2.5375098660588256 4.0141085758805302 2.8768725395202628 58.190356515347958 4.8988317996263504 8.7265669256448728 5.2213002815842655 4.8126420453190795 0.7178015410900106 5.8223626613616926 3.9480511546134949 5.9227133989334098 9.5626806765794736 2.8732092380523682 1.5219093412160862 3.3760274499654788 3.1351644024252918 18.828932195901871 3.3726113438606262 693.57744295150042 25.474110774695873 76.206892818212509 167.97686372697353 3.7978204861283293 5.8626539707183838 2.9953963756561279
leaf_count=1 135 27 20 1028 23 26 1 46 43 94 20 16 7 2 21 14 8 1 13 27 3 15 20 355 24 30 112 23 2 1
internal_value=0.0618231 0.0694228 0.0707508 -0.049039 0.0484543 0.0731767 0.0515699 0.0542348 -0.00584037 0.0590726 0.035962 -0.026133 0.0734291 0.0672054 0.0228525 0.0687045 0.0357619 -0.00693626 0.0706963 0.0719826 0.0759541 0.054882 0 0.0767079 0.0633397 0.0727873 0.0687161 0.0193298 0.0476057 0.0119577
internal_weight=1220.15 1141.96 1126.38 78.1999 110.935 1015.44 107.926 105.388 7.7757 97.6123 39.422 15.5753 1013.51 293.881 9.77041 284.11 16.45 6.88732 267.66 261.738 719.632 25.3367 6.50778 694.295 30.6954 260.216 184.009 16.0319 12.2341 6.37142
internal_count=2158 1129 978 1029 278 700 251 228 44 184 138 151 680 280 23 257 35 27 222 208 400 38 23 362 44 195 165 53 30 28
is_linear=0
shrinkage=0.05


Tree=16
num_leaves=31
num_cat=0
split_feature=13 10 14 4 24 3 1 5 0 26 13 19 11 7 8 8 22 14 7 14 5 18 7 10 7 12 8 7 26 7
split_gain=361.954 87.5132 26.6271 26.3262 13.1581 30.9245 12.1465 7.84609 6.13731 7.5725 18.7264 26.489 16.7773 27.9373 7.75685 5.02294 5.31299 4.66254 4.01381 3.69008 3.58986 8.22332 17.8693 3.42226 11.9638 3.02481 4.63306 22.2051 7.32623 7.46918
threshold=4.449749895000001 0.38214285714285717 0.43862433000000006 0.15644567459223815 -0.5 -0.23961389999999991 2.1743221500000005 -0.10443799617857139 1.0960452500000002 -0.91023613416931237 6.5475957800000009 2.2074827857142858 2.7922342225000003 0.071588842500000013 0.06180823400000001 0.33565367000000007 0.26552592668011682 0.44288688500000006 0.091148902500000017 0.46621142500000007 -0.056051675714285647 0.46162971500000005 1.9689386500000001 0.82943722943722953 1.5483922500000002 1.7370091000000003 1.0398249500000003 0.75620007500000008 -0.91023613416931237 0.81488140000000009
decision_type=2 2 2 2 2 2 2 2 2 2 2 2 2 2 2 2 2 2 2 2 2 2 2 2 2 2 2 2 2 2
left_child=-1 6 3 -3 -5 -6 -2 -4 9 10 -9 -12 19 -14 -11 16 -10 -16 -19 23 21 -20 -23 -13 -25 -17 27 -27 -29 -30
right_child=1 2 7 4 5 -7 -8 8 15 14 11 12 13 -15 17 25 -18 18 20 -21 -22 22 -24 24 -26 26 -28 28 29 -31
leaf_value=-0.053983574445261029 -0.05377326397061969 -0.056719288145028572 -0.049726876756150853 0.066807094899341349 0.074335209695027105 -0.056915977667284769 0.03644834628670978 0.077929502640500581 0.004783868562302793 -0.057090552921480603 -0.068700119047139629 0.077537926722211103 0.07525200390677711 -0.067528037439745267 -0.055338837069225127 0.077359346395934267 0.06393077514263755 -0.046234023955924144 0.077692930758716083 0.073024990549136262 0.072143378649997023 -0.074197570877394467 0.064711802774249635 -0.059936172831465941 0.080914947249514785 -0.092085632286989641 0.072591075704814934 0.079311480635546661 0.080673828691255556 0.0092106850616339008
leaf_weight=65.923365265130997 16.622521080076698 6.8122083917260161 1.2487998604774464 31.318712808191776 9.4485345929861069 8.3448301255702972 4.6562929451465598 40.698458589613438 5.6521849855780628 1.0977261066436756 5.6404607445001593 2.855526924133299 6.2096695378422719 7.3916419222950935 0.62979899346828361 350.04711018502712 12.914407521486281 0.62458550184965034 11.822925657033922 25.698525615036488 247.75515806674957 3.4774715453386289 6.4079336374998093 2.899351604282856 2.9124577045440674 2.3370641469955435 275.06572564691305 26.089699104428291 5.7452764511108425 10.355355717241762
leaf_count=937 230 75 12 36 9 91 9 21 15 7 34 1 5 56 4 152 11 5 6 24 164 19 7 21 1 10 156 11 2 27
internal_value=0.0598036 0.0664341 0.0683588 0.0344687 0.0473083 0.0125268 -0.0337187 0.0701461 0.0702976 0.0648566 0.0522852 0.0326143 0.04475 -0.00190351 0.0691791 0.073175 0.0463148 0.0697304 0.070061 0.0633115 0.0703661 0.0496153 0.0150921 0.0334365 0.00997718 0.0739052 0.0700833 0.054352 0.0627804 0.0353605
internal_weight=1198.7 1132.78 1111.5 55.9243 49.1121 17.7934 21.2788 1055.58 1054.33 366.122 94.3061 53.6076 47.9672 13.6013 271.816 688.207 18.5666 270.718 270.088 34.3659 269.463 21.7083 9.88541 8.66734 5.81181 669.64 319.593 44.5274 42.1903 16.1006
internal_count=2158 1221 982 211 136 100 239 771 759 375 163 142 108 61 212 384 26 205 201 47 196 32 26 23 22 358 206 50 40 29
is_linear=0
shrinkage=0.05


Tree=17
num_leaves=31
num_cat=0
split_feature=21 15 10 26 26 18 20 4 17 17 15 25 5 0 1 0 12 12 7 25 6 9 0 8 17 8 12 12 1 25
split_gain=345.718 52.0997 63.448 22.9025 18.6295 16.567 22.4258 12.8991 10.418 10.3144 14.616 7.56853 18.3691 7.0159 13.6776 5.51462 10.1184 4.76405 6.78408 3.47217 3.14845 22.7779 15.9771 2.87948 2.75109 4.59655 4.19726 6.42098 2.65098 12.3566
threshold=0.13255984829307491 0.45945206142857148 0.63690476190476197 0.40966402954315179 -0.98182534576205283 0.44122187000000007 0.16752781000000008 0.62228708479743833 0.46983783000000007 0.45802505000000004 0.4587125335714286 0.060268340127661829 0.034230549999999957 1.3625699500000001 0.97501571500000017 0.42367449000000007 0.8457267907142858 0.30701119478571431 -0.075113314999999986 -0.85421994577343319 1.9884987000000003 36.500000000000007 3.1914579000000001 0.33565367000000007 0.45482589500000009 0.98114365000000003 0.32657109357142861 0.60321029214285726 1.8515771500000002 -0.78574730703237861
decision_type=2 2 2 2 2 2 2 2 2 2 2 2 2 2 2 2 2 2 2 2 2 2 2 2 2 2 2 2 2 2
left_child=4 2 7 5 -1 17 9 -2 -8 13 -11 15 -13 14 -7 16 -3 -4 -19 23 28 22 -22 -17 -20 26 -26 -28 29 -21
right_child=1 11 3 -5 -6 6 8 -9 -10 10 -12 12 -14 -15 -16 19 -18 18 24 20 21 -23 -24 -25 25 -27 27 -29 -30 -31
leaf_value=0.075196200856944118 -0.054249342958064065 -0.054855776929973538 -0.043810907652279463 -0.056680846140022723 -0.053733332143723112 0.058963049951233353 -0.061594793852358935 0.03720715159155194 0.034796405415600161 -0.057677697613571999 0.056484262599146386 -0.056782444444849783 0.062132771226067779 0.076333909154114532 -0.060798116152191085 -0.068187779501933207 0.056502646731715428 -0.051937874943847967 0.074705462979294049 0.022524121243238188 -0.065249259219603298 0.074415524689912305 0.076998288221943878 0.074381972191868803 0.073934101259521198 0.077418631026799578 0.041718842494792088 -0.062270565081030599 0.074210150618503903 0.068361976954947154
leaf_weight=2.8044226169586173 18.88498139381409 2.2632170319557217 0.82664281129836936 4.6076219007372847 68.694438457489014 9.7566752657294256 7.6393115147948247 4.6946672648191443 4.2433368191123009 4.8626911118626577 6.3198025971651077 3.9239009171724346 16.290964357554913 26.139601036906242 3.0192178189754477 0.24502547085285087 13.831867866218088 1.0307057574391354 77.532915964722633 16.258065521717072 5.8224349617958051 28.128856584429741 2.844656229019165 447.16046386957169 2.77240037918091 8.3588123321533185 3.6373108923435211 2.3622853457927704 163.11437870562077 217.62351186573505
leaf_count=1 252 18 10 44 1028 19 60 11 14 40 5 33 15 13 23 1 18 11 40 25 32 13 1 192 1 3 6 15 75 139
internal_value=0.0579494 0.064851 0.0406719 0.0517654 -0.0485085 0.0549832 0.034557 -0.0357491 -0.0267527 0.0492229 0.00632672 0.0697604 0.0386382 0.0613733 0.0300202 0.0704516 0.0402932 0.0679987 0.0690615 0.0709921 0.0675758 0.0526064 -0.0176456 0.0742775 0.0704851 0.0507711 0.0242287 0 0.0689371 0.065208
internal_weight=1175.7 1104.2 186.689 163.109 71.4989 158.502 61.9806 23.5796 11.8826 50.098 11.1825 917.507 20.2149 38.9155 12.7759 897.292 16.0951 96.5211 95.6944 881.197 433.792 36.7959 8.66709 447.405 94.6637 17.1308 8.772 5.9996 396.996 233.882
internal_count=2158 1129 567 304 1029 260 174 263 74 100 45 562 48 55 42 514 36 86 76 478 285 46 33 193 65 25 22 21 239 164
is_linear=0
shrinkage=0.05


Tree=18
num_leaves=31
num_cat=0
split_feature=21 10 14 26 21 10 5 7 5 16 7 26 11 10 5 16 7 1 20 21 1 12 13 20 26 25 21 5 8 14
split_gain=318.282 45.3776 21.5858 17.5849 12.0771 47.5896 25.2342 10.9172 10.4238 7.83756 15.233 5.45791 7.25757 6.87061 24.5969 22.3494 4.705 14.9751 14.373 4.50067 4.93147 8.5604 3.36973 3.62102 2.76114 4.76959 4.30711 3.63029 5.90662 2.77333
threshold=0.13255984829307491 0.27500000000000008 0.45018913500000007 -0.98182534576205283 0.70802935717250415 0.82738095238095244 0.0069858167499999508 -0.075113314999999986 -0.075446758678571382 0.021961949999999956 1.1318719000000002 -0.78574730703237872 0.14670097450000003 0.9804761904761905 0.010478640357142851 -0.005240139999999999 1.2549867500000003 0.74485740000000011 4.9328927500000015 0.26804890654820485 0.8833422150000001 1.1643045835714285 26.415970700000003 1.0799170200000001 0.5163939593874618 -0.70581670320594825 0.44632806948857401 -0.059030260714285694 0.12774501000000002 0.47604063000000002
decision_type=2 2 2 2 2 2 2 2 2 2 2 2 2 2 2 2 2 2 2 2 2 2 2 2 2 2 2 2 2 2
left_child=3 -2 4 -1 5 -3 -7 -4 -6 11 -11 12 -9 14 16 -16 17 -14 -19 -8 -21 -22 -10 -24 27 26 -26 29 -29 -13
right_child=1 2 7 -5 8 6 19 9 22 10 -12 24 13 -15 15 -17 -18 18 -20 20 21 -23 23 -25 25 -27 -28 28 -30 -31
leaf_value=0.073033826234345359 -0.055104014776969336 -0.056710363054564963 -0.053321788969297845 -0.053523339453878133 -0.05454784299286082 -0.062066136217489111 0.072781333879697346 0.018077757929422324 0.073949146228935989 -0.069775740927816118 0.053061934367484666 0.038863046969960964 0.062787119632012056 0.070238781363984662 0.041060430356517214 -0.076676921444143412 0.071074912236980189 -0.066620825267493231 0.073984981870766561 0.06651145535006571 -0.059482201507977596 0.059938542162011735 0.0089617526344110843 0.06225576522395581 0.071143577697073399 0.069558341596651349 -0.00055800560712834118 -0.057182715822141676 0.071253288549781718 0.075229096321516364
leaf_weight=2.7474830150604239 7.9694764390587798 13.049309398978947 1.7911465018987645 65.594444677233696 1.7719607800245274 4.3677589707076541 30.87669613212347 9.9592865258455259 34.353960961103439 2.8831514567136791 15.688347838819025 17.93873076885939 34.439636565744877 141.06821026653051 10.957424059510233 6.2397415414452544 66.106021836400032 4.7991479039192191 2.7737557888031006 5.9681575223803502 2.8158005177974701 2.9874114841222763 5.2475037500262252 9.2746803164482099 2.9412944763898849 14.406060859560966 6.2903943657875061 0.78397330641746421 615.82413719594479 8.4959096014499647
leaf_count=1 113 157 20 1028 14 37 22 21 17 20 18 33 45 79 19 35 38 32 1 6 23 4 19 9 2 13 18 4 306 4
internal_value=0.0562891 0.0629009 0.0637862 -0.0482632 0.0426756 0.0272873 0.050778 0.0662024 0.0607369 0.0664357 0.0334525 0.0670764 0.0609192 0.0624948 0.0536884 -0.00156611 0.0625166 0.0487948 -0.0141759 0.0625699 0.0349765 0.00112087 0.0651213 0.0435332 0.0696115 0.0514716 0.0222685 0.0702624 0.0710726 0.0509787
internal_weight=1150.41 1082.07 1074.1 68.3419 110.713 60.0651 47.0158 963.386 50.6481 961.595 18.5715 943.024 276.343 266.384 125.316 17.1972 108.119 42.0125 7.5729 42.6481 11.7714 5.80321 48.8761 14.5222 666.681 23.6377 9.23169 643.043 616.608 26.4346
internal_count=2158 1129 1016 1029 308 249 92 708 59 688 38 650 270 249 170 54 116 78 33 55 33 27 45 28 380 33 20 347 310 37
is_linear=0
shrinkage=0.05


Tree=19
num_leaves=31
num_cat=0
split_feature=21 15 10 26 26 17 4 21 19 15 7 25 17 5 25 7 10 5 13 14 11 5 26 7 11 10 15 5 25 5
split_gain=293.335 45.6972 54.4092 20.2324 16.6136 12.3549 14.2532 18.2245 13.2743 11.7278 9.00047 7.02111 15.3947 14.3784 4.71307 6.98093 5.15786 3.98713 3.88873 17.2793 12.6224 3.78533 3.41878 3.27345 3.14974 4.2749 5.03453 18.9571 10.7669 19.5261
threshold=0.13255984829307491 0.45945206142857148 0.63690476190476197 0.40966402954315179 -0.98182534576205283 0.45387688000000009 0.23573040927300448 0.14792444522044398 1.1461895985714288 0.45619160571428569 -0.075113314999999986 0.060268340127661829 0.44214387000000005 0.091863590071428511 -0.85421994577343319 0.012908679000000001 0.39578977932636472 -0.091514324999999938 8.7187861350000002 0.46143514000000002 1.2958697000000001 -0.082490974999999939 -0.29696027566504651 1.1082857500000003 0.092911719999999962 0.97261904761904772 0.47124871000000007 -0.013971633214285649 -0.66312265824079508 0.015368697499999952
decision_type=2 2 2 2 2 2 2 2 2 2 2 2 2 2 2 2 2 2 2 2 2 2 2 2 2 2 2 2 2 2
left_child=4 2 9 5 -1 10 7 -7 -9 -2 -4 14 -13 -14 16 -16 -3 -17 -12 20 -20 -18 -8 -21 -19 26 -26 -28 -29 -30
right_child=1 11 3 -5 -6 6 22 8 -10 -11 18 12 13 -15 15 17 21 24 19 23 -22 -23 -24 -25 25 -27 27 28 29 -31
leaf_value=0.071067877759789039 -0.054058740008649353 -0.060243199351788249 -0.052121415463462176 -0.056275088407593966 -0.053324354283508228 0.072635887492398216 0.027627587265467046 0.055786916632911576 -0.062464214118543998 0.033738386255475476 0.070112885248724638 0.072927987038275729 -0.063171556603688284 0.074156061402244886 -0.054893130538083514 -0.049376989459513604 -0.045514308933719931 0.035892049792522571 0.069802125589948041 0.032912314094275412 -0.061961200362662588 0.070655626745457639 0.069715401019645531 0.071492719798312704 0.063166146344070834 0.07010224525526966 -0.080618596511909502 0.066450753897823497 0.049259379328619297 -0.08664972712086462
leaf_weight=2.6866199970245352 17.467587053775791 0.64366710186004539 1.6420092582702626 4.3712110109627238 62.622683752328157 5.3284187316894558 8.3681052029132861 2.9378043711185446 10.412823617458342 4.7066312283277503 63.71993712335825 11.361160300672056 5.4801864400506002 2.778273344039917 1.1453996449708927 0.67139327526092429 0.58689297735690971 11.651128709316252 2.6424188613891593 7.6720846071839324 5.2189985811710358 432.50200437009335 14.042443163692949 30.571749791502953 190.07423842698336 171.52990326285362 2.7261174619197837 35.96439628303051 9.9656101763248426 3.4720448553562155
leaf_count=1 251 3 20 44 1028 2 25 2 81 12 41 8 39 1 8 4 4 17 1 18 44 192 10 16 140 84 13 20 13 16
internal_value=0.0547138 0.0610548 0.0379299 0.0483012 -0.04803 0.0513653 0.0276039 -0.00441489 -0.03585 -0.0351309 0.0600469 0.0657478 0.0353339 -0.0160398 0.0664309 0.0625193 0.0702568 0.0628595 0.0618153 0.0501125 -0.0167238 0.0704762 0.0544145 0.0639895 0.06306 0.0638041 0.059296 0.0449944 0.0521759 0.0133929
internal_weight=1124.96 1059.65 179.102 156.928 65.3093 152.557 41.0896 18.679 13.3506 22.1742 111.467 880.552 19.6196 8.25846 860.933 427.2 433.733 426.055 109.825 46.1053 7.86142 433.089 22.4105 38.2438 425.383 413.732 242.202 52.1282 49.4021 13.4377
internal_count=2158 1129 567 304 1029 260 120 85 83 263 140 562 48 40 514 315 199 307 120 79 45 196 35 34 303 286 202 62 49 29
is_linear=0
shrinkage=0.05


Tree=20
num_leaves=31
num_cat=0
split_feature=21 15 26 13 26 15 17 2 13 18 19 25 7 18 14 6 21 5 2 13 8 19 6 12 5 25 14 5 7 8
split_gain=271.009 42.1518 44.4989 26.9112 15.7083 13.4817 11.562 12.0516 11.4157 9.13991 17.6963 6.60882 10.1056 4.68723 3.82272 17.5956 21.1264 3.67666 4.70367 14.9571 3.85253 8.57497 7.23144 5.14327 11.5222 13.0239 4.53138 3.92537 14.5648 11.97
threshold=0.13255984829307491 0.45945206142857148 0.40966402954315179 29.628756750000004 -0.98182534576205283 0.45619160571428569 0.47253650000000008 -0.40587609999999991 4.6257926500000002 0.47262148000000004 1.789288097857143 -0.85421994577343319 0.012908679000000001 0.23161438000000004 0.45911200500000005 0.3943338400000001 0.89476782052440174 -0.054489477142857096 0.12714208499999999 21.530786500000001 1.2452073000000003 1.1668486085714289 0.58993787000000009 2.1449816500000005 0.080686243928571419 -0.35460488704253573 0.43685632500000005 0.0055887514285713506 0.53125656500000007 0.79532022000000013
decision_type=2 2 2 2 2 2 2 2 2 2 2 2 2 2 2 2 2 2 2 2 2 2 2 2 2 2 2 2 2 2
left_child=4 2 3 6 -1 -4 8 -8 -2 14 -11 -3 -13 -14 15 -10 -17 18 19 -15 23 -22 -23 26 25 -25 -19 28 -28 -30
right_child=1 11 5 -5 -6 -7 7 -9 9 10 -12 12 13 17 -16 16 -18 20 -20 -21 21 22 -24 24 -26 -27 27 -29 29 -31
leaf_value=0.069272044252221485 -0.050375720636837235 0.068530586978034588 -0.054449506366071737 -0.059838877747301622 -0.053135643881606104 0.045894638804620129 0.068980439650370845 -0.065386790538171605 0.06412559257879312 0.07217394917383034 -0.057893579767836933 -0.055936786778115567 -0.057764972064329304 0.058017518180019927 0.065797231866600858 -0.059359399343466041 0.069359399500850571 -0.070068112283753925 0.064582968974344165 -0.069064092203821426 -0.091508106440155293 -0.080525467434319972 0.068503004347975419 -0.069378849600392187 0.058959660842222344 0.063569913402814635 -0.05698098962225201 0.063302886118077842 0.06940375572233802 0.011323649958248342
leaf_weight=2.6226692199707022 2.4957307241857043 422.69317635893822 15.741198468953373 5.6674640215933314 59.775095075368881 4.1087428554892531 2.6114826202392578 4.1970742531120768 38.94830896705389 5.2955596446990949 4.9562922641634941 1.7700806558132161 0.72628835588693519 6.4778354018926638 78.16524576023221 7.2362691573798639 5.5312023013830185 0.5613570362329473 8.4639858901500684 3.4561764076352119 0.73970983922481437 0.70789796113967796 174.48940327763557 4.5651224255561837 14.533267453312872 2.92248183488846 3.0618164464831343 170.01032465696335 32.954960517585278 12.484738916158674
leaf_count=1 35 199 228 47 1028 8 1 32 39 2 42 14 4 6 61 69 3 4 5 18 3 3 86 24 11 2 25 113 20 25
internal_value=0.0532864 0.0593866 0.0369098 0.0459433 -0.0478081 -0.0333027 0.0500259 -0.0128728 0.0530704 0.054983 0.00885754 0.0639453 0.0594934 0.0599861 0.0585757 0.0474584 -0.00310082 0.0602072 0.0372534 0.0130581 0.0611987 0.0670768 0.0678267 0.0568624 0.033057 -0.0166748 0.0592162 0.0596032 0.0464282 0.0536157
internal_weight=1097.97 1035.57 174.955 155.105 62.3978 19.8499 149.437 6.80856 142.629 140.133 10.2519 860.619 437.925 436.155 129.881 51.7158 12.7675 435.429 18.398 9.93401 417.031 175.937 175.197 241.094 22.0209 7.4876 219.073 218.512 48.5015 45.4397
internal_count=2158 1129 567 331 1029 236 284 33 251 216 44 562 363 349 172 111 72 345 29 24 316 92 89 224 37 26 187 183 70 45
is_linear=0
shrinkage=0.05


end of trees

feature_importances:
Column_5=51
Column_26=50
Column_10=44
Column_21=43
Column_13=41
Column_7=40
Column_25=34
Column_14=32
Column_15=32
Column_8=30
Column_18=28
Column_11=27
Column_0=25
Column_17=22
Column_1=20
Column_12=19
Column_4=15
Column_2=13
Column_19=13
Column_6=12
Column_9=9
Column_16=9
Column_20=9
Column_24=5
Column_3=3
Column_22=3
Column_23=1

parameters:
[boosting: gbdt]
[objective: binary]
[metric: binary_logloss]
[tree_learner: serial]
[device_type: cpu]
[data_sample_strategy: bagging]
[data: ]
[valid: ]
[num_iterations: 500]
[learning_rate: 0.05]
[num_leaves: 31]
[num_threads: 12]
[seed: 42]
[deterministic: 0]
[force_col_wise: 0]
[force_row_wise: 0]
[histogram_pool_size: -1]
[max_depth: -1]
[min_data_in_leaf: 10]
[min_sum_hessian_in_leaf: 0.001]
[bagging_fraction: 0.8]
[pos_bagging_fraction: 1]
[neg_bagging_fraction: 1]
[bagging_freq: 0]
[bagging_seed: 400]
[bagging_by_query: 0]
[feature_fraction: 0.8]
[feature_fraction_bynode: 1]
[feature_fraction_seed: 30056]
[extra_trees: 0]
[extra_seed: 12879]
[early_stopping_round: 0]
[early_stopping_min_delta: 0]
[first_metric_only: 0]
[max_delta_step: 0]
[lambda_l1: 0.1]
[lambda_l2: 0.1]
[linear_lambda: 0]
[min_gain_to_split: 0]
[drop_rate: 0.1]
[max_drop: 50]
[skip_drop: 0.5]
[xgboost_dart_mode: 0]
[uniform_drop: 0]
[drop_seed: 17869]
[top_rate: 0.2]
[other_rate: 0.1]
[min_data_per_group: 100]
[max_cat_threshold: 32]
[cat_l2: 10]
[cat_smooth: 10]
[max_cat_to_onehot: 4]
[top_k: 20]
[monotone_constraints: ]
[monotone_constraints_method: basic]
[monotone_penalty: 0]
[feature_contri: ]
[forcedsplits_filename: ]
[refit_decay_rate: 0.9]
[cegb_tradeoff: 1]
[cegb_penalty_split: 0]
[cegb_penalty_feature_lazy: ]
[cegb_penalty_feature_coupled: ]
[path_smooth: 0]
[interaction_constraints: ]
[verbosity: -1]
[saved_feature_importance_type: 0]
[use_quantized_grad: 0]
[num_grad_quant_bins: 4]
[quant_train_renew_leaf: 0]
[stochastic_rounding: 1]
[linear_tree: 0]
[max_bin: 255]
[max_bin_by_feature: ]
[min_data_in_bin: 3]
[bin_construct_sample_cnt: 200000]
[data_random_seed: 175]
[is_enable_sparse: 1]
[enable_bundle: 1]
[use_missing: 1]
[zero_as_missing: 0]
[feature_pre_filter: 1]
[pre_partition: 0]
[two_round: 0]
[header: 0]
[label_column: ]
[weight_column: ]
[group_column: ]
[ignore_column: ]
[categorical_feature: ]
[forcedbins_filename: ]
[precise_float_parser: 0]
[parser_config_file: ]
[objective_seed: 16083]
[num_class: 1]
[is_unbalance: 0]
[scale_pos_weight: 12]
[sigmoid: 1]
[boost_from_average: 1]
[reg_sqrt: 0]
[alpha: 0.9]
[fair_c: 1]
[poisson_max_delta_step: 0.7]
[tweedie_variance_power: 1.5]
[lambdarank_truncation_level: 30]
[lambdarank_norm: 1]
[label_gain: ]
[lambdarank_position_bias_regularization: 0]
[eval_at: ]
[multi_error_top_k: 1]
[auc_mu_weights: ]
[num_machines: 1]
[local_listen_port: 12400]
[time_out: 120]
[machine_list_filename: ]
[machines: ]
[gpu_platform_id: -1]
[gpu_device_id: -1]
[gpu_use_dp: 0]
[num_gpu: 1]

end of parameters

pandas_categorical:null
