tree
version=v4
num_class=1
num_tree_per_iteration=1
label_index=0
max_feature_idx=42
objective=binary sigmoid:1
feature_names=max_waterlevel_6h max_waterlevel_24h waterlevel_slope_3h waterlevel_slope_6h waterlevel_std_24h waterlevel_rise_rate_48h waterlevel_lag_1d waterlevel_lag_2d waterlevel_lag_3d waterlevel_days_above_threshold waterlevel_pct_rank_30d waterlevel_distance_to_max waterlevel_mean_7d waterlevel_cumrise_14d sensor_soilmoisture_mean_6h sensor_soilmoisture_mean_24h sensor_soilmoisture_trend_6h soilmoisture_lag_1d soilmoisture_lag_2d humidity_mean_24h humidity_trend_6h waterlevel_x_soilmoisture humidity_x_waterlevel_slope season_sin season_cos week_sin week_cos is_monsoon_season waterlevel_monsoon soilmoisture_monsoon humidity_x_soilmoisture soilmoisture_trend_3d days_since_flood_level waterlevel_falling_streak post_flood_decay_7d humidity_anomaly_vs_30d soilmoist_anomaly_vs_30d late_season_wet_flag waterlevel_7d_std soilmoist_7d_std soil_saturation wetness_trend orbit_flag
feature_infos=[0.59748816000000005:2.5790000000000002] [0.65394739999999996:2.5790000000000002] [-1.5628677999999998:1.6080061299999999] [-1.5628677999999998:1.6080061299999999] [0.0031014589499496:0.85209459530129728] [-0.1179243785714285:0.1070525385714285] [0.59748816000000005:2.5790000000000002] [0.59748816000000005:2.5790000000000002] [0.59748816000000005:2.5790000000000002] [0:86] [0.0047619047619046999:1] [0:1.9541983599999999] [0.70147270571428577:2.5790000000000002] [10.5840344:35.537000000000006] [0.22371621:0.49812856] [0.22401127000000001:0.48080359571428571] [-0.043703799999999897:0.1844977099999999] [0.22371621:0.49812856] [0.22371621:0.49812856] [0.66739007714285725:4.8692490428571427] [-6.4436203800000005:6.5878532100000005] [0.1742193226235314:1.2317317373957144] [0:4.6226634397639748] [-1:1] [-1:1] [-1:1] [-1:1] [0:1] [0:2.5790000000000002] [0:0.48080359571428571] [0.2262906610028485:2.2197940327375609] [-0.1300896799999999:0.24581511] [0:227] [0:21] [-1.5213374999999998:1.7080538999999999] [-2.0856294710000003:2.2854443635714281] [-0.17582188472789109:0.17246873904081619] [0:1] [0.017956935446014399:0.77529151259516482] [0.0038033501157871:0.10545239538209129] [0.1862:0.36980000000000002] [-1:1] [0:1]
tree_sizes=1865 1900 1989 2212 2128 1601 1608 1606 1503 1607 1829 2031 2236 2036

Tree=0
num_leaves=17
num_cat=0
split_feature=36 39 15 26 13 0 32 1 0 36 4 6 7 38 6 2
split_gain=6452.79 767.348 408.008 282.199 265.59 239.061 206.487 150.191 131.291 127.444 86.1244 83.9166 45.8971 15.9501 38.5923 10.5631
threshold=0.018021851887755003 0.079817188273421921 0.45764751357142858 -0.61559370248597534 33.756000000000007 2.2465000000000006 12.500000000000002 2.2475000000000005 0.76688002000000011 0.14692275765461124 0.019285447510807654 2.1855000000000007 2.2215000000000003 0.07775364316922366 2.3115000000000001 0.012619749999999902
decision_type=2 2 2 2 2 2 2 2 2 2 2 2 2 2 2 2
left_child=3 2 4 5 6 -1 11 12 -8 -3 -11 -2 -4 -9 -15 -12
right_child=1 9 7 -5 -6 -7 8 13 -10 10 15 -13 -14 14 -16 -17
leaf_value=-1.7045780119354748 -1.6409858838261584 -1.705723065881777 -1.6996118805639231 -1.7074883496696824 -1.7040485529198888 -1.5218662370983245 -1.5206483525537222 -1.4920303077859154 -1.7045428060229326 -1.7004513546424578 -1.6107536626662542 -1.5220957493982206 -1.5740788330427993 -1.5123182251894765 -1.6277940292978246 -1.5204121102422836
leaf_weight=10.917360067367555 6.2575112581253043 17.840564012527466 3.5947405099868757 179.47074842453003 9.1865590810775739 13.713269352912901 3.9941561222076407 741.98106896877289 10.784221529960631 4.1272946596145621 3.9941561222076398 115.56425046920776 5.9912341833114624 8.3877278566360456 5.0592644214630118 6.3906497955322266
leaf_count=82 33 134 27 1348 69 19 2 589 81 31 16 196 17 7 24 6
internal_value=-1.5415 -1.50843 -1.50334 -1.69435 -1.55111 -1.60102 -1.54066 -1.4944 -1.64849 -1.6527 -1.58946 -1.52789 -1.61945 -1.49289 -1.54959 -1.54659
internal_weight=1147.25 943.153 910.801 204.101 145.787 24.6306 136.6 765.014 14.7784 32.3527 14.5121 121.822 9.58597 755.428 13.447 10.3848
internal_count=2681 1232 1045 1449 381 101 312 664 83 187 53 229 44 620 31 22
is_linear=0
shrinkage=1


Tree=1
num_leaves=17
num_cat=0
split_feature=14 13 32 39 13 12 15 32 13 13 21 8 0 25 32 24
split_gain=4893.21 613.87 315.686 219.641 203.594 229.283 134.947 217.654 220.248 108.548 99.9832 98.6407 59.2445 94.885 44.7425 4.1306
threshold=0.4340346000000001 31.185500000000001 7.5000000000000009 0.082946875984862459 31.224500000000006 2.2549285714285721 0.45826395642857148 12.500000000000002 33.76850000000001 10.892791800000003 1.1030619511414288 2.1815000000000002 2.2215000000000003 -0.91023613416931237 210.50000000000003 -0.9330127018922193
decision_type=2 2 2 2 2 2 2 2 2 2 2 2 2 2 2 2
left_child=2 9 4 6 -1 -6 7 8 -3 -2 -7 -5 13 -8 -4 -14
right_child=1 3 14 11 5 10 12 -9 -10 -11 -12 -13 15 -15 -16 -17
leaf_value=-0.033597508212134301 0.10551451738675445 0.13736857644141112 -0.035222113549561167 0.12343300303105817 0.15264747838624901 -0.033361305998257144 0.13038338188817294 -0.031254478252402344 -0.030892770902993867 -0.033853288084456222 0.10795455494644153 -0.031889020447626357 0.12202094402617937 -0.029137561401864388 0.053478454806648756 0.15557234838052111
leaf_weight=18.228203281760216 5.5905324667692211 123.4111500531435 160.65635527670383 4.853266328573226 20.598247572779655 13.886529088020326 9.9841198772191984 7.8064384609460822 7.0526515692472449 20.235108658671379 5.4684866070747367 9.0909129083156568 24.747545078396797 4.3579393327236167 4.4150053709745398 811.14771340787411
leaf_count=139 11 169 1235 6 15 102 11 60 54 153 9 69 41 31 18 558
internal_value=0.115891 0.143507 -0.0113721 0.147224 0.048175 0.0854288 0.148894 0.118928 0.128095 -0.000819417 0.00983387 0.0267125 0.15362 0.0830742 -0.032533 0.154728
internal_weight=1251.53 1028.28 223.253 1002.45 58.1815 39.9533 988.508 138.27 130.464 25.8256 19.355 13.9442 850.237 14.3421 165.071 835.895
internal_count=2681 1163 1518 999 265 126 924 283 223 164 111 75 641 42 1253 599
is_linear=0
shrinkage=0.03


Tree=2
num_leaves=18
num_cat=0
split_feature=14 7 26 7 39 21 1 29 32 26 32 11 7 0 38 5 6
split_gain=3942.35 420.87 325.787 201.511 166.196 134.205 128.473 103.078 134.224 102.095 91.5548 87.6362 80.5574 28.133 78.417 2.09293 0.134844
threshold=0.4340346000000001 2.1855000000000007 -0.61559370248597534 2.2085000000000004 0.082946875984862459 1.1030619511414288 2.2675000000000005 0.4582188928571429 11.500000000000002 -0.99635443704902682 12.500000000000002 0.38350000000000023 2.3715000000000006 2.2215000000000003 0.066795914264837206 0.00089285714285710011 2.4185000000000003
decision_type=2 2 2 2 2 2 2 2 2 2 2 2 2 2 2 2 2
left_child=2 9 3 -1 7 -4 15 8 12 -2 -10 -6 -3 14 -9 -5 -15
right_child=1 4 5 6 11 -7 -8 13 10 -11 -12 -13 -14 16 -16 -17 -18
leaf_value=-0.032965731040071493 0.10282677705141192 0.12337826810934058 -0.0350615199679708 0.089394103230185817 -0.031752130880429122 0.10227084012412881 -0.030083184871488828 -0.028405654102955456 0.11224667158903545 -0.033479250890295749 -0.031930855008914717 0.11212901755550386 0.047160013698264273 0.13742224274262149 0.12184067476939024 0.1399177352353437 0.11538248613587708
leaf_weight=14.483973458409308 5.6876941919326809 150.23758180439472 168.7542145550251 9.9548445641994494 8.8665155917406064 5.7014455795288077 5.3639125227928153 3.8223728239536277 5.2615505903959265 17.983329772949219 9.940744072198866 5.2770139873027793 15.486906260251997 848.96157385408878 10.51303395628929 16.956276834011078 40.356342375278473
leaf_count=113 9 182 1327 23 68 8 39 27 6 139 78 7 62 526 9 8 50
internal_value=0.104567 0.127363 -0.0111386 0.058383 0.130057 -0.0300075 0.0991811 0.131392 0.108791 0.00205206 0.0217248 0.025691 0.11659 0.13579 0.0824415 0.125154 0.136555
internal_weight=1343.61 1122.39 221.215 46.759 1098.72 174.456 32.275 1084.58 180.927 23.671 15.2023 14.1435 165.724 903.653 14.3354 26.9111 889.318
internal_count=2681 1163 1518 183 1015 1335 70 940 328 148 84 75 244 612 36 31 576
is_linear=0
shrinkage=0.03


Tree=3
num_leaves=20
num_cat=0
split_feature=36 7 26 0 15 14 30 10 0 26 23 0 18 10 14 12 0 38 12
split_gain=3434.17 317.423 235.433 153.89 152.596 114.389 107.408 99.7453 93.5465 92.2714 50.5248 101.534 49.7779 90.7318 24.5617 8.87545 64.6063 5.48634 3.27455
threshold=0.018021851887755003 2.1855000000000007 -0.61559370248597534 2.2465000000000006 0.45867279500000008 0.4551816600000001 1.2076722320254201 0.96065362450712788 2.2515000000000005 -0.99635443704902682 1.0000000180025095e-35 2.2445000000000008 0.47205379500000005 0.68110119047619067 0.46763763000000008 2.4668571428571435 2.3845000000000005 0.051501867114984952 2.2538571428571434
decision_type=2 2 2 2 2 2 2 2 2 2 2 2 2 2 2 2 2 2 2
left_child=2 9 3 -1 5 6 8 -8 -3 -2 15 -12 17 -14 -13 18 -17 -7 -6
right_child=1 4 -4 -5 10 12 7 -9 -10 -11 11 14 13 -15 -16 16 -18 -19 -20
leaf_value=-0.031928243700511227 0.094955149131511457 0.10958967001978563 -0.034870219931901814 0.11037342711625335 0.09375935313929136 0.11903020916234756 -0.033985541210497128 0.07866976968522188 0.0061938749266965782 -0.033248135455782639 -0.030695885988362218 0.051989487583910546 0.11109057291871922 -0.03238263237299073 0.11818398581542894 0.017920404289235092 0.11598962475105029 0.077470026703382447 0.12405229756154872
leaf_weight=10.278693251311781 6.0514172017574337 35.818576239049435 167.05013863742352 17.403601482510567 19.683413818478584 99.296551316976547 16.485131166875366 10.90217090398073 10.216208457946776 16.824336118996143 5.5764219909906378 9.3915978223085386 8.2950810864567739 6.2696529477834693 25.063031449913979 7.613735929131507 39.926744058728218 11.014506459236143 901.57467459142208
leaf_count=82 9 49 1348 19 31 95 120 26 54 132 39 29 8 39 19 30 31 26 495
internal_value=0.0955557 0.114076 -0.0214006 0.0582122 0.116172 0.0909055 0.0597673 0.0119983 0.0872951 0.00315979 0.121042 0.0833178 0.108581 0.051121 0.102158 0.122512 0.101007 0.115627 0.123509
internal_weight=1424.74 1230 194.732 27.6823 1207.13 198.298 73.4221 27.3873 46.0348 22.8758 1008.83 40.0311 124.876 14.5647 34.4546 968.799 47.5405 110.311 921.258
internal_count=2681 1232 1449 101 1091 417 249 146 103 141 674 87 168 47 48 587 61 121 526
is_linear=0
shrinkage=0.03


Tree=4
num_leaves=19
num_cat=0
split_feature=36 39 0 38 14 19 38 4 0 14 0 25 4 21 39 16 33 16
split_gain=2920.54 315.743 212.046 186.06 118.454 123.205 92.9775 92.6966 47.1439 41.6776 32.3226 83.1009 49.5751 34.6017 20.175 11.0835 5.67665 3.90204
threshold=0.018021851887755003 0.082946875984862459 2.2465000000000006 0.03243319877907936 0.45050655000000001 2.7947814500000008 0.024433747497676853 0.030715669837916054 2.1815000000000002 0.44949585000000009 2.2355000000000005 1.0000000180025095e-35 0.008994707438609301 0.86535700584928588 0.017344909987751702 0.022364139999999953 4.5000000000000009 0.025470959999999956
decision_type=2 2 2 2 2 2 2 2 2 2 2 2 2 2 2 2 2 2
left_child=2 4 -1 -4 5 8 -7 -3 -2 -8 11 12 -6 -13 -10 16 -12 -17
right_child=1 7 3 -5 10 6 9 -9 14 -11 15 13 -14 -15 -16 17 -18 -19
leaf_value=-0.034688106917243333 -0.024965034310026522 -0.033542421801124246 0.11465432923623148 -0.032679994913197646 -0.026346279341507999 0.096566776415400374 -0.034254111993830355 0.092033631581880257 0.10460791502275608 0.067784780782524895 0.11268254101278995 0.074053109147809271 0.10424814923439625 -0.031773539887348448 0.064519208473476961 0.094665882914074476 0.098498427613657749 0.051897573098480941
leaf_weight=161.72874908149242 2.5513194277882567 19.163961701095108 16.757910445332531 12.988477632403372 2.3343849778175345 9.2199520319700259 16.636893361806873 6.1720758229494086 77.266197636723518 3.5492665544152251 959.32068337500095 3.3103906661272031 61.968302130699158 6.8476379588246346 21.116996131837368 9.2944010794162768 96.80665947496891 9.2511789351701719
leaf_count=1338 20 150 8 103 14 10 119 8 74 6 527 5 67 48 53 7 101 23
internal_value=0.0881853 0.104231 -0.0211242 0.0513029 0.106306 0.0777994 0.0227304 -0.000561053 0.093448 -0.0138895 0.109468 0.0867316 0.0991534 0.00612569 0.0967541 0.11096 0.111478 0.077155
internal_weight=1496.29 1304.81 191.475 29.7464 1279.47 130.341 29.4061 25.336 100.935 20.1862 1149.13 74.4607 64.3027 10.158 98.3832 1074.67 1056.13 18.5456
internal_count=2681 1232 1449 111 1074 282 135 158 147 125 792 134 81 53 127 658 628 30
is_linear=0
shrinkage=0.03


Tree=5
num_leaves=14
num_cat=0
split_feature=32 7 39 26 15 38 29 4 10 4 0 38 38
split_gain=2419.08 489.982 139.407 111.317 105.509 166.53 147.389 76.4446 61.3831 27.3022 16.1762 81.7978 7.29075
threshold=19.500000000000004 2.1855000000000007 0.082946875984862459 -0.99635443704902682 0.45714512571428573 0.034069475573103157 0.43767152142857152 0.030715669837916054 0.84805194805194817 0.0094818121635215514 2.2385000000000006 0.033932961293719255 0.069155846005460972
decision_type=2 2 2 2 2 2 2 2 2 2 2 2 2
left_child=1 -1 4 -2 5 9 -7 -4 -5 -3 11 -6 -12
right_child=3 2 7 8 10 6 -8 -9 -10 -11 12 -13 -14
leaf_value=-0.033591679317989974 0.087881206752778801 0.031632741354189357 -0.032386535814580696 -0.034548074388552875 -0.031621434128050033 -0.017008729488274841 0.069034019213697215 0.090191332039589345 0.088395489916915357 0.1051034691646693 0.10406742527734918 0.092875086848219893 0.090392960335682837
leaf_weight=25.763322748243809 6.3623680323362342 5.9183309972286215 11.559070877730848 155.22395417094231 4.8648083955049506 24.00992950797081 65.601714283227921 6.2265199422836295 2.80570363998413 107.45514208078384 1001.7916716635227 39.797976523637772 101.87432906031609
leaf_count=213 7 21 91 1311 29 159 141 6 1 72 493 42 95
internal_value=0.08203 0.0948517 0.0972926 -0.0266689 0.098391 0.0774162 0.0460305 0.0129634 -0.0318137 0.101591 0.102027 0.0788862 0.10289
internal_weight=1559.25 1394.86 1369.1 164.392 1351.31 202.985 89.6116 17.7856 158.03 113.373 1148.33 44.6628 1103.67
internal_count=2681 1362 1149 1319 1052 393 300 97 1312 93 659 71 588
is_linear=0
shrinkage=0.03


Tree=6
num_leaves=14
num_cat=0
split_feature=36 13 26 0 39 26 0 15 13 25 1 38 38
split_gain=2207.83 233.529 200.997 108.956 102.013 81.6666 65.3462 58.2334 145.501 71.8521 42.1718 27.8036 9.17488
threshold=0.018021851887755003 31.185500000000001 -0.61559370248597534 2.2465000000000006 0.082946875984862459 -0.99635443704902682 2.1975000000000002 0.45714512571428573 33.756000000000007 -0.98182534576205283 2.2475000000000005 0.033932961293719255 0.07775364316922366
decision_type=2 2 2 2 2 2 2 2 2 2 2 2 2
left_child=2 5 3 -1 7 -2 -6 8 9 -3 11 -9 -12
right_child=1 4 -4 -5 6 -7 -8 10 -10 -11 12 -13 -14
leaf_value=-0.031318340989950393 0.082338443577298887 -0.030467336734396649 -0.034360772939150595 0.087752579264840758 0.082389657459571899 -0.033188349713087033 -0.032052494969738547 -0.028983413146396676 -0.03309975162281651 0.084519443307953732 0.095488793080498305 0.062728354220037252 0.066442842695867754
leaf_weight=9.6137030050158518 6.6496440470218685 4.5433565974235526 155.10461668670177 20.211362436413765 6.667761072516444 18.660414353013039 9.9237312078475934 3.6728062480688086 10.050876967608927 171.38750956207514 1169.4765667617321 8.136639252305029 20.202766701579094
leaf_count=82 7 30 1348 19 9 153 78 24 69 215 599 17 31
internal_value=0.0768103 0.0894231 -0.0206257 0.0495521 0.09105 -0.000803378 0.0159231 0.0919352 0.075047 0.0813861 0.0944835 0.0340524 0.095053
internal_weight=1614.3 1429.37 184.93 29.8251 1404.06 25.3101 16.5915 1387.47 185.982 175.931 1201.49 11.8094 1189.68
internal_count=2681 1232 1449 101 1072 160 87 985 314 245 671 41 630
is_linear=0
shrinkage=0.03


Tree=7
num_leaves=14
num_cat=0
split_feature=36 13 26 0 39 26 11 15 13 32 1 38 12
split_gain=1951.1 202.982 191.278 98.3948 87.9052 76.0169 69.9517 51.2109 129.683 64.2874 36.2017 25.6456 9.06145
threshold=0.018021851887755003 31.185500000000001 -0.61559370248597534 2.2465000000000006 0.082946875984862459 -0.99635443704902682 0.38350000000000023 0.45714512571428573 33.756000000000007 11.500000000000002 2.2475000000000005 0.033932961293719255 2.4668571428571435
decision_type=2 2 2 2 2 2 2 2 2 2 2 2 2
left_child=2 5 3 -1 7 -2 -6 8 9 -3 11 -9 -12
right_child=1 4 -4 -5 6 -7 -8 10 -10 -11 12 -13 -14
leaf_value=-0.031115184973010936 0.07748938582775107 0.08051758764491769 -0.034200815379221997 0.082158246746788857 -0.032019625429927208 -0.032990395665287026 0.087175907762091553 -0.028705367570749644 -0.03283945309663245 0.0042429834015445152 0.08953926004042953 0.059364816323304842 0.072469277559129242
leaf_weight=9.3960016518831271 6.9121593534946468 171.75211860239506 151.21852222830057 20.995410725474358 10.336196705698969 18.22184432297945 6.3094528317451468 3.6078015342354766 9.8377796709537488 10.718355402350424 1176.8596326559782 8.3923174291849119 57.732226133346558
leaf_count=82 7 186 1348 19 83 153 4 24 69 59 567 17 63
internal_value=0.0723157 0.0836927 -0.0203843 0.0472145 0.0851514 -0.000747221 0.0154558 0.0859453 0.0703715 0.0760929 0.0882883 0.0326001 0.0888015
internal_weight=1662.29 1480.68 181.61 30.3914 1455.55 25.134 16.6456 1438.9 192.308 182.47 1246.59 12.0001 1234.59
internal_count=2681 1232 1449 101 1072 160 87 985 314 245 671 41 630
is_linear=0
shrinkage=0.03


Tree=8
num_leaves=13
num_cat=0
split_feature=36 26 13 0 39 26 11 15 13 40 7 38
split_gain=1739.8 182.334 178.349 89.4224 76.4779 70.9897 64.6614 45.7202 116.811 48.5127 19.6817 7.82253
threshold=0.018021851887755003 -0.61559370248597534 31.185500000000001 2.2465000000000006 0.082946875984862459 -0.99635443704902682 0.38350000000000023 0.45764751357142858 33.756000000000007 0.23775000000000004 2.1965000000000008 0.07775364316922366
decision_type=2 2 2 2 2 2 2 2 2 2 2 2
left_child=1 3 5 -1 7 -2 -6 8 9 -4 -9 -12
right_child=2 -3 4 -5 6 -7 -8 10 -10 -11 11 -13
leaf_value=-0.030915897636550848 0.073211382449001633 -0.034046610670043817 0.0051150267445744619 0.077305744404629492 -0.031802474458923972 -0.032797617673657811 0.08214660110092438 0.024812941142763355 -0.03258593724145737 0.075033513911048969 0.083669170216946878 0.058312971353473832
leaf_weight=9.1825482323765772 7.1511949002742794 147.40841244906187 9.5965740382671338 21.695413112640381 10.104898199439051 17.791465640068054 6.552199810743331 6.3088181465864173 9.6278447061777097 182.50097150355577 1254.086394444108 21.516445726156235
leaf_count=82 7 1348 38 19 83 153 4 19 69 212 616 31
internal_value=0.0684183 -0.0201528 0.0787788 0.0451153 0.0801007 -0.00069596 0.0150491 0.0808194 0.0664772 0.071593 0.0830216 0.0832887
internal_weight=1703.52 178.286 1525.24 30.878 1500.29 24.9427 16.6571 1483.64 201.725 192.098 1281.91 1275.6
internal_count=2681 1449 1232 101 1072 160 87 985 319 250 666 647
is_linear=0
shrinkage=0.03


Tree=9
num_leaves=14
num_cat=0
split_feature=36 26 13 0 39 26 11 15 13 25 1 7 12
split_gain=1562.72 174.062 158.074 81.7128 67.1704 66.485 60.0054 41.7197 105.594 61.9985 28.3847 23.4812 8.2535
threshold=0.018021851887755003 -0.61559370248597534 31.185500000000001 2.2465000000000006 0.082946875984862459 -0.99635443704902682 0.38350000000000023 0.45764751357142858 33.756000000000007 -0.98182534576205283 2.2475000000000005 2.2215000000000003 2.4668571428571435
decision_type=2 2 2 2 2 2 2 2 2 2 2 2 2
left_child=1 3 5 -1 7 -2 -6 8 9 -4 11 -9 -12
right_child=2 -3 4 -5 6 -7 -8 10 -10 -11 12 -13 -14
leaf_value=-0.030720239592215193 0.069408636957030256 -0.033897879733317357 -0.031746736757564308 0.073053807408360968 -0.031589993935229474 -0.032609721713103057 0.077728889922724947 -0.028819825275544293 -0.032338799474441987 0.070258127708715271 0.079540934314560732 0.054721782076743004 0.064209438141505801
leaf_weight=8.9733353927731532 7.3680348098278072 143.67432003468275 4.957465633749961 22.31762820482254 9.8778415918350237 17.369305409491062 6.7702035903930655 3.6321311071515074 9.4211499318480474 192.52469203621149 1242.3544056564569 8.6839790642261487 60.998948514461517
leaf_count=82 7 1348 31 19 83 153 4 24 69 219 564 15 63
internal_value=0.0649908 -0.0199306 0.0744989 0.0432182 0.0757072 -0.00064902 0.0146667 0.0763636 0.062854 0.0675429 0.0784376 0.0296579 0.0788743
internal_weight=1738.92 174.965 1563.96 31.291 1539.22 24.7373 16.648 1522.57 206.903 197.482 1315.67 12.3161 1303.35
internal_count=2681 1449 1232 101 1072 160 87 985 319 250 666 39 627
is_linear=0
shrinkage=0.03


Tree=10
num_leaves=16
num_cat=0
split_feature=36 26 13 0 26 21 13 40 4 2 13 38 5 26 5
split_gain=1412.89 166.376 141.214 75.0222 62.4231 50.6603 55.2003 43.5416 40.7672 32.5383 31.3834 12.0756 20.5408 16.3845 9.60773
threshold=0.018021851887755003 -0.61559370248597534 31.185500000000001 2.2465000000000006 -0.99635443704902682 1.0820255140221431 33.650500000000008 0.33525000000000005 0.041224125679884357 -0.032947874999999939 31.436500000000006 0.069155846005460972 -0.0083214285714284988 -0.78574730703237872 -0.0076785714285713489
decision_type=2 2 2 2 2 2 2 2 2 2 2 2 2 2 2
left_child=1 3 4 -1 -2 6 7 8 -4 -8 -9 14 -13 -14 -7
right_child=2 -3 5 -5 -6 11 9 10 -10 -11 -12 12 13 -15 -16
leaf_value=-0.03052798973866518 0.066005339982427275 -0.033754368341251666 0.067749331406486035 0.069294840360145299 -0.032426427354112317 0.028978561526172616 0.06488723674973329 0.063324414730404247 0.015975819868242949 -0.033192053125247221 -0.037288458949060528 -0.02625175803580361 0.027833107553235027 0.069531195842235285 0.076758623674801713
leaf_weight=8.7683487161993998 7.5639431774616268 140.01612734049559 414.50924035161734 22.867863789200783 16.955374456942081 5.4922690838575354 3.5313713103532782 3.5475198179483396 14.973742067813872 8.2743228822946531 6.2189077883958817 1.7660638913512219 11.673021346330641 80.492085322737694 1021.9843353554606
leaf_count=82 7 1348 413 19 153 10 3 2 47 57 30 9 23 56 422
internal_value=0.0619627 -0.0197171 0.0707499 0.0414941 -0.00060592 0.0718632 0.0628511 0.0645678 0.0659891 -0.000960952 0.00160565 0.0754275 0.0626386 0.0646215 0.0765331
internal_weight=1768.63 171.652 1596.98 31.6362 24.5193 1572.46 451.055 439.249 429.483 11.8057 9.76643 1121.41 93.9312 92.1651 1027.48
internal_count=2681 1449 1232 101 160 1072 552 492 460 60 32 520 88 79 432
is_linear=0
shrinkage=0.03


Tree=11
num_leaves=18
num_cat=0
split_feature=36 26 39 0 14 19 38 4 13 14 38 13 39 40 13 39 33
split_gain=1283.9 159.209 134.871 69.1651 59.9586 73.628 64.5796 59.7027 41.8734 30.8656 26.0576 25.9943 20.7046 52.8604 36.0758 28.7642 5.01778
threshold=0.018021851887755003 -0.61559370248597534 0.082946875984862459 2.2465000000000006 0.45050655000000001 2.7947814500000008 0.024433747497676853 0.030715669837916054 33.875500000000009 0.44949585000000009 0.034652281372943704 31.224500000000006 0.016655055986234703 0.33120000000000005 32.672500000000007 0.017796661811416953 4.5000000000000009
decision_type=2 2 2 2 2 2 2 2 2 2 2 2 2 2 2 2 2
left_child=1 3 4 -1 5 8 -7 -4 11 -8 -10 -2 16 15 -15 -14 -6
right_child=2 -3 7 -5 12 6 9 -9 10 -11 -12 -13 13 14 -16 -17 -18
leaf_value=-0.030338932058254945 -0.023840089826640921 -0.033615827654967595 -0.032768541145779047 0.065945439236937811 0.073817965854870729 0.065551127419924346 -0.036342405565244762 0.062520113234597871 0.054825590543369988 0.045557510370703179 -0.034932380297270652 0.06798884484954916 0.034109460421373389 -0.038603976150795707 0.046998917382658052 0.068402864183568404 0.063516672398503018
leaf_weight=8.567568667232992 2.3582298979163161 136.43361289054155 17.148828588426117 23.351516678929329 952.1410891264677 11.450431719422339 18.048562429845337 7.7803188413381568 3.9186741858720762 4.3637022674083701 6.1296361461281776 112.50063136219978 26.98153318464756 6.9683309718966475 9.0210699588060361 342.69262334704399 104.02563892304897
leaf_count=82 21 1348 150 19 383 10 119 8 4 6 37 85 48 35 11 232 83
internal_value=0.0592446 -0.0195116 0.0674092 0.0399191 0.068487 0.050232 0.0105622 -0.00170712 0.0608054 -0.0190675 0.00173004 0.065901 0.0704599 0.0636959 0.00952772 0.0660027 0.0728658
internal_weight=1793.88 168.353 1625.53 31.9191 1600.6 158.77 33.8627 24.9291 124.907 22.4123 10.0483 114.859 1441.83 385.664 15.9894 369.674 1056.17
internal_count=2681 1449 1232 101 1074 282 135 158 147 125 41 106 792 326 46 280 466
is_linear=0
shrinkage=0.03


Tree=12
num_leaves=20
num_cat=0
split_feature=36 26 39 0 15 40 40 38 35 39 14 0 38 39 12 25 2 2 38
split_gain=1172.81 152.501 122.098 63.998 55.2127 66.4209 42.9296 97.3767 40.9 34.5973 30.6368 20.4464 54.8786 11.4052 5.83741 20.7371 3.39387 17.8969 3.25017
threshold=0.018021851887755003 -0.61559370248597534 0.082946875984862459 2.2465000000000006 0.45764751357142858 0.23775000000000004 0.28765000000000002 0.047671486821912558 -0.24340068637074894 0.0126972234838579 0.46513012000000004 2.2385000000000006 0.033932961293719255 0.014180678338465402 2.4371428571428573 -0.61559370248597534 -0.042499999999999941 0.024499999999999956 0.019734614742543354
decision_type=2 2 2 2 2 2 2 2 2 2 2 2 2 2 2 2 2 2 2
left_child=1 3 4 -1 5 10 9 -8 16 -7 -2 12 -6 -14 18 -16 -4 -18 -13
right_child=2 -3 8 -5 11 6 7 -9 -10 -11 -12 14 13 -15 15 -17 17 -19 -20
leaf_value=-0.030152863691837253 -0.03518138920356758 -0.033482029258284987 0.065764034954066464 0.062939975143531515 -0.034579207798973215 -0.029107036234972836 0.051831012204058828 -0.035654825643827937 -0.032402489878113359 0.067444647928733767 0.054016699488169936 -0.0085358761599697089 0.073141005362877362 0.040775010285536366 0.066083250178804301 0.03103716810972966 -0.026174110557335029 0.062574961765959655 0.069376685335804142
leaf_weight=8.3709696754813177 10.850751616060732 132.92641931027174 3.4174129962921143 23.773600801825523 5.798575446009635 2.876840502023696 63.520991653203964 13.155271060764788 14.827714592218397 140.91905104368925 3.9125119745731345 0.24058778584003349 25.1490628272295 25.316399998962879 85.044322177767754 22.033690571784973 2.9386590495705622 3.5000414848327637 1225.5268806815147
leaf_count=82 75 1348 1 19 32 17 97 84 132 123 3 1 8 47 49 37 24 1 501
internal_value=0.056818 -0.0193137 0.0644469 0.0384735 0.0654526 0.0514117 0.0555231 0.0365361 -0.00164895 0.065315 -0.00952012 0.0677906 0.0480324 0.0580413 0.0685869 0.0592395 0.043202 0.0237943 0.0693532
internal_weight=1814.1 165.071 1649.03 32.1446 1624.34 235.235 220.472 76.6763 24.6838 143.796 14.7633 1389.11 56.264 50.4655 1332.85 107.078 9.85611 6.4387 1225.77
internal_count=2681 1449 1232 101 1074 399 321 181 158 140 78 675 87 55 588 86 26 25 502
is_linear=0
shrinkage=0.03


Tree=13
num_leaves=18
num_cat=0
split_feature=36 26 39 0 4 14 19 38 13 14 38 0 39 40 12 39 26
split_gain=1076.1 146.205 110.811 59.4083 53.6366 51.7595 64.4062 57.9467 37.3373 28.6609 28.0263 22.5773 18.2967 46.7402 33.8087 25.7482 0.693961
threshold=0.018021851887755003 -0.61559370248597534 0.082946875984862459 2.2465000000000006 0.030715669837916054 0.45050655000000001 2.7947814500000008 0.024433747497676853 33.875500000000009 0.44949585000000009 0.033932961293719255 2.1815000000000002 0.016655055986234703 0.33120000000000005 2.3214285714285716 0.017796661811416953 0.5163939593874618
decision_type=2 2 2 2 2 2 2 2 2 2 2 2 2 2 2 2 2
left_child=1 3 5 -1 -4 6 8 -8 11 -9 -10 -2 16 15 -15 -14 -7
right_child=2 -3 4 -5 -6 12 7 9 10 -11 -12 -13 13 14 -16 -17 -18
leaf_value=-0.029969597746011215 -0.023963755932661871 -0.033352755289012388 -0.032404406235793777 0.060226052035181693 0.05770557205815284 0.067073992769658405 0.059974274857656676 -0.036342435984416402 0.058008133413917633 0.042104905359500372 -0.035557755737330221 0.062247874059749055 0.030679999133899367 -0.038874656357790735 0.043566935432844497 0.062653409028781845 0.053707186987012642
leaf_weight=8.1785210296511632 2.2860292568802825 129.49410377442837 16.358141921460632 24.138783693313599 8.0412536561489087 1055.6792030781507 11.848712764680384 17.835270516574386 3.6811338663101179 4.4737364798784247 6.4924080222845078 115.8884122222662 27.54015026986599 6.9796329364180592 9.2256932854652387 352.31265462934971 29.389114826917648
leaf_count=82 20 1348 150 19 8 442 10 119 2 6 39 86 48 35 11 232 24
internal_value=0.0546329 -0.0191228 0.0617958 0.0371409 -0.0015453 0.0627374 0.0459861 0.00900354 0.0556711 -0.0194152 0.00032493 0.0603805 0.064542 0.0583004 0.00777647 0.0604258 0.0667631
internal_weight=1829.84 161.811 1668.03 32.3173 24.3994 1643.63 162.506 34.1577 128.348 22.309 10.1735 118.174 1481.13 396.058 16.2053 379.853 1085.07
internal_count=2681 1449 1232 101 158 1074 282 135 147 125 41 106 792 326 46 280 466
is_linear=0
shrinkage=0.03


end of trees

feature_importances:
max_waterlevel_6h=23
week_cos=21
waterlevel_cumrise_14d=20
waterlevel_7d_std=20
soilmoist_7d_std=19
soilmoist_anomaly_vs_30d=12
sensor_soilmoisture_mean_6h=11
sensor_soilmoisture_mean_24h=9
waterlevel_std_24h=8
waterlevel_lag_2d=8
days_since_flood_level=8
waterlevel_mean_7d=7
soil_saturation=6
max_waterlevel_24h=5
week_sin=5
waterlevel_slope_3h=4
waterlevel_distance_to_max=4
waterlevel_x_soilmoisture=4
waterlevel_rise_rate_48h=3
waterlevel_lag_1d=3
waterlevel_pct_rank_30d=3
humidity_mean_24h=3
sensor_soilmoisture_trend_6h=2
soilmoisture_monsoon=2
waterlevel_falling_streak=2
waterlevel_lag_3d=1
soilmoisture_lag_2d=1
season_sin=1
season_cos=1
humidity_x_soilmoisture=1
humidity_anomaly_vs_30d=1

parameters:
[boosting: gbdt]
[objective: binary]
[metric: binary_logloss]
[tree_learner: serial]
[device_type: cpu]
[data_sample_strategy: bagging]
[data: ]
[valid: ]
[num_iterations: 800]
[learning_rate: 0.03]
[num_leaves: 63]
[num_threads: 12]
[seed: 42]
[deterministic: 0]
[force_col_wise: 0]
[force_row_wise: 0]
[histogram_pool_size: -1]
[max_depth: 6]
[min_data_in_leaf: 10]
[min_sum_hessian_in_leaf: 0.001]
[bagging_fraction: 0.75]
[pos_bagging_fraction: 1]
[neg_bagging_fraction: 1]
[bagging_freq: 0]
[bagging_seed: 400]
[bagging_by_query: 0]
[feature_fraction: 0.8]
[feature_fraction_bynode: 1]
[feature_fraction_seed: 30056]
[extra_trees: 0]
[extra_seed: 12879]
[early_stopping_round: 0]
[early_stopping_min_delta: 0]
[first_metric_only: 0]
[max_delta_step: 0]
[lambda_l1: 0.05]
[lambda_l2: 1]
[linear_lambda: 0]
[min_gain_to_split: 0]
[drop_rate: 0.1]
[max_drop: 50]
[skip_drop: 0.5]
[xgboost_dart_mode: 0]
[uniform_drop: 0]
[drop_seed: 17869]
[top_rate: 0.2]
[other_rate: 0.1]
[min_data_per_group: 100]
[max_cat_threshold: 32]
[cat_l2: 10]
[cat_smooth: 10]
[max_cat_to_onehot: 4]
[top_k: 20]
[monotone_constraints: ]
[monotone_constraints_method: basic]
[monotone_penalty: 0]
[feature_contri: ]
[forcedsplits_filename: ]
[refit_decay_rate: 0.9]
[cegb_tradeoff: 1]
[cegb_penalty_split: 0]
[cegb_penalty_feature_lazy: ]
[cegb_penalty_feature_coupled: ]
[path_smooth: 0]
[interaction_constraints: ]
[verbosity: -1]
[saved_feature_importance_type: 0]
[use_quantized_grad: 0]
[num_grad_quant_bins: 4]
[quant_train_renew_leaf: 0]
[stochastic_rounding: 1]
[linear_tree: 0]
[max_bin: 255]
[max_bin_by_feature: ]
[min_data_in_bin: 3]
[bin_construct_sample_cnt: 200000]
[data_random_seed: 175]
[is_enable_sparse: 1]
[enable_bundle: 1]
[use_missing: 1]
[zero_as_missing: 0]
[feature_pre_filter: 1]
[pre_partition: 0]
[two_round: 0]
[header: 0]
[label_column: ]
[weight_column: ]
[group_column: ]
[ignore_column: ]
[categorical_feature: ]
[forcedbins_filename: ]
[precise_float_parser: 0]
[parser_config_file: ]
[objective_seed: 16083]
[num_class: 1]
[is_unbalance: 0]
[scale_pos_weight: 15]
[sigmoid: 1]
[boost_from_average: 1]
[reg_sqrt: 0]
[alpha: 0.9]
[fair_c: 1]
[poisson_max_delta_step: 0.7]
[tweedie_variance_power: 1.5]
[lambdarank_truncation_level: 30]
[lambdarank_norm: 1]
[label_gain: ]
[lambdarank_position_bias_regularization: 0]
[eval_at: ]
[multi_error_top_k: 1]
[auc_mu_weights: ]
[num_machines: 1]
[local_listen_port: 12400]
[time_out: 120]
[machine_list_filename: ]
[machines: ]
[gpu_platform_id: -1]
[gpu_device_id: -1]
[gpu_use_dp: 0]
[num_gpu: 1]

end of parameters

pandas_categorical:[]
