tree
version=v4
num_class=1
num_tree_per_iteration=1
label_index=0
max_feature_idx=39
objective=binary sigmoid:1
feature_names=max_waterlevel_6h max_waterlevel_24h waterlevel_slope_3h waterlevel_slope_6h waterlevel_std_24h waterlevel_rise_rate_48h waterlevel_lag_1d waterlevel_lag_2d waterlevel_lag_3d waterlevel_days_above_threshold waterlevel_pct_rank_30d waterlevel_distance_to_max waterlevel_mean_7d waterlevel_cumrise_14d sensor_soilmoisture_mean_6h sensor_soilmoisture_mean_24h sensor_soilmoisture_trend_6h soilmoisture_lag_1d soilmoisture_lag_2d humidity_mean_24h humidity_trend_6h waterlevel_x_soilmoisture humidity_x_waterlevel_slope season_sin season_cos week_sin week_cos is_monsoon_season waterlevel_monsoon soilmoisture_monsoon humidity_x_soilmoisture soilmoisture_trend_3d days_since_flood_level waterlevel_falling_streak post_flood_decay_7d humidity_anomaly_vs_30d soilmoist_anomaly_vs_30d late_season_wet_flag waterlevel_7d_std soilmoist_7d_std
feature_infos=[0.59748816000000005:2.5790000000000002] [0.65394739999999996:2.5790000000000002] [-1.5628677999999998:1.6080061299999999] [-1.5628677999999998:1.6080061299999999] [0.0031014589499496:0.85209459530129728] [-0.1179243785714285:0.1070525385714285] [0.59748816000000005:2.5790000000000002] [0.59748816000000005:2.5790000000000002] [0.59748816000000005:2.5790000000000002] [0:86] [0.0047619047619046999:1] [0:1.9541983599999999] [0.70147270571428577:2.5790000000000002] [10.5840344:35.537000000000006] [0.22371621:0.49812856] [0.22401127000000001:0.48080359571428571] [-0.043703799999999897:0.1844977099999999] [0.22371621:0.49812856] [0.22371621:0.49812856] [0.66739007714285725:4.8692490428571427] [-6.4436203800000005:6.5878532100000005] [0.1742193226235314:1.2317317373957144] [0:4.6226634397639748] [-1:1] [-1:1] [-1:1] [-1:1] [0:1] [0:2.5790000000000002] [0:0.48080359571428571] [0.2262906610028485:2.2197940327375609] [-0.1300896799999999:0.24581511] [0:227] [0:21] [-1.5213374999999998:1.7080538999999999] [-2.0856294710000003:2.2854443635714281] [-0.17582188472789109:0.17246873904081619] [0:1] [0.017956935446014399:0.77529151259516482] [0.0038033501157871:0.10545239538209129]
tree_sizes=1962 1493 1792 1799 1600 2021 1601 1714 1606 1613 1612 2247

Tree=0
num_leaves=18
num_cat=0
split_feature=36 39 15 0 13 13 32 1 0 36 4 6 7 10 12 7 2
split_gain=6452.79 767.348 408.008 266.197 265.59 225.986 206.487 150.191 131.291 127.444 86.1244 83.9166 45.8971 27.9654 11.0674 132.799 10.5631
threshold=0.018021851887755003 0.079817188273421921 0.45764751357142858 2.2465000000000006 33.756000000000007 31.575000000000006 12.500000000000002 2.2475000000000005 0.76688002000000011 0.14692275765461124 0.019285447510807654 2.1855000000000007 2.2215000000000003 0.84805194805194817 2.4668571428571435 2.3565000000000005 0.012619749999999902
decision_type=2 2 2 2 2 2 2 2 2 2 2 2 2 2 2 2 2
left_child=3 2 4 -1 6 13 11 12 -8 -3 -11 -2 -4 -5 -9 -16 -12
right_child=1 9 7 5 -6 -7 8 14 -10 10 16 -13 -14 -15 15 -17 -18
leaf_value=-1.7074868203484432 -1.6409858838261584 -1.705723065881777 -1.6996118805639231 -1.6156606771359856 -1.7040485529198888 -1.7047113057928711 -1.5206483525537222 -1.4914211203111816 -1.7045428060229326 -1.7004513546424578 -1.6107536626662542 -1.5220957493982206 -1.5740788330427993 -1.504689921926379 -1.6991146797645842 -1.5082683956738041 -1.5204121102422836
leaf_weight=178.13936305046082 6.2575112581253043 17.840564012527466 3.5947405099868757 4.260433197021487 9.1865590810775739 11.449914216995237 3.9941561222076407 719.08124053478241 10.784221529960631 4.1272946596145621 3.9941561222076398 115.56425046920776 5.9912341833114624 10.251667380332945 3.3284634351730338 33.018357276916504 6.3906497955322266
leaf_count=1338 33 134 27 18 69 86 2 557 81 31 16 196 17 7 25 38 6
internal_value=-1.5415 -1.50843 -1.50334 -1.69435 -1.55111 -1.60629 -1.54066 -1.4944 -1.64849 -1.6527 -1.58946 -1.52789 -1.61945 -1.53144 -1.49289 -1.52604 -1.54659
internal_weight=1147.25 943.153 910.801 204.101 145.787 25.962 136.6 765.014 14.7784 32.3527 14.5121 121.822 9.58597 14.5121 755.428 36.3468 10.3848
internal_count=2681 1232 1045 1449 381 111 312 664 83 187 53 229 44 25 620 63 22
is_linear=0
shrinkage=1


Tree=1
num_leaves=13
num_cat=0
split_feature=36 13 26 39 15 13 13 26 11 13 7 25
split_gain=5061.2 590.196 267.051 266.286 182.491 237.943 177.76 120.668 113.803 62.7529 43.8927 15.6297
threshold=0.018021851887755003 31.185500000000001 -0.61559370248597534 0.082946875984862459 0.45764751357142858 33.756000000000007 31.436500000000006 -0.99635443704902682 0.38350000000000023 31.393500000000007 2.1965000000000008 -0.12053668025532319
decision_type=2 2 2 2 2 2 2 2 2 2 2 2
left_child=2 7 6 4 5 9 -1 -2 -5 -3 -6 -12
right_child=1 3 -4 8 10 -7 -8 -9 -10 -11 11 -13
leaf_value=-0.032011134658966087 0.11764890643315168 0.15663153677064176 -0.03523960079343591 -0.032476794645474524 0.048170285343236766 -0.031757567294928173 0.12613818409909061 -0.033926274825062414 0.13218705545535908 0.10771038529883245 0.15515290673720314 0.12731625912239902
leaf_weight=9.7531919330358523 5.0682723969221142 43.444541916251183 175.3368746638298 10.955326884984968 4.7356109023094168 8.9865986108779889 15.828989982604979 20.383655026555061 4.5499282181262961 92.897635981440544 808.23376609385014 51.357620447874069
leaf_count=75 7 30 1348 83 19 69 26 153 4 220 567 80
internal_value=0.115891 0.142252 -0.0219666 0.145791 0.147686 0.114523 0.0668514 -0.000379638 0.0208332 0.124337 0.153122 0.153641
internal_weight=1251.53 1050.61 200.919 1025.16 1009.66 145.329 25.5822 25.4519 15.5053 136.342 864.327 859.591
internal_count=2681 1232 1449 1072 985 319 101 160 87 250 666 647
is_linear=0
shrinkage=0.03


Tree=2
num_leaves=16
num_cat=0
split_feature=14 13 26 13 39 1 15 26 11 15 13 32 0 38 38
split_gain=3967.39 481.748 323.621 213.198 167.38 148.805 127.484 109.979 95.7325 91.7051 166.64 111.621 52.4501 94.1651 5.74899
threshold=0.4340346000000001 31.185500000000001 -0.61559370248597534 31.224500000000006 0.082946875984862459 2.2675000000000005 0.45617200285714282 -0.99635443704902682 0.38350000000000023 0.45826395642857148 33.76850000000001 10.500000000000002 2.2215000000000003 0.066795914264837206 0.07775364316922366
decision_type=2 2 2 2 2 2 2 2 2 2 2 2 2 2 2
left_child=2 7 3 -1 9 -5 -4 -2 -6 10 11 -3 13 -11 -14
right_child=1 4 6 5 8 -7 -8 -9 -10 12 -12 -13 14 -15 -16
leaf_value=-0.033192471090451425 0.10766691832978688 0.1232933326145902 -0.035090573578678154 0.1309090180415608 -0.03179619774428008 -0.030879935021640128 0.095776228247641287 -0.033676210776433617 0.12014636400386981 -0.030509321290414861 -0.030767636574243112 0.02919825849125179 0.13708603191665719 0.120044593268823 0.098714254159736961
leaf_weight=15.175242707133291 5.4583529531955746 128.02396892011166 168.95991693437099 25.957409337162975 9.1861382573842985 5.8827765434980384 6.025545820593833 20.27678570151329 4.9493797719478598 4.9838327765464774 7.0440020710229865 13.285065248608587 902.0858910381794 10.633319512009619 15.74437242746353
leaf_count=117 7 162 1325 25 71 41 10 157 4 33 55 66 573 9 26
internal_value=0.104564 0.127479 -0.0112626 0.0578258 0.13049 0.100941 -0.0300571 -0.000735757 0.0257286 0.131832 0.107647 0.114725 0.135555 0.072964 0.136538
internal_weight=1343.67 1121.67 222.001 47.0154 1095.94 31.8402 174.985 25.7351 14.1355 1081.8 148.353 141.309 933.447 15.6172 917.83
internal_count=2681 1163 1518 183 999 66 1335 164 75 924 283 228 641 42 599
is_linear=0
shrinkage=0.03


Tree=3
num_leaves=16
num_cat=0
split_feature=14 13 26 13 39 1 21 26 8 15 26 13 0 38 12
split_gain=3283.55 389.507 302.111 186.953 131.908 125.599 125.457 100.584 80.6705 69.9575 148.398 70.3112 38.8974 82.0167 4.66433
threshold=0.4340346000000001 31.185500000000001 -0.61559370248597534 31.224500000000006 0.082946875984862459 2.2675000000000005 1.1030619511414288 -0.99635443704902682 2.1815000000000002 0.45826395642857148 0.40966402954315179 33.756000000000007 2.2215000000000003 0.066795914264837206 2.2498571428571434
decision_type=2 2 2 2 2 2 2 2 2 2 2 2 2 2 2
left_child=2 7 3 -1 9 -5 -4 -2 -6 10 11 -3 13 -11 -14
right_child=1 4 6 5 8 -7 -8 -9 -10 12 -12 -13 14 -15 -16
leaf_value=-0.032975360725062866 0.099293366201560332 0.10919813263087413 -0.034909476411611295 0.11792925483424954 0.10508539339919981 -0.030619369745521836 0.09483670479324588 -0.033466463430346323 -0.031510072721611965 -0.03023363059375556 -0.031493047796902623 0.016369375006904267 0.0862110465355969 0.1095799431545947 0.12295127697701153
leaf_weight=14.828726544976233 5.8195659369230297 142.66077567636967 165.17109701782465 28.025599837303162 5.5504868924617758 5.7651441320776931 6.0406728088855735 19.805151529610157 8.7518387362360937 4.8889563381671932 7.1593434214591971 8.1860665380954725 13.71152552962303 11.38249486684799 977.26156078279018
leaf_count=117 7 186 1327 25 6 41 8 157 69 33 52 45 23 9 576
internal_value=0.0955328 0.114968 -0.0110463 0.05423 0.117479 0.0923902 -0.029799 -0.000662437 0.0248053 0.118593 0.0979892 0.104311 0.121724 0.0681662 0.122532
internal_weight=1425.01 1205.18 219.831 48.6195 1179.55 33.7907 171.212 25.6247 14.3023 1165.25 158.006 150.847 1007.24 16.2715 990.973
internal_count=2681 1163 1518 183 999 66 1335 164 75 924 283 231 641 42 599
is_linear=0
shrinkage=0.03


Tree=4
num_leaves=14
num_cat=0
split_feature=36 13 26 0 39 26 15 13 32 8 1 25 12
split_gain=2916.37 311.258 223.842 141.356 135.876 92.1895 79.2771 149.115 104.227 75.9273 53.7101 28.9752 9.60461
threshold=0.018021851887755003 31.185500000000001 -0.61559370248597534 2.2465000000000006 0.082946875984862459 -0.99635443704902682 0.45764751357142858 33.756000000000007 11.500000000000002 2.1795000000000004 2.2475000000000005 -0.060268340127661552 2.4668571428571435
decision_type=2 2 2 2 2 2 2 2 2 2 2 2 2
left_child=2 5 3 -1 6 -2 7 8 -3 -6 11 -8 -12
right_child=1 4 -4 -5 9 -7 10 -9 -10 -11 12 -13 -14
leaf_value=-0.031932463043851701 0.092174363993413555 0.099657819709216611 -0.034692107782388494 0.10349998694901089 0.094405348720858637 -0.03330046732914959 0.068991602973816984 -0.031344578521987444 0.0036588606778907139 -0.031903239622103514 0.11207546512807431 -0.028491063861168602 0.091272416190681466
leaf_weight=10.239318832755091 6.152808383107188 154.77672196924686 162.9710833132267 18.191926091909409 6.0420094132423428 19.020205490291119 7.7204155623912811 8.6234638541936857 11.00828644633293 10.040930993854998 1027.8141418397427 3.3123659044504148 50.761576950550079
leaf_count=82 7 190 1348 19 7 153 18 69 60 80 564 21 63
internal_value=0.0881502 0.104176 -0.021107 0.0552462 0.106229 -0.00022453 0.107333 0.0870349 0.0933525 0.0182089 0.110497 0.0396643 0.111183
internal_weight=1496.68 1305.27 191.402 28.4312 1280.1 25.173 1264.02 174.408 165.785 16.0829 1089.61 11.0328 1078.58
internal_count=2681 1232 1449 101 1072 160 985 319 250 87 666 39 627
is_linear=0
shrinkage=0.03


Tree=5
num_leaves=18
num_cat=0
split_feature=36 39 26 0 14 19 38 4 0 14 0 38 26 39 33 29 39
split_gain=2518.72 257.374 212.052 125.378 115.793 120.57 87.5091 85.2996 41.5632 39.5749 31.795 85.5305 71.0911 19.8194 9.25333 48.5398 9.21943
threshold=0.018021851887755003 0.082946875984862459 -0.61559370248597534 2.2465000000000006 0.45050655000000001 2.7947814500000008 0.024433747497676853 0.030715669837916054 2.1815000000000002 0.44949585000000009 2.2215000000000003 0.066795914264837206 -0.99635443704902682 0.017344909987751702 4.5000000000000009 0.44764488500000005 0.016655055986234703
decision_type=2 2 2 2 2 2 2 2 2 2 2 2 2 2 2 2 2
left_child=2 4 3 -1 5 8 -7 -3 -2 -8 11 12 -6 -10 16 -16 -12
right_child=1 7 -4 -5 10 6 9 -9 13 -11 14 -13 -14 -15 15 -17 -18
leaf_value=-0.031716444187618466 -0.025040008606258133 -0.033146578935631027 -0.034520015833631186 0.095513839067103187 0.087289692263730442 0.087859559495042414 -0.035223183004412989 0.086335519656103504 0.096178182732289064 0.061783805654596805 0.10552279779586245 0.10554068780067427 -0.033517275867491217 0.058398082533637617 -0.027576274332861653 0.092498918365721203 0.095823856291100837
leaf_weight=10.010066002607347 2.550615467131137 18.274891845881942 158.935985468328 19.188961461186409 6.3595361411571529 9.8180617392063159 17.73484389483929 6.4583068937063208 81.428726263344288 3.777055248618125 783.91521112620831 23.940003544092178 9.9248863831162435 22.264487974345684 2.6812857314944258 107.07147601246834 275.31997090578079
leaf_count=82 20 150 1348 19 6 10 119 8 74 6 367 14 67 53 17 98 223
internal_value=0.0819905 0.0961022 -0.0208416 0.0522409 0.0978621 0.0706104 0.0181168 0.000136791 0.0857629 -0.0161362 0.1009 0.070551 0.0158952 0.0887158 0.101882 0.0893294 0.103096
internal_weight=1559.65 1371.52 188.135 29.199 1346.79 137.574 31.33 24.7332 106.244 21.5119 1209.21 40.2244 16.2844 103.693 1168.99 109.753 1059.24
internal_count=2681 1232 1449 101 1074 282 135 158 147 125 792 87 73 127 705 115 590
is_linear=0
shrinkage=0.03


Tree=6
num_leaves=14
num_cat=0
split_feature=36 13 0 38 39 13 8 15 13 18 0 38 38
split_gain=2203.35 228.607 193.343 154.28 95.9832 72.8911 64.7191 58.5666 133.066 44.2068 23.1691 86.9289 6.62579
threshold=0.018021851887755003 31.185500000000001 2.2465000000000006 0.03243319877907936 0.082946875984862459 11.324246170000002 2.1795000000000004 0.45867279500000008 33.76850000000001 0.47685388000000001 2.2385000000000006 0.03643184494499116 0.069155846005460972
decision_type=2 2 2 2 2 2 2 2 2 2 2 2 2
left_child=2 5 -1 -4 7 -2 -6 8 9 -3 11 -9 -12
right_child=1 4 3 -5 6 -7 -8 10 -10 -11 12 -13 -14
leaf_value=-0.03435796412823517 0.07420874098725877 0.08410513855411228 0.10032003883769559 -0.03244748337633431 0.083336036562479412 -0.032953526274191416 -0.03154292333057624 -0.033116507170836688 -0.032073407517902851 0.011958792173666329 0.096550637740657821 0.085986010565816742 0.083973390098084466
leaf_weight=153.9041632860899 7.1990566849708584 193.48594777286053 18.319036126136783 12.624551825225351 6.591620251536372 17.836042828857899 9.6427926048636419 5.9596906602382651 9.2607271000742895 8.3822515010833722 1030.8534522503614 34.537948071956635 106.12933152914047
leaf_count=1338 11 239 8 103 7 149 80 35 71 31 483 33 93
internal_value=0.0767752 0.0893685 -0.0205878 0.0467857 0.0909687 -0.000413763 0.0171431 0.0918177 0.0760876 0.0811905 0.09457 0.0680469 0.0954528
internal_weight=1614.73 1429.88 184.848 30.9436 1404.84 25.0351 16.2344 1388.61 211.129 201.868 1177.48 40.4976 1136.98
internal_count=2681 1232 1449 111 1072 160 87 985 341 270 644 68 576
is_linear=0
shrinkage=0.03


Tree=7
num_leaves=15
num_cat=0
split_feature=36 13 26 0 39 26 11 14 19 38 13 39 0 33
split_gain=1947.14 198.802 192.016 101.453 82.5471 74.3629 67.7846 53.1212 66.3231 71.8754 54.9261 16.7718 38.9035 4.70029
threshold=0.018021851887755003 31.185500000000001 -0.61559370248597534 2.2465000000000006 0.082946875984862459 -0.99635443704902682 0.38350000000000023 0.45050655000000001 2.7947814500000008 0.026448704467708754 33.875500000000009 0.016655055986234703 2.2215000000000003 8.5000000000000018
decision_type=2 2 2 2 2 2 2 2 2 2 2 2 2 2
left_child=2 5 3 -1 7 -2 -6 8 10 -10 -3 13 -13 -9
right_child=1 4 -4 -5 6 -7 -8 11 9 -11 -12 12 -14 -15
leaf_value=-0.031279404424402968 0.076439821362126778 0.083441237216778069 -0.034196339234771375 0.083303637894747554 -0.031647332746305809 -0.032817664434128306 0.086365111481875534 0.090707350797007924 0.084576938530219317 -0.012794228783997443 0.0067771168013881925 0.026861514815837619 0.082728509090793628 0.065885714616087929
leaf_weight=9.5443635880947131 6.9701574593782452 102.63509054481983 151.13022654503584 20.828275144100189 9.9298575446009654 17.904546469449997 6.3532130420207968 939.86083909124136 9.9067919850349444 17.590954430401325 9.4021986424922925 12.943158581852911 327.65725240111351 19.972054988145828
leaf_count=82 7 87 1348 19 83 153 4 441 5 90 41 42 254 25
internal_value=0.0722886 0.0836478 -0.020349 0.0473997 0.0850833 -0.000373556 0.016644 0.0858441 0.066916 0.0239705 0.0771377 0.087821 0.0806947 0.0902615
internal_weight=1662.63 1481.13 181.503 30.3726 1456.25 24.8747 16.2831 1439.97 139.535 27.4977 112.037 1300.43 340.6 959.833
internal_count=2681 1232 1449 101 1072 160 87 985 223 95 128 762 296 466
is_linear=0
shrinkage=0.03


Tree=8
num_leaves=14
num_cat=0
split_feature=36 26 13 0 39 26 8 15 13 32 1 7 6
split_gain=1736.21 182.998 174.591 92.1063 71.7338 69.4819 55.6977 49.4052 104.355 73.2289 35.6567 25.0357 7.41706
threshold=0.018021851887755003 -0.61559370248597534 31.185500000000001 2.2465000000000006 0.082946875984862459 -0.99635443704902682 2.1795000000000004 0.45764751357142858 33.756000000000007 11.500000000000002 2.2475000000000005 2.2215000000000003 2.4365000000000001
decision_type=2 2 2 2 2 2 2 2 2 2 2 2 2
left_child=1 3 5 -1 7 -2 -6 8 9 -4 11 -9 -12
right_child=2 -3 4 -5 6 -7 -8 10 -10 -11 12 -13 -14
leaf_value=-0.031076810323741402 0.072281066349010034 -0.03404228531945102 0.075280205208796594 0.078308341519535807 0.074465501836779899 -0.032629336848428669 -0.031163850117427935 -0.029547027041320912 -0.031663088377728778 -0.00071481556989770362 0.084047597964893042 0.055607930139007992 0.065418780225859369
leaf_weight=9.3281778842210787 7.2038604617118862 147.32178324460983 181.72769747674465 21.544472128152847 7.0660392642021206 17.479844003915787 9.2341482788324338 3.8033199906349173 8.860839791595934 12.110339835286139 1229.3202741444111 8.6358967870473844 40.38267582654953
leaf_count=82 7 1348 190 19 7 153 80 24 69 60 582 15 45
internal_value=0.06839 -0.0201165 0.0787336 0.0452725 0.0800341 -0.000330999 0.0161967 0.0807225 0.0659365 0.0705453 0.0830057 0.0291988 0.0835082
internal_weight=1704.02 178.194 1525.82 30.8727 1501.14 24.6837 16.3002 1484.84 202.699 193.838 1282.14 12.4392 1269.7
internal_count=2681 1449 1232 101 1072 160 87 985 319 250 666 39 627
is_linear=0
shrinkage=0.03


Tree=9
num_leaves=14
num_cat=0
split_feature=36 26 13 0 26 39 11 15 13 32 0 39 13
split_gain=1559.87 174.662 154.733 84.0905 65.1024 63.0806 58.9369 44.7063 94.4382 65.2409 20.1128 52.143 5.97688
threshold=0.018021851887755003 -0.61559370248597534 31.185500000000001 2.2465000000000006 -0.99635443704902682 0.082946875984862459 0.38350000000000023 0.45764751357142858 33.756000000000007 11.500000000000002 2.2385000000000006 0.018559781872335354 34.08100000000001
decision_type=2 2 2 2 2 2 2 2 2 2 2 2 2
left_child=1 3 4 -1 -2 7 -7 8 9 -4 11 -9 -12
right_child=2 -3 5 -5 -6 6 -8 10 -10 -11 12 -13 -14
leaf_value=-0.030878027371785747 0.068578198653225605 -0.033893701552919667 0.070978647693972649 0.073940032650278889 -0.032445655996043106 -0.031326768932655513 0.077761889346181584 0.072467070903447173 -0.031437345296167984 -0.00069527574786608121 0.079924866980625939 -0.00066882729956731527 0.066397787718669429
leaf_weight=9.1162272021174449 7.4156672805547741 143.58935372531414 186.93576496839523 22.181636586785316 17.063394457101822 9.5391079559922236 6.7720007896423331 41.50882525742054 8.6668497398495656 12.105329811573027 1195.5969977676868 10.981364518404005 67.72856393456459
leaf_count=82 7 1348 190 19 153 83 4 36 69 60 523 43 64
internal_value=0.0649723 -0.0198934 0.0744678 0.0433521 -0.000292294 0.0756566 0.0157534 0.0762862 0.0624002 0.0666304 0.078428 0.057412 0.0792539
internal_weight=1739.2 174.887 1564.31 31.2979 24.4791 1539.83 16.3111 1523.52 207.708 199.041 1315.82 52.4902 1263.33
internal_count=2681 1449 1232 101 160 1072 87 985 319 250 666 79 587
is_linear=0
shrinkage=0.03


Tree=10
num_leaves=14
num_cat=0
split_feature=32 13 26 14 13 15 10 39 5 13 15 38 13
split_gain=1404.16 306.916 83.0944 69.213 103.12 57.762 45.8266 38.0993 75.3629 77.2102 22.903 24.4619 13.5034
threshold=19.500000000000004 31.185500000000001 -0.99635443704902682 0.4340346000000001 31.548000000000005 0.45617200285714282 0.84805194805194817 0.029571114075603356 0.0056785714285714009 31.625000000000004 0.43891365857142856 0.084042898085499265 33.920000000000009
decision_type=2 2 2 2 2 2 2 2 2 2 2 2 2
left_child=1 -1 -2 4 -3 -6 -4 10 9 -9 11 -5 -12
right_child=2 3 6 7 5 -7 -8 8 -10 -11 12 -13 -14
leaf_value=-0.032798034316138168 0.06525932345033264 0.073235409887027064 -0.033931811937111395 -0.031504048716205463 -0.034628099159109409 0.056309882514635604 0.065025423406402424 0.059584811747177259 0.079852011997626982 -0.00015286908093232858 0.075842092243897874 0.067377502140831977 0.061385971160755427
leaf_weight=25.137210637331009 7.6068365275859824 33.587038040161133 138.70093259960413 3.7421586215496054 18.276967741549019 8.3309885263442975 3.4369173049926749 51.147230558097363 73.842411637306213 30.989062383770943 1279.3432763665915 3.3742272853851318 91.276539176702499
leaf_count=236 7 29 1311 23 138 10 1 76 28 119 599 1 103
internal_value=0.061951 0.0700776 -0.0257861 0.0717205 0.0390702 -0.00509266 -0.031091 0.0729747 0.0578334 0.0372977 0.0746446 0.0177206 0.0749259
internal_weight=1768.79 1619.05 149.745 1593.91 60.195 26.608 142.138 1533.71 155.979 82.1363 1377.74 7.11639 1370.62
internal_count=2681 1362 1319 1126 177 148 1312 949 223 195 726 24 702
is_linear=0
shrinkage=0.03


Tree=11
num_leaves=20
num_cat=0
split_feature=36 26 39 13 14 19 38 35 13 14 38 13 39 11 38 33 2 2 16
split_gain=1280.71 160.844 126.424 63.2341 61.7618 73.1638 62.0938 43.1149 38.4633 32.4128 29.1583 25.6537 16.6671 46.0754 19.6044 4.71647 3.23188 18.3376 0.831755
threshold=0.018021851887755003 -0.61559370248597534 0.082946875984862459 31.436500000000006 0.45050655000000001 2.7947814500000008 0.024433747497676853 -0.24340068637074894 33.875500000000009 0.44949585000000009 0.033932961293719255 31.224500000000006 0.016655055986234703 0.0095000000000002513 0.068773839780917112 4.5000000000000009 -0.042499999999999941 0.024499999999999956 0.017264809999999905
decision_type=2 2 2 2 2 2 2 2 2 2 2 2 2 2 2 2 2 2 2
left_child=1 3 4 -1 5 8 -7 16 11 -8 -10 -2 15 -14 -15 -6 -4 -18 -5
right_child=2 -3 7 18 12 6 9 -9 10 -11 -12 -13 13 14 -16 -17 17 -19 -20
leaf_value=-0.030167580549133041 -0.023860980939008007 -0.033613739587692558 0.068800488844119212 0.044939341842345638 0.073573819382209027 0.064030265568636557 -0.036330834229329111 -0.032307053254375835 0.062323318227718527 0.047965233067061699 -0.034495347046123954 0.067356484647856291 -0.036379864221383985 0.06692845733278828 0.034773569541778661 0.063432150166752521 -0.025770770943290375 0.065249342657595494 0.07291087440160568
leaf_weight=7.9216496944427517 2.3554210588335982 136.37446364760399 3.3356270790100098 9.497619070112707 953.29511223733425 11.562129698693751 18.081011377274994 14.607171729207037 3.557452127337454 4.2953446656465522 6.2577036395668983 112.96663297712803 3.4498275220394126 359.610994361341 21.69821685552597 104.05636444687843 2.8339469358325022 3.4310243129730225 14.402136057615278
leaf_count=75 21 1348 1 19 383 10 119 132 2 6 39 85 16 269 41 83 24 1 7
internal_value=0.0592501 -0.0194483 0.0674017 0.0403881 0.0684298 0.0499459 0.0104504 -0.00055978 0.0604778 -0.0187256 0.00297532 0.0652914 0.0704316 0.0641918 0.0651984 0.072638 0.0460928 0.0259901 0.0641066
internal_weight=1793.59 168.196 1625.39 31.8214 1601.19 159.076 33.9385 24.2078 125.137 22.3764 9.81516 115.322 1442.11 384.759 381.309 1057.35 9.6006 6.26497 23.8998
internal_count=2681 1449 1232 101 1074 282 135 158 147 125 41 106 792 326 310 466 26 25 26
is_linear=0
shrinkage=0.03


end of trees

feature_importances:
waterlevel_cumrise_14d=31
week_cos=19
soilmoist_7d_std=17
max_waterlevel_6h=15
waterlevel_7d_std=13
sensor_soilmoisture_mean_24h=11
soilmoist_anomaly_vs_30d=10
sensor_soilmoisture_mean_6h=8
days_since_flood_level=6
max_waterlevel_24h=5
waterlevel_distance_to_max=5
waterlevel_lag_2d=4
waterlevel_lag_3d=4
waterlevel_slope_3h=3
waterlevel_mean_7d=3
humidity_mean_24h=3
waterlevel_falling_streak=3
waterlevel_std_24h=2
waterlevel_lag_1d=2
waterlevel_pct_rank_30d=2
week_sin=2
waterlevel_rise_rate_48h=1
sensor_soilmoisture_trend_6h=1
soilmoisture_lag_2d=1
waterlevel_x_soilmoisture=1
soilmoisture_monsoon=1
humidity_anomaly_vs_30d=1

parameters:
[boosting: gbdt]
[objective: binary]
[metric: binary_logloss]
[tree_learner: serial]
[device_type: cpu]
[data_sample_strategy: bagging]
[data: ]
[valid: ]
[num_iterations: 800]
[learning_rate: 0.03]
[num_leaves: 63]
[num_threads: 8]
[seed: 42]
[deterministic: 0]
[force_col_wise: 0]
[force_row_wise: 0]
[histogram_pool_size: -1]
[max_depth: 6]
[min_data_in_leaf: 10]
[min_sum_hessian_in_leaf: 0.001]
[bagging_fraction: 0.75]
[pos_bagging_fraction: 1]
[neg_bagging_fraction: 1]
[bagging_freq: 0]
[bagging_seed: 400]
[bagging_by_query: 0]
[feature_fraction: 0.8]
[feature_fraction_bynode: 1]
[feature_fraction_seed: 30056]
[extra_trees: 0]
[extra_seed: 12879]
[early_stopping_round: 0]
[early_stopping_min_delta: 0]
[first_metric_only: 0]
[max_delta_step: 0]
[lambda_l1: 0.05]
[lambda_l2: 1]
[linear_lambda: 0]
[min_gain_to_split: 0]
[drop_rate: 0.1]
[max_drop: 50]
[skip_drop: 0.5]
[xgboost_dart_mode: 0]
[uniform_drop: 0]
[drop_seed: 17869]
[top_rate: 0.2]
[other_rate: 0.1]
[min_data_per_group: 100]
[max_cat_threshold: 32]
[cat_l2: 10]
[cat_smooth: 10]
[max_cat_to_onehot: 4]
[top_k: 20]
[monotone_constraints: ]
[monotone_constraints_method: basic]
[monotone_penalty: 0]
[feature_contri: ]
[forcedsplits_filename: ]
[refit_decay_rate: 0.9]
[cegb_tradeoff: 1]
[cegb_penalty_split: 0]
[cegb_penalty_feature_lazy: ]
[cegb_penalty_feature_coupled: ]
[path_smooth: 0]
[interaction_constraints: ]
[verbosity: -1]
[saved_feature_importance_type: 0]
[use_quantized_grad: 0]
[num_grad_quant_bins: 4]
[quant_train_renew_leaf: 0]
[stochastic_rounding: 1]
[linear_tree: 0]
[max_bin: 255]
[max_bin_by_feature: ]
[min_data_in_bin: 3]
[bin_construct_sample_cnt: 200000]
[data_random_seed: 175]
[is_enable_sparse: 1]
[enable_bundle: 1]
[use_missing: 1]
[zero_as_missing: 0]
[feature_pre_filter: 1]
[pre_partition: 0]
[two_round: 0]
[header: 0]
[label_column: ]
[weight_column: ]
[group_column: ]
[ignore_column: ]
[categorical_feature: ]
[forcedbins_filename: ]
[precise_float_parser: 0]
[parser_config_file: ]
[objective_seed: 16083]
[num_class: 1]
[is_unbalance: 0]
[scale_pos_weight: 15]
[sigmoid: 1]
[boost_from_average: 1]
[reg_sqrt: 0]
[alpha: 0.9]
[fair_c: 1]
[poisson_max_delta_step: 0.7]
[tweedie_variance_power: 1.5]
[lambdarank_truncation_level: 30]
[lambdarank_norm: 1]
[label_gain: ]
[lambdarank_position_bias_regularization: 0]
[eval_at: ]
[multi_error_top_k: 1]
[auc_mu_weights: ]
[num_machines: 1]
[local_listen_port: 12400]
[time_out: 120]
[machine_list_filename: ]
[machines: ]
[gpu_platform_id: -1]
[gpu_device_id: -1]
[gpu_use_dp: 0]
[num_gpu: 1]

end of parameters

pandas_categorical:[]
