tree
version=v4
num_class=1
num_tree_per_iteration=1
label_index=0
max_feature_idx=41
objective=binary sigmoid:1
feature_names=max_waterlevel_6h max_waterlevel_24h waterlevel_slope_3h waterlevel_slope_6h waterlevel_std_24h waterlevel_rise_rate_48h waterlevel_lag_1d waterlevel_lag_2d waterlevel_lag_3d waterlevel_days_above_threshold waterlevel_pct_rank_30d waterlevel_distance_to_max waterlevel_mean_7d waterlevel_cumrise_14d sensor_soilmoisture_mean_6h sensor_soilmoisture_mean_24h sensor_soilmoisture_trend_6h soilmoisture_lag_1d soilmoisture_lag_2d humidity_mean_24h humidity_trend_6h waterlevel_x_soilmoisture humidity_x_waterlevel_slope season_sin season_cos week_sin week_cos is_monsoon_season waterlevel_monsoon soilmoisture_monsoon humidity_x_soilmoisture soilmoisture_trend_3d days_since_flood_level waterlevel_falling_streak post_flood_decay_7d humidity_anomaly_vs_30d soilmoist_anomaly_vs_30d late_season_wet_flag waterlevel_7d_std soilmoist_7d_std soil_saturation wetness_trend
feature_infos=[0.59748816000000005:2.5790000000000002] [0.65394739999999996:2.5790000000000002] [-1.5628677999999998:1.6080061299999999] [-1.5628677999999998:1.6080061299999999] [0.0031014589499496:0.85209459530129728] [-0.1179243785714285:0.1070525385714285] [0.59748816000000005:2.5790000000000002] [0.59748816000000005:2.5790000000000002] [0.59748816000000005:2.5790000000000002] [0:86] [0.0047619047619046999:1] [0:1.9541983599999999] [0.70147270571428577:2.5790000000000002] [10.5840344:35.537000000000006] [0.22371621:0.49812856] [0.22401127000000001:0.48080359571428571] [-0.043703799999999897:0.1844977099999999] [0.22371621:0.49812856] [0.22371621:0.49812856] [0.66739007714285725:4.8692490428571427] [-6.4436203800000005:6.5878532100000005] [0.1742193226235314:1.2317317373957144] [0:4.6226634397639748] [-1:1] [-1:1] [-1:1] [-1:1] [0:1] [0:2.5790000000000002] [0:0.48080359571428571] [0.2262906610028485:2.2197940327375609] [-0.1300896799999999:0.24581511] [0:227] [0:21] [-1.5213374999999998:1.7080538999999999] [-2.0856294710000003:2.2854443635714281] [-0.17582188472789109:0.17246873904081619] [0:1] [0.017956935446014399:0.77529151259516482] [0.0038033501157871:0.10545239538209129] [0.1862:0.36980000000000002] [-1:1]
tree_sizes=1864 1800 2100 2004 1598 1915 1600 1707 1502 2232 1604 1615 2240 1821 2003

Tree=0
num_leaves=17
num_cat=0
split_feature=36 39 15 26 13 0 32 1 0 36 4 6 7 2 6 0
split_gain=6452.79 767.348 408.008 282.199 265.59 239.061 206.487 150.191 131.291 127.444 86.1244 83.9166 45.8971 10.5631 5.59388 29.5459
threshold=0.018021851887755003 0.079817188273421921 0.45764751357142858 -0.61559370248597534 33.756000000000007 2.2465000000000006 12.500000000000002 2.2475000000000005 0.76688002000000011 0.14692275765461124 0.019285447510807654 2.1855000000000007 2.2215000000000003 0.012619749999999902 2.4365000000000001 2.4070000000000005
decision_type=2 2 2 2 2 2 2 2 2 2 2 2 2 2 2 2
left_child=3 2 4 5 6 -1 11 12 -8 -3 -11 -2 -4 -12 -9 -16
right_child=1 9 7 -5 -6 -7 8 14 -10 10 13 -13 -14 -15 15 -17
leaf_value=-1.7045780119354748 -1.6409858838261584 -1.705723065881777 -1.6996118805639231 -1.7074883496696824 -1.7040485529198888 -1.5218662370983245 -1.5206483525537222 -1.4918090636276875 -1.7045428060229326 -1.7004513546424578 -1.6107536626662542 -1.5220957493982206 -1.5740788330427993 -1.5204121102422836 -1.5972207894139385 -1.507740260830899
leaf_weight=10.917360067367555 6.2575112581253043 17.840564012527466 3.5947405099868757 179.47074842453003 9.1865590810775739 13.713269352912901 3.9941561222076407 730.79743182659149 10.784221529960631 4.1272946596145621 3.9941561222076398 115.56425046920776 5.9912341833114624 6.3906497955322266 7.4557580947876003 17.174871325492859
leaf_count=82 33 134 27 1348 69 19 2 575 81 31 16 196 17 6 28 17
internal_value=-1.5415 -1.50843 -1.50334 -1.69435 -1.55111 -1.60102 -1.54066 -1.4944 -1.64849 -1.6527 -1.58946 -1.52789 -1.61945 -1.54659 -1.49289 -1.53079
internal_weight=1147.25 943.153 910.801 204.101 145.787 24.6306 136.6 765.014 14.7784 32.3527 14.5121 121.822 9.58597 10.3848 755.428 24.6306
internal_count=2681 1232 1045 1449 381 101 312 664 83 187 53 229 44 22 620 45
is_linear=0
shrinkage=1


Tree=1
num_leaves=16
num_cat=0
split_feature=36 7 15 26 32 1 26 14 1 25 36 18 18 11 26
split_gain=5063.52 500.561 276.192 263.795 223.172 159.445 110.222 104.736 122.03 101.574 109.654 64.7207 13.0525 10.9506 14.2687
threshold=0.018021851887755003 2.1855000000000007 0.45867279500000008 -0.61559370248597534 12.500000000000002 2.2535000000000003 -0.99635443704902682 0.4551816600000001 2.2535000000000003 0.060268340127661829 0.1495387861957416 0.47205379500000005 0.24334676500000005 0.3625000000000001 -0.060268340127661482
decision_type=2 2 2 2 2 2 2 2 2 2 2 2 2 2 2
left_child=3 6 4 5 7 -1 -2 8 -3 13 -11 -9 -7 -4 -15
right_child=1 2 9 -5 -6 12 -8 11 -10 10 -12 -13 -14 14 -16
leaf_value=-0.031847841824999182 0.11132769533947459 0.1307028286802287 0.15488552001306005 -0.03522990911891808 -0.031801964955356282 0.054308626817266933 -0.033647568049274448 0.14473994145644245 0.043009618004780099 -0.030392196309964273 0.12134921036689041 0.06458910019668021 0.13615953504937864 0.048592780350998413 0.12863022629023727
leaf_weight=9.2436920702457446 5.3295539468526867 26.140449956059456 818.76399646699429 175.14652985334396 9.1139914095401746 4.3448237776756313 17.558912038803101 93.536919727921486 33.519655287265778 5.5832378119230297 13.473337665200232 12.713758483529089 12.236428529024122 4.6966461986303321 10.102136403322218
leaf_count=71 9 41 582 1348 70 16 132 107 153 40 22 46 14 18 12
internal_value=0.115895 0.142266 0.145354 -0.0219726 0.109544 0.0658453 0.00329416 0.117461 0.0829789 0.152566 0.0775182 0.135855 0.119106 0.154185 0.108007
internal_weight=1251.5 1050.53 1027.64 200.971 175.025 25.8249 22.8885 165.911 59.6601 852.619 19.0566 106.251 16.5813 833.563 14.7988
internal_count=2681 1232 1091 1449 417 101 141 347 194 674 62 153 30 612 30
is_linear=0
shrinkage=0.03


Tree=2
num_leaves=19
num_cat=0
split_feature=36 12 26 29 0 14 30 26 10 0 25 0 7 21 6 38 12 25
split_gain=4112.6 394.331 248.211 179.149 176.857 109.24 151.904 106.656 104.539 97.1023 68.3893 111.167 56.849 49.7067 23.3085 14.7649 22.9024 6.27864
threshold=0.018021851887755003 2.2253571428571433 -0.61559370248597534 0.45877957500000005 2.2465000000000006 0.45617089000000005 1.2076722320254201 -0.99635443704902682 0.96065362450712788 2.2515000000000005 -0.12053668025532319 2.2435000000000005 2.1875000000000004 1.09084165595 2.1855000000000007 0.07775364316922366 2.4529285714285716 0.060268340127661829
decision_type=2 2 2 2 2 2 2 2 2 2 2 2 2 2 2 2 2 2
left_child=2 7 4 5 -1 6 9 -2 -8 -3 15 13 -7 -12 -14 -5 -17 -13
right_child=1 3 -4 10 -6 12 8 -9 -10 -11 11 17 14 -15 -16 16 -18 -19
leaf_value=-0.032213609830234503 0.10818065714956125 0.12674089071681749 -0.03503751725307519 0.13787091957987038 0.12094354090924583 -0.023842809042863893 -0.033929352428347097 -0.033583874385726097 0.083086156936354252 0.029438126129130184 -0.032227321220629948 0.12801279790453893 -0.016014526369732426 0.10223963691414106 0.12265256341422394 0.11896247883601627 0.035802365429413008 0.080439515012415835
leaf_weight=10.580393224954607 5.4372324645519283 37.664451375603676 170.89476424455643 836.56428845226765 16.28226026892662 2.1362810730934134 16.030715644359592 17.51128876209259 10.547906890511511 13.141348168253897 7.6294430494308454 31.772008016705513 0.86121290922164817 2.4711840152740479 136.91757594048977 10.708464056253435 5.6238132566213599 10.797397091984747
leaf_count=82 7 48 1348 508 19 16 115 133 28 61 52 25 6 1 173 9 21 29
internal_value=0.104577 0.126366 -0.0216628 0.12888 0.0615746 0.103114 0.0727159 0.00305669 0.0137835 0.102656 0.134941 0.0973076 0.11928 0.00678239 0.121666 0.137146 0.0941317 0.118104
internal_weight=1343.57 1145.81 197.757 1122.87 26.8627 217.299 77.3844 22.9485 26.5786 50.8058 905.567 52.67 139.915 10.1006 137.779 852.897 16.3323 42.5694
internal_count=2681 1232 1449 1092 101 447 252 140 143 109 645 107 195 53 179 538 30 54
is_linear=0
shrinkage=0.03


Tree=3
num_leaves=18
num_cat=0
split_feature=14 13 26 13 1 15 26 15 13 32 38 0 38 18 24 13 12
split_gain=3289.29 395.146 298.83 188.619 135.306 120.794 101.466 90.3792 160.311 77.318 86.4859 57.9722 100.527 40.2519 18.5957 16.9718 2.60121
threshold=0.4340346000000001 31.185500000000001 -0.61559370248597534 31.224500000000006 2.2675000000000005 0.45617200285714282 -0.99635443704902682 0.45867279500000008 33.76850000000001 10.500000000000002 0.082234756831484054 2.2215000000000003 0.066795914264837206 0.47265558000000008 -0.9330127018922193 32.060000000000009 2.4668571428571435
decision_type=2 2 2 2 2 2 2 2 2 2 2 2 2 2 2 2 2
left_child=2 6 3 -1 -5 -4 -2 8 9 13 -11 12 -9 -3 15 -13 -16
right_child=1 7 5 4 -6 -7 -8 11 -10 10 -12 14 -14 -15 16 -17 -18
leaf_value=-0.033149558435033803 0.099727267869485908 0.11330291117626264 -0.034900263562863194 0.11939739231087115 -0.031454765055809242 0.090273320225590634 -0.033588509649123084 -0.031270072785758309 -0.032048879951188991 -0.031425486019262379 0.11520037858859832 0.10669026962196865 0.11201620291101833 0.053919177568724483 0.12396545396484075 0.049499440691325058 0.1040802160239238
leaf_weight=15.070557594299315 5.8000442832708385 138.74967455118895 164.74912821501493 27.776619948446751 6.109927609562873 6.2967292442917815 20.02092494815588 6.3131090849638012 7.9539197683334342 8.0574498176574689 5.1268052011728278 20.970869742333893 11.200333639979361 14.143697440624235 910.35488992929459 9.6956600844860059 46.495193123817444
leaf_count=117 7 163 1325 25 41 10 157 44 56 62 4 26 9 46 503 31 55
internal_value=0.095552 0.115015 -0.01107 0.0535756 0.092033 -0.0297856 -0.000984741 0.117555 0.0958958 0.102188 0.0295874 0.121205 0.0613853 0.108205 0.122201 0.0907901 0.12311
internal_weight=1424.89 1204.88 220.003 48.9571 33.8865 171.046 25.821 1179.06 174.032 166.078 13.1843 1005.03 17.5134 152.893 987.517 30.6665 956.85
internal_count=2681 1163 1518 183 66 1335 164 999 331 275 66 668 53 209 615 57 558
is_linear=0
shrinkage=0.03


Tree=4
num_leaves=14
num_cat=0
split_feature=32 13 39 14 38 26 11 15 32 15 13 4 4
split_gain=2787.16 632.89 174.312 131.686 173.397 117.122 90.6702 44.3168 39.7274 27.5317 151.3 20.2463 15.2149
threshold=19.500000000000004 31.185500000000001 0.082946875984862459 0.4340346000000001 0.037611545799147501 -0.99635443704902682 0.38350000000000023 0.45963283142857148 210.50000000000003 0.45826395642857148 33.76850000000001 0.0056352569493572507 0.016015538174562804
decision_type=2 2 2 2 2 2 2 2 2 2 2 2 2
left_child=1 -1 3 4 12 -2 -4 -6 -7 10 -5 -11 -3
right_child=5 2 6 9 7 8 -8 -9 -10 11 -12 -13 -14
leaf_value=-0.033947885264393754 0.092545456876231641 0.041019304629457277 -0.033870126610343575 0.10140288566469517 -0.033564401992407747 -0.034702429334786546 0.1019732360383757 0.074541528562772963 0.046288228421466522 -0.016835643929480733 -0.031701140169361403 0.11126083301733569 0.10981965264712336
leaf_weight=29.374303363263607 6.134828954935073 5.1375267207622555 12.253178730607035 152.93757539242506 16.091954246163372 156.76213410496712 5.6490864902734748 3.2791930586099616 4.7970820367336264 0.84547442197799583 7.6338278353214255 1069.2238063514233 26.43159094452858
leaf_count=236 7 17 83 187 122 1294 4 4 18 5 55 627 22
internal_value=0.0881719 0.102708 0.105822 0.10712 0.057972 -0.026931 0.0120431 -0.0124295 -0.0320184 0.109104 0.0949086 0.111143 0.100272
internal_weight=1496.55 1328.86 1299.48 1281.58 50.9403 167.694 17.9023 19.3711 161.559 1230.64 160.571 1070.07 31.5691
internal_count=2681 1362 1126 1039 165 1319 87 126 1312 874 242 632 39
is_linear=0
shrinkage=0.03


Tree=5
num_leaves=17
num_cat=0
split_feature=36 13 26 13 15 13 26 32 13 29 25 33 7 38 21 16
split_gain=2516.79 271.424 212.352 108.519 87.8507 148.225 86.3688 73.8811 46.9281 39.6688 38.8959 49.1503 16.1807 9.77165 9.38478 0.147526
threshold=0.018021851887755003 31.185500000000001 -0.61559370248597534 31.436500000000006 0.45867279500000008 33.76850000000001 -0.99635443704902682 11.500000000000002 31.393500000000007 0.45604082785714284 0.060268340127661829 1.0000000180025095e-35 2.1965000000000008 0.07775364316922366 1.0916342946150002 0.017264809999999905
decision_type=2 2 2 2 2 2 2 2 2 2 2 2 2 2 2 2
left_child=2 6 3 -1 5 7 -2 8 -3 -9 12 14 -6 -14 -12 -5
right_child=1 4 -4 15 10 -7 -8 9 -10 -11 11 -13 13 -15 -16 -17
leaf_value=-0.031345752090749746 0.086371592314271606 0.11096805637948179 -0.034515774708870267 0.062985813397305246 0.038556055076539197 -0.032423901740795902 -0.033327919191480343 -0.031070651570909349 0.077048771720312145 0.083990691735133641 0.04877587657741618 -0.029046438315609355 0.10299195203607341 0.071676090671448686 0.10214458586320292 0.10181536640602347
leaf_weight=9.0760494917631167 6.4426691383123424 64.660777822136879 158.84685833752155 8.1768798381090182 5.2240087538957587 9.6939897239208204 19.012195698916912 7.4471897631883603 130.217628210783 2.9640507325530052 9.6198181137442642 4.2086820527911177 1084.045280367136 19.361495643854141 8.7704136967658979 11.939443230628966
leaf_count=75 7 31 1348 19 15 71 153 58 233 3 26 30 570 30 5 7
internal_value=0.0820009 0.0961026 -0.0208218 0.052318 0.0979364 0.079266 -0.000855406 0.0846789 0.0888199 0.00604524 0.10141 0.0578286 0.102244 0.102509 0.0782603 0.0898332
internal_weight=1559.71 1371.67 188.039 29.1924 1346.21 214.984 25.4549 205.29 194.878 10.4112 1131.23 22.5989 1108.63 1103.41 18.3902 20.1163
internal_count=2681 1232 1449 101 1072 396 160 325 264 61 676 61 615 600 31 26
is_linear=0
shrinkage=0.03


Tree=6
num_leaves=14
num_cat=0
split_feature=36 39 26 13 13 4 1 15 13 32 1 38 12
split_gain=2200.74 271.334 202.02 103.706 97.6725 80.4629 72.7858 51.0711 132.972 65.3345 50.3297 28.4469 9.18149
threshold=0.018021851887755003 0.082946875984862459 -0.61559370248597534 31.185500000000001 31.436500000000006 0.030715669837916054 2.1165000000000007 0.45714512571428573 33.756000000000007 11.500000000000002 2.2475000000000005 0.033932961293719255 2.4668571428571435
decision_type=2 2 2 2 2 2 2 2 2 2 2 2 2
left_child=2 3 4 6 -1 -3 -2 8 9 -5 11 -9 -12
right_child=1 5 -4 7 -6 -7 -8 10 -10 -11 12 -13 -14
leaf_value=-0.031134192150767338 0.089904606788396554 -0.03435380410783806 -0.034350170666515314 0.086368083308718507 0.083905369637208502 0.077532218675310169 -0.031946342434761951 -0.030281150751015045 -0.03208462525141316 0.006975415958432765 0.095886830046978316 0.059984597013653176 0.077832898171528456
leaf_weight=8.8734515979886073 6.1917380988597897 20.353239007294182 154.88891474157572 165.25820016860962 20.975583285093307 6.9348888695240012 10.499810643494127 3.956647962331771 9.2005709037184698 10.122004188597201 1133.6017308682203 8.3521929830312711 55.649876907467842
leaf_count=75 4 150 1348 186 26 8 85 24 69 59 567 17 63
internal_value=0.076781 0.0893614 -0.0205577 0.0911828 0.0497574 -0.0041309 0.0156964 0.0920787 0.07603 0.08186 0.0944776 0.0307611 0.0951094
internal_weight=1614.86 1430.12 184.738 1402.83 29.849 27.2881 16.6915 1386.14 184.581 175.38 1201.56 12.3088 1189.25
internal_count=2681 1232 1449 1074 101 158 89 985 314 245 671 41 630
is_linear=0
shrinkage=0.03


Tree=7
num_leaves=15
num_cat=0
split_feature=36 39 0 38 13 0 19 15 13 32 1 38 28 38
split_gain=1945.28 236.478 187.236 145.07 89.1147 73.8007 46.1405 44.8471 118.413 56.8346 43.2616 26.3354 17.0586 9.31768
threshold=0.018021851887755003 0.082946875984862459 2.2465000000000006 0.03243319877907936 31.185500000000001 0.76688002000000011 2.4479249985714291 0.45714512571428573 33.756000000000007 11.500000000000002 2.2475000000000005 0.033932961293719255 2.1690000000000005 0.07775364316922366
decision_type=2 2 2 2 2 2 2 2 2 2 2 2 2 2
left_child=2 4 -1 -4 5 -2 12 8 9 -6 11 -9 -3 -12
right_child=1 6 3 -5 7 -7 -8 10 -10 -11 13 -13 -14 -15
leaf_value=-0.034209133560963403 0.09101499833128851 -0.024181709497417096 0.096190274631637096 -0.032491060996290011 0.080607185113406213 -0.03199233745382514 -0.033933653775319914 -0.029974661437474331 -0.031849499900212359 0.0067569212027012307 0.089269563573629918 0.056878311947507178 0.061763481272497214 0.061590809681441386
leaf_weight=150.26359815895557 6.0794987678527859 2.0680456385016468 18.7967091947794 12.420144982635973 171.72380812466145 10.63560053706169 16.831381388008595 3.8884497582912436 9.0008436441421491 10.167465902864931 1213.221748277545 8.5948425084352476 8.1758926063775998 20.980676114559174
leaf_count=1338 2 15 8 103 186 87 125 24 69 59 599 17 18 31
internal_value=0.0722896 0.083641 -0.0203111 0.0455264 0.0852755 0.0152746 -0.00400848 0.0860772 0.0712886 0.0765468 0.0882815 0.0294964 0.0436719 0.0888505
internal_weight=1662.85 1481.37 181.48 31.2169 1454.29 16.7151 27.0753 1437.58 190.892 181.891 1246.69 12.4833 10.2439 1234.2
internal_count=2681 1232 1449 111 1074 89 158 985 314 245 671 41 33 630
is_linear=0
shrinkage=0.03


Tree=8
num_leaves=13
num_cat=0
split_feature=32 13 39 13 14 13 11 21 32 39 0 33
split_gain=1686.2 379.319 103.913 86.6607 76.4806 118.256 69.5016 67.9027 35.0362 22.2075 49.4371 15.1314
threshold=19.500000000000004 31.185500000000001 0.082946875984862459 10.892791800000003 0.4340346000000001 31.548000000000005 0.38350000000000023 1.1030619511414288 210.50000000000003 0.016655055986234703 2.2125000000000008 8.5000000000000018
decision_type=2 2 2 2 2 2 2 2 2 2 2 2
left_child=1 -1 4 -2 5 -3 -4 -7 -5 11 -11 -6
right_child=3 2 6 8 9 7 -8 -9 -10 10 -12 -13
leaf_value=-0.033216273259495263 0.066901937521716193 0.083338310295028362 -0.033675315737454151 -0.034077467317147635 0.085109929166116705 -0.034425064350031676 0.080312365335873923 0.067293224647215419 0.040312306126635819 -0.030714959629700635 0.075786105139666271 0.054647708486191812
leaf_weight=26.689024388790131 7.6382820606231681 31.272876113653183 12.025383628904821 141.76198671013117 1044.5819382444024 18.006525948643688 6.6461827158927909 7.569546326994895 5.1068543419241896 3.4458541572093955 377.2860699519515 22.142980799078941
leaf_count=236 11 22 83 1290 503 134 4 9 18 19 318 34
internal_value=0.0683896 0.0778088 0.079776 -0.0259658 0.0806489 0.045151 0.00884267 -0.00286455 -0.0312255 0.08201 0.0747403 0.0845308
internal_weight=1704.17 1549.67 1522.98 154.507 1504.31 56.8489 18.6716 25.5761 146.869 1447.46 380.732 1066.72
internal_count=2681 1362 1126 1319 1039 165 87 143 1308 874 337 537
is_linear=0
shrinkage=0.03


Tree=9
num_leaves=20
num_cat=0
split_feature=36 39 26 13 14 19 38 35 13 14 13 38 7 38 39 39 33 2 2
split_gain=1557.49 186.42 176.675 74.6038 68.5508 84.7302 71.1542 47.62 47.617 33.0721 30.6196 28.0353 18.0517 47.4862 12.3145 28.5996 5.14375 4.76157 21.4591
threshold=0.018021851887755003 0.082946875984862459 -0.61559370248597534 31.436500000000006 0.45050655000000001 2.7947814500000008 0.024433747497676853 -0.24340068637074894 33.875500000000009 0.44949585000000009 31.224500000000006 0.034193315472327457 2.1965000000000008 0.043688336559524858 0.016655055986234703 0.017796661811416953 4.5000000000000009 -0.042499999999999941 0.024499999999999956
decision_type=2 2 2 2 2 2 2 2 2 2 2 2 2 2 2 2 2 2 2
left_child=2 4 3 -1 5 8 -7 17 10 -8 -2 -10 13 -6 16 -16 -14 -3 -19
right_child=1 7 -4 -5 12 6 9 -9 11 -11 -12 -13 14 -15 15 -17 -18 18 -20
leaf_value=-0.030521199712917405 -0.024002450674334333 0.073307714633373808 -0.0338993179624534 0.070980329177898649 -0.030725848539416251 0.071880358597177008 -0.036199080668868969 -0.033616911246602821 0.060601644071760399 0.049517253839011087 0.075506539403977738 -0.033989628450947502 0.081453988460726157 0.074868527491207024 0.039431762948859042 0.07475221116828934 0.070294029531212859 -0.027055424124682925 0.06945883414715924
leaf_weight=8.2802963182330149 2.3994667455554 3.2116796970367432 143.68050962686539 22.917676150798798 4.9946443885564795 10.977057591080664 17.863701231777672 17.013235352933407 3.6645015776157361 4.2186246514320365 107.57613277435303 6.1325356960296631 911.48006302118301 10.732776790857313 26.012006044387817 331.96715582162142 100.06234769523144 3.1810419037938136 3.3176469802856445
leaf_count=75 21 1 1348 26 37 10 119 132 3 6 85 38 377 9 48 239 82 24 1
internal_value=0.0649609 0.074446 -0.019844 0.0438828 0.0758101 0.0558618 0.0128152 -0.00391442 0.0675265 -0.018323 0.0731252 0.00358841 0.077968 0.0414126 0.0783562 0.0723069 0.080422 0.0462661 0.0247082
internal_weight=1739.68 1564.8 174.878 31.198 1538.08 152.832 33.0594 26.7236 119.773 22.0823 109.976 9.79704 1385.25 15.7274 1369.52 357.979 1011.54 9.71037 6.49869
internal_count=2681 1232 1449 101 1074 282 135 158 147 125 106 41 792 46 746 287 459 26 25
is_linear=0
shrinkage=0.03


Tree=10
num_leaves=14
num_cat=0
split_feature=36 39 0 13 4 13 11 15 13 32 1 4 13
split_gain=1408.42 166.473 165.2 88.0662 64.4745 59.9402 60.3614 38.2203 97.1672 43.4701 35.472 28.0296 6.79203
threshold=0.018021851887755003 0.082946875984862459 2.2465000000000006 31.575000000000006 0.030715669837916054 31.185500000000001 1.8239665350000001 0.45714512571428573 33.756000000000007 11.500000000000002 2.2475000000000005 0.013025609503825303 33.920000000000009
decision_type=2 2 2 2 2 2 2 2 2 2 2 2 2
left_child=2 5 -1 -4 -3 6 -2 8 9 -7 11 -9 -12
right_child=1 4 3 -5 -6 7 -8 10 -10 -11 12 -13 -14
leaf_value=-0.033776208549028512 -0.031468399069676578 -0.033576678329508329 0.072633288508287472 -0.031691706197828989 0.064570791114022877 0.067424122587266502 0.078390515579454187 -0.032126040161992275 -0.032264104849898355 0.0043797631393296867 0.07574083760182336 0.052922560978591361 0.063791903774544287
leaf_weight=139.38578897714615 10.006723649799826 18.776384435594085 22.381518587470055 9.8673596829175931 7.6629134863615027 187.1065598577261 6.6518211364746085 4.5742382258176795 9.2871309891343099 10.592762336134909 1245.7154862433672 8.7729432731866819 88.782533451914787
leaf_count=1338 87 150 25 86 8 186 2 26 69 59 552 15 78
internal_value=0.0619334 0.0707013 -0.0196243 0.0406742 -0.00375936 0.0719566 0.0142688 0.0725641 0.0596279 0.0640928 0.074504 0.0234632 0.0749954
internal_weight=1769.56 1597.93 171.635 32.2489 26.4393 1571.49 16.6585 1554.83 206.986 197.699 1347.85 13.3472 1334.5
internal_count=2681 1232 1449 111 158 1074 89 985 314 245 671 41 630
is_linear=0
shrinkage=0.03


Tree=11
num_leaves=14
num_cat=0
split_feature=32 7 39 26 14 38 4 10 29 39 40 33 40
split_gain=1260.76 258.177 82.2827 79.5701 61.0328 93.5454 55.1439 47.5874 30.4436 19.1258 75.8908 11.9103 7.36366
threshold=19.500000000000004 2.1855000000000007 0.082946875984862459 -0.99635443704902682 0.4340346000000001 0.037611545799147501 0.030715669837916054 0.84805194805194817 0.45961537857142859 0.016655055986234703 0.33295000000000002 8.5000000000000018 0.25260000000000005
decision_type=2 2 2 2 2 2 2 2 2 2 2 2 2
left_child=1 -1 4 -2 5 12 -4 -5 -7 11 -11 -6 -3
right_child=3 2 6 7 9 8 -8 -9 -10 10 -12 -13 -14
leaf_value=-0.032728961058445381 0.063159399723535709 0.074752611117726991 -0.032840338845231944 -0.033693251264761484 0.072726026366625604 -0.033652286445214841 0.065496987527225492 0.068032775817819302 0.050245034825226693 0.065894138387842485 -0.0091411828124009688 0.046708886511343153 0.041824962356010596
leaf_weight=22.611022964119911 7.7023998945951453 25.379657134413719 11.956856533885004 134.19432467222214 1116.5008801147342 15.757105275988581 7.5041435807943335 3.3565025329589835 4.109774947166442 394.53571102768183 12.243342995643614 23.378255516290665 14.996644884347914
leaf_count=213 7 15 91 1311 501 127 6 1 4 302 40 34 29
internal_value=0.0592351 0.0666969 0.0680994 -0.0253404 0.0688418 0.0381321 0.00635298 -0.030727 -0.0146488 0.0700116 0.0636151 0.0722352 0.0638652
internal_weight=1794.23 1648.97 1626.36 145.253 1606.9 60.2432 19.461 137.551 19.8669 1546.66 406.779 1139.88 40.3763
internal_count=2681 1362 1149 1319 1052 175 97 1312 131 877 342 535 44
is_linear=0
shrinkage=0.03


Tree=12
num_leaves=20
num_cat=0
split_feature=36 26 39 40 4 14 19 38 13 14 38 39 39 40 13 39 7 1 33
split_gain=1169.86 156.083 136.327 60.1801 57.5201 54.5835 69.487 61.7627 39.3458 29.5524 26.4258 23.947 14.7668 54.2135 36.8073 27.9252 11.6157 16.7162 4.84761
threshold=0.018021851887755003 -0.61559370248597534 0.082946875984862459 0.24845000000000003 0.030715669837916054 0.45050655000000001 2.7947814500000008 0.024433747497676853 33.875500000000009 0.44949585000000009 0.033932961293719255 0.017455822921583403 0.016655055986234703 0.33120000000000005 32.672500000000007 0.017796661811416953 2.2265000000000001 2.2625000000000006 4.5000000000000009
decision_type=2 2 2 2 2 2 2 2 2 2 2 2 2 2 2 2 2 2 2
left_child=1 3 5 16 -4 6 8 -8 11 -9 -10 -2 18 15 -15 -14 17 -1 -7
right_child=2 -3 4 -5 -6 12 7 9 10 -11 -12 -13 13 14 -16 -17 -18 -19 -20
leaf_value=-0.025287907296022413 0.07085295631672503 -0.033495747490595737 -0.033195969675444532 -0.030993273134622887 0.05897381869771829 0.07036556166423899 0.062878648268429524 -0.036712929995500888 0.056371363212224058 0.043165528011980418 -0.034697117001794946 0.036141320994379424 0.03268604097058788 -0.039998340582412452 0.045467887529533416 0.066206277003064501 0.074258537556776569 0.059912964535059884 0.060481806579766234
leaf_weight=2.9821659103035989 89.443312034010887 133.15875146538019 17.946945242583755 7.6297138109803191 7.9833693057298651 967.48484280705452 11.620471298694609 17.845839560031894 3.7220241427421552 4.4330266416072837 6.3009956777095795 26.915669217705727 27.287817388772964 7.2318389788270023 9.1199745237827283 346.29494573175907 17.807497702538967 3.5648579597473145 105.71177671849728
leaf_count=28 44 1348 150 65 8 383 10 119 2 6 39 62 48 35 11 232 7 1 83
internal_value=0.0568076 -0.0192112 0.064427 0.0394263 -0.00362709 0.0655165 0.0481714 0.00963318 0.0583399 -0.0195828 0.00103088 0.0632128 0.0673814 0.0615195 0.00745593 0.0638556 0.0618987 0.0226968 0.0694506
internal_weight=1814.49 165.143 1649.34 31.9842 25.9303 1623.41 160.281 33.8993 126.382 22.2789 10.023 116.359 1463.13 389.935 16.3518 373.583 24.3545 6.54702 1073.2
internal_count=2681 1449 1232 101 158 1074 282 135 147 125 41 106 792 326 46 280 36 29 466
is_linear=0
shrinkage=0.03


Tree=13
num_leaves=16
num_cat=0
split_feature=13 32 26 10 14 19 5 13 21 6 11 26 38 25 16
split_gain=1066.48 220.491 77.3049 52.8626 49.798 56.6736 43.4594 29.3767 15.9868 25.1573 46.2151 18.7071 6.5247 5.64017 3.27467
threshold=31.185500000000001 18.500000000000004 -0.99635443704902682 0.7071428571428573 0.45050655000000001 3.797287995714286 -0.010607142857142799 33.875500000000009 1.0820255140221431 2.3165000000000004 0.19800000000000018 -0.85421994577343296 0.069155846005460972 -0.66312265824079508 -0.032699184999999888
decision_type=2 2 2 2 2 2 2 2 2 2 2 2 2 2 2
left_child=2 4 -1 -3 5 6 -2 -8 9 11 -11 -6 14 -14 -10
right_child=1 3 -4 -5 8 -7 7 -9 12 10 -12 -13 13 -15 -16
leaf_value=0.058252528255420731 -0.030973848928651446 -0.032791056445617646 -0.033416312790530651 0.047624547650720384 0.050699029744969669 -0.033476693747804716 0.056112835070272163 0.0020567254069242592 -0.0091082801821906253 0.055736793891063653 -0.038101474923746818 0.065966738094308086 0.060736356041197058 0.037912548101510658 0.067436237520755893
leaf_weight=7.9596439599990836 5.0778696835041037 27.133890718221664 123.66595845669508 8.9921610951423627 143.70184367895126 6.855655036866664 162.36184069514275 9.7219126224517805 0.24480661749839683 12.14714200794697 6.490657463669776 226.90334922075272 67.576673731207848 19.913417220115662 1001.6539512723684
leaf_count=7 38 267 1271 18 179 45 198 40 1 9 32 122 40 27 387
internal_value=0.0546199 0.0609933 -0.0274642 -0.0119907 0.0625862 0.0472173 0.0505187 0.0530971 0.0644647 0.0584742 0.0227049 0.0602031 0.0665481 0.0560456 0.067407
internal_weight=1830.4 1698.78 131.626 36.1261 1662.65 184.017 177.162 172.084 1478.63 389.243 18.6378 370.605 1089.39 87.4901 1001.9
internal_count=2681 1403 1278 285 1118 321 276 238 797 342 41 301 455 67 388
is_linear=0
shrinkage=0.03


Tree=14
num_leaves=18
num_cat=0
split_feature=36 26 39 0 15 25 40 7 19 14 0 38 7 28 38 25 38
split_gain=989.705 145.041 118.977 61.7492 48.752 64.7769 57.2804 35.877 34.2443 25.94 24.0538 55.8711 26.3448 11.6622 8.384 14.7687 3.02068
threshold=0.018021851887755003 -0.61559370248597534 0.082946875984862459 2.2465000000000006 0.45764751357142858 -0.98182534576205283 0.23775000000000004 2.3895000000000004 2.4479249985714291 0.46513012000000004 2.2385000000000006 0.033932961293719255 2.2215000000000003 2.1690000000000005 0.069155846005460972 -0.88545602565320969 0.019734614742543354
decision_type=2 2 2 2 2 2 2 2 2 2 2 2 2 2 2 2 2
left_child=1 3 4 -1 5 -2 9 -8 13 -7 11 -6 -13 -4 16 -16 -12
right_child=2 -3 8 -5 10 6 7 -9 -10 -11 14 12 -14 -15 15 -17 -18
leaf_value=-0.030235458821107595 -0.035511247290713213 -0.033259310665032418 -0.023444040744859968 0.06120719032551971 -0.03736266531217259 -0.036019549758077599 0.056547146291861125 0 -0.032959278210795397 0.046642349661156303 -0.0088932865461091772 0.0043291527743572677 0.061822763219332784 0.047736741544008546 0.062141845052505154 0.038511218440158597 0.06429615957513643
leaf_weight=8.3547193408012372 7.5293998867273322 126.75660105794668 1.9258461967110658 23.821239680051804 6.3441281765699378 9.3542072251439077 208.69026634842157 10.555533885955809 14.921955041587351 4.1165826022624961 0.24337221682071586 8.8226578161120397 43.095527693629265 9.0461050495505315 81.329909697175026 44.500639885663986 1233.5597696825862
leaf_count=82 44 1348 15 19 32 65 243 44 125 3 1 30 25 18 37 58 492
internal_value=0.0526155 -0.0188373 0.059367 0.0372226 0.060363 0.0473262 0.0501532 0.0538305 -0.0042315 -0.00917742 0.062536 0.042088 0.0523474 0.0342028 0.0633795 0.0541661 0.0642733
internal_weight=1842.97 158.933 1684.04 32.176 1658.14 240.246 232.717 219.246 25.8939 13.4708 1417.9 58.2623 51.9182 10.972 1359.63 125.831 1233.8
internal_count=2681 1449 1232 101 1074 399 355 287 158 68 675 87 55 33 588 95 493
is_linear=0
shrinkage=0.03


end of trees

feature_importances:
waterlevel_cumrise_14d=30
waterlevel_7d_std=19
week_cos=18
soilmoist_7d_std=17
max_waterlevel_6h=13
days_since_flood_level=13
sensor_soilmoisture_mean_6h=12
soilmoist_anomaly_vs_30d=12
sensor_soilmoisture_mean_24h=11
max_waterlevel_24h=9
waterlevel_lag_2d=9
waterlevel_std_24h=8
week_sin=7
waterlevel_distance_to_max=5
humidity_mean_24h=5
waterlevel_falling_streak=5
soil_saturation=5
waterlevel_lag_1d=4
waterlevel_mean_7d=4
waterlevel_x_soilmoisture=4
waterlevel_slope_3h=3
waterlevel_pct_rank_30d=3
soilmoisture_lag_2d=3
soilmoisture_monsoon=3
sensor_soilmoisture_trend_6h=2
waterlevel_monsoon=2
waterlevel_rise_rate_48h=1
season_cos=1
humidity_x_soilmoisture=1
humidity_anomaly_vs_30d=1

parameters:
[boosting: gbdt]
[objective: binary]
[metric: binary_logloss]
[tree_learner: serial]
[device_type: cpu]
[data_sample_strategy: bagging]
[data: ]
[valid: ]
[num_iterations: 800]
[learning_rate: 0.03]
[num_leaves: 63]
[num_threads: 12]
[seed: 42]
[deterministic: 0]
[force_col_wise: 0]
[force_row_wise: 0]
[histogram_pool_size: -1]
[max_depth: 6]
[min_data_in_leaf: 10]
[min_sum_hessian_in_leaf: 0.001]
[bagging_fraction: 0.75]
[pos_bagging_fraction: 1]
[neg_bagging_fraction: 1]
[bagging_freq: 0]
[bagging_seed: 400]
[bagging_by_query: 0]
[feature_fraction: 0.8]
[feature_fraction_bynode: 1]
[feature_fraction_seed: 30056]
[extra_trees: 0]
[extra_seed: 12879]
[early_stopping_round: 0]
[early_stopping_min_delta: 0]
[first_metric_only: 0]
[max_delta_step: 0]
[lambda_l1: 0.05]
[lambda_l2: 1]
[linear_lambda: 0]
[min_gain_to_split: 0]
[drop_rate: 0.1]
[max_drop: 50]
[skip_drop: 0.5]
[xgboost_dart_mode: 0]
[uniform_drop: 0]
[drop_seed: 17869]
[top_rate: 0.2]
[other_rate: 0.1]
[min_data_per_group: 100]
[max_cat_threshold: 32]
[cat_l2: 10]
[cat_smooth: 10]
[max_cat_to_onehot: 4]
[top_k: 20]
[monotone_constraints: ]
[monotone_constraints_method: basic]
[monotone_penalty: 0]
[feature_contri: ]
[forcedsplits_filename: ]
[refit_decay_rate: 0.9]
[cegb_tradeoff: 1]
[cegb_penalty_split: 0]
[cegb_penalty_feature_lazy: ]
[cegb_penalty_feature_coupled: ]
[path_smooth: 0]
[interaction_constraints: ]
[verbosity: -1]
[saved_feature_importance_type: 0]
[use_quantized_grad: 0]
[num_grad_quant_bins: 4]
[quant_train_renew_leaf: 0]
[stochastic_rounding: 1]
[linear_tree: 0]
[max_bin: 255]
[max_bin_by_feature: ]
[min_data_in_bin: 3]
[bin_construct_sample_cnt: 200000]
[data_random_seed: 175]
[is_enable_sparse: 1]
[enable_bundle: 1]
[use_missing: 1]
[zero_as_missing: 0]
[feature_pre_filter: 1]
[pre_partition: 0]
[two_round: 0]
[header: 0]
[label_column: ]
[weight_column: ]
[group_column: ]
[ignore_column: ]
[categorical_feature: ]
[forcedbins_filename: ]
[precise_float_parser: 0]
[parser_config_file: ]
[objective_seed: 16083]
[num_class: 1]
[is_unbalance: 0]
[scale_pos_weight: 15]
[sigmoid: 1]
[boost_from_average: 1]
[reg_sqrt: 0]
[alpha: 0.9]
[fair_c: 1]
[poisson_max_delta_step: 0.7]
[tweedie_variance_power: 1.5]
[lambdarank_truncation_level: 30]
[lambdarank_norm: 1]
[label_gain: ]
[lambdarank_position_bias_regularization: 0]
[eval_at: ]
[multi_error_top_k: 1]
[auc_mu_weights: ]
[num_machines: 1]
[local_listen_port: 12400]
[time_out: 120]
[machine_list_filename: ]
[machines: ]
[gpu_platform_id: -1]
[gpu_device_id: -1]
[gpu_use_dp: 0]
[num_gpu: 1]

end of parameters

pandas_categorical:[]
