tree
version=v4
num_class=1
num_tree_per_iteration=1
label_index=0
max_feature_idx=39
objective=binary sigmoid:1
feature_names=max_waterlevel_6h max_waterlevel_24h waterlevel_slope_3h waterlevel_slope_6h waterlevel_std_24h waterlevel_rise_rate_48h waterlevel_lag_1d waterlevel_lag_2d waterlevel_lag_3d waterlevel_days_above_threshold waterlevel_pct_rank_30d waterlevel_distance_to_max waterlevel_mean_7d waterlevel_cumrise_14d sensor_soilmoisture_mean_6h sensor_soilmoisture_mean_24h sensor_soilmoisture_trend_6h soilmoisture_lag_1d soilmoisture_lag_2d humidity_mean_24h humidity_trend_6h waterlevel_x_soilmoisture humidity_x_waterlevel_slope season_sin season_cos week_sin week_cos is_monsoon_season waterlevel_monsoon soilmoisture_monsoon humidity_x_soilmoisture soilmoisture_trend_3d days_since_flood_level waterlevel_falling_streak post_flood_decay_7d humidity_anomaly_vs_30d soilmoist_anomaly_vs_30d late_season_wet_flag waterlevel_7d_std soilmoist_7d_std
feature_infos=[0.59748816000000005:2.5790000000000002] [0.65394739999999996:2.5790000000000002] [-1.4685958699999999:1.4665217999999998] [-1.4685958699999999:1.4665217999999998] [0.0033028476653417:0.80015229150803713] [-0.1179243785714285:0.1066283357142857] [0.59748816000000005:2.5790000000000002] [0.59748816000000005:2.5790000000000002] [0.59748816000000005:2.5790000000000002] [0:86] [0.0047619047619046999:1] [0:1.8746006500000001] [0.77930047571428573:2.5790000000000002] [10.986775740000001:35.537000000000006] [0.22562619:0.49812856] [0.22680907857142851:0.48080359571428571] [-0.043703799999999897:0.1432048099999999] [0.22562619:0.49812856] [0.22562619:0.49812856] [0.66739007714285725:4.8692490428571427] [-6.4436203800000005:6.5878532100000005] [0.1742193226235314:1.2317317373957144] [0:3.8581618164290821] [-1:1] [-1:1] [-1:1] [-1:1] [0:1] [0:2.5790000000000002] [0:0.48080359571428571] [0.2262906610028485:2.2197940327375609] [-0.1300896799999999:0.24581511] [0:227] [0:21] [-1.5213374999999998:1.6286147000000002] [-2.0856294710000003:2.2854443635714281] [-0.17582188472789109:0.1605837038231292] [0:1] [0.017956935446014399:0.76122563799360099] [0.0074824325400083998:0.10545239538209129]
tree_sizes=1762 1489 2306 2104 1798 1906

Tree=0
num_leaves=16
num_cat=0
split_feature=0 15 32 29 18 0 8 39 39 10 25 15 39 8 35
split_gain=4974.15 726.233 547.9 325.84 284.384 123.335 98.2333 75.5081 115.129 74.5423 50.2721 31.3027 30.5415 57.7438 5.92799
threshold=2.2215000000000003 0.45715297214285716 4.5000000000000009 0.44154320142857145 0.45399129500000007 2.3535000000000008 2.1885000000000008 0.061621809490905809 0.082926226243599313 0.84805194805194817 -0.99635443704902682 0.46503098571428575 0.071482162998199913 2.2295000000000003 -1.0000000180025095e-35
decision_type=2 2 2 2 2 2 2 2 2 2 2 2 2 2 2
left_child=3 2 4 -1 12 -6 -5 -3 11 -4 -8 -9 -2 -14 -7
right_child=1 7 9 6 5 14 10 8 -10 -11 -12 -13 13 -15 -16
leaf_value=-1.6296990462074077 -1.4342744748494967 -1.4247576912831177 -1.6286905890179582 -1.453231666323644 -1.627211614063415 -1.5369303493831461 -1.4868119074427699 -1.5438843293877549 -1.6227259587548153 -1.4738740877846921 -1.625168659972388 -1.4410685822048126 -1.6196878561995067 -1.4685313452945659 -1.4597284666781187
leaf_weight=153.94774952530861 63.57185760140419 683.43255203962326 29.049393028020862 11.928494274616243 12.770506113767626 4.210056871175766 2.3856988549232483 4.6310625672340455 4.2100569605827323 2.1050283908843985 6.8764263689517957 18.24357944726944 2.6663694083690626 7.5781022608280182 4.4907272458076459
leaf_count=1097 61 502 207 15 91 16 3 19 30 1 49 18 19 12 4
internal_value=-1.46911 -1.43872 -1.50608 -1.6144 -1.47068 -1.56833 -1.50671 -1.42688 -1.4845 -1.61478 -1.58272 -1.45886 -1.44302 -1.50681 -1.48721
internal_weight=1012.1 836.959 126.442 175.138 95.2876 21.4713 21.1906 710.517 27.0847 31.1544 9.26213 22.8746 73.8163 10.2445 8.70078
internal_count=2144 980 411 1164 203 111 67 569 67 208 52 37 92 31 20
is_linear=0
shrinkage=1


Tree=1
num_leaves=13
num_cat=0
split_feature=36 13 10 39 13 15 10 11 5 26 21 26
split_gain=3884.77 527.808 286.729 258.573 212.187 176.271 199.381 113.779 62.5748 52.561 27.5924 1.5899
threshold=0.021059839734693855 31.187500000000004 0.82688834154351409 0.082926226243599313 31.441500000000005 0.4587125335714286 0.63690476190476197 0.38350000000000023 -0.004464285714285649 0.78574730703237883 1.0392223481807144 -0.98182534576205283
decision_type=2 2 2 2 2 2 2 2 2 2 2 2
left_child=2 -2 -1 5 -4 6 9 -5 -8 -3 -7 -12
right_child=1 3 4 7 -6 10 8 -9 -10 -11 11 -13
leaf_value=-0.035627943065997494 -0.033820951154125707 -0.032880775488841892 -0.032458517502634614 -0.033008439799658382 0.14613003708215502 -0.015071941180236472 0.02579632030942583 0.12980997548800985 0.1246985182246053 0.097652841321092532 0.12172225761019372 0.14739761765879908
leaf_weight=147.03345859050751 15.872346118092535 11.073593720793722 9.4644705653190631 11.516975909471514 13.929613590240477 0.75895006954669852 6.7919305711984626 4.6077799797058097 96.640258222818375 2.6052644252777091 36.055259376764297 740.22701166570187
leaf_count=1073 114 80 68 83 6 5 33 2 143 3 51 483
internal_value=0.111503 0.135702 -0.0200208 0.138694 0.0754488 0.140841 0.10442 0.018294 0.118528 -0.00295832 0.146186 0.146365
internal_weight=1096.58 926.149 170.428 910.277 23.3941 894.152 117.111 16.1248 103.432 13.6789 777.041 776.282
internal_count=2144 997 1147 883 74 798 259 85 176 83 539 534
is_linear=0
shrinkage=0.03


Tree=2
num_leaves=21
num_cat=0
split_feature=0 15 32 29 18 0 8 10 20 39 39 31 38 8 38 13 5 13 35 13
split_gain=3258.61 392.122 390.667 278.556 196.642 101.019 72.2793 63.6093 45.9425 37.4181 80.1504 17.4784 16.8721 77.8312 10.0157 6.55375 6.32799 5.43224 5.2889 2.55187
threshold=2.2215000000000003 0.45715297214285716 4.5000000000000009 0.44154320142857145 0.45399129500000007 2.3535000000000008 2.1885000000000008 0.84805194805194817 3.5163758350000007 0.061621809490905809 0.082926226243599313 0.034186770000000005 0.033526432558920662 2.2295000000000003 0.077386856492201603 33.324500000000008 -0.0058928571428570999 33.453500000000012 -1.0000000180025095e-35 31.760500000000004
decision_type=2 2 2 2 2 2 2 2 2 2 2 2 2 2 2 2 2 2 2 2
left_child=3 2 4 -1 12 -6 -5 -4 -8 14 11 16 -2 -14 19 -16 -11 -17 -7 -3
right_child=1 9 7 6 5 18 8 -9 -10 10 -12 -13 13 -15 15 17 -18 -19 -20 -21
leaf_value=-0.035433746240003047 0.12995393390704735 0.103804864137839 -0.034444355819434544 0.1149162548274974 -0.03352301634598185 0.047543798097185848 -0.031594628246667332 0.10165509485406744 0.097244817007609563 0.095193610710722479 -0.028340001287255348 0.12607876480126848 -0.02874211483490486 0.11357533911187856 0.11552123600089095 0.092246654376097567 0.033128322418467818 0.033420435356686616 0.11126778755533523 0.1321603688488325
leaf_weight=146.90045110881329 66.17611962556839 24.609420254826546 27.869045495986942 13.965396195650102 12.917452037334444 4.7253723293542862 7.1035758405923826 2.4844317436218253 2.6020059436559677 2.6531141996383711 4.0387651920318595 18.420266136527061 3.822595119476321 17.058537721633911 8.0123701095581072 2.7276153564453107 5.860536828637124 5.7844911813735962 5.2776890993118268 788.29651553928852
leaf_count=1097 47 34 207 15 91 16 50 1 2 2 30 13 26 19 5 2 22 20 4 441
internal_value=0.101131 0.121772 0.0743479 -0.0199634 0.100451 0.0210763 0.0735283 -0.0203698 0.00866342 0.129409 0.0901462 0.108346 0.120855 0.0873306 0.130763 0.0921409 0.0606004 0.0601445 0.0883582 0.131432
internal_weight=1171.31 1000.73 140.331 170.571 109.978 22.9205 23.671 30.3535 9.70558 860.403 30.9727 26.9339 87.0573 20.8811 829.43 16.5245 8.51365 8.51211 10.0031 812.906
internal_count=2144 980 411 1164 203 111 67 208 52 569 67 37 92 45 502 27 24 22 20 475
is_linear=0
shrinkage=0.03


Tree=3
num_leaves=19
num_cat=0
split_feature=0 15 32 26 18 0 32 1 39 39 13 2 13 35 18 39 13 13
split_gain=2738.69 305.937 337.135 241.083 160.393 92.4406 59.7002 58.966 27.1348 69.6486 16.9276 32.1515 13.9159 4.21396 3.3818 2.06559 0.301326 1.08482
threshold=2.2215000000000003 0.45715297214285716 4.5000000000000009 -0.95297903005573337 0.45399129500000007 2.3535000000000008 210.50000000000003 2.4015000000000004 0.061621809490905809 0.082926226243599313 31.352500000000006 0.024499999999999956 31.229000000000003 -1.0000000180025095e-35 0.43586361500000009 0.073683337395908169 34.099500000000006 31.760500000000004
decision_type=2 2 2 2 2 2 2 2 2 2 2 2 2 2 2 2 2 2
left_child=3 2 4 10 12 -6 -4 -5 16 15 -1 -12 -2 -7 -14 -10 17 -3
right_child=1 8 6 7 5 13 -8 -9 9 -11 11 -13 14 -15 -16 -17 -18 -19
leaf_value=0.10027289751669806 0.060139963833216695 0.095314203860600979 -0.034227494429647155 -0.035248443984649061 -0.033276549206451622 0.045267219876738977 0.095404184168993086 0.081769393279300606 0.065845438015454505 -0.028096880808236843 -0.027873706541694871 0.094363947659596409 0.11966628869914819 0.10276868671459753 0.086152698897549063 0.10889012937750074 0.1020860284876679 0.11961991667671688
leaf_weight=12.225371256470682 8.5144197940826398 26.06290028989315 27.220396339893345 146.68526357412338 12.634422510862352 4.8622665107250214 2.6309728622436515 3.0526248812675467 7.9667407572269466 3.961327299475669 3.3643117845058432 2.6562213897705078 67.239476695656776 5.6198755800724012 17.300223007798195 20.56959180533886 53.301374524831772 810.74724289774895
leaf_count=15 23 34 207 1121 91 16 1 4 18 30 23 1 40 4 29 19 54 414
internal_value=0.0928384 0.110525 0.0693212 -0.0196574 0.0922693 0.0204 -0.0200316 -0.0323263 0.116963 0.0835801 0.0805113 0.0316024 0.1097 0.082492 0.113913 0.0995599 0.118085 0.118979
internal_weight=1236.62 1068.63 146.022 167.984 116.171 23.1166 29.8514 149.738 922.609 32.4977 18.2459 6.02053 93.0541 10.4821 84.5397 28.5363 890.112 836.81
internal_count=2144 980 411 1164 203 111 208 1125 569 67 39 24 92 20 69 37 502 448
is_linear=0
shrinkage=0.03


Tree=4
num_leaves=16
num_cat=0
split_feature=0 29 15 32 18 0 10 8 39 39 39 39 8 15 39
split_gain=2342.51 247.492 245.36 294.782 133.637 84.9759 56.2001 53.0355 37.8046 20.8692 61.0963 13.9392 36.1255 3.4315 1.15905
threshold=2.2215000000000003 0.44154320142857145 0.45715297214285716 4.5000000000000009 0.45399129500000007 2.3535000000000008 0.84805194805194817 2.1885000000000008 0.0141567821573553 0.061621809490905809 0.082926226243599313 0.071482162998199913 2.2295000000000003 0.45478446785714283 0.073683337395908169
decision_type=2 2 2 2 2 2 2 2 2 2 2 2 2 2 2
left_child=1 -1 3 4 11 -6 -5 -3 -9 -4 14 -2 -13 -7 -11
right_child=2 7 9 6 5 13 -8 8 -10 10 -12 12 -14 -15 -16
leaf_value=-0.035039408191287764 0.10568505625364034 0.097693877060757717 0.10794988863192234 -0.034017533572544383 -0.033036828241950963 0.043163946762479304 0.089902827909431701 0.082589687991246385 -0.031076122688728575 0.062060714686954427 -0.027857765301579986 -0.026446599427992473 0.086606786028922716 0.09556282082252289 0.10007981981523184
leaf_weight=139.95316642522812 85.632151290774345 15.655423358082773 943.73757039010525 26.582568824291233 12.355789288878443 4.9928902089595777 2.7672269344329825 3.0070390701293928 6.7095814347267151 8.2553929537534732 3.8852059543132773 2.7735652178525916 9.9856917560100538 5.9326756596565247 21.777243763208389
leaf_count=1097 61 15 502 207 91 16 1 3 49 18 30 19 12 4 19
internal_value=0.0860028 -0.0193532 0.10144 0.0650509 0.0855024 0.0197662 -0.0197071 0.0651633 0.00838475 0.106987 0.0778355 0.100686 0.0617866 0.0773702 0.0920141
internal_weight=1294 165.325 1128.68 151.023 121.673 23.2814 29.3498 25.372 9.71662 977.655 33.9178 98.3914 12.7593 10.9256 30.0326
internal_count=2144 1164 980 411 203 111 208 67 52 569 67 92 31 20 37
is_linear=0
shrinkage=0.03


Tree=5
num_leaves=17
num_cat=0
split_feature=0 29 15 32 39 18 0 10 8 20 39 14 15 28 38 7
split_gain=2033.22 233.651 201.701 260.235 116.012 85.417 65.0258 53.0474 45.7919 37.7074 16.6081 55.7114 20.1362 20.541 0.546746 0.488774
threshold=2.2215000000000003 0.44154320142857145 0.45715297214285716 4.5000000000000009 0.078080353160934313 0.45435997000000006 2.3535000000000008 0.84805194805194817 2.1885000000000008 3.5163758350000007 0.061621809490905809 0.46188089000000004 0.46503098571428575 2.2375000000000003 0.033526432558920662 2.4365000000000001
decision_type=2 2 2 2 2 2 2 2 2 2 2 2 2 2 2 2
left_child=1 -1 3 4 5 14 -7 -5 -3 -10 15 -12 13 -13 -2 -4
right_child=2 8 10 7 -6 6 -8 -9 9 -11 11 12 -14 -15 -16 -17
leaf_value=-0.034851765080744869 0.10270222289478052 0.090659942150800393 0.10004754028442849 -0.033814092041878262 -0.031860644454738685 -0.03194009957081443 0.072860713651023576 0.085033433652745238 -0.03096451501675291 0.082763239956671453 -0.029313368182797436 0.070793495557763209 0.097468373685923579 -0.027033238456936441 0.078579644199862173 0.078194228216996092
leaf_weight=136.54239859431982 77.317209362983704 16.428989589214329 969.17093800008297 25.955721423029903 7.3825466483831397 8.5750543773174304 11.334749490022658 2.893178939819335 6.7306937426328641 2.978928342461586 3.7750354409217826 3.4178884029388454 25.330712988972664 2.6722778826951981 21.969878122210503 21.842734649777412
leaf_count=1097 37 15 478 207 53 63 20 1 50 2 25 5 20 17 30 24
internal_value=0.0802505 -0.019074 0.0939307 0.0613297 0.0797474 0.08688 0.0282829 -0.0193955 0.0615375 0.00825723 0.0988024 0.0728929 0.085744 0.0298983 0.0982162 0.0996467
internal_weight=1344.32 162.681 1181.64 155.428 126.579 119.197 19.9098 28.8489 26.1386 9.70962 1026.21 35.1959 31.4209 6.09017 99.2871 991.014
internal_count=2144 1164 980 411 203 150 83 208 67 52 569 67 42 22 67 502
is_linear=0
shrinkage=0.03


end of trees

feature_importances:
soilmoist_7d_std=16
max_waterlevel_6h=10
waterlevel_cumrise_14d=9
sensor_soilmoisture_mean_24h=9
waterlevel_lag_3d=7
waterlevel_pct_rank_30d=6
soilmoisture_lag_2d=6
days_since_flood_level=6
soilmoisture_monsoon=4
week_cos=3
humidity_anomaly_vs_30d=3
waterlevel_7d_std=3
waterlevel_rise_rate_48h=2
humidity_trend_6h=2
max_waterlevel_24h=1
waterlevel_slope_3h=1
waterlevel_lag_2d=1
waterlevel_distance_to_max=1
sensor_soilmoisture_mean_6h=1
waterlevel_x_soilmoisture=1
week_sin=1
waterlevel_monsoon=1
soilmoisture_trend_3d=1
soilmoist_anomaly_vs_30d=1

parameters:
[boosting: gbdt]
[objective: binary]
[metric: binary_logloss]
[tree_learner: serial]
[device_type: cpu]
[data_sample_strategy: bagging]
[data: ]
[valid: ]
[num_iterations: 800]
[learning_rate: 0.03]
[num_leaves: 63]
[num_threads: 12]
[seed: 42]
[deterministic: 0]
[force_col_wise: 0]
[force_row_wise: 0]
[histogram_pool_size: -1]
[max_depth: 6]
[min_data_in_leaf: 10]
[min_sum_hessian_in_leaf: 0.001]
[bagging_fraction: 0.75]
[pos_bagging_fraction: 1]
[neg_bagging_fraction: 1]
[bagging_freq: 0]
[bagging_seed: 400]
[bagging_by_query: 0]
[feature_fraction: 0.8]
[feature_fraction_bynode: 1]
[feature_fraction_seed: 30056]
[extra_trees: 0]
[extra_seed: 12879]
[early_stopping_round: 0]
[early_stopping_min_delta: 0]
[first_metric_only: 0]
[max_delta_step: 0]
[lambda_l1: 0.05]
[lambda_l2: 1]
[linear_lambda: 0]
[min_gain_to_split: 0]
[drop_rate: 0.1]
[max_drop: 50]
[skip_drop: 0.5]
[xgboost_dart_mode: 0]
[uniform_drop: 0]
[drop_seed: 17869]
[top_rate: 0.2]
[other_rate: 0.1]
[min_data_per_group: 100]
[max_cat_threshold: 32]
[cat_l2: 10]
[cat_smooth: 10]
[max_cat_to_onehot: 4]
[top_k: 20]
[monotone_constraints: ]
[monotone_constraints_method: basic]
[monotone_penalty: 0]
[feature_contri: ]
[forcedsplits_filename: ]
[refit_decay_rate: 0.9]
[cegb_tradeoff: 1]
[cegb_penalty_split: 0]
[cegb_penalty_feature_lazy: ]
[cegb_penalty_feature_coupled: ]
[path_smooth: 0]
[interaction_constraints: ]
[verbosity: -1]
[saved_feature_importance_type: 0]
[use_quantized_grad: 0]
[num_grad_quant_bins: 4]
[quant_train_renew_leaf: 0]
[stochastic_rounding: 1]
[linear_tree: 0]
[max_bin: 255]
[max_bin_by_feature: ]
[min_data_in_bin: 3]
[bin_construct_sample_cnt: 200000]
[data_random_seed: 175]
[is_enable_sparse: 1]
[enable_bundle: 1]
[use_missing: 1]
[zero_as_missing: 0]
[feature_pre_filter: 1]
[pre_partition: 0]
[two_round: 0]
[header: 0]
[label_column: ]
[weight_column: ]
[group_column: ]
[ignore_column: ]
[categorical_feature: ]
[forcedbins_filename: ]
[precise_float_parser: 0]
[parser_config_file: ]
[objective_seed: 16083]
[num_class: 1]
[is_unbalance: 0]
[scale_pos_weight: 15]
[sigmoid: 1]
[boost_from_average: 1]
[reg_sqrt: 0]
[alpha: 0.9]
[fair_c: 1]
[poisson_max_delta_step: 0.7]
[tweedie_variance_power: 1.5]
[lambdarank_truncation_level: 30]
[lambdarank_norm: 1]
[label_gain: ]
[lambdarank_position_bias_regularization: 0]
[eval_at: ]
[multi_error_top_k: 1]
[auc_mu_weights: ]
[num_machines: 1]
[local_listen_port: 12400]
[time_out: 120]
[machine_list_filename: ]
[machines: ]
[gpu_platform_id: -1]
[gpu_device_id: -1]
[gpu_use_dp: 0]
[num_gpu: 1]

end of parameters

pandas_categorical:[]
