{"learner":{"attributes":{"best_iteration":"54","best_score":"0.5037238793948892","scikit_learn":"{\"_estimator_type\": \"classifier\"}"},"feature_names":["max_waterlevel_6h","max_waterlevel_24h","waterlevel_slope_3h","waterlevel_slope_6h","waterlevel_std_24h","waterlevel_rise_rate_48h","waterlevel_lag_1d","waterlevel_lag_2d","waterlevel_lag_3d","waterlevel_days_above_threshold","waterlevel_pct_rank_30d","waterlevel_distance_to_max","waterlevel_mean_7d","waterlevel_cumrise_14d","sensor_soilmoisture_mean_6h","sensor_soilmoisture_mean_24h","sensor_soilmoisture_trend_6h","soilmoisture_lag_1d","soilmoisture_lag_2d","humidity_mean_24h","humidity_trend_6h","waterlevel_x_soilmoisture","humidity_x_waterlevel_slope","season_sin","season_cos","week_sin","week_cos","is_monsoon_season","waterlevel_monsoon","soilmoisture_monsoon","humidity_x_soilmoisture","soilmoisture_trend_3d","days_since_flood_level","waterlevel_falling_streak","post_flood_decay_7d","humidity_anomaly_vs_30d","soilmoist_anomaly_vs_30d","late_season_wet_flag","waterlevel_7d_std","soilmoist_7d_std","orbit_flag","soil_saturation","wetness_trend"],"feature_types":["float","float","float","float","float","float","float","float","float","int","float","float","float","float","float","float","float","float","float","float","float","float","float","float","float","float","float","float","float","float","float","float","int","int","float","float","float","int","float","float","float","float","float"],"gradient_booster":{"model":{"cats":{"enc":[],"feature_segments":[],"sorted_idx":[]},"gbtree_model_param":{"num_parallel_tree":"1","num_trees":"85"},"iteration_indptr":[0,1,2,3,4,5,6,7,8,9,10,11,12,13,14,15,16,17,18,19,20,21,22,23,24,25,26,27,28,29,30,31,32,33,34,35,36,37,38,39,40,41,42,43,44,45,46,47,48,49,50,51,52,53,54,55,56,57,58,59,60,61,62,63,64,65,66,67,68,69,70,71,72,73,74,75,76,77,78,79,80,81,82,83,84,85],"tree_info":[0,0,0,0,0,0,0,0,0,0,0,0,0,0,0,0,0,0,0,0,0,0,0,0,0,0,0,0,0,0,0,0,0,0,0,0,0,0,0,0,0,0,0,0,0,0,0,0,0,0,0,0,0,0,0,0,0,0,0,0,0,0,0,0,0,0,0,0,0,0,0,0,0,0,0,0,0,0,0,0,0,0,0,0,0],"trees":[{"base_weights":[9.447955E-2,-3.2694938E0,8.0873096E-1,-1.1294332E0,-1.4298354E-1,-1.3762362E-1,8.9898396E-1,-1.3373153E-1,7.05466E-1,-8.6397044E-2,1.1078358E0,5.1034376E-2,-2.3851825E-2,1.5664898E-1,-1.3315538E-1,1.1343925E0,-1.202609E-1,3.627476E-1,-1.2998073E-1,1.1323609E-1,1.1712382E0,2.1906862E-2,-1.2717985E-1,4.428939E-2,-7.736219E-2,4.7295135E-2,-2.3851825E-2],"categories":[],"categories_nodes":[],"categories_segments":[],"categories_sizes":[],"default_left":[0,0,0,0,0,0,0,0,0,0,0,0,0,0,0,0,0,0,0,0,0,0,0,0,0,0,0],"id":0,"left_children":[1,3,5,7,-1,-1,9,-1,11,13,15,-1,-1,17,-1,19,-1,21,-1,23,25,-1,-1,-1,-1,-1,-1],"loss_changes":[3.3486863E3,1.5510132E2,4.4383936E2,1.322334E2,0E0,0E0,2.319704E2,0E0,1.4366232E1,1.5662805E2,1.0488611E2,0E0,0E0,1.3092471E2,0E0,3.458191E1,0E0,1.1649419E2,0E0,6.9958145E1,1.8298706E1,0E0,0E0,0E0,0E0,0E0,0E0],"parents":[2147483647,0,0,1,1,2,2,3,3,6,6,8,8,9,9,10,10,13,13,15,15,17,17,19,19,20,20],"right_children":[2,4,6,8,-1,-1,10,-1,12,14,16,-1,-1,18,-1,20,-1,22,-1,24,26,-1,-1,-1,-1,-1,-1],"split_conditions":[1.8800275E-2,-5.6806475E-1,3.1215E1,2.237E0,-1.4298354E-1,-1.3762362E-1,4.5855588E-1,-1.3373153E-1,3.0419292E-2,3.3771E1,8.183254E-2,5.1034376E-2,-2.3851825E-2,1.3E1,-1.3315538E-1,2.234E0,-1.202609E-1,8.6858705E-2,-1.2998073E-1,-8.85456E-1,7.9640366E-2,2.1906862E-2,-1.2717985E-1,4.428939E-2,-7.736219E-2,4.7295135E-2,-2.3851825E-2],"split_indices":[36,26,13,0,0,0,15,0,38,13,39,0,0,32,0,0,0,39,0,25,38,0,0,0,0,0,0],"split_type":[0,0,0,0,0,0,0,0,0,0,0,0,0,0,0,0,0,0,0,0,0,0,0,0,0,0,0],"sum_hessian":[1.3916556E3,2.4309274E2,1.1485629E3,3.0939075E1,2.1215366E2,2.3103855E1,1.1254591E3,1.366141E1,1.7277664E1,1.9688503E2,9.2857404E2,1.2054185E1,5.22348E0,1.8402722E2,1.2857798E1,9.233506E2,5.22348E0,1.7438388E2,9.643349E0,3.2345398E1,8.910052E2,1.6654866E2,7.8352203E0,2.2099339E1,1.02460575E1,8.857817E2,5.22348E0],"tree_param":{"num_deleted":"0","num_feature":"43","num_nodes":"27","size_leaf_vector":"1"}},{"base_weights":[8.7828554E-2,-2.859627E0,8.367842E-1,-1.3318427E0,-3.1798308E0,-2.6715596E0,9.3912995E-1,-1.2577274E-1,-6.54656E-2,-1.2953372E-1,-8.3977985E-4,1.4130642E-2,-1.25297E-1,9.77957E-1,-1.19397506E-1,6.824941E-1,-1.17073916E-1,1.0235112E0,-2.1875646E0,5.1706187E-2,-9.580009E-1,5.0800073E-1,1.1280372E0,-1.2176113E-1,3.208115E-2,-1.0081408E-1,3.209026E-2,2.7698785E-2,-1.1751413E-1,-2.5503146E-3,4.656573E-2],"categories":[],"categories_nodes":[],"categories_segments":[],"categories_sizes":[],"default_left":[0,0,0,0,0,0,0,0,0,0,0,0,0,0,0,0,0,0,0,0,0,0,0,0,0,0,0,0,0,0,0],"id":1,"left_children":[1,3,5,7,9,11,13,-1,15,-1,-1,-1,-1,17,-1,19,-1,21,23,-1,25,27,29,-1,-1,-1,-1,-1,-1,-1,-1],"loss_changes":[3.0469976E3,1.3235547E2,3.9759924E2,1.1487243E2,4.2365723E1,4.5077255E1,1.658642E2,0E0,6.758608E1,0E0,0E0,0E0,0E0,1.5509558E2,0E0,2.6330042E1,0E0,5.571167E1,4.1848732E1,0E0,2.230347E1,1.1522496E2,3.7515503E1,0E0,0E0,0E0,0E0,0E0,0E0,0E0,0E0],"parents":[2147483647,0,0,1,1,2,2,3,3,4,4,5,5,6,6,8,8,13,13,15,15,17,17,18,18,20,20,21,21,22,22],"right_children":[2,4,6,8,10,12,14,-1,16,-1,-1,-1,-1,18,-1,20,-1,22,24,-1,26,28,30,-1,-1,-1,-1,-1,-1,-1,-1],"split_conditions":[4.339891E-1,-5.6806475E-1,3.1215E1,2.226E0,1.0997478E0,-9.9270886E-1,1.9E1,-1.2577274E-1,2.2545714E0,-1.2953372E-1,-8.3977985E-4,1.4130642E-2,-1.25297E-1,8.29627E-2,-1.19397506E-1,3.2224726E-2,-1.17073916E-1,4.5878136E-1,2.5E-2,5.1706187E-2,-5.7E-2,3.3771E1,2.238E0,-1.2176113E-1,3.208115E-2,-1.0081408E-1,3.209026E-2,2.7698785E-2,-1.1751413E-1,-2.5503146E-3,4.656573E-2],"split_indices":[14,26,13,0,21,26,32,0,12,0,0,0,0,39,0,39,0,29,2,0,34,13,0,0,0,0,0,0,0,0,0],"split_type":[0,0,0,0,0,0,0,0,0,0,0,0,0,0,0,0,0,0,0,0,0,0,0,0,0,0,0,0,0,0,0],"sum_hessian":[1.3782467E3,2.7867166E2,1.0995751E3,4.9206894E1,2.2946477E2,3.0442276E1,1.0691328E3,1.9613325E1,2.959357E1,2.2525136E2,4.2134123E0,4.0414925E0,2.6400784E1,1.059414E3,9.718948E0,2.4050758E1,5.542814E0,1.045067E3,1.4346832E1,1.770728E1,6.343478E0,1.7724641E2,8.678206E2,1.1150838E1,3.1959941E0,3.146943E0,3.196535E0,1.6901213E2,8.234273E0,2.5454739E1,8.423659E2],"tree_param":{"num_deleted":"0","num_feature":"43","num_nodes":"31","size_leaf_vector":"1"}},{"base_weights":[1.1633133E-1,-2.777533E0,7.9070675E-1,-1.1874337E0,-1.1854095E-1,8.996219E-1,-2.0180478E0,-1.1229699E-1,3.433113E-1,-3.0721312E-2,1.0880506E0,-1.1728942E-1,-2.6083794E-1,4.9843363E-2,-9.690078E-2,-1.19448304E-1,1.8378653E-1,-8.589948E-1,1.115207E0,6.261608E-1,-9.916981E-2,4.1449055E-1,-1.1178388E-1,-1.1026564E-1,5.08991E-1,1.1315103E0,-4.1738287E-2,-1.0074904E-2,4.9192846E-2,2.1573452E-2,-1.2101528E-1,4.2871807E-2,-1.1566255E-3,4.5782138E-2,5.0725387E-3],"categories":[],"categories_nodes":[],"categories_segments":[],"categories_sizes":[],"default_left":[0,0,0,0,0,0,0,0,0,0,0,0,0,0,0,0,0,0,0,0,0,0,0,0,0,0,0,0,0,0,0,0,0,0,0],"id":2,"left_children":[1,3,5,7,-1,9,11,-1,13,15,17,-1,19,-1,-1,-1,21,23,25,27,-1,29,-1,-1,31,33,-1,-1,-1,-1,-1,-1,-1,-1,-1],"loss_changes":[2.7058147E3,7.377112E1,3.4572424E2,7.334253E1,0E0,1.8995972E2,6.696858E1,0E0,4.2552692E1,1.1692873E2,4.8598145E1,0E0,3.2301277E1,0E0,0E0,0E0,1.19135475E2,3.5081337E1,3.2466064E1,6.6723127E0,0E0,7.039198E1,0E0,0E0,2.6086931E0,1.1358276E1,0E0,0E0,0E0,0E0,0E0,0E0,0E0,0E0,0E0],"parents":[2147483647,0,0,1,1,2,2,3,3,5,5,6,6,8,8,9,9,10,10,12,12,16,16,17,17,18,18,19,19,21,21,24,24,25,25],"right_children":[2,4,6,8,-1,10,12,-1,14,16,18,-1,20,-1,-1,-1,22,24,26,28,-1,30,-1,-1,32,34,-1,-1,-1,-1,-1,-1,-1,-1,-1],"split_conditions":[2.1108361E-2,-5.6806475E-1,7.980922E-2,3.1433E1,-1.1854095E-1,4.5749542E-1,2.5230367E-2,-1.1229699E-1,2.267E0,2.384E-1,2.247E0,-1.1728942E-1,4.401258E-1,4.9843363E-2,-9.690078E-2,-1.19448304E-1,3.3755E1,9E-3,7.9640366E-2,8.548001E-2,-9.916981E-2,3.2E1,-1.1178388E-1,-1.1026564E-1,-5.7142857E-4,6.4324905E-16,-4.1738287E-2,-1.0074904E-2,4.9192846E-2,2.1573452E-2,-1.2101528E-1,4.2871807E-2,-1.1566255E-3,4.5782138E-2,5.0725387E-3],"split_indices":[36,26,39,13,0,15,4,0,1,41,1,0,17,0,0,0,13,2,38,39,0,9,0,0,5,25,0,0,0,0,0,0,0,0,0],"split_type":[0,0,0,0,0,0,0,0,0,0,0,0,0,0,0,0,0,0,0,0,0,0,0,0,0,0,0,0,0,0,0,0,0,0,0],"sum_hessian":[1.3844199E3,2.6104346E2,1.1233765E3,2.8137712E1,2.3290575E2,1.0821129E3,4.12636E1,1.3281018E1,1.4856693E1,1.8235072E2,8.9976215E2,2.668408E1,1.4579522E1,1.16286335E1,3.2280598E0,1.1480766E1,1.7086996E2,1.1930067E1,8.878321E2,1.09117985E1,3.6677234E0,1.5940051E2,1.1469458E1,4.5876284E0,7.342439E0,8.8167224E2,6.1598296E0,4.649279E0,6.2625194E0,1.5464558E2,4.7549186E0,3.1485634E0,4.193876E0,8.7018634E2,1.1485906E1],"tree_param":{"num_deleted":"0","num_feature":"43","num_nodes":"35","size_leaf_vector":"1"}},{"base_weights":[1.0124664E-1,-2.5836017E0,7.6787597E-1,-1.0355908E0,-1.097466E-1,-5.8645916E-1,1.0169575E0,-1.0427429E-1,4.287757E-1,-1.1397929E-1,-1.10570066E-1,1.0383029E0,-9.4569415E-2,4.737915E-2,-2.6639657E-2,5.3725713E-1,-8.928079E-1,3.3940786E-1,1.0953692E0,7.682564E-1,-9.945987E-2,3.0208045E-1,-2.1774697E0,5.6794846E-1,-1.1428923E-1,1.1402036E0,5.928229E-1,3.838529E-2,-4.4381812E-2,3.0294618E-2,-1.02293156E-1,-1.20093346E-1,2.4714136E-2,3.7003513E-2,-6.590895E-2,4.865071E-2,3.5164423E-2,3.5156414E-2,-6.421587E-2],"categories":[],"categories_nodes":[],"categories_segments":[],"categories_sizes":[],"default_left":[0,0,0,0,0,0,0,0,0,0,0,0,0,0,0,0,0,0,0,0,0,0,0,0,0,0,0,0,0,0,0,0,0,0,0,0,0,0,0],"id":3,"left_children":[1,3,5,7,-1,9,11,-1,13,15,-1,17,-1,-1,-1,19,21,23,25,27,-1,29,31,33,-1,35,37,-1,-1,-1,-1,-1,-1,-1,-1,-1,-1,-1,-1],"loss_changes":[2.5163232E3,6.6261475E1,3.8053583E2,6.528758E1,0E0,1.8017998E2,7.107245E1,0E0,1.3434107E1,7.420352E1,0E0,3.7302246E1,0E0,0E0,0E0,5.751574E1,1.02965065E2,5.4808315E1,1.8939697E1,2.7956596E1,0E0,4.7876392E1,7.6289566E1,5.6039345E1,0E0,1.4746582E1,4.7784637E1,0E0,0E0,0E0,0E0,0E0,0E0,0E0,0E0,0E0,0E0,0E0,0E0],"parents":[2147483647,0,0,1,1,2,2,3,3,5,5,6,6,8,8,9,9,11,11,15,15,16,16,17,17,18,18,19,19,21,21,22,22,23,23,25,25,26,26],"right_children":[2,4,6,8,-1,10,12,-1,14,16,-1,18,-1,-1,-1,20,22,24,26,28,-1,30,32,34,-1,36,38,-1,-1,-1,-1,-1,-1,-1,-1,-1,-1,-1,-1],"split_conditions":[1.8800275E-2,-5.6806475E-1,1.0456364E0,3.144E1,-1.097466E-1,7.634516E-2,8.29627E-2,-1.0427429E-1,2.265E0,3.4059722E-2,-1.10570066E-1,4.5045316E-1,-9.4569415E-2,4.737915E-2,-2.6639657E-2,3.67E-1,1.5860574E-2,1.7395394E-2,5E0,2.2675714E0,-9.945987E-2,3.3167E1,7.3288724E-2,3.3915E1,-1.1428923E-1,1.6631275E-2,6.1471194E-2,3.838529E-2,-4.4381812E-2,3.0294618E-2,-1.02293156E-1,-1.20093346E-1,2.4714136E-2,3.7003513E-2,-6.590895E-2,4.865071E-2,3.5164423E-2,3.5156414E-2,-6.421587E-2],"split_indices":[36,26,21,13,0,39,39,0,1,38,0,14,0,0,0,11,39,39,33,12,0,13,39,13,0,39,38,0,0,0,0,0,0,0,0,0,0,0,0],"split_type":[0,0,0,0,0,0,0,0,0,0,0,0,0,0,0,0,0,0,0,0,0,0,0,0,0,0,0,0,0,0,0,0,0,0,0,0,0,0,0],"sum_hessian":[1.4038676E3,2.786509E2,1.1252167E3,2.6841562E1,2.5180936E2,1.7455435E2,9.506623E2,1.2588278E1,1.42532835E1,1.443191E2,3.0235252E1,9.4540173E2,5.2605658E0,8.411005E0,5.8422785E0,7.8731674E1,6.5587425E1,7.195758E1,8.7344415E2,7.385221E1,4.8794684E0,3.4357136E1,3.1230288E1,6.793836E1,4.019217E0,8.006467E2,7.279745E1,6.74896E1,6.3626046E0,3.0287304E1,4.0698304E0,2.407106E1,7.159229E0,5.90287E1,8.909661E0,6.1703564E2,1.8361105E2,6.496544E1,7.8320136E0],"tree_param":{"num_deleted":"0","num_feature":"43","num_nodes":"39","size_leaf_vector":"1"}},{"base_weights":[1.2704259E-1,-2.1873035E0,8.501851E-1,-2.5340343E0,-5.268946E-1,-2.4818668E-1,1.010212E0,1.9990142E-2,-1.03130855E-1,1.145995E0,-1.0195194E-1,-1.0367326E-1,5.033839E-2,1.0463821E0,-5.353382E-1,5.0113287E-2,8.680365E-3,2.8163567E-1,-1.011647E-1,1.1033105E0,3.8423452E-1,9.266827E-1,-1.0886696E-1,-1.07133895E-1,4.679438E-1,1.113995E0,-2.6149936E-2,-1.2104574E-1,7.7165335E-1,4.887593E-3,4.942116E-2,-2.9734723E-2,3.2558214E-2,-1.1334341E-3,4.4969514E-2,-9.5763646E-2,4.310402E-2],"categories":[],"categories_nodes":[],"categories_segments":[],"categories_sizes":[],"default_left":[0,0,0,0,0,0,0,0,0,0,0,0,0,0,0,0,0,0,0,0,0,0,0,0,0,0,0,0,0,0,0,0,0,0,0,0,0],"id":4,"left_children":[1,3,5,7,9,11,13,-1,-1,15,-1,-1,17,19,21,-1,-1,23,-1,25,27,29,-1,-1,31,33,-1,-1,35,-1,-1,-1,-1,-1,-1,-1,-1],"loss_changes":[2.3493882E3,1.9092273E2,1.8827502E2,3.8458984E1,2.0262892E2,9.594627E1,5.27843E1,0E0,0E0,2.927414E0,0E0,0E0,7.355377E1,3.390802E1,7.287761E1,0E0,0E0,6.3532486E1,0E0,1.6518738E1,9.9817116E1,3.2361803E0,0E0,0E0,4.5581688E1,9.859375E0,0E0,0E0,6.754306E1,0E0,0E0,0E0,0E0,0E0,0E0,0E0,0E0],"parents":[2147483647,0,0,1,1,2,2,3,3,4,4,5,5,6,6,9,9,12,12,13,13,14,14,17,17,19,19,20,20,21,21,24,24,25,25,28,28],"right_children":[2,4,6,8,10,12,14,-1,-1,16,-1,-1,18,20,22,-1,-1,24,-1,26,28,30,-1,-1,32,34,-1,-1,36,-1,-1,-1,-1,-1,-1,-1,-1],"split_conditions":[9.768368E-1,2.236E0,1.0456364E0,-9.9270886E-1,3.1273644E-2,4.394956E-1,6.4324905E-16,1.9990142E-2,-1.03130855E-1,1.7E-2,-1.0195194E-1,-1.0367326E-1,1.7E1,3.387E1,3.161478E-1,5.0113287E-2,8.680365E-3,9.382141E-3,-1.011647E-1,2.41673E-2,2.334E0,8E0,-1.0886696E-1,-1.07133895E-1,3.13E-1,9E-3,-2.6149936E-2,-1.2104574E-1,4.607733E-1,4.887593E-3,4.942116E-2,-2.9734723E-2,3.2558214E-2,-1.1334341E-3,4.4969514E-2,-9.5763646E-2,4.310402E-2],"split_indices":[21,0,21,26,38,14,25,0,0,2,0,0,32,13,18,0,0,4,0,16,8,9,0,0,11,11,0,0,29,0,0,0,0,0,0,0,0],"split_type":[0,0,0,0,0,0,0,0,0,0,0,0,0,0,0,0,0,0,0,0,0,0,0,0,0,0,0,0,0,0,0,0,0,0,0,0,0],"sum_hessian":[1.4017201E3,3.332125E2,1.0685076E3,2.7519034E2,5.8022156E1,1.3576918E2,9.327384E2,3.79079E0,2.7139954E2,3.197503E1,2.6047125E1,1.4490817E1,1.2127836E2,9.117561E2,2.0982302E1,2.8316135E1,3.6588948E0,1.12133644E2,9.144714E0,8.388904E2,7.286574E1,1.2905539E1,8.076763E0,5.8320637E0,1.0630158E2,8.342121E2,4.6783E0,6.725171E0,6.614057E1,4.012132E0,8.893407E0,2.3331196E1,8.297038E1,7.354532E0,8.2685754E2,5.212839E0,6.092773E1],"tree_param":{"num_deleted":"0","num_feature":"43","num_nodes":"37","size_leaf_vector":"1"}},{"base_weights":[4.21705E-2,-1.7971867E0,9.2404747E-1,-2.158934E0,-1.151837E-1,1.0288604E0,-9.061598E-1,-1.1349038E0,-2.3779814E0,1.6764106E-1,-9.575733E-2,-8.661491E-1,1.0461565E0,-1.06930986E-1,1.6942504E-1,-9.598439E-2,6.335141E-1,-9.813217E-2,-3.4735528E-1,7.1750844E-1,-7.7259725E-1,3.556272E-2,-9.242156E-2,1.0913742E0,3.2801175E-1,9.735919E-1,-1.5757786E0,1.0557816E0,-3.0804316E-2,3.625944E-2,-8.026772E-2,9.0136844E-1,-2.1256642E-2,1.18259296E-1,-9.573346E-2,3.2455537E-1,1.1194044E0,7.5188047E-1,-1.203449E-1,4.643412E-2,1.9370659E-3,2.042802E-2,-1.02556445E-1,9.858576E-3,4.8196733E-2,5.157046E-2,2.1284616E-2,2.7739255E-2,-8.1264704E-2,-4.70413E-2,3.334492E-2,4.5100432E-2,-1.2576876E-2,-4.3482967E-2,4.1422177E-2],"categories":[],"categories_nodes":[],"categories_segments":[],"categories_sizes":[],"default_left":[0,0,0,0,0,0,0,0,0,0,0,0,0,0,0,0,0,0,0,0,0,0,0,0,0,0,0,0,0,0,0,0,0,0,0,0,0,0,0,0,0,0,0,0,0,0,0,0,0,0,0,0,0,0,0],"id":5,"left_children":[1,3,5,7,9,11,13,15,17,19,-1,21,23,-1,25,-1,27,-1,29,31,33,-1,-1,35,37,39,41,43,-1,-1,-1,45,-1,47,-1,49,51,53,-1,-1,-1,-1,-1,-1,-1,-1,-1,-1,-1,-1,-1,-1,-1,-1,-1],"loss_changes":[2.1594407E3,2.6214392E2,1.7355609E2,7.67522E1,5.0424397E1,2.8827454E1,9.4181854E1,1.4587808E2,4.3589966E1,3.6643066E1,0E0,2.2973257E1,2.6990356E1,0E0,4.5763657E1,0E0,1.7228298E1,0E0,2.603724E1,1.0738964E1,3.823737E1,0E0,0E0,1.6628052E1,7.500208E1,3.734007E0,2.2668598E1,2.2521725E0,0E0,0E0,0E0,4.8494205E0,0E0,2.3410387E1,0E0,2.3473055E1,9.291443E0,2.5390366E1,0E0,0E0,0E0,0E0,0E0,0E0,0E0,0E0,0E0,0E0,0E0,0E0,0E0,0E0,0E0,0E0,0E0],"parents":[2147483647,0,0,1,1,2,2,3,3,4,4,5,5,6,6,7,7,8,8,9,9,11,11,12,12,14,14,16,16,18,18,19,19,20,20,23,23,24,24,25,25,26,26,27,27,31,31,33,33,35,35,36,36,37,37],"right_children":[2,4,6,8,10,12,14,16,18,20,-1,22,24,-1,26,-1,28,-1,30,32,34,-1,-1,36,38,40,42,44,-1,-1,-1,46,-1,48,-1,50,52,54,-1,-1,-1,-1,-1,-1,-1,-1,-1,-1,-1,-1,-1,-1,-1,-1,-1],"split_conditions":[4.5481634E-1,4.5589796E-1,-2.4492937E-16,3.089863E-2,1.811604E-2,2.248E0,2.248E0,2.226E0,4.7304323E-1,3.6344416E-2,-9.575733E-2,4.2650145E-1,2.403E0,-1.06930986E-1,2.232E0,-9.598439E-2,3.7763947E-1,-9.813217E-2,-9.350162E-1,9.764146E-1,2.632E-1,3.556272E-2,-9.242156E-2,4.5855588E-1,-6.6312265E-1,4.401258E-1,2.264E0,1E0,-3.0804316E-2,3.625944E-2,-8.026772E-2,2.441E-1,-2.1256642E-2,2.1428571E-4,-9.573346E-2,2.6829267E-2,9E0,2.347E0,-1.203449E-1,4.643412E-2,1.9370659E-3,2.042802E-2,-1.02556445E-1,9.858576E-3,4.8196733E-2,5.157046E-2,2.1284616E-2,2.7739255E-2,-8.1264704E-2,-4.70413E-2,3.334492E-2,4.5100432E-2,-1.2576876E-2,-4.3482967E-2,4.1422177E-2],"split_indices":[15,14,23,38,16,1,0,0,17,38,0,14,6,0,7,0,15,0,25,20,41,0,0,15,25,17,0,9,0,0,0,41,0,5,0,4,33,7,0,0,0,0,0,0,0,0,0,0,0,0,0,0,0,0,0],"split_type":[0,0,0,0,0,0,0,0,0,0,0,0,0,0,0,0,0,0,0,0,0,0,0,0,0,0,0,0,0,0,0,0,0,0,0,0,0,0,0,0,0,0,0,0,0,0,0,0,0,0,0,0,0,0,0],"sum_hessian":[1.3292765E3,4.3042712E2,8.9884937E2,3.5398294E2,7.644419E1,8.506019E2,4.8247437E1,6.3506027E1,2.904769E2,6.880857E1,7.6356173E0,7.2233386E0,8.4337854E2,1.771081E1,3.0536625E1,3.6834633E1,2.6671398E1,2.7986304E2,1.0613868E1,4.3600388E1,2.5208183E1,3.4187448E0,3.804594E0,7.928668E2,5.051174E1,2.1226511E1,9.310114E0,2.0721079E1,5.9503183E0,6.2868924E0,4.326975E0,3.82829E1,5.317487E0,1.6845215E1,8.362968E0,2.8466925E1,7.643999E2,4.55189E1,4.992841E0,1.7396515E1,3.8299944E0,3.1311464E0,6.178968E0,3.6891448E0,1.7031935E1,1.7389069E1,2.0893831E1,1.3842262E1,3.0029528E0,6.8542223E0,2.1612701E1,7.603497E2,4.050235E0,5.681223E0,3.9837677E1],"tree_param":{"num_deleted":"0","num_feature":"43","num_nodes":"55","size_leaf_vector":"1"}},{"base_weights":[7.547194E-2,-2.0964766E0,7.1101147E-1,-9.126739E-2,-7.2634286E-1,-2.8427678E-1,9.484133E-1,4.4812236E-2,-8.910647E-2,-9.64E-2,-9.717245E-2,1.026471E0,-5.34222E-1,1.7307629E-1,-1.5006363E0,1.0438052E0,-9.8520243E-1,-9.862191E-2,2.513369E-1,3.7471175E-1,-9.399609E-2,5.718581E-1,-9.199596E-2,1.6639169E-1,1.0768999E0,3.049075E-2,-9.827217E-2,-9.835027E-2,8.5163045E-1,3.335263E-2,-1.1406041E-2,4.5070723E-2,2.225972E-3,-1.08697936E-1,3.2055374E-2,4.35498E-2,-2.9140746E-2,5.0688505E-2,-2.2748759E-2],"categories":[],"categories_nodes":[],"categories_segments":[],"categories_sizes":[],"default_left":[0,0,0,0,0,0,0,0,0,0,0,0,0,0,0,0,0,0,0,0,0,0,0,0,0,0,0,0,0,0,0,0,0,0,0,0,0,0,0],"id":6,"left_children":[1,3,5,-1,7,9,11,-1,-1,-1,13,15,17,19,21,23,25,-1,27,29,-1,31,-1,33,35,-1,-1,-1,37,-1,-1,-1,-1,-1,-1,-1,-1,-1,-1],"loss_changes":[1.8439741E3,7.493091E1,2.4448499E2,0E0,1.0654228E2,7.90896E1,9.717078E1,0E0,0E0,0E0,7.0364426E1,2.8694336E1,6.501546E1,7.999467E1,5.1012115E1,2.2612366E1,2.0645569E1,0E0,5.246137E1,4.421264E1,0E0,2.4902997E0,0E0,5.6733448E1,1.702539E1,0E0,0E0,0E0,1.6187769E1,0E0,0E0,0E0,0E0,0E0,0E0,0E0,0E0,0E0,0E0],"parents":[2147483647,0,0,1,1,2,2,4,4,5,5,6,6,10,10,11,11,12,12,13,13,14,14,15,15,16,16,18,18,19,19,21,21,23,23,24,24,28,28],"right_children":[2,4,6,-1,8,10,12,-1,-1,-1,14,16,18,20,22,24,26,-1,28,30,-1,32,-1,34,36,-1,-1,-1,38,-1,-1,-1,-1,-1,-1,-1,-1,-1,-1],"split_conditions":[2.1108361E-2,2.247E0,4.5749542E-1,-9.126739E-2,3.089863E-2,2.384E-1,-2.4492937E-16,4.4812236E-2,-8.910647E-2,-9.64E-2,7.74827E-2,7.9640366E-2,2.263E0,3.3755E1,-2.5916722E-1,3.1761E1,2.384E-1,-9.862191E-2,1.4325452E-1,2.828E-1,-9.399609E-2,-4.6E-2,-9.199596E-2,-2.4201846E-1,4.8568565E-1,3.049075E-2,-9.827217E-2,-9.835027E-2,4.6017677E-1,3.335263E-2,-1.1406041E-2,4.5070723E-2,2.225972E-3,-1.08697936E-1,3.2055374E-2,4.35498E-2,-2.9140746E-2,5.0688505E-2,-2.2748759E-2],"split_indices":[36,0,15,0,38,41,23,0,0,0,39,38,1,13,35,13,41,0,36,41,0,2,0,35,17,0,0,0,17,0,0,0,0,0,0,0,0,0,0],"split_type":[0,0,0,0,0,0,0,0,0,0,0,0,0,0,0,0,0,0,0,0,0,0,0,0,0,0,0,0,0,0,0,0,0,0,0,0,0,0,0],"sum_hessian":[1.3338359E3,3.0140628E2,1.0324297E3,2.6489694E2,3.650935E1,1.9875545E2,8.336742E2,1.6470646E1,2.0038704E1,1.5096286E1,1.8365916E2,7.923025E2,4.137169E1,1.5470958E2,2.8949574E1,7.8603534E2,6.2671614E0,1.1362245E1,3.0009443E1,1.440671E2,1.06424885E1,8.118973E0,2.08306E1,2.8844372E1,7.57191E2,3.0698586E0,3.1973028E0,4.865295E0,2.5144148E1,8.4846634E1,5.9220467E1,3.2961106E0,4.822862E0,4.599113E0,2.424526E1,7.526774E2,4.513562E0,1.9563154E1,5.5809937E0],"tree_param":{"num_deleted":"0","num_feature":"43","num_nodes":"39","size_leaf_vector":"1"}},{"base_weights":[1.1133315E-1,-1.6723953E0,8.5404104E-1,-8.744894E-2,-6.0225904E-1,9.089909E-1,-1.6297953E0,3.9546755E-1,-1.4761966E0,2.5858545E-1,1.0229119E0,-8.637743E-2,4.2453185E-2,9.103602E-1,-9.056011E-2,-9.021109E-2,8.552298E-1,4.269704E-1,-8.879376E-2,-1.2122525E0,1.0511203E0,1.1768401E0,-7.789234E-2,4.7933258E-2,-1.02945585E-2,5.627348E-1,-1.1145304E-1,-9.412306E-2,4.2680997E-2,1.0645713E0,-3.4248482E-2,6.013504E-3,5.0519742E-2,2.6931992E-2,-1.026315E-1,4.3214582E-2,1.3232697E-3],"categories":[],"categories_nodes":[],"categories_segments":[],"categories_sizes":[],"default_left":[0,0,0,0,0,0,0,0,0,0,0,0,0,0,0,0,0,0,0,0,0,0,0,0,0,0,0,0,0,0,0,0,0,0,0,0,0],"id":7,"left_children":[1,3,5,-1,7,9,11,13,15,17,19,-1,-1,21,-1,-1,23,25,-1,27,29,31,-1,-1,-1,33,-1,-1,-1,35,-1,-1,-1,-1,-1,-1,-1],"loss_changes":[1.796262E3,2.1772412E2,1.320946E2,0E0,1.1461671E2,6.911127E1,3.2359653E1,8.661573E1,1.2899802E2,5.9738213E1,5.1522705E1,0E0,0E0,4.223476E1,0E0,0E0,7.3111944E0,5.946481E1,0E0,2.9556313E1,2.1131042E1,4.043144E0,0E0,0E0,0E0,4.6056114E1,0E0,0E0,0E0,1.2658813E1,0E0,0E0,0E0,0E0,0E0,0E0,0E0],"parents":[2147483647,0,0,1,1,2,2,4,4,5,5,6,6,7,7,8,8,9,9,10,10,13,13,16,16,17,17,19,19,20,20,21,21,25,25,29,29],"right_children":[2,4,6,-1,8,10,12,14,16,18,20,-1,-1,22,-1,-1,24,26,-1,28,30,32,-1,-1,-1,34,-1,-1,-1,36,-1,-1,-1,-1,-1,-1,-1],"split_conditions":[4.3802127E-1,2.246E0,8.29627E-2,-8.744894E-2,-5.6806475E-1,4.5878136E-1,4.840024E0,2.2692857E0,1.0730094E0,3.3771E1,2.246E0,-8.637743E-2,4.2453185E-2,1.1793205E0,-9.056011E-2,-9.021109E-2,2.297E0,3.306E-1,-8.879376E-2,3.2378E1,4.8568565E-1,2.207E0,-7.789234E-2,4.7933258E-2,-1.02945585E-2,3.1E1,-1.1145304E-1,-9.412306E-2,4.2680997E-2,6.4324905E-16,-3.4248482E-2,6.013504E-3,5.0519742E-2,2.6931992E-2,-1.026315E-1,4.3214582E-2,1.3232697E-3],"split_indices":[29,1,39,0,26,29,20,12,21,13,1,0,0,30,0,0,6,41,0,13,17,7,0,0,0,9,0,0,0,25,0,0,0,0,0,0,0],"split_type":[0,0,0,0,0,0,0,0,0,0,0,0,0,0,0,0,0,0,0,0,0,0,0,0,0,0,0,0,0,0,0,0,0,0,0,0,0],"sum_hessian":[1.3538379E3,3.9760608E2,9.562318E2,2.6788895E2,1.2971712E2,9.3617505E2,2.0056816E1,6.0797836E1,6.891928E1,1.4008745E2,7.960876E2,1.6939169E1,3.1176476E0,5.150298E1,9.294857E0,5.1697803E1,1.7221478E1,1.3196933E2,8.11812E0,9.376378E0,7.867112E2,4.7663956E1,3.839023E0,1.3137893E1,4.0835853E0,1.2742591E2,4.5434146E0,6.2417936E0,3.1345842E0,7.8166675E2,5.0444436E0,3.9481275E0,4.3715828E1,1.2384972E2,3.5762012E0,7.6978455E2,1.1882201E1],"tree_param":{"num_deleted":"0","num_feature":"43","num_nodes":"37","size_leaf_vector":"1"}},{"base_weights":[6.377796E-2,-1.855251E0,7.048331E-1,-8.5451174E-1,-2.0555418E0,-1.5488647E0,7.973916E-1,-1.7963207E0,4.2996696E-1,-8.347378E-2,1.3137829E-2,7.868573E-1,-8.446802E-2,8.362004E-1,-8.515991E-2,2.0596653E-2,-8.4777795E-2,4.514996E-2,-7.9027854E-2,4.5011323E-2,1.283989E-2,4.7298467E-1,1.0069356E0,5.537723E-1,-8.398898E-2,1.0834596E0,-1.3544244E-1,3.472996E-2,5.395651E-3,-2.2833137E-2,4.383227E-2,-6.738451E-2,3.0790895E-2],"categories":[],"categories_nodes":[],"categories_segments":[],"categories_sizes":[],"default_left":[0,0,0,0,0,0,0,0,0,0,0,0,0,0,0,0,0,0,0,0,0,0,0,0,0,0,0,0,0,0,0,0,0],"id":8,"left_children":[1,3,5,7,9,11,13,15,17,-1,-1,19,-1,21,-1,-1,-1,-1,-1,-1,-1,23,25,27,-1,29,31,-1,-1,-1,-1,-1,-1],"loss_changes":[1.5927091E3,6.3078613E1,2.0363501E2,6.83647E1,2.0875488E1,5.2476143E1,1.0766028E2,2.5383293E1,4.3200516E1,0E0,0E0,8.6039543E-1,0E0,5.6588257E1,0E0,0E0,0E0,0E0,0E0,0E0,0E0,6.273175E1,5.4899902E1,3.7820564E1,0E0,1.263446E1,5.7625626E1,0E0,0E0,0E0,0E0,0E0,0E0],"parents":[2147483647,0,0,1,1,2,2,3,3,4,4,5,5,6,6,7,7,8,8,11,11,13,13,21,21,22,22,23,23,25,25,26,26],"right_children":[2,4,6,8,10,12,14,16,18,-1,-1,20,-1,22,-1,-1,-1,-1,-1,-1,-1,24,26,28,-1,30,32,-1,-1,-1,-1,-1,-1],"split_conditions":[4.339891E-1,-5.6806475E-1,3.1185E1,2.238E0,1.0997478E0,-9.9270886E-1,1.8E1,-2.2306928E-1,2.2545714E0,-8.347378E-2,1.3137829E-2,7.508562E-1,-8.446802E-2,1.0829931E0,-8.515991E-2,2.0596653E-2,-8.4777795E-2,4.514996E-2,-7.9027854E-2,4.5011323E-2,1.283989E-2,3.3755E1,6.905976E-2,-3.546049E-1,-8.398898E-2,9E-3,1.0717512E-1,3.472996E-2,5.395651E-3,-2.2833137E-2,4.383227E-2,-6.738451E-2,3.0790895E-2],"split_indices":[14,26,13,0,21,26,32,35,12,0,0,0,0,21,0,0,0,0,0,0,0,13,38,25,0,11,36,0,0,0,0,0,0],"split_type":[0,0,0,0,0,0,0,0,0,0,0,0,0,0,0,0,0,0,0,0,0,0,0,0,0,0,0,0,0,0,0,0,0],"sum_hessian":[1.2926552E3,3.2319214E2,9.69463E2,5.481728E1,2.6837485E2,3.7602776E1,9.318602E2,3.1419922E1,2.3397356E1,2.6504037E2,3.3344734E0,7.2070894E0,3.0395685E1,9.2038574E2,1.1474506E1,3.7621047E0,2.7657818E1,1.855825E1,4.8391056E0,3.2924511E0,3.9146383E0,2.956002E2,6.247856E2,2.8738013E2,8.220058E0,5.856502E2,3.913537E1,1.6346552E2,1.23914604E2,3.9736362E0,5.816766E2,1.4136541E1,2.4998827E1],"tree_param":{"num_deleted":"0","num_feature":"43","num_nodes":"33","size_leaf_vector":"1"}},{"base_weights":[4.7958832E-2,-1.8611572E0,6.5909064E-1,-7.371855E-1,-7.933746E-2,-1.9836675E-1,9.147716E-1,-7.698732E-2,4.8381624E-1,-8.3917046E-1,3.691986E-1,-8.5762486E-2,9.5969224E-1,4.6227798E-2,-6.878188E-2,-8.499265E-2,-3.682446E-1,4.7531822E-1,-8.5441194E-2,9.940243E-1,-3.035156E-1,5.398103E-1,-1.2029902E0,5.6378317E-1,-7.399317E-2,1.0321445E0,2.4451245E-1,-8.965891E-2,3.9707992E-2,-7.131617E-2,3.879592E-2,-9.778731E-2,5.7168254E-3,3.0512713E-2,-2.7656447E-2,2.6167273E-3,4.208547E-2,-7.9333894E-2,4.68125E-2],"categories":[],"categories_nodes":[],"categories_segments":[],"categories_sizes":[],"default_left":[0,0,0,0,0,0,0,0,0,0,0,0,0,0,0,0,0,0,0,0,0,0,0,0,0,0,0,0,0,0,0,0,0,0,0,0,0,0,0],"id":9,"left_children":[1,3,5,7,-1,9,11,-1,13,15,17,-1,19,-1,-1,-1,21,23,-1,25,27,29,31,33,-1,35,37,-1,-1,-1,-1,-1,-1,-1,-1,-1,-1,-1,-1],"loss_changes":[1.4675786E3,4.0322998E1,2.0911548E2,4.6762177E1,0E0,8.0216E1,1.0288202E2,0E0,2.6146465E1,6.1762917E1,3.207154E1,0E0,3.174762E1,0E0,0E0,0E0,5.9046898E1,2.4264515E1,0E0,1.9838074E1,5.2255814E1,3.9191273E1,6.80766E1,2.7973099E1,0E0,1.284137E1,7.553028E1,0E0,0E0,0E0,0E0,0E0,0E0,0E0,0E0,0E0,0E0,0E0,0E0],"parents":[2147483647,0,0,1,1,2,2,3,3,5,5,6,6,8,8,9,9,10,10,12,12,16,16,17,17,19,19,20,20,21,21,22,22,23,23,25,25,26,26],"right_children":[2,4,6,8,-1,10,12,-1,14,16,18,-1,20,-1,-1,-1,22,24,-1,26,28,30,32,34,-1,36,38,-1,-1,-1,-1,-1,-1,-1,-1,-1,-1,-1,-1],"split_conditions":[1.8800275E-2,-5.6806475E-1,4.5855588E-1,2.237E0,-7.933746E-2,4.5532158E-1,2.248E0,-7.698732E-2,3.0419292E-2,2.18E0,3.8930953E-2,-8.5762486E-2,6.4324905E-16,4.6227798E-2,-6.878188E-2,-8.499265E-2,2.251E0,5.031806E-2,-8.5441194E-2,2.465143E0,1.2E-2,3.1171E1,3.844043E-2,4.7090858E-1,-7.399317E-2,2.238E0,6E1,-8.965891E-2,3.9707992E-2,-7.131617E-2,3.879592E-2,-9.778731E-2,5.7168254E-3,3.0512713E-2,-2.7656447E-2,2.6167273E-3,4.208547E-2,-7.9333894E-2,4.68125E-2],"split_indices":[36,26,15,0,0,14,1,0,38,28,4,0,25,0,0,0,1,31,0,12,3,13,4,18,0,0,9,0,0,0,0,0,0,0,0,0,0,0,0],"split_type":[0,0,0,0,0,0,0,0,0,0,0,0,0,0,0,0,0,0,0,0,0,0,0,0,0,0,0,0,0,0,0,0,0,0,0,0,0,0,0],"sum_hessian":[1.2558656E3,3.040175E2,9.5184814E2,3.055927E1,2.7345822E2,2.1864015E2,7.3320795E2,1.5220781E1,1.5338489E1,1.0251087E2,1.1612928E2,9.919287E0,7.232887E2,1.2135998E1,3.2024908E0,2.6512516E1,7.599836E1,1.1220652E2,3.9227576E0,7.043969E2,1.8891747E1,3.6541317E1,3.945704E1,1.08844345E2,3.3621724E0,6.698828E2,3.451414E1,7.2947617E0,1.1596985E1,5.1994853E0,3.1341833E1,2.0117796E1,1.9339243E1,9.432021E1,1.4524137E1,1.3709912E1,6.561729E2,9.780906E0,2.4733236E1],"tree_param":{"num_deleted":"0","num_feature":"43","num_nodes":"39","size_leaf_vector":"1"}},{"base_weights":[7.928143E-2,-1.5219923E0,8.048796E-1,-1.8733095E0,-3.7924257E-1,8.6473686E-1,-1.2382499E0,-1.902991E0,3.0790117E-2,7.3543423E-1,-8.071492E-2,2.2403933E-2,9.423663E-1,4.517162E-2,-1.6511257E0,-7.729668E-2,4.8147187E-5,9.302651E-1,-7.189526E-2,2.224784E-1,-9.20656E-2,9.640551E-1,-2.3185803E-1,2.1395512E-2,-8.135996E-2,-1.3575832E-2,1.0471823E0,3.8995123E-1,-9.866399E-2,1.0101155E0,5.6340504E-1,-1.0068783E-1,4.8613746E-2,4.471342E-2,6.36815E-4,2.1217963E-2,-7.036083E-2,2.4619246E-2,4.2596992E-2,-1.1176931E-1,3.6281914E-2],"categories":[],"categories_nodes":[],"categories_segments":[],"categories_sizes":[],"default_left":[0,0,0,0,0,0,0,0,0,0,0,0,0,0,0,0,0,0,0,0,0,0,0,0,0,0,0,0,0,0,0,0,0,0,0,0,0,0,0,0,0],"id":10,"left_children":[1,3,5,7,9,11,13,15,-1,17,-1,19,21,-1,23,-1,-1,25,-1,27,-1,29,31,-1,-1,-1,33,35,-1,37,39,-1,-1,-1,-1,-1,-1,-1,-1,-1,-1],"loss_changes":[1.4656465E3,1.5710065E2,1.07211426E2,2.5102295E1,1.7284871E2,5.5116943E1,2.6420822E1,1.6771484E1,0E0,2.9524715E1,0E0,3.402382E1,1.993805E1,0E0,1.9402485E1,0E0,0E0,8.283588E0,0E0,3.1254631E1,0E0,1.33567505E1,5.1997547E1,0E0,0E0,0E0,3.4933662E0,2.0321644E1,0E0,1.3952759E1,9.546402E1,0E0,0E0,0E0,0E0,0E0,0E0,0E0,0E0,0E0,0E0],"parents":[2147483647,0,0,1,1,2,2,3,3,4,4,5,5,6,6,7,7,9,9,11,11,12,12,14,14,17,17,19,19,21,21,22,22,26,26,27,27,29,29,30,30],"right_children":[2,4,6,8,10,12,14,16,-1,18,-1,20,22,-1,24,-1,-1,26,-1,28,-1,30,32,-1,-1,-1,34,36,-1,38,40,-1,-1,-1,-1,-1,-1,-1,-1,-1,-1],"split_conditions":[4.3802127E-1,2.236E0,7.980922E-2,1.0730094E0,3.4985274E-2,4.5045316E-1,-4.6E-2,4.7416717E-1,3.0790117E-2,1.1619717E0,-8.071492E-2,2.7908392E-2,6.4324905E-16,4.517162E-2,3.161478E-1,-7.729668E-2,4.8147187E-5,-1.182243E-2,-7.189526E-2,2.36E0,-9.20656E-2,3.3755E1,2.325E0,2.1395512E-2,-8.135996E-2,-1.3575832E-2,4.636938E-1,1.5E1,-9.866399E-2,3.214E1,2.339E0,-1.0068783E-1,4.8613746E-2,4.471342E-2,6.36815E-4,2.1217963E-2,-7.036083E-2,2.4619246E-2,4.2596992E-2,-1.1176931E-1,3.6281914E-2],"split_indices":[29,0,39,21,38,14,2,14,0,30,0,39,25,0,18,0,0,16,0,0,0,13,1,0,0,0,18,32,0,13,8,0,0,0,0,0,0,0,0,0,0],"split_type":[0,0,0,0,0,0,0,0,0,0,0,0,0,0,0,0,0,0,0,0,0,0,0,0,0,0,0,0,0,0,0,0,0,0,0,0,0,0,0,0,0],"sum_hessian":[1.2594188E3,3.923661E2,8.6705273E2,2.995821E2,9.278401E1,8.42958E2,2.409476E1,2.9655075E2,3.0313447E0,5.5530273E1,3.725374E1,7.129468E1,7.716633E2,3.3022857E0,2.0792475E1,2.9204907E2,4.50166E0,5.2169697E1,3.3605757E0,6.64959E1,4.798776E0,7.578861E2,1.3777168E1,3.0203228E0,1.7772152E1,4.2024717E0,4.7967224E1,6.341977E1,3.0761325E0,6.7826416E2,7.9621956E1,5.068492E0,8.708676E0,4.4767693E1,3.199532E0,6.0256668E1,3.163098E0,8.431643E1,5.9394775E2,6.716844E0,7.290511E1],"tree_param":{"num_deleted":"0","num_feature":"43","num_nodes":"41","size_leaf_vector":"1"}},{"base_weights":[7.83337E-2,-1.451574E0,7.763456E-1,-1.8329692E0,-2.1581392E-1,8.137059E-2,9.275263E-1,-7.445003E-2,2.2562841E-2,8.060378E-1,-7.8436725E-2,2.7247557E-1,-9.7937115E-2,9.747727E-1,-7.097774E-1,9.5152444E-1,-2.6944393E-2,4.221075E-1,-7.6235004E-2,-9.584793E-1,1.0009407E0,4.6405252E-2,-8.175251E-2,4.838418E-2,4.194993E-1,5.2066374E-1,-9.74973E-2,-8.328905E-2,4.2097133E-2,1.0178581E0,-2.301134E-1,-7.8228526E-2,4.66677E-2,-7.870481E-2,2.4795707E-2,-1.6384253E-2,4.1066688E-2,4.439833E-2,-8.601226E-2],"categories":[],"categories_nodes":[],"categories_segments":[],"categories_sizes":[],"default_left":[0,0,0,0,0,0,0,0,0,0,0,0,0,0,0,0,0,0,0,0,0,0,0,0,0,0,0,0,0,0,0,0,0,0,0,0,0,0,0],"id":11,"left_children":[1,3,5,7,9,11,13,-1,-1,15,-1,17,-1,19,21,23,-1,25,-1,27,29,-1,-1,-1,31,33,-1,-1,-1,35,37,-1,-1,-1,-1,-1,-1,-1,-1],"loss_changes":[1.3293143E3,1.8331592E2,8.968231E1,2.1307251E1,1.6773648E2,7.495054E1,5.5001526E1,0E0,0E0,1.34496155E1,0E0,4.7662697E1,0E0,3.549707E1,5.2891964E1,6.9025497E0,0E0,3.9380775E1,0E0,2.3941647E1,1.4311707E1,0E0,0E0,0E0,3.670044E1,3.371866E1,0E0,0E0,0E0,8.815369E0,2.7946976E1,0E0,0E0,0E0,0E0,0E0,0E0,0E0,0E0],"parents":[2147483647,0,0,1,1,2,2,3,3,4,4,5,5,6,6,9,9,11,11,13,13,14,14,15,15,17,17,19,19,20,20,24,24,25,25,29,29,30,30],"right_children":[2,4,6,8,10,12,14,-1,-1,16,-1,18,-1,20,22,24,-1,26,-1,28,30,-1,-1,-1,32,34,-1,-1,-1,36,38,-1,-1,-1,-1,-1,-1,-1,-1],"split_conditions":[4.3802127E-1,2.241E0,4.5878136E-1,1.0661504E0,3.5822764E-2,1E0,6.4324905E-16,-7.445003E-2,2.2562841E-2,4.636938E-1,-7.8436725E-2,3.3755E1,-9.7937115E-2,2.246E0,3.161478E-1,4.268567E-1,-2.6944393E-2,3.2E1,-7.6235004E-2,3.2378E1,7.9640366E-2,4.6405252E-2,-8.175251E-2,4.838418E-2,2.324E0,-1.691336E-2,-9.74973E-2,-8.328905E-2,4.2097133E-2,2.196E0,2.292E0,-7.8228526E-2,4.66677E-2,-7.870481E-2,2.4795707E-2,-1.6384253E-2,4.1066688E-2,4.439833E-2,-8.601226E-2],"split_indices":[29,0,29,21,38,42,25,0,0,18,0,13,0,1,18,17,0,9,0,13,38,0,0,0,8,16,0,0,0,7,6,0,0,0,0,0,0,0,0],"split_type":[0,0,0,0,0,0,0,0,0,0,0,0,0,0,0,0,0,0,0,0,0,0,0,0,0,0,0,0,0,0,0,0,0,0,0,0,0,0,0],"sum_hessian":[1.2427765E3,3.890038E2,8.5377264E2,2.9685965E2,9.214415E1,1.5287552E2,7.0089716E2,2.9363953E2,3.2201452E0,5.843614E1,3.370801E1,1.4298618E2,9.889343E0,6.816622E2,1.9234995E1,5.3560505E1,4.8756313E0,1.3457156E2,8.414603E0,8.602278E0,6.730599E2,8.047602E0,1.1187392E1,3.5144634E1,1.841587E1,1.3089555E2,3.6760106E0,5.5116334E0,3.0906444E0,6.6414685E2,8.913044E0,4.0038652E0,1.4412005E1,4.278334E0,1.2661722E2,3.759521E0,6.603873E2,5.4826837E0,3.4303606E0],"tree_param":{"num_deleted":"0","num_feature":"43","num_nodes":"39","size_leaf_vector":"1"}},{"base_weights":[7.833208E-2,-1.3687404E0,7.613517E-1,-1.7425326E0,-2.4947962E-1,8.879242E-1,-2.605006E-1,-1.7696632E0,2.2055948E-2,7.3525655E-1,-7.4330255E-2,9.396831E-1,-2.749563E-2,-1.2127744E0,4.7899347E-2,-7.1976475E-2,-9.926369E-5,9.019419E-1,-6.5714896E-2,9.580848E-1,-6.7519344E-2,-1.0959786E-1,6.95069E-1,-2.455712E0,-5.2180386E-1,-2.1125108E-2,1.0171369E0,5.9289485E-1,1.0231572E0,-9.5901795E-2,1.106727E0,2.097973E-2,-1.2221638E-1,9.4818294E-1,-1.1746399E0,4.5688514E-2,-1.1912081E-2,-9.327797E-2,3.1370904E-2,8.881397E-3,4.161846E-2,9.866152E-3,4.770419E-2,4.5761373E-2,1.2275873E-2,1.18004475E-2,-7.9380915E-2],"categories":[],"categories_nodes":[],"categories_segments":[],"categories_sizes":[],"default_left":[0,0,0,0,0,0,0,0,0,0,0,0,0,0,0,0,0,0,0,0,0,0,0,0,0,0,0,0,0,0,0,0,0,0,0,0,0,0,0,0,0,0,0,0,0,0,0],"id":12,"left_children":[1,3,5,7,9,11,13,15,-1,17,-1,19,21,23,-1,-1,-1,25,-1,27,-1,-1,29,31,33,-1,35,37,39,-1,41,-1,-1,43,45,-1,-1,-1,-1,-1,-1,-1,-1,-1,-1,-1,-1],"loss_changes":[1.2127118E3,1.6406818E2,1.08067474E2,1.9380005E1,1.5936795E2,3.5224243E1,1.3001064E2,1.5232788E1,0E0,2.62361E1,0E0,3.5539185E1,8.1626045E1,4.7118225E1,0E0,0E0,0E0,1.0299263E1,0E0,1.5901306E1,0E0,0E0,4.4424877E1,3.7297523E1,3.7234184E1,0E0,9.440865E0,6.2243042E1,7.8986816E0,0E0,1.8275261E0,0E0,0E0,1.0962343E0,3.224198E1,0E0,0E0,0E0,0E0,0E0,0E0,0E0,0E0,0E0,0E0,0E0,0E0],"parents":[2147483647,0,0,1,1,2,2,3,3,4,4,5,5,6,6,7,7,9,9,11,11,12,12,13,13,17,17,19,19,22,22,23,23,24,24,26,26,27,27,28,28,30,30,33,33,34,34],"right_children":[2,4,6,8,10,12,14,16,-1,18,-1,20,22,24,-1,-1,-1,26,-1,28,-1,-1,30,32,34,-1,36,38,40,-1,42,-1,-1,44,46,-1,-1,-1,-1,-1,-1,-1,-1,-1,-1,-1,-1],"split_conditions":[4.3802127E-1,2.236E0,2.8527062E-2,1.0661504E0,3.5822764E-2,2.409E0,5.5714287E-3,4.7416717E-1,2.2055948E-2,4.2055875E-1,-7.4330255E-2,2E1,2.345E0,7.2402254E-2,4.7899347E-2,-7.1976475E-2,-9.926369E-5,-6.6312265E-1,-6.5714896E-2,4.5810592E-1,-6.7519344E-2,-1.0959786E-1,-4.5E-3,-1.46E-1,7.634516E-2,-2.1125108E-2,1.3E1,-9.7094184E-1,2.21E0,-9.5901795E-2,-7.472893E-1,2.097973E-2,-1.2221638E-1,5.804304E-1,-2.5916722E-1,4.5688514E-2,-1.1912081E-2,-9.327797E-2,3.1370904E-2,8.881397E-3,4.161846E-2,9.866152E-3,4.770419E-2,4.5761373E-2,1.2275873E-2,1.18004475E-2,-7.9380915E-2],"split_indices":[29,0,39,21,38,6,5,14,0,29,0,32,8,39,0,0,0,25,0,29,0,0,5,34,39,0,32,25,0,0,35,0,0,35,35,0,0,0,0,0,0,0,0,0,0,0,0],"split_type":[0,0,0,0,0,0,0,0,0,0,0,0,0,0,0,0,0,0,0,0,0,0,0,0,0,0,0,0,0,0,0,0,0,0,0,0,0,0,0,0,0,0,0,0,0,0,0],"sum_hessian":[1.2249468E3,3.92437E2,8.325098E2,2.9373782E2,9.869919E1,7.409158E2,9.159405E1,2.9055176E2,3.1860628E0,6.1541424E1,3.7157764E1,7.0129205E2,3.962375E1,5.552845E1,3.6065598E1,2.8569583E2,4.8559217E0,5.8110184E1,3.4312387E0,6.970648E2,4.2271895E0,7.7622175E0,3.1861532E1,1.8901508E1,3.662694E1,4.032368E0,5.4077816E1,1.0706881E2,5.8999603E2,3.1619027E0,2.8699629E1,3.1733806E0,1.5728127E1,1.1101276E1,2.5525665E1,4.953543E1,4.542385E0,5.8725033E0,1.0119631E2,1.2827972E1,5.77168E2,3.0098727E0,2.5689756E1,7.843807E0,3.2574697E0,9.272804E0,1.6252861E1],"tree_param":{"num_deleted":"0","num_feature":"43","num_nodes":"47","size_leaf_vector":"1"}},{"base_weights":[8.381544E-2,-1.561568E0,6.581694E-1,-1.7149671E0,-6.7943317E-1,-1.522959E0,7.437335E-1,-6.9586135E-2,1.0852138E-2,7.105434E-1,-7.1423866E-2,1.2011521E-2,-7.03211E-2,3.147052E-1,9.4559264E-1,4.4156507E-2,-2.0042742E-2,4.1332918E-1,-7.2407536E-2,-1.406932E0,9.7278655E-1,4.955751E-1,-7.201852E-2,2.4712735E-3,-1.03719145E-1,1.0265765E0,3.6685732E-1,3.4017067E-2,-6.1746463E-3,-2.7271511E-2,4.1595906E-2,-7.638162E-2,3.846919E-2],"categories":[],"categories_nodes":[],"categories_segments":[],"categories_sizes":[],"default_left":[0,0,0,0,0,0,0,0,0,0,0,0,0,0,0,0,0,0,0,0,0,0,0,0,0,0,0,0,0,0,0,0,0],"id":13,"left_children":[1,3,5,7,9,11,13,-1,-1,15,-1,-1,-1,17,19,-1,-1,21,-1,23,25,27,-1,-1,-1,29,31,-1,-1,-1,-1,-1,-1],"loss_changes":[1.1542988E3,4.1482666E1,1.7005557E2,1.3712402E1,7.592801E1,1.5379181E1,7.5145874E1,0E0,0E0,1.1163132E1,0E0,0E0,0E0,5.947008E1,3.924054E1,0E0,0E0,4.979332E1,0E0,1.2753078E1,1.865863E1,6.0155193E1,0E0,0E0,0E0,1.2964661E1,6.871867E1,0E0,0E0,0E0,0E0,0E0,0E0],"parents":[2147483647,0,0,1,1,2,2,3,3,4,4,5,5,6,6,9,9,13,13,14,14,17,17,19,19,20,20,21,21,25,25,26,26],"right_children":[2,4,6,8,10,12,14,-1,-1,16,-1,-1,-1,18,20,-1,-1,22,-1,24,26,28,-1,-1,-1,30,32,-1,-1,-1,-1,-1,-1],"split_conditions":[4.339891E-1,2.241E0,3.1185E1,1.0661504E0,3.0419292E-2,-9.9270886E-1,1.081442E0,-6.9586135E-2,1.0852138E-2,3.3555394E-1,-7.1423866E-2,1.2011521E-2,-7.03211E-2,1.7E1,-7.142857E-3,4.4156507E-2,-2.0042742E-2,3.3755E1,-7.2407536E-2,-1.81305E-2,6.916285E-2,2.4113571E-2,-7.201852E-2,2.4712735E-3,-1.03719145E-1,9E-3,2.33E0,3.4017067E-2,-6.1746463E-3,-2.7271511E-2,4.1595906E-2,-7.638162E-2,3.846919E-2],"split_indices":[14,0,13,21,38,26,21,0,0,17,0,0,0,32,5,0,0,13,0,3,38,39,0,0,0,11,8,0,0,0,0,0,0],"split_type":[0,0,0,0,0,0,0,0,0,0,0,0,0,0,0,0,0,0,0,0,0,0,0,0,0,0,0,0,0,0,0,0,0],"sum_hessian":[1.2193986E3,3.1505038E2,9.0434814E2,2.6752777E2,4.7522602E1,3.3481544E1,8.708666E2,2.643911E2,3.1366537E0,2.1198088E1,2.6324516E1,3.767761E0,2.9713783E1,2.7954105E2,5.9132556E2,1.6100843E1,5.097243E0,2.6793427E2,1.1606783E1,6.156478E0,5.8516907E2,2.5910675E2,8.827501E0,3.1551375E0,3.0013404E0,5.367441E2,4.8424953E1,1.6745113E2,9.165564E1,3.7356625E0,5.330084E2,9.557444E0,3.8867508E1],"tree_param":{"num_deleted":"0","num_feature":"43","num_nodes":"33","size_leaf_vector":"1"}},{"base_weights":[7.214845E-2,-1.43273E0,6.6015434E-1,-1.5239993E0,6.1318696E-1,-7.866744E-2,8.833816E-1,-7.8771925E-1,-1.6758215E0,-2.5416546E-2,4.5830157E-2,1.313615E-1,-1.5560896E0,9.3551004E-1,2.3283981E-1,-6.754117E-2,1.2417577E-2,1.5047371E-2,-6.8083875E-2,-9.323956E-1,5.6563073E-1,-1.3000228E-1,-9.588928E-2,-2.7923698E-2,9.4859457E-1,7.711765E-1,-9.15206E-2,7.182276E-1,-7.07986E-2,2.8731126E-1,-7.1653694E-2,7.201742E-1,-6.736439E-2,-7.2600655E-2,3.2939576E-2,9.716914E-1,1.9797356E-1,-8.5541695E-2,1.0815325E0,-1.3396419E-2,3.912109E-2,3.6917612E-2,-7.546351E-2,3.30995E-2,-9.599421E-2,3.929181E-2,-2.8505284E-2,4.5292836E-2,-7.549664E-2,4.7137234E-2,-9.835904E-4],"categories":[],"categories_nodes":[],"categories_segments":[],"categories_sizes":[],"default_left":[0,0,0,0,0,0,0,0,0,0,0,0,0,0,0,0,0,0,0,0,0,0,0,0,0,0,0,0,0,0,0,0,0,0,0,0,0,0,0,0,0,0,0,0,0,0,0,0,0,0,0],"id":14,"left_children":[1,3,5,7,9,11,13,15,17,-1,-1,19,21,23,25,-1,27,-1,-1,29,31,33,-1,-1,35,37,-1,39,-1,41,-1,43,-1,-1,-1,45,47,-1,49,-1,-1,-1,-1,-1,-1,-1,-1,-1,-1,-1,-1],"loss_changes":[1.057234E3,6.3661865E1,1.4179242E2,3.4512756E1,1.0744715E1,6.2397842E1,2.2101196E1,4.1139034E1,1.50338745E1,0E0,0E0,8.189394E1,2.9580963E1,1.3724548E1,7.0025185E1,0E0,4.036029E1,0E0,0E0,5.4456608E1,4.4888546E1,1.819519E1,0E0,0E0,1.0257385E1,4.0421936E1,0E0,6.6578875E0,0E0,3.2208572E1,0E0,4.154862E1,0E0,0E0,0E0,1.1210205E1,3.992759E1,0E0,4.2523384E0,0E0,0E0,0E0,0E0,0E0,0E0,0E0,0E0,0E0,0E0,0E0,0E0],"parents":[2147483647,0,0,1,1,2,2,3,3,4,4,5,5,6,6,7,7,8,8,11,11,12,12,13,13,14,14,16,16,19,19,20,20,21,21,24,24,25,25,27,27,29,29,31,31,35,35,36,36,38,38],"right_children":[2,4,6,8,10,12,14,16,18,-1,-1,20,22,24,26,-1,28,-1,-1,30,32,34,-1,-1,36,38,-1,40,-1,42,-1,44,-1,-1,-1,46,48,-1,50,-1,-1,-1,-1,-1,-1,-1,-1,-1,-1,-1,-1],"split_conditions":[4.394956E-1,1.0997478E0,1.0581644E0,-5.6806475E-1,1.8182007E0,2.297E0,3.3915E1,2.227E0,-3.993203E0,-2.5416546E-2,4.5830157E-2,2.214E0,4.2242914E-1,2.218E0,1.79E-1,-6.754117E-2,2.2545714E0,1.5047371E-2,-6.8083875E-2,-9.7094184E-1,1.7E1,3.08E-1,-9.588928E-2,-2.7923698E-2,6.4324905E-16,2.352E0,-9.15206E-2,-6.7E-2,-7.07986E-2,4.5605966E-1,-7.1653694E-2,3.306E-1,-6.736439E-2,-7.2600655E-2,3.2939576E-2,1.1960999E0,2.212E0,-8.5541695E-2,8E0,-1.3396419E-2,3.912109E-2,3.6917612E-2,-7.546351E-2,3.30995E-2,-9.599421E-2,3.929181E-2,-2.8505284E-2,4.5292836E-2,-7.549664E-2,4.7137234E-2,-9.835904E-4],"split_indices":[14,21,21,26,19,1,13,0,20,0,0,7,18,0,11,0,12,0,0,26,32,41,0,0,25,8,0,34,0,15,0,41,0,0,0,35,7,0,33,0,0,0,0,0,0,0,0,0,0,0,0],"split_type":[0,0,0,0,0,0,0,0,0,0,0,0,0,0,0,0,0,0,0,0,0,0,0,0,0,0,0,0,0,0,0,0,0,0,0,0,0,0,0,0,0,0,0,0,0,0,0,0,0,0,0],"sum_hessian":[1.192755E3,3.3468274E2,8.580723E2,3.206576E2,1.4025142E1,1.9919951E2,6.588728E2,5.5931046E1,2.6472656E2,4.1076884E0,9.917454E0,1.7517416E2,2.4025347E1,6.095168E2,4.9356007E1,2.5817442E1,3.0113602E1,3.1544642E0,2.6157208E2,5.041609E1,1.2475807E2,9.363799E0,1.4661549E1,4.396858E0,6.0511993E2,4.125894E1,8.097065E0,2.2019241E1,8.09436E0,2.1084017E1,2.933207E1,1.1739581E2,7.3622637E0,3.076279E0,6.28752E0,5.8670575E2,1.841422E1,3.393329E0,3.7865612E1,4.2618012E0,1.7757439E1,1.6777012E1,4.3070064E0,1.1421809E2,3.1777215E0,5.834788E2,3.226884E0,1.3048783E1,5.365438E0,3.479715E1,3.0684633E0],"tree_param":{"num_deleted":"0","num_feature":"43","num_nodes":"51","size_leaf_vector":"1"}},{"base_weights":[4.0808186E-2,-1.2583437E0,7.0211047E-1,-1.5985451E0,-1.6905154E-1,-1.753995E-2,8.555805E-1,-1.6236104E0,1.8239284E-2,7.711995E-1,-6.895171E-2,8.4745914E-1,-5.379096E-1,9.2262256E-1,-5.0271106E-1,-6.605309E-2,3.7083237E-3,9.4400954E-1,-6.2921174E-2,-1.2881231E-1,1.1158437E0,-1.7267867E0,8.895332E-2,-1.7778565E-1,9.611711E-1,-8.202441E-2,3.9546123E-1,-1.1010292E-1,1.095054E0,4.2254202E-2,-6.447344E-2,5.030786E-2,5.7066428E-3,3.305123E-2,-2.078805E0,-8.572825E-2,4.9135858E-1,-1.0977885E-1,4.319823E-2,1.004655E0,2.765009E-1,-2.5761327E-2,8.533057E-1,-1.7072711E-2,1.0741337E-2,4.6224274E-2,8.106824E-3,-9.6968696E-2,1.4490984E-2,2.9476171E-2,-7.045798E-2,4.0672354E-2,-2.5770403E-3,2.9366829E-2,-8.915063E-2,2.4925496E-3,4.2830937E-2],"categories":[],"categories_nodes":[],"categories_segments":[],"categories_sizes":[],"default_left":[0,0,0,0,0,0,0,0,0,0,0,0,0,0,0,0,0,0,0,0,0,0,0,0,0,0,0,0,0,0,0,0,0,0,0,0,0,0,0,0,0,0,0,0,0,0,0,0,0,0,0,0,0,0,0,0,0],"id":15,"left_children":[1,3,5,7,9,11,13,15,-1,17,-1,19,21,23,25,-1,-1,27,-1,29,31,33,35,37,39,-1,41,43,45,-1,-1,-1,-1,-1,47,-1,49,-1,-1,51,53,-1,55,-1,-1,-1,-1,-1,-1,-1,-1,-1,-1,-1,-1,-1,-1],"loss_changes":[9.8778796E2,1.4336353E2,8.420737E1,1.601001E1,1.3799E2,6.113779E1,5.7679077E1,1.4124878E1,0E0,2.5316353E1,0E0,1.3556774E1,6.346663E1,2.5615784E1,4.281679E1,0E0,0E0,9.007332E0,0E0,2.2565678E1,5.2930603E0,2.8174042E1,5.1699192E1,7.106841E1,1.6891724E1,0E0,1.0030925E1,1.0607563E0,2.328476E0,0E0,0E0,0E0,0E0,0E0,2.299759E1,0E0,2.81763E1,0E0,0E0,7.1795654E0,4.285714E1,0E0,2.332758E0,0E0,0E0,0E0,0E0,0E0,0E0,0E0,0E0,0E0,0E0,0E0,0E0,0E0,0E0],"parents":[2147483647,0,0,1,1,2,2,3,3,4,4,5,5,6,6,7,7,9,9,11,11,12,12,13,13,14,14,17,17,19,19,20,20,21,21,22,22,23,23,24,24,26,26,27,27,28,28,34,34,36,36,39,39,40,40,42,42],"right_children":[2,4,6,8,10,12,14,16,-1,18,-1,20,22,24,26,-1,-1,28,-1,30,32,34,36,38,40,-1,42,44,46,-1,-1,-1,-1,-1,48,-1,50,-1,-1,52,54,-1,56,-1,-1,-1,-1,-1,-1,-1,-1,-1,-1,-1,-1,-1,-1],"split_conditions":[4.3802127E-1,2.241E0,4.5878136E-1,2.387E0,3.5822764E-2,3.1403E1,-2.4492937E-16,4.7416717E-1,1.8239284E-2,1.1619717E0,-6.895171E-2,3.1171E1,2.2477502E-2,3.1747E1,1.4587778E0,-6.605309E-2,3.7083237E-3,-6.6312265E-1,-6.2921174E-2,0E0,3.4059722E-2,2.036E-1,2.616E-1,5.259998E-1,2.403E0,-8.202441E-2,4.636135E-1,6E-3,6.634368E-2,4.2254202E-2,-6.447344E-2,5.030786E-2,5.7066428E-3,3.305123E-2,2.4155715E0,-8.572825E-2,3.3603E1,-1.0977885E-1,4.319823E-2,4.8568565E-1,-6.6312265E-1,-2.5761327E-2,2.206084E-2,-1.7072711E-2,1.0741337E-2,4.6224274E-2,8.106824E-3,-9.6968696E-2,1.4490984E-2,2.9476171E-2,-7.045798E-2,4.0672354E-2,-2.5770403E-3,2.9366829E-2,-8.915063E-2,2.4925496E-3,4.2830937E-2],"split_indices":[29,0,29,1,38,13,23,14,0,30,0,13,4,13,30,0,0,25,0,42,38,41,41,35,6,0,15,2,31,0,0,0,0,0,12,0,13,0,0,17,25,0,31,0,0,0,0,0,0,0,0,0,0,0,0,0,0],"split_type":[0,0,0,0,0,0,0,0,0,0,0,0,0,0,0,0,0,0,0,0,0,0,0,0,0,0,0,0,0,0,0,0,0,0,0,0,0,0,0,0,0,0,0,0,0,0,0,0,0,0,0,0,0,0,0,0,0],"sum_hessian":[1.147755E3,3.868318E2,7.609232E2,2.943795E2,9.24523E1,1.3384737E2,6.2707587E2,2.910626E2,3.316901E0,5.7905167E1,3.4547134E1,5.0003307E1,8.3844055E1,5.9792145E2,2.9154425E1,2.865028E2,4.559756E0,5.4505787E1,3.399381E0,1.0854155E1,3.9149155E1,2.8367943E1,5.5476112E1,2.0070786E1,5.7785065E2,1.0254508E1,1.8899918E1,6.8237915E0,4.7681995E1,6.1740847E0,4.68007E0,3.3868637E1,5.280517E0,3.2569678E0,2.5110975E1,7.793726E0,4.768239E1,6.2250185E0,1.3845767E1,5.4283453E2,3.5016148E1,5.621329E0,1.3278589E1,3.7183425E0,3.1054487E0,4.4323425E1,3.3585687E0,2.2022223E1,3.0887525E0,4.3622795E1,4.059594E0,5.368272E2,6.0073123E0,3.0222006E1,4.794142E0,3.1904564E0,1.0088132E1],"tree_param":{"num_deleted":"0","num_feature":"43","num_nodes":"57","size_leaf_vector":"1"}},{"base_weights":[8.830449E-2,-1.2836386E0,7.1035326E-1,-6.445521E-2,-2.1233453E-1,8.3321434E-1,-2.6185757E-1,7.6388E-1,-6.6416495E-2,8.5024893E-1,-7.5217746E-2,-1.1670889E0,1.1110193E0,9.5736593E-1,-5.960068E-2,2.1058412E-1,9.1848576E-1,1.887182E-1,-1.8823588E0,1.5832966E-2,4.682407E-2,-2.1829652E-2,1.1203865E0,3.938773E-1,-6.970712E-2,9.2919654E-1,-2.943901E-2,-7.837336E-2,7.3041075E-1,3.7984423E-2,-2.2248955E0,4.7556426E-2,8.404232E-3,2.4170777E-2,-4.1021604E-2,-5.869819E-3,3.773369E-2,-1.062552E-2,4.317998E-2,-1.0413129E-1,-6.851779E-2],"categories":[],"categories_nodes":[],"categories_segments":[],"categories_sizes":[],"default_left":[0,0,0,0,0,0,0,0,0,0,0,0,0,0,0,0,0,0,0,0,0,0,0,0,0,0,0,0,0,0,0,0,0,0,0,0,0,0,0,0,0],"id":16,"left_children":[1,3,5,-1,7,9,11,13,-1,15,-1,17,19,21,-1,23,25,27,29,-1,-1,-1,31,33,-1,35,-1,-1,37,-1,39,-1,-1,-1,-1,-1,-1,-1,-1,-1,-1],"loss_changes":[9.8097894E2,1.2547504E2,9.471002E1,0E0,1.2174567E2,3.4016327E1,1.124567E2,2.3881567E1,0E0,3.0248413E1,0E0,5.3206467E1,9.937477E-1,1.2427856E1,0E0,2.5222084E1,1.1875244E1,2.426478E1,3.6841553E1,0E0,0E0,0E0,2.4096184E0,1.9610792E1,0E0,9.727478E0,0E0,0E0,6.051008E0,0E0,1.5613861E0,0E0,0E0,0E0,0E0,0E0,0E0,0E0,0E0,0E0,0E0],"parents":[2147483647,0,0,1,1,2,2,4,4,5,5,6,6,7,7,9,9,11,11,12,12,13,13,15,15,16,16,17,17,18,18,22,22,23,23,25,25,28,28,30,30],"right_children":[2,4,6,-1,8,10,12,14,-1,16,-1,18,20,22,-1,24,26,28,30,-1,-1,-1,32,34,-1,36,-1,-1,38,-1,40,-1,-1,-1,-1,-1,-1,-1,-1,-1,-1],"split_conditions":[4.3802127E-1,2.241E0,3.0565687E-2,-6.445521E-2,3.5822764E-2,1.3E1,5.0714286E-3,7.3288724E-2,-6.6416495E-2,4.5045316E-1,-7.5217746E-2,-9.9270886E-1,2.1690464E-2,-6.6312265E-1,-5.960068E-2,9E0,1.6556007E0,1E0,-4.6E-2,1.5832966E-2,4.682407E-2,-2.1829652E-2,1.996166E-2,3.3915E1,-6.970712E-2,1.5E-2,-2.943901E-2,-7.837336E-2,3.5356E-3,3.7984423E-2,8.183254E-2,4.7556426E-2,8.404232E-3,2.4170777E-2,-4.1021604E-2,-5.869819E-3,3.773369E-2,-1.062552E-2,4.317998E-2,-1.0413129E-1,-6.851779E-2],"split_indices":[29,0,39,0,38,33,5,39,0,14,0,26,4,25,0,32,35,33,2,0,0,0,31,13,0,11,0,0,16,0,39,0,0,0,0,0,0,0,0,0,0],"split_type":[0,0,0,0,0,0,0,0,0,0,0,0,0,0,0,0,0,0,0,0,0,0,0,0,0,0,0,0,0,0,0,0,0,0,0,0,0,0,0,0,0],"sum_hessian":[1.1474392E3,3.5760004E2,7.898392E2,2.7340656E2,8.41935E1,7.013961E2,8.8443054E1,5.0552044E1,3.3641453E1,6.977214E2,3.6747408E0,5.341152E1,3.5031536E1,4.710568E1,3.4463658E0,6.772004E1,6.3000134E2,1.8676373E1,3.4735146E1,3.3463485E0,3.1685188E1,4.349289E0,4.275639E1,6.2663662E1,5.0563803E0,6.264146E2,3.5867503E0,3.215625E0,1.5460748E1,3.541019E0,3.1194128E1,3.9427345E1,3.3290415E0,5.5105236E1,7.558425E0,7.961252E0,6.1845337E2,4.0372276E0,1.142352E1,1.5531776E1,1.5662352E1],"tree_param":{"num_deleted":"0","num_feature":"43","num_nodes":"41","size_leaf_vector":"1"}},{"base_weights":[3.721746E-2,-1.1711E0,6.839056E-1,-4.366291E-1,-1.5507267E0,8.420268E-1,-1.3716266E-1,-6.380554E-2,6.88443E-4,-6.29373E-2,8.690765E-3,8.842066E-1,-8.850638E-1,-5.885008E-1,4.36752E-2,4.1290334E-1,-9.692826E-1,9.377723E-1,3.2519954E-1,3.1050947E-2,-9.359718E-2,1.5161255E-1,-1.4840283E0,5.9186673E-1,-8.9550436E-1,2.7614427E-1,-7.3684655E-2,3.438337E-1,9.6823484E-1,-1.3555484E0,8.0344385E-1,-6.459504E-2,7.1600074E-1,-8.91228E-2,9.753566E-3,3.4031987E-2,-4.4362526E-3,1.6215218E-2,-6.9969416E-2,-5.8233432E-2,4.2833295E-2,3.758742E-2,-8.799265E-2,2.5904987E-2,4.0948253E-2,3.7619725E-2,-1.0518102E-1,4.2726975E-2,-1.2702423E-2,-5.1340263E-2,3.7612405E-2,4.4422835E-2,-5.73509E-2],"categories":[],"categories_nodes":[],"categories_segments":[],"categories_sizes":[],"default_left":[0,0,0,0,0,0,0,0,0,0,0,0,0,0,0,0,0,0,0,0,0,0,0,0,0,0,0,0,0,0,0,0,0,0,0,0,0,0,0,0,0,0,0,0,0,0,0,0,0,0,0,0,0],"id":17,"left_children":[1,3,5,7,9,11,13,-1,15,-1,-1,17,19,21,-1,23,25,27,29,-1,-1,31,33,35,37,39,-1,41,43,45,47,-1,49,-1,51,-1,-1,-1,-1,-1,-1,-1,-1,-1,-1,-1,-1,-1,-1,-1,-1,-1,-1],"loss_changes":[8.5216034E2,1.05227234E2,9.237756E1,6.644136E1,1.0453491E1,4.4189514E1,6.469878E1,0E0,3.8779312E1,0E0,0E0,1.7064362E1,3.7368744E1,5.674347E1,0E0,1.6471859E1,3.2013504E1,9.202637E0,4.3277695E1,0E0,0E0,4.8477676E1,4.3104324E1,1.1155674E1,1.0287363E1,1.9100183E1,0E0,4.371425E1,8.21936E0,3.760869E1,1.2703539E1,0E0,1.7659004E1,0E0,2.3549995E1,0E0,0E0,0E0,0E0,0E0,0E0,0E0,0E0,0E0,0E0,0E0,0E0,0E0,0E0,0E0,0E0,0E0,0E0],"parents":[2147483647,0,0,1,1,2,2,3,3,4,4,5,5,6,6,8,8,11,11,12,12,13,13,15,15,16,16,17,17,18,18,21,21,22,22,23,23,24,24,25,25,27,27,28,28,29,29,30,30,32,32,34,34],"right_children":[2,4,6,8,10,12,14,-1,16,-1,-1,18,20,22,-1,24,26,28,30,-1,-1,32,34,36,38,40,-1,42,44,46,48,-1,50,-1,52,-1,-1,-1,-1,-1,-1,-1,-1,-1,-1,-1,-1,-1,-1,-1,-1,-1,-1],"split_conditions":[4.5045316E-1,8E0,2.8527062E-2,2.218E0,8.428571E-1,9E0,2.33E0,-6.380554E-2,2.7939236E0,-6.29373E-2,8.690765E-3,2.4334285E0,3.720798E-2,4.1389033E-1,4.36752E-2,3.3915E1,3.1802E1,2.219E0,2.384E0,3.1050947E-2,-9.359718E-2,2.211E0,4.5454573E-2,5E0,4.168339E-2,-8.2298386E-1,-7.3684655E-2,1E0,4.5962977E-1,4.446984E-1,1.343513E-2,-6.459504E-2,7.095238E-1,-8.91228E-2,-9.9270886E-1,3.4031987E-2,-4.4362526E-3,1.6215218E-2,-6.9969416E-2,-5.8233432E-2,4.2833295E-2,3.758742E-2,-8.799265E-2,2.5904987E-2,4.0948253E-2,3.7619725E-2,-1.0518102E-1,4.2726975E-2,-1.2702423E-2,-5.1340263E-2,3.7612405E-2,4.4422835E-2,-5.73509E-2],"split_indices":[14,32,39,7,10,33,28,0,19,0,0,12,38,18,0,13,13,7,28,0,0,6,38,9,38,26,0,33,15,18,39,0,10,0,26,0,0,0,0,0,0,0,0,0,0,0,0,0,0,0,0,0,0],"split_type":[0,0,0,0,0,0,0,0,0,0,0,0,0,0,0,0,0,0,0,0,0,0,0,0,0,0,0,0,0,0,0,0,0,0,0,0,0,0,0,0,0,0,0,0,0,0,0,0,0,0,0,0,0],"sum_hessian":[1.0885557E3,3.7918033E2,7.0937537E2,1.2998251E2,2.4919781E2,5.948539E2,1.14521515E2,3.492597E1,9.505654E1,2.461746E2,3.023215E0,5.8117706E2,1.3676791E1,8.4172806E1,3.0348705E1,6.714666E1,2.790989E1,5.2965686E2,5.1520233E1,6.587018E0,7.0897727E0,4.650959E1,3.7663216E1,5.9582806E1,7.563851E0,1.1758413E1,1.6151476E1,2.6519836E1,5.03137E2,1.0982882E1,4.0537354E1,1.0789491E1,3.57201E1,2.4835E1,1.2828218E1,4.34386E1,1.6144205E1,3.181934E0,4.3819165E0,3.4168017E0,8.341612E0,2.2013412E1,4.506424E0,7.621438E1,4.269226E2,3.9986978E0,6.984184E0,3.286731E1,7.6700416E0,3.1041927E0,3.2615906E1,7.428567E0,5.399652E0],"tree_param":{"num_deleted":"0","num_feature":"43","num_nodes":"53","size_leaf_vector":"1"}},{"base_weights":[5.3680576E-2,-1.1932526E0,6.5582347E-1,-1.5062183E0,-1.6334964E-1,7.870859E-1,-3.1027657E-1,-6.1463464E-2,7.2713224E-3,1.7511307E-1,-6.192084E-2,8.9215434E-1,2.0380262E-1,-1.0460776E0,4.355537E-2,-4.6695137E-1,9.659486E-1,9.151387E-1,-5.8945827E-2,-9.749624E-2,5.17441E-1,-9.570789E-2,-4.5155978E-1,7.96556E-1,-1.3960202E0,2.2766436E-3,1.0727947E0,-5.2769106E-2,9.3481797E-1,-7.264816E-2,7.4630797E-1,7.586907E-1,-1.1371775E0,4.3838542E-2,-6.080079E-3,-6.772777E-2,1.311144E-2,4.6466902E-2,1.0851953E-2,-2.9109955E-2,3.7887745E-2,-4.2756133E-2,3.44523E-2,4.718725E-2,-9.564014E-3,3.6624316E-2,-5.9000876E-2],"categories":[],"categories_nodes":[],"categories_segments":[],"categories_sizes":[],"default_left":[0,0,0,0,0,0,0,0,0,0,0,0,0,0,0,0,0,0,0,0,0,0,0,0,0,0,0,0,0,0,0,0,0,0,0,0,0,0,0,0,0,0,0,0,0,0,0],"id":18,"left_children":[1,3,5,7,9,11,13,-1,-1,15,-1,17,19,21,-1,23,25,27,-1,-1,29,-1,31,33,35,-1,37,-1,39,-1,41,43,45,-1,-1,-1,-1,-1,-1,-1,-1,-1,-1,-1,-1,-1,-1],"loss_changes":[8.216744E2,1.1453732E2,9.38526E1,1.4349548E1,3.98073E1,3.960019E1,9.270667E1,0E0,0E0,3.527919E1,0E0,3.125174E1,8.4490524E1,4.5871567E1,0E0,4.6299236E1,2.900507E0,2.5212494E1,0E0,0E0,4.97725E1,0E0,3.578717E1,5.0175066E0,1.2177036E1,0E0,1.5864029E0,0E0,1.1844391E1,0E0,1.8314804E1,6.960286E0,2.0297943E1,0E0,0E0,0E0,0E0,0E0,0E0,0E0,0E0,0E0,0E0,0E0,0E0,0E0,0E0],"parents":[2147483647,0,0,1,1,2,2,3,3,4,4,5,5,6,6,9,9,11,11,12,12,13,13,15,15,16,16,17,17,20,20,22,22,23,23,24,24,26,26,28,28,30,30,31,31,32,32],"right_children":[2,4,6,8,10,12,14,-1,-1,16,-1,18,20,22,-1,24,26,28,-1,-1,30,-1,32,34,36,-1,38,-1,40,-1,42,44,46,-1,-1,-1,-1,-1,-1,-1,-1,-1,-1,-1,-1,-1,-1],"split_conditions":[4.3802127E-1,2.241E0,2.8527062E-2,4.7416717E-1,3.1E-2,3.364E1,2.33E0,-6.1463464E-2,7.2713224E-3,3.08E-1,-6.192084E-2,2E1,2.301E0,6.895394E-2,4.355537E-2,2.386E-1,-6.6312265E-1,1.5E-2,-5.8945827E-2,-9.749624E-2,4.5568365E-1,-9.570789E-2,7.634516E-2,2.4964695E-1,1.5242352E-1,2.2766436E-3,2.88E-1,-5.2769106E-2,-4.391197E-2,-7.264816E-2,1.653183E0,-7.93998E-3,-4.6E-2,4.3838542E-2,-6.080079E-3,-6.772777E-2,1.311144E-2,4.6466902E-2,1.0851953E-2,-2.9109955E-2,3.7887745E-2,-4.2756133E-2,3.44523E-2,4.718725E-2,-9.564014E-3,3.6624316E-2,-5.9000876E-2],"split_indices":[29,0,39,14,34,13,0,0,0,41,0,32,8,39,0,41,25,11,0,0,15,0,39,18,36,0,11,0,31,0,19,31,2,0,0,0,0,0,0,0,0,0,0,0,0,0,0],"split_type":[0,0,0,0,0,0,0,0,0,0,0,0,0,0,0,0,0,0,0,0,0,0,0,0,0,0,0,0,0,0,0,0,0,0,0,0,0,0,0,0,0,0,0,0,0,0,0],"sum_hessian":[1.0923455E3,3.5537045E2,7.36975E2,2.721567E2,8.321374E1,6.490295E2,8.7945496E1,2.6746417E2,4.6925426E0,6.75416E1,1.56721325E1,5.494418E2,9.958772E1,5.7824444E1,3.0121054E1,3.74682E1,3.00734E1,5.447834E2,4.658407E0,9.834948E0,8.975278E1,1.675795E1,4.1066494E1,1.5914179E1,2.1554022E1,3.373421E0,2.669998E1,4.1575856E0,5.406258E2,7.37718E0,8.2375595E1,1.4786282E1,2.6280212E1,1.2018052E1,3.8961265E0,1.842451E1,3.1295128E0,2.3574085E1,3.1258948E0,3.5375557E0,5.3708826E2,4.3877344E0,7.798786E1,1.0305835E1,4.480447E0,3.4513335E0,2.2828878E1],"tree_param":{"num_deleted":"0","num_feature":"43","num_nodes":"47","size_leaf_vector":"1"}},{"base_weights":[9.246762E-2,-1.2535237E0,6.1155826E-1,-1.4442185E0,-8.019237E-2,7.5625277E-1,-4.4201338E-1,6.94566E-1,-6.005816E-2,7.538749E-1,-5.8345754E-2,9.1143817E-1,3.912396E-1,-1.26292E0,9.9391586E-1,4.103105E-2,9.130446E-3,1.020994E0,-1.4043791E-2,-5.648751E-2,9.2919225E-1,5.8482486E-1,-8.693029E-1,-8.107691E-2,-1.8066579E0,-1.2027409E-5,4.429143E-2,4.544533E-2,7.7915224E-3,8.424912E-1,1.0591184E0,-6.6389985E-2,6.4772904E-1,-7.985417E-2,3.6681738E-2,5.143245E-1,-6.356348E-2,-7.990669E-2,1.4798346E-2,3.5143744E-2,1.0283577E-2,1.6429098E-2,4.288481E-2,2.7980648E-2,-5.7557933E-2,4.865342E-2,-3.8712493E-3],"categories":[],"categories_nodes":[],"categories_segments":[],"categories_sizes":[],"default_left":[0,0,0,0,0,0,0,0,0,0,0,0,0,0,0,0,0,0,0,0,0,0,0,0,0,0,0,0,0,0,0,0,0,0,0,0,0,0,0,0,0,0,0,0,0,0,0],"id":19,"left_children":[1,3,5,7,9,11,13,15,-1,17,-1,19,21,23,25,-1,-1,27,-1,-1,29,31,33,35,37,-1,-1,-1,-1,39,41,-1,43,-1,-1,45,-1,-1,-1,-1,-1,-1,-1,-1,-1,-1,-1],"loss_changes":[7.6022565E2,6.7568054E1,1.2004733E2,3.2960876E1,5.1071278E1,3.8707092E1,1.13725395E2,8.534639E-1,0E0,8.566893E0,0E0,2.1248993E1,5.123136E1,3.9063255E1,4.027649E0,0E0,0E0,1.8617802E0,0E0,0E0,4.428833E0,2.6562405E1,5.8353493E1,1.9141535E1,1.8204895E1,0E0,0E0,0E0,0E0,5.920212E0,1.0730591E0,0E0,2.0062485E1,0E0,0E0,6.7461905E0,0E0,0E0,0E0,0E0,0E0,0E0,0E0,0E0,0E0,0E0,0E0],"parents":[2147483647,0,0,1,1,2,2,3,3,4,4,5,5,6,6,7,7,9,9,11,11,12,12,13,13,14,14,17,17,20,20,21,21,22,22,23,23,24,24,29,29,30,30,32,32,35,35],"right_children":[2,4,6,8,10,12,14,16,-1,18,-1,20,22,24,26,-1,-1,28,-1,-1,30,32,34,36,38,-1,-1,-1,-1,40,42,-1,44,-1,-1,46,-1,-1,-1,-1,-1,-1,-1,-1,-1,-1,-1],"split_conditions":[9.768368E-1,2.241E0,2.8527062E-2,-9.9270886E-1,-5.6806475E-1,2E0,2.314E0,7.508562E-1,-6.005816E-2,2.267E0,-5.8345754E-2,4.339891E-1,3.387E1,4.2993537E-1,5.5714287E-3,4.103105E-2,9.130446E-3,3.161478E-1,-1.4043791E-2,-5.648751E-2,9.64824E-3,1.2814009E0,6.3E1,2.2692857E0,3.2646E1,-1.2027409E-5,4.429143E-2,4.544533E-2,7.7915224E-3,2.379E0,2.204E0,-6.6389985E-2,3.429E-1,-7.985417E-2,3.6681738E-2,-8.5714285E-4,-6.356348E-2,-7.990669E-2,1.4798346E-2,3.5143744E-2,1.0283577E-2,1.6429098E-2,4.288481E-2,2.7980648E-2,-5.7557933E-2,4.865342E-2,-3.8712493E-3],"split_indices":[21,0,39,26,26,33,28,0,0,1,0,14,13,17,5,0,0,17,0,0,31,19,9,12,13,0,0,0,0,6,28,0,41,0,0,5,0,0,0,0,0,0,0,0,0,0,0],"split_type":[0,0,0,0,0,0,0,0,0,0,0,0,0,0,0,0,0,0,0,0,0,0,0,0,0,0,0,0,0,0,0,0,0,0,0,0,0,0,0,0,0,0,0,0,0,0,0],"sum_hessian":[1.0860193E3,3.018409E2,7.841784E2,2.5940744E2,4.2433483E1,6.897762E2,9.440224E1,6.4480305E0,2.529594E2,2.6696758E1,1.5736727E1,4.8285596E2,2.0692021E2,6.0162968E1,3.423927E1,3.0059328E0,3.4420977E0,2.1597061E1,5.0996976E0,3.0444624E0,4.798115E2,1.798724E2,2.7047815E1,1.9348671E1,4.0814293E1,3.5615923E0,3.067768E1,1.8573093E1,3.0239675E0,2.9249548E2,1.8731604E2,4.189803E0,1.756826E2,1.6529415E1,1.05184E1,1.4320393E1,5.0282793E0,3.7618282E1,3.196013E0,2.7495255E2,1.754291E1,4.398589E0,1.8291745E2,1.7210014E2,3.5824525E0,6.2416725E0,8.07872E0],"tree_param":{"num_deleted":"0","num_feature":"43","num_nodes":"47","size_leaf_vector":"1"}},{"base_weights":[6.714736E-2,-1.1642786E0,6.510675E-1,-5.8778677E-2,-4.305081E-1,7.638865E-1,-1.465268E-1,4.5806348E-1,-6.1358932E-2,1.3093385E-1,8.6211866E-1,-7.810063E-1,9.957262E-1,6.4744705E-1,-5.415564E-2,6.7094237E-1,-1.4534883E0,-7.8993624E-1,8.870108E-1,2.3628476E-1,-1.5838422E0,-5.5018407E-3,4.5144066E-2,8.779583E-1,-7.400756E-1,8.836818E-1,-6.590614E-2,-8.563539E-2,9.8365005E-3,3.2435082E-2,-7.278287E-2,9.061892E-1,-4.1495543E-2,-6.2203992E-2,7.286796E-1,-8.120412E-2,2.4842273E-2,4.2048812E-2,-2.913746E-2,6.536781E-3,-5.332372E-2,4.146707E-2,-2.908364E-2,3.937996E-2,2.3507658E-2,4.783098E-2,6.0586757E-3],"categories":[],"categories_nodes":[],"categories_segments":[],"categories_sizes":[],"default_left":[0,0,0,0,0,0,0,0,0,0,0,0,0,0,0,0,0,0,0,0,0,0,0,0,0,0,0,0,0,0,0,0,0,0,0,0,0,0,0,0,0,0,0,0,0,0,0],"id":20,"left_children":[1,3,5,-1,7,9,11,13,-1,15,17,19,21,23,-1,25,27,29,31,33,35,-1,-1,37,39,41,-1,-1,-1,-1,-1,43,-1,-1,45,-1,-1,-1,-1,-1,-1,-1,-1,-1,-1,-1,-1],"loss_changes":[7.6418945E2,7.582602E1,6.5012054E1,0E0,1.0065008E2,3.9119324E1,6.6079056E1,2.046278E1,0E0,7.46248E1,2.318576E1,4.8240288E1,5.1128006E0,1.7438797E1,0E0,3.3450226E1,2.6536179E1,1.5723195E1,2.0827911E1,2.4605608E1,3.3671867E1,0E0,0E0,1.3441231E1,4.5556006E0,1.5593483E1,0E0,0E0,0E0,0E0,0E0,1.266864E1,0E0,0E0,5.578624E0,0E0,0E0,0E0,0E0,0E0,0E0,0E0,0E0,0E0,0E0,0E0,0E0],"parents":[2147483647,0,0,1,1,2,2,4,4,5,5,6,6,7,7,9,9,10,10,11,11,12,12,13,13,15,15,16,16,17,17,18,18,19,19,20,20,23,23,24,24,25,25,31,31,34,34],"right_children":[2,4,6,-1,8,10,12,14,-1,16,18,20,22,24,-1,26,28,30,32,34,36,-1,-1,38,40,42,-1,-1,-1,-1,-1,44,-1,-1,46,-1,-1,-1,-1,-1,-1,-1,-1,-1,-1,-1,-1],"split_conditions":[4.3802127E-1,2.246E0,2.8527062E-2,-5.8778677E-2,3.7412733E-2,4.5718867E-1,2.339E0,7.634516E-2,-6.1358932E-2,3.3205E1,2.246E0,2.19E0,9.785714E-1,1.2E1,-5.415564E-2,1.3E1,2.397E0,4.2650145E-1,4.8568565E-1,1E0,2.3184285E0,-5.5018407E-3,4.5144066E-2,4.678457E-1,2.5521412E-1,3.1E1,-6.590614E-2,-8.563539E-2,9.8365005E-3,3.2435082E-2,-7.278287E-2,2.408E0,-4.1495543E-2,-6.2203992E-2,-9.9270886E-1,-8.120412E-2,2.4842273E-2,4.2048812E-2,-2.913746E-2,6.536781E-3,-5.332372E-2,4.146707E-2,-2.908364E-2,3.937996E-2,2.3507658E-2,4.783098E-2,6.0586757E-3],"split_indices":[29,1,39,0,38,29,1,39,0,13,1,8,10,32,0,32,28,14,17,33,12,0,0,18,18,9,0,0,0,0,0,12,0,0,26,0,0,0,0,0,0,0,0,0,0,0,0],"split_type":[0,0,0,0,0,0,0,0,0,0,0,0,0,0,0,0,0,0,0,0,0,0,0,0,0,0,0,0,0,0,0,0,0,0,0,0,0,0,0,0,0,0,0,0,0,0,0],"sum_hessian":[1.0607513E3,3.4085165E2,7.1989966E2,2.3997217E2,1.0087947E2,6.307812E2,8.9118484E1,5.6179882E1,4.469959E1,8.512505E1,5.456561E2,5.752532E1,3.1593166E1,5.1470512E1,4.709369E0,6.3940662E1,2.1184393E1,7.613546E0,5.380426E2,2.5657518E1,3.18678E1,3.2723558E0,2.832081E1,4.4483658E1,6.9868536E0,5.915355E1,4.787112E0,1.491928E1,6.2651134E0,3.044323E0,4.569223E0,5.33283E2,4.759568E0,5.044675E0,2.0612844E1,2.6588392E1,5.279407E0,4.0492912E1,3.990744E0,3.0223095E0,3.9645443E0,5.437622E1,4.7773285E0,4.262354E2,1.0704761E2,1.0752995E1,9.85985E0],"tree_param":{"num_deleted":"0","num_feature":"43","num_nodes":"47","size_leaf_vector":"1"}},{"base_weights":[9.513075E-2,-1.344215E0,5.571056E-1,-5.7507984E-2,-5.232737E-1,-4.509238E-2,8.1157714E-1,6.5071976E-1,-5.53131E-2,4.2042175E-1,-5.903442E-1,8.3129156E-1,-3.563011E-2,-5.137754E-3,4.1231148E-2,-6.542423E-2,5.675287E-1,4.9420714E-2,-1.4080043E0,9.113032E-1,5.5018336E-1,7.0029324E-1,-6.405743E-2,5.7622635E-1,-6.081803E-2,4.4767702E-1,-1.7394885E0,-4.0426962E-2,9.316497E-1,-9.446028E-2,6.9690883E-1,3.1522E-2,-5.470581E-2,-5.4664418E-2,3.734335E-2,3.4799073E-2,1.14118455E-4,-0E0,-7.51591E-2,3.8766254E-2,9.276655E-3,-4.4077564E-2,3.1085163E-2],"categories":[],"categories_nodes":[],"categories_segments":[],"categories_sizes":[],"default_left":[0,0,0,0,0,0,0,0,0,0,0,0,0,0,0,0,0,0,0,0,0,0,0,0,0,0,0,0,0,0,0,0,0,0,0,0,0,0,0,0,0,0,0],"id":21,"left_children":[1,3,5,-1,7,9,11,13,-1,15,17,19,-1,-1,-1,-1,21,23,25,27,29,31,-1,33,-1,35,37,-1,39,-1,41,-1,-1,-1,-1,-1,-1,-1,-1,-1,-1,-1,-1],"loss_changes":[6.998436E2,1.8776245E1,1.2216072E2,0E0,2.8961128E1,6.055025E1,1.9536163E1,3.8477693E0,0E0,3.979349E1,5.761002E1,1.1892303E1,0E0,0E0,0E0,0E0,3.587618E1,5.257578E1,3.0551842E1,1.774533E1,5.516594E1,2.1845081E1,0E0,3.430102E1,0E0,1.4739894E0,9.968872E0,0E0,1.08914795E1,0E0,1.8191174E1,0E0,0E0,0E0,0E0,0E0,0E0,0E0,0E0,0E0,0E0,0E0,0E0],"parents":[2147483647,0,0,1,1,2,2,4,4,5,5,6,6,7,7,9,9,10,10,11,11,16,16,17,17,18,18,19,19,20,20,21,21,23,23,25,25,26,26,28,28,30,30],"right_children":[2,4,6,-1,8,10,12,14,-1,16,18,20,-1,-1,-1,-1,22,24,26,28,30,32,-1,34,-1,36,38,-1,40,-1,42,-1,-1,-1,-1,-1,-1,-1,-1,-1,-1,-1,-1],"split_conditions":[1.8800275E-2,8.2857144E-1,1.0661504E0,-5.7507984E-2,3.089863E-2,2.3969969E-2,7.9640366E-2,2.255E0,-5.53131E-2,4.3802127E-1,4.1389033E-1,3.3461E1,-3.563011E-2,-5.137754E-3,4.1231148E-2,-6.542423E-2,1.6E1,6.634368E-2,1.0986775E1,1.5E-2,2.3E0,3.3755E1,-6.405743E-2,3.1151E1,-6.081803E-2,7.380953E-2,-3.7552476E0,-4.0426962E-2,5.7336792E-2,-9.446028E-2,1.4773567E0,3.1522E-2,-5.470581E-2,-5.4664418E-2,3.734335E-2,3.4799073E-2,1.14118455E-4,-0E0,-7.51591E-2,3.8766254E-2,9.276655E-3,-4.4077564E-2,3.1085163E-2],"split_indices":[36,10,21,0,38,39,38,1,0,29,18,13,0,0,0,0,32,31,13,11,28,13,0,13,0,10,20,0,39,0,19,0,0,0,0,0,0,0,0,0,0,0,0],"split_type":[0,0,0,0,0,0,0,0,0,0,0,0,0,0,0,0,0,0,0,0,0,0,0,0,0,0,0,0,0,0,0,0,0,0,0,0,0,0,0,0,0,0,0],"sum_hessian":[1.0504219E3,2.5473674E2,7.956851E2,2.2796507E2,2.6771675E1,2.3654231E2,5.591428E2,1.1394143E1,1.5377531E1,1.276754E2,1.08866905E2,5.532764E2,5.8663654E0,3.90957E0,7.4845734E0,7.826777E0,1.19848625E2,6.1570488E1,4.7296417E1,4.288059E2,1.2447052E2,1.1359551E2,6.253114E0,4.659821E1,1.4972278E1,7.092201E0,4.0204216E1,3.956261E0,4.2484967E2,5.230883E0,1.1923964E2,1.0958804E2,4.007469E0,6.778976E0,3.9819233E1,3.0902493E0,4.001952E0,3.067049E0,3.7137165E1,4.028024E2,2.2047272E1,4.520174E0,1.1471947E2],"tree_param":{"num_deleted":"0","num_feature":"43","num_nodes":"43","size_leaf_vector":"1"}},{"base_weights":[8.537598E-2,-1.3058275E0,5.7505375E-1,-6.8850845E-1,-5.7181295E-2,7.4794024E-1,-2.2748534E-1,-5.598232E-2,-1.2034578E-3,2.1840633E-1,8.4680104E-1,-6.2700903E-1,7.951164E-1,7.923568E-1,-5.7318557E-2,4.5310858E-1,-6.340716E-2,8.656597E-1,-6.74715E-2,5.703374E-1,-9.3582106E-1,-5.1745128E-2,4.381938E-2,-4.831557E-3,4.0717915E-2,6.747831E-1,-6.5751545E-2,-6.78883E-1,8.87541E-1,4.3089803E-2,-4.8638146E-2,2.926314E-1,-1.3894315E0,3.30635E-2,-8.5791215E-2,-6.909158E-2,2.5346266E-2,3.725362E-2,1.2990143E-2,4.2185534E-2,-2.3439921E-2,-6.1652288E-2,3.4469128E-2],"categories":[],"categories_nodes":[],"categories_segments":[],"categories_sizes":[],"default_left":[0,0,0,0,0,0,0,0,0,0,0,0,0,0,0,0,0,0,0,0,0,0,0,0,0,0,0,0,0,0,0,0,0,0,0,0,0,0,0,0,0,0,0],"id":22,"left_children":[1,3,5,7,-1,9,11,-1,13,15,17,19,21,23,-1,25,-1,27,-1,29,31,-1,-1,-1,-1,33,-1,35,37,-1,-1,39,41,-1,-1,-1,-1,-1,-1,-1,-1,-1,-1],"loss_changes":[6.911174E2,1.9079895E1,1.0430214E2,2.2452385E1,0E0,3.209424E1,5.511554E1,0E0,2.8972788E1,4.239647E1,2.6265991E1,3.6320805E1,2.5227983E1,3.5393648E0,0E0,4.198533E1,0E0,1.8081207E1,0E0,1.9795023E1,4.35439E1,0E0,0E0,0E0,0E0,3.6100758E1,0E0,1.1820294E1,1.2208862E1,0E0,0E0,1.5133925E1,2.0736816E1,0E0,0E0,0E0,0E0,0E0,0E0,0E0,0E0,0E0,0E0],"parents":[2147483647,0,0,1,1,2,2,3,3,5,5,6,6,8,8,9,9,10,10,11,11,12,12,13,13,15,15,17,17,19,19,20,20,25,25,27,27,28,28,31,31,32,32],"right_children":[2,4,6,8,-1,10,12,-1,14,16,18,20,22,24,-1,26,-1,28,-1,30,32,-1,-1,-1,-1,34,-1,36,38,-1,-1,40,42,-1,-1,-1,-1,-1,-1,-1,-1,-1,-1],"split_conditions":[4.339891E-1,-5.6806475E-1,2.8527062E-2,2.238E0,-5.7181295E-2,4.5718867E-1,5.5714287E-3,-5.598232E-2,2.2545714E0,3.3755E1,8.510548E-2,3.161478E-1,2.216E0,-7E-2,-5.7318557E-2,1.3E1,-6.340716E-2,2.246E0,-6.74715E-2,3.1713266E-2,-9.9270886E-1,-5.1745128E-2,4.381938E-2,-4.831557E-3,4.0717915E-2,3.2E1,-6.5751545E-2,4.7304323E-1,2.403E0,4.3089803E-2,-4.8638146E-2,2.19E0,4.840024E0,3.30635E-2,-8.5791215E-2,-6.909158E-2,2.5346266E-2,3.725362E-2,1.2990143E-2,4.2185534E-2,-2.3439921E-2,-6.1652288E-2,3.4469128E-2],"split_indices":[14,26,39,1,0,29,5,0,12,13,38,17,8,34,0,32,0,1,0,38,26,0,0,0,0,9,0,14,6,0,0,8,20,0,0,0,0,0,0,0,0,0,0],"split_type":[0,0,0,0,0,0,0,0,0,0,0,0,0,0,0,0,0,0,0,0,0,0,0,0,0,0,0,0,0,0,0,0,0,0,0,0,0,0,0,0,0,0,0],"sum_hessian":[1.0124483E3,2.631252E2,7.493231E2,4.5089104E1,2.1803612E2,6.166187E2,1.3270436E2,2.161663E1,2.3472473E1,9.759266E1,5.1902606E2,9.573649E1,3.6967865E1,1.5366938E1,8.105536E0,8.704227E1,1.0550396E1,5.158643E2,3.1617482E0,1.9422297E1,7.631419E1,4.2110643E0,3.27568E1,3.092415E0,1.2274523E1,7.935523E1,7.6870337E0,6.754739E0,5.091096E2,1.546003E1,3.9622672E0,2.0646013E1,5.5668182E1,7.59886E1,3.3666308E0,3.6007226E0,3.154016E0,4.7165854E2,3.745104E1,1.098E1,9.666015E0,5.246607E1,3.2021117E0],"tree_param":{"num_deleted":"0","num_feature":"43","num_nodes":"43","size_leaf_vector":"1"}},{"base_weights":[7.618817E-2,-1.0985262E0,6.3290066E-1,-1.3701788E0,-2.836247E-1,5.693821E-2,7.9363006E-1,-5.591964E-2,2.2860441E-2,5.5199057E-1,-5.781048E-2,3.570689E-1,-8.628948E-1,-6.868191E-1,8.4704196E-1,7.5684005E-1,-5.682188E-2,4.9966758E-1,-7.0643775E-2,7.7378106E-1,-1.825695E0,-1.4886701E0,3.5148647E-2,9.1076684E-1,3.2671082E-1,-4.514344E-1,9.9183565E-1,6.7026174E-1,-5.8250282E-2,-2.0476168E-3,4.4619057E-2,-8.583229E-2,9.483641E-3,-8.07998E-2,6.0226815E-3,9.368378E-1,-1.01666674E-1,-1.0410671E-1,6.220879E-1,-3.045106E-2,8.87816E-4,4.2853255E-2,3.5815851E-3,-2.8344182E-2,3.361263E-2,3.8355816E-2,-6.615492E-3,3.8235933E-2,-5.9835408E-2,4.1236818E-2,-8.399133E-3],"categories":[],"categories_nodes":[],"categories_segments":[],"categories_sizes":[],"default_left":[0,0,0,0,0,0,0,0,0,0,0,0,0,0,0,0,0,0,0,0,0,0,0,0,0,0,0,0,0,0,0,0,0,0,0,0,0,0,0,0,0,0,0,0,0,0,0,0,0,0,0],"id":23,"left_children":[1,3,5,7,9,11,13,-1,-1,15,-1,17,19,21,23,25,-1,27,-1,29,31,33,-1,35,37,39,41,43,-1,-1,-1,-1,-1,-1,-1,45,47,-1,49,-1,-1,-1,-1,-1,-1,-1,-1,-1,-1,-1,-1],"loss_changes":[6.616664E2,7.154486E1,6.3455902E1,1.3999664E1,8.106085E1,4.1942852E1,4.3013153E1,0E0,0E0,2.0746265E1,0E0,3.5493473E1,6.0362823E1,2.544305E1,1.6826447E1,1.3209963E1,0E0,3.7013424E1,0E0,4.205228E0,1.6352753E1,1.1798809E1,0E0,1.2307983E1,5.18751E1,1.2213125E0,2.564289E0,2.4086693E1,0E0,0E0,0E0,0E0,0E0,0E0,0E0,1.11310425E1,1.9784277E1,0E0,1.8520786E1,0E0,0E0,0E0,0E0,0E0,0E0,0E0,0E0,0E0,0E0,0E0,0E0],"parents":[2147483647,0,0,1,1,2,2,3,3,4,4,5,5,6,6,9,9,11,11,12,12,13,13,14,14,15,15,17,17,19,19,20,20,21,21,23,23,24,24,25,25,26,26,27,27,35,35,36,36,38,38],"right_children":[2,4,6,8,10,12,14,-1,-1,16,-1,18,20,22,24,26,-1,28,-1,30,32,34,-1,36,38,40,42,44,-1,-1,-1,-1,-1,-1,-1,46,48,-1,50,-1,-1,-1,-1,-1,-1,-1,-1,-1,-1,-1,-1],"split_conditions":[4.38462E-1,2.236E0,4.5962977E-1,1.0440323E0,3.5822764E-2,2.828E-1,2.234E0,-5.591964E-2,2.2860441E-2,1.1619717E0,-5.781048E-2,3.3771E1,4.2242914E-1,3.2876E1,6.905976E-2,-6.6312265E-1,-5.682188E-2,2.3931566E-1,-7.0643775E-2,2.2857144E0,1E0,1.5913491E-1,3.5148647E-2,6.4324905E-16,2.0724597E0,3E-3,1.996166E-2,2.403E-1,-5.8250282E-2,-2.0476168E-3,4.4619057E-2,-8.583229E-2,9.483641E-3,-8.07998E-2,6.0226815E-3,3.432E-1,3.161478E-1,-1.0410671E-1,-8.660254E-1,-3.045106E-2,8.87816E-4,4.2853255E-2,3.5815851E-3,-2.8344182E-2,3.361263E-2,3.8355816E-2,-6.615492E-3,3.8235933E-2,-5.9835408E-2,4.1236818E-2,-8.399133E-3],"split_indices":[29,0,15,21,38,41,0,0,0,30,0,13,18,13,38,25,0,25,0,12,10,36,0,25,19,2,31,41,0,0,0,0,0,0,0,41,18,0,23,0,0,0,0,0,0,0,0,0,0,0,0],"split_type":[0,0,0,0,0,0,0,0,0,0,0,0,0,0,0,0,0,0,0,0,0,0,0,0,0,0,0,0,0,0,0,0,0,0,0,0,0,0,0,0,0,0,0,0,0,0,0,0,0,0,0],"sum_hessian":[1.0097285E3,3.243202E2,6.854083E2,2.426789E2,8.16413E1,1.4990382E2,5.355045E2,2.3955334E2,3.1255393E0,4.776423E1,3.3877068E1,1.1352735E2,3.6376472E1,1.8201733E1,5.173028E2,4.385184E1,3.9123867E0,1.0712096E2,6.40639E0,1.3526685E1,2.2849787E1,1.2090261E1,6.111471E0,4.6010712E2,5.719567E1,6.955421E0,3.689642E1,9.915557E1,7.965387E0,4.167866E0,9.358819E0,1.9766348E1,3.0834382E0,8.978341E0,3.1119204E0,4.486774E2,1.142974E1,4.507938E0,5.2687733E1,3.901414E0,3.0540073E0,3.3685818E1,3.2106042E0,1.0506194E1,8.8649376E1,4.400466E2,8.630777E0,6.6579595E0,4.77178E0,3.5209015E1,1.7478718E1],"tree_param":{"num_deleted":"0","num_feature":"43","num_nodes":"51","size_leaf_vector":"1"}},{"base_weights":[7.204446E-2,-1.0330852E0,6.003024E-1,-2.71571E-1,-1.3194155E0,7.9377276E-1,1.014255E-1,-5.4147966E-2,5.1763886E-1,-1.3671492E0,1.13409854E-1,9.206246E-1,3.8218367E-1,-7.705339E-1,4.588691E-1,7.6850533E-1,-4.965782E-1,-5.5770542E-2,-1.2338183E-2,-4.7296425E-3,1.5351011E-2,-3.525485E-2,9.436391E-1,-2.0953124E0,6.806165E-1,4.2685798E-1,-1.2191714E0,5.461146E-1,-6.712939E-2,-4.6059445E-2,9.642169E-1,-6.5237805E-2,3.8814373E-2,2.5050677E-2,9.63152E-1,-1.06135584E-1,-1.2774825E-2,-9.740236E-1,8.2021594E-1,-1.7859245E-2,3.49731E-2,3.2265894E-2,-1.5715934E0,-7.556889E-1,6.864093E-1,4.4221852E-2,-3.745019E-3,3.567981E-2,-3.0441485E-2,3.996609E-2,2.1159047E-2,4.205707E-3,-6.681659E-2,-4.6419322E-2,3.6797006E-2,-1.5634643E-2,-8.5853405E-2,3.700533E-2,-1.42392E-1,-1.1228909E-2,3.5932317E-2],"categories":[],"categories_nodes":[],"categories_segments":[],"categories_sizes":[],"default_left":[0,0,0,0,0,0,0,0,0,0,0,0,0,0,0,0,0,0,0,0,0,0,0,0,0,0,0,0,0,0,0,0,0,0,0,0,0,0,0,0,0,0,0,0,0,0,0,0,0,0,0,0,0,0,0,0,0,0,0,0,0],"id":24,"left_children":[1,3,5,7,9,11,13,-1,15,17,19,21,23,25,27,29,31,-1,-1,-1,-1,-1,33,35,37,39,41,43,-1,-1,45,-1,-1,47,49,-1,-1,51,53,-1,-1,-1,55,57,59,-1,-1,-1,-1,-1,-1,-1,-1,-1,-1,-1,-1,-1,-1,-1,-1],"loss_changes":[5.6739056E2,6.810028E1,6.3339737E1,7.521345E1,1.5820557E1,2.4309174E1,5.7987007E1,0E0,1.34021435E1,5.825531E0,5.750212E-1,1.5814819E1,8.518055E1,2.9627739E1,2.5444477E1,1.6663546E1,1.9429743E1,0E0,0E0,0E0,0E0,0E0,6.328369E0,1.1309372E1,2.4342327E1,6.4528017E0,2.9615044E1,2.3793941E1,0E0,0E0,5.8580894E0,0E0,0E0,6.4843283E0,4.860321E0,0E0,0E0,6.538186E0,1.973777E1,0E0,0E0,0E0,2.2199425E1,6.3948395E1,2.3977158E1,0E0,0E0,0E0,0E0,0E0,0E0,0E0,0E0,0E0,0E0,0E0,0E0,0E0,0E0,0E0,0E0],"parents":[2147483647,0,0,1,1,2,2,3,3,4,4,5,5,6,6,8,8,9,9,10,10,11,11,12,12,13,13,14,14,15,15,16,16,22,22,23,23,24,24,25,25,26,26,27,27,30,30,33,33,34,34,37,37,38,38,42,42,43,43,44,44],"right_children":[2,4,6,8,10,12,14,-1,16,18,20,22,24,26,28,30,32,-1,-1,-1,-1,-1,34,36,38,40,42,44,-1,-1,46,-1,-1,48,50,-1,-1,52,54,-1,-1,-1,56,58,60,-1,-1,-1,-1,-1,-1,-1,-1,-1,-1,-1,-1,-1,-1,-1,-1],"split_conditions":[4.4744578E-1,3.2801803E-2,1.6631275E-2,2.215E0,4.716846E-1,3.3433E1,4.631149E-1,-5.4147966E-2,-5.6806475E-1,4.7304323E-1,6.553801E-2,8.103345E-3,2.319E0,2.6696598E-2,3.327E-1,2.2252858E0,2.382E0,-5.5770542E-2,-1.2338183E-2,-4.7296425E-3,1.5351011E-2,-3.525485E-2,2.219E0,6.033202E-2,4.5554307E-1,2.255E0,1.7035738E-2,1.7932307E-2,-6.712939E-2,-4.6059445E-2,7.025969E-2,-6.5237805E-2,3.8814373E-2,4.527107E-1,3.354E-1,-1.06135584E-1,-1.2774825E-2,1.8367788E0,1.4440777E0,-1.7859245E-2,3.49731E-2,3.2265894E-2,4.4857064E-1,1.4568394E-2,2.241E0,4.4221852E-2,-3.745019E-3,3.567981E-2,-3.0441485E-2,3.996609E-2,2.1159047E-2,4.205707E-3,-6.681659E-2,-4.6419322E-2,3.6797006E-2,-1.5634643E-2,-8.5853405E-2,3.700533E-2,-1.42392E-1,-1.1228909E-2,3.5932317E-2],"split_indices":[15,38,39,0,14,13,14,0,26,17,38,4,8,38,41,12,0,0,0,0,0,0,7,4,29,7,39,39,0,0,39,0,0,14,41,0,0,19,19,0,0,0,29,4,28,0,0,0,0,0,0,0,0,0,0,0,0,0,0,0,0],"split_type":[0,0,0,0,0,0,0,0,0,0,0,0,0,0,0,0,0,0,0,0,0,0,0,0,0,0,0,0,0,0,0,0,0,0,0,0,0,0,0,0,0,0,0,0,0,0,0,0,0,0,0,0,0,0,0,0,0,0,0,0,0],"sum_hessian":[9.6987756E2,3.133308E2,6.5654675E2,8.619979E1,2.2713103E2,4.7258237E2,1.8396437E2,3.6078587E1,5.0121204E1,2.1988637E2,7.2446623E0,3.6020795E2,1.1237439E2,5.311017E1,1.308542E2,4.04159E1,9.705303E0,2.1404034E2,5.84602E0,4.1051064E0,3.1395555E0,4.044712E0,3.5616324E2,1.1415756E1,1.0095863E2,1.4458426E1,3.865174E1,1.2645946E2,4.3947473E0,3.2632565E0,3.715264E1,5.4292245E0,4.2760787E0,7.509148E0,3.486541E2,8.288821E0,3.126934E0,7.3620863E0,9.359655E1,4.8611836E0,9.597242E0,5.51563E0,3.3136112E1,1.1841214E1,1.1461825E2,3.2775898E1,4.3767447E0,3.537101E0,3.9720473E0,3.2065048E2,2.8003616E1,3.192316E0,4.1697702E0,3.9519463E0,8.964461E1,1.1427324E1,2.1708788E1,7.8112774E0,4.029937E0,2.0498726E1,9.411952E1],"tree_param":{"num_deleted":"0","num_feature":"43","num_nodes":"61","size_leaf_vector":"1"}},{"base_weights":[6.96592E-2,-1.0223333E0,6.289058E-1,-1.1893295E0,2.5733665E-1,7.2372824E-2,8.075103E-1,-5.695917E-1,-1.3113244E0,4.817348E-1,-6.1909005E-2,-7.7792275E-1,2.950493E-1,8.711435E-1,2.1287325E-1,-0E0,-5.8062933E-2,-1.3637646E0,1.5954975E-2,8.0764693E-1,-3.536892E-2,-6.1204426E-2,1.7812766E-1,-3.2064947E-1,6.839652E-1,-4.1907944E-2,8.8722205E-1,-1.2736763E0,7.98078E-1,-5.0291643E-2,6.373445E-1,-5.5182546E-2,-6.964993E-1,-7.336843E-4,9.1834646E-1,8.350032E-1,-4.4659905E-2,3.8828757E-2,-7.207212E-2,1.4528048E-1,9.241209E-1,-1.8433213E-2,8.998222E-1,-1.09095216E-1,3.75715E-2,-3.2548377E-1,4.466503E-2,-1.5409339E-2,3.8329117E-2,-5.526089E-2,8.682642E-3,3.98439E-2,1.5861552E-2,4.7236636E-2,5.704797E-3,-6.64125E-2,1.1076159E-2,-4.537556E-2,2.6896374E-2,3.8995042E-2,6.429534E-3,2.2980014E-2,3.8171843E-2,3.074539E-2,-3.397508E-2,-5.756168E-2,3.6088865E-2],"categories":[],"categories_nodes":[],"categories_segments":[],"categories_sizes":[],"default_left":[0,0,0,0,0,0,0,0,0,0,0,0,0,0,0,0,0,0,0,0,0,0,0,0,0,0,0,0,0,0,0,0,0,0,0,0,0,0,0,0,0,0,0,0,0,0,0,0,0,0,0,0,0,0,0,0,0,0,0,0,0,0,0,0,0,0,0],"id":25,"left_children":[1,3,5,7,9,11,13,15,17,19,-1,21,23,25,27,29,-1,31,-1,33,-1,-1,35,37,39,-1,41,43,45,-1,47,-1,49,-1,51,53,-1,55,-1,57,59,-1,61,-1,63,65,-1,-1,-1,-1,-1,-1,-1,-1,-1,-1,-1,-1,-1,-1,-1,-1,-1,-1,-1,-1,-1],"loss_changes":[5.887361E2,7.012802E1,6.326602E1,2.1011261E1,1.627806E1,2.9752598E1,1.8016052E1,2.4789913E1,2.2175323E1,1.629662E1,0E0,2.3794172E1,3.0034933E1,1.4355316E1,4.2782295E1,2.5653103E1,0E0,1.3995972E0,0E0,2.696949E0,0E0,0E0,1.3867843E1,2.6143913E1,9.726234E0,0E0,7.7807007E0,2.6790174E1,1.2968218E1,0E0,7.3653784E0,0E0,5.051395E0,0E0,5.6937027E-1,2.3280263E0,0E0,1.6662521E1,0E0,1.7523008E1,1.8304672E0,0E0,6.973358E0,0E0,6.025658E0,1.2938195E1,0E0,0E0,0E0,0E0,0E0,0E0,0E0,0E0,0E0,0E0,0E0,0E0,0E0,0E0,0E0,0E0,0E0,0E0,0E0,0E0,0E0],"parents":[2147483647,0,0,1,1,2,2,3,3,4,4,5,5,6,6,7,7,8,8,9,9,11,11,12,12,13,13,14,14,15,15,17,17,19,19,22,22,23,23,24,24,26,26,27,27,28,28,30,30,32,32,34,34,35,35,37,37,39,39,40,40,42,42,44,44,45,45],"right_children":[2,4,6,8,10,12,14,16,18,20,-1,22,24,26,28,30,-1,32,-1,34,-1,-1,36,38,40,-1,42,44,46,-1,48,-1,50,-1,52,54,-1,56,-1,58,60,-1,62,-1,64,66,-1,-1,-1,-1,-1,-1,-1,-1,-1,-1,-1,-1,-1,-1,-1,-1,-1,-1,-1,-1,-1],"split_conditions":[4.5045316E-1,4.5914492E-1,1.0637923E0,3.0419292E-2,-2.3931566E-1,2.214E0,6.905976E-2,-5.6806475E-1,1.0879376E0,4.65904E-1,-6.1909005E-2,4.09E-1,4.6536097E-1,1.5E-2,2.371E0,3.1171E1,-5.8062933E-2,4.7497717E-1,1.5954975E-2,-1.63707E-2,-3.536892E-2,-6.1204426E-2,-9.350162E-1,2.304E0,5.164043E-3,-4.1907944E-2,2.241E0,1.216318E0,1.0272522E-1,-5.0291643E-2,9.2857145E-4,-5.5182546E-2,5.720893E-2,-7.336843E-4,2.35E0,6.984466E-1,-4.4659905E-2,-9.7094184E-1,-7.207212E-2,3E-1,2.347E0,-1.8433213E-2,4.63337E-1,-1.09095216E-1,4.621361E-1,1E-1,4.466503E-2,-1.5409339E-2,3.8329117E-2,-5.526089E-2,8.682642E-3,3.98439E-2,1.5861552E-2,4.7236636E-2,5.704797E-3,-6.64125E-2,1.1076159E-2,-4.537556E-2,2.6896374E-2,3.8995042E-2,6.429534E-3,2.2980014E-2,3.8171843E-2,3.074539E-2,-3.397508E-2,-5.756168E-2,3.6088865E-2],"split_indices":[14,15,21,38,25,7,38,26,21,29,0,11,14,11,8,13,0,18,0,16,0,0,26,1,22,0,0,30,36,0,5,0,38,0,7,38,0,26,0,11,7,0,15,0,14,34,0,0,0,0,0,0,0,0,0,0,0,0,0,0,0,0,0,0,0,0,0],"split_type":[0,0,0,0,0,0,0,0,0,0,0,0,0,0,0,0,0,0,0,0,0,0,0,0,0,0,0,0,0,0,0,0,0,0,0,0,0,0,0,0,0,0,0,0,0,0,0,0,0,0,0,0,0,0,0,0,0,0,0,0,0,0,0,0,0,0,0],"sum_hessian":[9.620251E2,3.255108E2,6.365143E2,2.880324E2,3.7478382E1,1.5505307E2,4.8146124E2,4.8373314E1,2.396591E2,3.4011078E1,3.4673033E0,3.1614454E1,1.2343861E2,4.3442368E2,4.7037544E1,3.0005936E1,1.8367376E1,2.327539E2,6.905192E0,2.7818928E1,6.1921487E0,1.738689E1,1.4227565E1,4.78049E1,7.5633705E1,3.050922E0,4.3137277E2,1.2930163E1,3.410738E1,9.7716055E0,2.0234331E1,2.262544E2,6.4995065E0,3.3329113E0,2.4486017E1,9.699708E0,4.5278573E0,3.9224968E1,8.579932E0,2.388076E1,5.175295E1,3.6284802E0,4.277443E2,5.637897E0,7.292267E0,7.4945035E0,2.6612875E1,4.74782E0,1.548651E1,3.4529011E0,3.0466056E0,2.04362E1,4.049818E0,5.949539E0,3.7501686E0,4.0605974E0,3.516437E1,6.603381E0,1.727738E1,4.8205364E1,3.5475836E0,6.31389E1,3.6460538E2,4.1014404E0,3.1908264E0,3.8610373E0,3.6334662E0],"tree_param":{"num_deleted":"0","num_feature":"43","num_nodes":"67","size_leaf_vector":"1"}},{"base_weights":[8.125108E-2,-1.2593232E0,5.1110184E-1,-5.697446E-1,-5.3187948E-2,-2.956438E-2,7.145377E-1,5.4316217E-1,-5.0535716E-2,-5.185511E-1,3.631699E-1,7.9911023E-1,-1.9851033E-1,-6.220263E-3,3.8276203E-2,-9.9442145E-3,-1.0825741E0,4.6562442E-1,-8.0782734E-2,8.18585E-1,-4.3979187E-2,-7.39916E-1,8.926682E-1,2.5602743E-1,-6.130779E-2,-6.155086E-2,9.243038E-3,5.44424E-1,-5.126107E-2,1.9222188E-1,8.852742E-1,-6.989993E-2,1.2691174E-1,1.6366038E-2,4.253584E-2,-5.0586365E-2,2.33586E-2,-4.7350835E-2,2.6087042E-2,9.1510685E-3,3.606703E-2,-9.287613E-2,1.785041E-2,3.7002277E-2,1.2185133E-2,3.2982696E-2,-3.7194826E-2],"categories":[],"categories_nodes":[],"categories_segments":[],"categories_sizes":[],"default_left":[0,0,0,0,0,0,0,0,0,0,0,0,0,0,0,0,0,0,0,0,0,0,0,0,0,0,0,0,0,0,0,0,0,0,0,0,0,0,0,0,0,0,0,0,0,0,0],"id":26,"left_children":[1,3,5,7,-1,9,11,13,-1,15,17,19,21,-1,-1,23,25,27,-1,29,-1,31,33,35,-1,-1,37,39,-1,41,43,-1,45,-1,-1,-1,-1,-1,-1,-1,-1,-1,-1,-1,-1,-1,-1],"loss_changes":[5.352941E2,1.0093018E1,7.741579E1,1.824749E1,0E0,3.7295353E1,3.965915E1,2.9027743E0,0E0,2.4753067E1,2.7146675E1,1.8192596E1,2.6696001E1,0E0,0E0,1.9308857E1,2.0495792E1,1.4987474E1,0E0,1.9154419E1,0E0,2.6541174E1,7.329769E-1,2.0879545E1,0E0,0E0,1.074342E1,1.1047562E1,0E0,3.0315392E1,9.333771E0,0E0,1.3335166E1,0E0,0E0,0E0,0E0,0E0,0E0,0E0,0E0,0E0,0E0,0E0,0E0,0E0,0E0],"parents":[2147483647,0,0,1,1,2,2,3,3,5,5,6,6,7,7,9,9,10,10,11,11,12,12,15,15,16,16,17,17,19,19,21,21,22,22,23,23,26,26,27,27,29,29,30,30,32,32],"right_children":[2,4,6,8,-1,10,12,14,-1,16,18,20,22,-1,-1,24,26,28,-1,30,-1,32,34,36,-1,-1,38,40,-1,42,44,-1,46,-1,-1,-1,-1,-1,-1,-1,-1,-1,-1,-1,-1,-1,-1],"split_conditions":[1.8800275E-2,2E0,4.5855588E-1,3.089863E-2,-5.3187948E-2,4.5532158E-1,-1.2053668E-1,2.251E0,-5.0535716E-2,1.2092744E0,3.2E1,2.454E0,5.7857144E-3,-6.220263E-3,3.8276203E-2,3.3461E1,9.6190476E-1,3.3771E1,-8.0782734E-2,2.249E0,-4.3979187E-2,4.676317E-1,-1.22E-1,2.217E0,-6.130779E-2,-6.155086E-2,-6.6E-2,2.4163054E-2,-5.126107E-2,9.095238E-1,2.465143E0,-6.989993E-2,-9.9270886E-1,1.6366038E-2,4.253584E-2,-5.0586365E-2,2.33586E-2,-4.7350835E-2,2.6087042E-2,9.1510685E-3,3.606703E-2,-9.287613E-2,1.785041E-2,3.7002277E-2,1.2185133E-2,3.2982696E-2,-3.7194826E-2],"split_indices":[36,32,15,38,0,14,25,12,0,30,9,7,5,0,0,13,10,13,0,7,0,14,34,7,0,0,34,22,0,10,12,0,26,0,0,0,0,0,0,0,0,0,0,0,0,0,0],"split_type":[0,0,0,0,0,0,0,0,0,0,0,0,0,0,0,0,0,0,0,0,0,0,0,0,0,0,0,0,0,0,0,0,0,0,0,0,0,0,0,0,0,0,0,0,0,0,0],"sum_hessian":[9.2687994E2,2.2454526E2,7.0233466E2,2.1702103E1,2.0284315E2,1.9218323E2,5.1015143E2,8.388404E0,1.3313698E1,8.5515854E1,1.0666737E2,4.6706805E2,4.3083363E1,3.3071203E0,5.0812836E0,4.5548683E1,3.996717E1,1.0306144E2,3.6059344E0,4.629149E2,4.1531672E0,2.9041628E1,1.4041736E1,3.94561E1,6.0925813E0,2.7932484E1,1.2034688E1,9.929985E1,3.7615852E0,4.498986E1,4.1792505E2,1.2987243E1,1.6054384E1,4.627005E0,9.41473E0,6.465574E0,3.299053E1,3.8926291E0,8.142059E0,5.3664925E1,4.563493E1,3.3637054E0,4.1626156E1,3.904914E2,2.743364E1,9.831185E0,6.223199E0],"tree_param":{"num_deleted":"0","num_feature":"43","num_nodes":"47","size_leaf_vector":"1"}},{"base_weights":[5.0641675E-2,-1.2279211E0,4.703255E-1,-5.1191837E-1,-5.2491922E-2,-8.917674E-2,7.121194E-1,7.307389E-1,-4.988029E-2,4.0487427E-1,-5.0342417E-1,8.2665634E-1,3.199678E-1,1.3157037E-2,3.7895527E-2,6.7861354E-1,-1.0217141E0,-2.9234689E-2,-1.2455082E0,8.688717E-1,1.8993935E-2,-8.659662E-2,4.88062E-1,8.595688E-1,-5.576195E-2,3.0225892E-2,-7.096731E-2,-5.37699E-2,4.9539104E-1,-1.5657126E0,2.9148854E-2,4.107559E-1,9.2851865E-1,6.476057E-1,-6.8056054E-2,8.708329E-1,-1.24015704E-1,1.4287972E-2,4.1601233E-2,3.3442017E-2,-5.4650806E-2,-7.289621E-2,-9.073776E-4,2.5264792E-2,-7.4043855E-2,3.8865082E-2,1.67554E-2,-1.5424075E-2,4.303543E-2,-2.2031667E-2,3.8033493E-2,2.1272723E-2,-7.3722824E-2],"categories":[],"categories_nodes":[],"categories_segments":[],"categories_sizes":[],"default_left":[0,0,0,0,0,0,0,0,0,0,0,0,0,0,0,0,0,0,0,0,0,0,0,0,0,0,0,0,0,0,0,0,0,0,0,0,0,0,0,0,0,0,0,0,0,0,0,0,0,0,0,0,0],"id":27,"left_children":[1,3,5,7,-1,9,11,13,-1,15,17,19,21,-1,-1,23,25,27,29,31,33,-1,35,37,-1,-1,-1,-1,39,41,-1,43,45,47,-1,49,51,-1,-1,-1,-1,-1,-1,-1,-1,-1,-1,-1,-1,-1,-1,-1,-1],"loss_changes":[4.9030206E2,1.2878998E1,9.315933E1,2.4236757E1,0E0,4.28615E1,2.1260742E1,5.0254726E-1,0E0,3.7988964E1,3.9966045E1,1.2594177E1,4.7065228E1,0E0,0E0,3.1474773E1,2.2458675E1,4.936957E1,2.9203636E1,9.187683E0,2.2156704E1,0E0,2.4556194E1,6.3534164E0,0E0,0E0,0E0,0E0,3.353775E1,1.5107384E1,0E0,2.234705E1,6.358795E0,7.104684E0,0E0,7.854595E0,4.7172264E1,0E0,0E0,0E0,0E0,0E0,0E0,0E0,0E0,0E0,0E0,0E0,0E0,0E0,0E0,0E0,0E0],"parents":[2147483647,0,0,1,1,2,2,3,3,5,5,6,6,7,7,9,9,10,10,11,11,12,12,15,15,16,16,17,17,18,18,19,19,20,20,22,22,23,23,28,28,29,29,31,31,32,32,33,33,35,35,36,36],"right_children":[2,4,6,8,-1,10,12,14,-1,16,18,20,22,-1,-1,24,26,28,30,32,34,-1,36,38,-1,-1,-1,-1,40,42,-1,44,46,48,-1,50,52,-1,-1,-1,-1,-1,-1,-1,-1,-1,-1,-1,-1,-1,-1,-1,-1],"split_conditions":[1.8800275E-2,2E0,1.0661504E0,3.089863E-2,-5.2491922E-2,2.211914E-2,3.3461E1,2.251E0,-4.988029E-2,3.3167E1,4.3549153E-1,5.7336792E-2,2.301E0,1.3157037E-2,3.7895527E-2,1.6E1,1.5704597E0,3.1228E1,2.9E1,2.25E0,4.6017677E-1,-8.659662E-2,1.1566531E-2,1.1130766E0,-5.576195E-2,3.0225892E-2,-7.096731E-2,-5.37699E-2,3.6344416E-2,3.1E1,2.9148854E-2,5.4159235E-2,3.354E-1,2.152759E0,-6.8056054E-2,1.4440777E0,2.846E-1,1.4287972E-2,4.1601233E-2,3.3442017E-2,-5.4650806E-2,-7.289621E-2,-9.073776E-4,2.5264792E-2,-7.4043855E-2,3.8865082E-2,1.67554E-2,-1.5424075E-2,4.303543E-2,-2.2031667E-2,3.8033493E-2,2.1272723E-2,-7.3722824E-2],"split_indices":[36,32,21,38,0,39,13,12,0,13,18,39,0,0,0,32,19,13,32,7,17,0,39,30,0,0,0,0,38,9,0,38,41,19,0,19,41,0,0,0,0,0,0,0,0,0,0,0,0,0,0,0,0],"split_type":[0,0,0,0,0,0,0,0,0,0,0,0,0,0,0,0,0,0,0,0,0,0,0,0,0,0,0,0,0,0,0,0,0,0,0,0,0,0,0,0,0,0,0,0,0,0,0,0,0,0,0,0,0],"sum_hessian":[9.1172754E2,2.248078E2,6.8691974E2,2.450699E1,2.0030081E2,2.0740851E2,4.7951126E2,9.085679E0,1.5421312E1,9.454802E1,1.128605E2,3.7016156E2,1.0934969E2,4.145736E0,4.939943E0,7.9795845E1,1.4752174E1,6.953476E1,4.3325733E1,3.5164392E2,1.8517635E1,6.156941E0,1.0319275E2,7.394907E1,5.8467703E0,4.3668423E0,1.0385332E1,1.9411478E1,5.0123283E1,3.747916E1,5.846572E0,4.151495E1,3.1012897E2,1.4040164E1,4.4774723E0,6.32792E1,3.991355E1,2.0404253E1,5.3544823E1,4.2858513E1,7.2647705E0,3.1950521E1,5.528639E0,3.8498528E1,3.0164225E0,2.8501572E2,2.5113256E1,4.109375E0,9.930789E0,3.0246015E0,6.0254597E1,2.9370144E1,1.0543407E1],"tree_param":{"num_deleted":"0","num_feature":"43","num_nodes":"53","size_leaf_vector":"1"}},{"base_weights":[7.61729E-2,-1.223595E0,4.832908E-1,-5.1842716E-2,-4.55086E-1,7.586892E-1,-2.6140684E-2,3.6632884E-2,-4.9241416E-2,8.5191303E-1,2.971489E-1,-7.698812E-1,4.5386985E-1,-5.0637133E-2,8.804106E-1,7.394112E-1,-8.2355535E-1,3.5047892E-1,-1.049497E0,-1.6834093E0,5.594617E-1,2.9854095E-1,9.306267E-1,-2.9961693E-1,9.107206E-1,-1.1155246E-1,1.3414693E-1,3.9317656E-2,-4.976728E-2,-1.7720902E0,-6.7349523E-1,-1.342568E-1,1.468366E-2,6.6181463E-1,-6.588525E-2,2.4081329E-2,-6.521719E-2,9.266489E-3,3.8560245E-2,3.34056E-2,-4.3629203E-2,4.368399E-2,6.1146957E-3,3.586109E-2,-2.9769823E-2,-8.077585E-2,-1.4874612E-2,7.0025166E-3,-4.9765527E-2,3.0892948E-2,-2.480733E-2],"categories":[],"categories_nodes":[],"categories_segments":[],"categories_sizes":[],"default_left":[0,0,0,0,0,0,0,0,0,0,0,0,0,0,0,0,0,0,0,0,0,0,0,0,0,0,0,0,0,0,0,0,0,0,0,0,0,0,0,0,0,0,0,0,0,0,0,0,0,0,0],"id":28,"left_children":[1,3,5,-1,7,9,11,-1,-1,13,15,17,19,-1,21,23,25,27,29,31,33,35,37,39,41,-1,43,-1,-1,45,47,-1,-1,49,-1,-1,-1,-1,-1,-1,-1,-1,-1,-1,-1,-1,-1,-1,-1,-1,-1],"loss_changes":[4.7167767E2,1.1164185E1,9.527794E1,0E0,2.2335917E1,1.8649017E1,8.571242E1,0E0,0E0,2.3183167E1,3.811197E1,2.9907867E1,3.380804E1,0E0,1.0230194E1,1.0061052E1,4.1638794E1,2.0902332E1,1.9240463E1,2.572134E1,3.261177E1,1.8662231E1,7.473053E0,8.527595E0,6.2794E0,0E0,1.1142133E1,0E0,0E0,7.868393E0,2.5171324E1,0E0,0E0,1.9516716E1,0E0,0E0,0E0,0E0,0E0,0E0,0E0,0E0,0E0,0E0,0E0,0E0,0E0,0E0,0E0,0E0,0E0],"parents":[2147483647,0,0,1,1,2,2,4,4,5,5,6,6,9,9,10,10,11,11,12,12,14,14,15,15,16,16,17,17,18,18,19,19,20,20,21,21,22,22,23,23,24,24,26,26,29,29,30,30,33,33],"right_children":[2,4,6,-1,8,10,12,-1,-1,14,16,18,20,-1,22,24,26,28,30,32,34,36,38,40,42,-1,44,-1,-1,46,48,-1,-1,50,-1,-1,-1,-1,-1,-1,-1,-1,-1,-1,-1,-1,-1,-1,-1,-1,-1],"split_conditions":[1.8800275E-2,2.254E0,1.6697794E-2,-5.1842716E-2,3.089863E-2,4E0,4.631149E-1,3.6632884E-2,-4.9241416E-2,7.870983E-3,2.706E-1,2.4021178E-2,1.7932307E-2,-5.0637133E-2,4.5605966E-1,1.343513E-2,3.07963E-3,2.7908392E-2,4.9389727E-2,1.627845E-2,3.306E-1,2.388E0,1.202536E0,-1.9E-2,1.0520161E-1,-1.1155246E-1,-6.5E-2,3.9317656E-2,-4.976728E-2,2.383E0,1.1049587E0,-1.342568E-1,1.468366E-2,7.980922E-2,-6.588525E-2,2.4081329E-2,-6.521719E-2,9.266489E-3,3.8560245E-2,3.34056E-2,-4.3629203E-2,4.368399E-2,6.1146957E-3,3.586109E-2,-2.9769823E-2,-8.077585E-2,-1.4874612E-2,7.0025166E-3,-4.9765527E-2,3.0892948E-2,-2.480733E-2],"split_indices":[36,0,39,0,38,33,14,0,0,4,41,38,39,0,15,39,31,39,39,16,41,7,19,2,35,0,34,0,0,8,30,0,0,39,0,0,0,0,0,0,0,0,0,0,0,0,0,0,0,0,0],"split_type":[0,0,0,0,0,0,0,0,0,0,0,0,0,0,0,0,0,0,0,0,0,0,0,0,0,0,0,0,0,0,0,0,0,0,0,0,0,0,0,0,0,0,0,0,0,0,0,0,0,0,0],"sum_hessian":[8.8932513E2,2.1160977E2,6.777154E2,1.926872E2,1.8922573E1,4.3964978E2,2.3806558E2,6.750838E0,1.2171735E1,3.6497626E2,7.4673546E1,9.318408E1,1.448815E2,4.246071E0,3.6073016E2,5.3819614E1,2.0853931E1,1.8525236E1,7.4658844E1,6.0950856E0,1.3878642E2,2.9289091E1,3.3144107E2,7.470229E0,4.634939E1,6.2234025E0,1.4630529E1,1.3561525E1,4.963711E0,2.4236206E1,5.042264E1,3.0192091E0,3.0758767E0,1.3332487E2,5.4615474E0,2.5924164E1,3.3649278E0,1.5536909E1,3.1590417E2,3.0198143E0,4.450415E0,3.6989548E1,9.359839E0,7.8519173E0,6.7786117E0,2.0192013E1,4.044192E0,2.0517815E1,2.9904827E1,1.2314616E2,1.0178714E1],"tree_param":{"num_deleted":"0","num_feature":"43","num_nodes":"51","size_leaf_vector":"1"}},{"base_weights":[5.3986527E-2,-1.1195259E0,5.1121336E-1,-1.1821965E0,4.1543773E-1,6.7083347E-1,-1.745299E-1,-6.363042E-1,-1.2814376E0,-2.4931664E-2,4.055808E-2,7.0903057E-1,-6.550789E-1,-5.6183225E-1,7.528581E-1,-4.9735297E-2,2.0709534E-1,-2.0576026E-3,-5.216032E-2,8.409577E-1,4.6549192E-1,-8.563275E-2,4.9589732E-1,3.0162594E-1,-8.7543935E-1,-4.685789E-2,4.0844902E-2,3.4932118E-2,-6.1267756E-2,8.590898E-1,-6.345421E-4,-5.9486955E-2,7.2411126E-1,3.701378E-2,-6.3559455E-3,-5.282355E-2,8.9054E-1,-1.0595485E0,3.8264163E-2,1.0046818E-2,3.5352357E-2,2.0514943E-2,-9.5422216E-2,-5.548499E-2,3.2604E-2,1.4154023E-3,4.504006E-2,2.0581633E-2,-5.070648E-2],"categories":[],"categories_nodes":[],"categories_segments":[],"categories_sizes":[],"default_left":[0,0,0,0,0,0,0,0,0,0,0,0,0,0,0,0,0,0,0,0,0,0,0,0,0,0,0,0,0,0,0,0,0,0,0,0,0,0,0,0,0,0,0,0,0,0,0,0,0],"id":29,"left_children":[1,3,5,7,9,11,13,15,17,-1,-1,19,21,23,25,-1,27,-1,-1,29,31,-1,33,35,37,-1,-1,-1,-1,39,-1,41,43,-1,-1,-1,45,47,-1,-1,-1,-1,-1,-1,-1,-1,-1,-1,-1],"loss_changes":[4.6647003E2,2.3977783E1,6.8619675E1,1.179187E1,7.036583E0,2.618251E1,4.3105595E1,1.983451E1,5.343872E0,0E0,0E0,1.541658E1,2.628295E1,2.316207E1,1.9465572E1,0E0,2.0746536E1,0E0,0E0,5.01297E0,2.396703E1,0E0,2.737693E0,2.332119E1,2.2016197E1,0E0,0E0,0E0,0E0,4.4179077E0,0E0,7.978145E1,2.3775295E1,0E0,0E0,0E0,3.454566E0,1.9384453E1,0E0,0E0,0E0,0E0,0E0,0E0,0E0,0E0,0E0,0E0,0E0],"parents":[2147483647,0,0,1,1,2,2,3,3,4,4,5,5,6,6,7,7,8,8,11,11,12,12,13,13,14,14,16,16,19,19,20,20,22,22,23,23,24,24,29,29,31,31,32,32,36,36,37,37],"right_children":[2,4,6,8,10,12,14,16,18,-1,-1,20,22,24,26,-1,28,-1,-1,30,32,-1,34,36,38,-1,-1,-1,-1,40,-1,42,44,-1,-1,-1,46,48,-1,-1,-1,-1,-1,-1,-1,-1,-1,-1,-1],"split_conditions":[4.394956E-1,1.0997478E0,2.8527062E-2,3.0419292E-2,-7.472893E-1,9E0,5.5714287E-3,2.245E0,-3.5343142E0,-2.4931664E-2,4.055808E-2,1E0,-5.0714286E-3,2.4E-1,2.216E0,-4.9735297E-2,3.3555394E-1,-2.0576026E-3,-5.216032E-2,1.326481E0,2.305E0,-8.563275E-2,3.7538268E-2,4.6188864E-1,4.840024E0,-4.685789E-2,4.0844902E-2,3.4932118E-2,-6.1267756E-2,4.4932857E-1,-6.345421E-4,2.3781428E0,4.5673475E-1,3.701378E-2,-6.3559455E-3,-5.282355E-2,-8.8E-2,1.0986775E1,3.8264163E-2,1.0046818E-2,3.5352357E-2,2.0514943E-2,-9.5422216E-2,-5.548499E-2,3.2604E-2,1.4154023E-3,4.504006E-2,2.0581633E-2,-5.070648E-2],"split_indices":[14,21,39,38,35,33,5,1,20,0,0,33,5,41,8,0,17,0,0,35,8,0,38,14,20,0,0,0,0,14,0,12,15,0,0,0,34,13,0,0,0,0,0,0,0,0,0,0,0],"split_type":[0,0,0,0,0,0,0,0,0,0,0,0,0,0,0,0,0,0,0,0,0,0,0,0,0,0,0,0,0,0,0,0,0,0,0,0,0,0,0,0,0,0,0,0,0,0,0,0,0],"sum_hessian":[8.673593E2,2.4275351E2,6.2460583E2,2.334831E2,9.27042E0,5.067456E2,1.1786022E2,3.7134445E1,1.9634865E2,3.3432417E0,5.927178E0,4.9304483E2,1.3700774E1,8.345517E1,3.440505E1,2.1351028E1,1.5783418E1,3.6370647E0,1.9271158E2,3.1807974E2,1.7496507E2,5.6242013E0,8.076572E0,2.2202772E1,6.12524E1,3.7747805E0,3.0630268E1,1.1791918E1,3.9915006E0,3.1154257E2,6.537169E0,5.793592E1,1.1702916E2,4.67419E0,3.4023826E0,5.559988E0,1.6642784E1,5.6066963E1,5.1854362E0,1.2688045E1,2.9885452E2,4.710349E1,1.0832434E1,4.2240014E0,1.1280516E2,3.8873255E0,1.2755459E1,6.347127E0,4.9719833E1],"tree_param":{"num_deleted":"0","num_feature":"43","num_nodes":"49","size_leaf_vector":"1"}},{"base_weights":[8.8714264E-2,-8.9885354E-1,5.9489053E-1,-2.764544E-1,-1.2569559E0,2.0092167E-1,7.5558245E-1,1.9952215E-1,-1.1189842E0,-5.1169485E-2,1.543913E-3,4.9737635E-1,-5.136432E-1,-7.239254E-2,7.8252316E-1,-4.856994E-2,5.545254E-1,-5.4657917E-2,1.2088481E-2,6.7033094E-1,-1.0586257E0,-1.6205392E0,7.7196635E-2,8.434853E-1,2.5515676E-1,8.714256E-1,-5.74065E-1,-8.524549E-2,7.717759E-1,-0E0,-8.07911E-2,-7.0367646E-3,-7.687686E-2,4.4531906E-1,-5.991819E-2,-3.6623713E-2,8.622273E-1,-4.3335637E-1,4.1672457E-2,4.1539438E-2,3.3066485E-3,-7.967227E-2,3.8356714E-2,3.5469934E-2,-1.3354307E-2,3.9289434E-2,-5.9876256E-3,-5.3710425E-3,3.5532054E-2,3.3615503E-2,-1.3117367E-1],"categories":[],"categories_nodes":[],"categories_segments":[],"categories_sizes":[],"default_left":[0,0,0,0,0,0,0,0,0,0,0,0,0,0,0,0,0,0,0,0,0,0,0,0,0,0,0,0,0,0,0,0,0,0,0,0,0,0,0,0,0,0,0,0,0,0,0,0,0,0,0],"id":30,"left_children":[1,3,5,7,9,11,13,15,17,-1,-1,19,21,-1,23,-1,25,-1,-1,27,29,31,33,35,37,39,41,-1,43,-1,-1,-1,-1,45,-1,-1,47,49,-1,-1,-1,-1,-1,-1,-1,-1,-1,-1,-1,-1,-1],"loss_changes":[4.3724686E2,6.5641846E1,3.640747E1,4.4217976E1,5.533325E0,3.6049896E1,2.9719849E1,3.6194393E1,1.4446484E1,0E0,0E0,3.298052E1,3.2895805E1,0E0,1.2805634E1,0E0,2.1021608E1,0E0,0E0,3.2447273E1,1.2528352E1,7.1641655E0,2.0049744E1,1.2789246E1,2.4130566E1,5.8138924E0,3.0516268E1,0E0,1.3744724E1,0E0,0E0,0E0,0E0,9.122669E0,0E0,0E0,9.530609E0,8.9720055E1,0E0,0E0,0E0,0E0,0E0,0E0,0E0,0E0,0E0,0E0,0E0,0E0,0E0],"parents":[2147483647,0,0,1,1,2,2,3,3,4,4,5,5,6,6,7,7,8,8,11,11,12,12,14,14,16,16,19,19,20,20,21,21,22,22,23,23,24,24,25,25,26,26,28,28,33,33,36,36,37,37],"right_children":[2,4,6,8,10,12,14,16,18,-1,-1,20,22,-1,24,-1,26,-1,-1,28,30,32,34,36,38,40,42,-1,44,-1,-1,-1,-1,46,-1,-1,48,50,-1,-1,-1,-1,-1,-1,-1,-1,-1,-1,-1,-1,-1],"split_conditions":[4.4708547E-1,1.3E1,1.081442E0,3.7412733E-2,8.2857144E-1,2.4113571E-2,-8.357143E-3,3.1171E1,4.7304323E-1,-5.1169485E-2,1.543913E-3,2.3561428E0,6.757718E-2,-7.239254E-2,6.905976E-2,-4.856994E-2,4.5657456E-1,-5.4657917E-2,1.2088481E-2,7.6531973E-3,7.309524E-1,2.2609446E-2,2.244E0,9E-3,1.2E-2,1.1531382E0,7.485108E-1,-8.524549E-2,1E0,-0E0,-8.07911E-2,-7.0367646E-3,-7.687686E-2,7.74827E-2,-5.991819E-2,-3.6623713E-2,4.5673475E-1,1.33E-1,4.1672457E-2,4.1539438E-2,3.3066485E-3,-7.967227E-2,3.8356714E-2,3.5469934E-2,-1.3354307E-2,3.9289434E-2,-5.9876256E-3,-5.3710425E-3,3.5532054E-2,3.3615503E-2,-1.3117367E-1],"split_indices":[29,32,21,38,10,39,5,13,17,0,0,12,39,0,38,0,18,0,0,4,10,38,8,11,34,30,26,0,42,0,0,0,0,39,0,0,29,11,0,0,0,0,0,0,0,0,0,0,0,0,0],"split_type":[0,0,0,0,0,0,0,0,0,0,0,0,0,0,0,0,0,0,0,0,0,0,0,0,0,0,0,0,0,0,0,0,0,0,0,0,0,0,0,0,0,0,0,0,0,0,0,0,0,0,0],"sum_hessian":[8.726584E2,2.9541626E2,5.772421E2,1.0859118E2,1.8682509E2,1.6797607E2,4.0926605E2,6.9839874E1,3.875131E1,1.8371666E2,3.1084275E0,1.1898582E2,4.899025E1,3.5462406E0,4.057198E2,1.3503215E1,5.633666E1,3.306723E1,5.684078E0,1.0762436E2,1.1361462E1,1.6472347E1,3.2517902E1,3.6305713E2,4.266267E1,4.4198265E1,1.2138394E1,3.0446162E0,1.0457974E2,5.8945694E0,5.4668922E0,3.1453412E0,1.3327005E1,2.6965038E1,5.5528646E0,3.2948039E0,3.5976233E2,2.2956093E1,1.970658E1,3.6159607E1,8.038655E0,6.1676803E0,5.9707136E0,9.4949356E1,9.630382E0,1.3876549E1,1.30884905E1,9.018627E0,3.5074368E2,1.6333185E1,6.6229076E0],"tree_param":{"num_deleted":"0","num_feature":"43","num_nodes":"51","size_leaf_vector":"1"}},{"base_weights":[8.325895E-2,-1.111106E0,4.8829818E-1,-6.067085E-1,-1.2353953E0,6.4495933E-1,-2.4855688E-1,1.6247438E-1,-9.8282933E-1,-5.039456E-2,1.7639957E-3,7.32757E-1,8.07735E-2,-5.8440346E-1,7.176192E-1,3.331572E-2,-4.8932806E-2,-5.0988138E-2,1.6889324E-2,-5.830613E-2,7.524169E-1,4.9571475E-1,-7.75918E-1,5.838148E-2,-1.1212192E0,-4.4085216E-2,1.0026735E0,8.2006305E-1,4.69127E-1,-4.604092E-2,7.085784E-1,-1.8006399E0,1.8066724E-1,3.2617146E-1,-4.747702E-2,-1.3068684E0,8.555895E-3,4.3601736E-2,1.7949747E-2,1.8696422E-2,3.6738865E-2,-7.3513485E-2,2.3567602E-2,-7.0146834E-3,4.145564E-2,-1.0340324E-1,-3.362321E-2,-1.44912535E-2,3.752916E-2,-4.417873E-2,2.4821548E-2,-6.0411472E-2,1.2212024E-3],"categories":[],"categories_nodes":[],"categories_segments":[],"categories_sizes":[],"default_left":[0,0,0,0,0,0,0,0,0,0,0,0,0,0,0,0,0,0,0,0,0,0,0,0,0,0,0,0,0,0,0,0,0,0,0,0,0,0,0,0,0,0,0,0,0,0,0,0,0,0,0,0,0],"id":31,"left_children":[1,3,5,7,9,11,13,15,17,-1,-1,19,21,23,25,-1,-1,-1,-1,-1,27,29,31,33,35,-1,37,39,41,-1,43,45,47,49,-1,51,-1,-1,-1,-1,-1,-1,-1,-1,-1,-1,-1,-1,-1,-1,-1,-1,-1],"loss_changes":[4.1148532E2,1.2662872E1,7.3496155E1,1.3112696E1,5.4944153E0,2.5860886E1,3.676243E1,1.5373282E1,1.2949322E1,0E0,0E0,2.0583023E1,2.58856E1,2.9005543E1,1.6301758E1,0E0,0E0,0E0,0E0,0E0,8.173828E0,1.7971256E1,2.3708138E1,1.3351854E1,1.1664124E1,0E0,6.866245E-1,1.2055801E1,2.5731323E1,0E0,1.2986633E1,6.3869476E0,5.7891097E0,1.452495E1,0E0,1.1084808E1,0E0,0E0,0E0,0E0,0E0,0E0,0E0,0E0,0E0,0E0,0E0,0E0,0E0,0E0,0E0,0E0,0E0],"parents":[2147483647,0,0,1,1,2,2,3,3,4,4,5,5,6,6,7,7,8,8,11,11,12,12,13,13,14,14,20,20,21,21,22,22,23,23,24,24,26,26,27,27,28,28,30,30,31,31,32,32,33,33,35,35],"right_children":[2,4,6,8,10,12,14,16,18,-1,-1,20,22,24,26,-1,-1,-1,-1,-1,28,30,32,34,36,-1,38,40,42,-1,44,46,48,50,-1,52,-1,-1,-1,-1,-1,-1,-1,-1,-1,-1,-1,-1,-1,-1,-1,-1,-1],"split_conditions":[4.339891E-1,5E0,3.0565687E-2,3.0419292E-2,8.214286E-1,5E0,5.5714287E-3,3.5876694E-1,1.0997478E0,-5.039456E-2,1.7639957E-3,4.3913484E-1,2.879E-1,-6.75882E-3,2.23E0,3.331572E-2,-4.8932806E-2,-5.0988138E-2,1.6889324E-2,-5.830613E-2,4.714784E-1,1.2158888E-2,5.36017E-3,8.8715754E-2,4.7605115E-1,-4.4085216E-2,7.980922E-2,4.6027172E-1,2.285E0,-4.604092E-2,2.616E-1,4E0,6E1,-3.370609E-2,-4.747702E-2,2.5E-2,8.555895E-3,4.3601736E-2,1.7949747E-2,1.8696422E-2,3.6738865E-2,-7.3513485E-2,2.3567602E-2,-7.0146834E-3,4.145564E-2,-1.0340324E-1,-3.362321E-2,-1.44912535E-2,3.752916E-2,-4.417873E-2,2.4821548E-2,-6.0411472E-2,1.2212024E-3],"split_indices":[14,32,39,38,10,33,5,17,21,0,0,15,41,31,6,0,0,0,0,0,29,39,31,39,14,0,39,15,28,0,41,32,9,31,0,3,0,0,0,0,0,0,0,0,0,0,0,0,0,0,0,0,0],"split_type":[0,0,0,0,0,0,0,0,0,0,0,0,0,0,0,0,0,0,0,0,0,0,0,0,0,0,0,0,0,0,0,0,0,0,0,0,0,0,0,0,0,0,0,0,0,0,0,0,0,0,0,0,0],"sum_hessian":[8.4853265E2,2.1441292E2,6.3411975E2,4.3630966E1,1.7078195E2,5.2309766E2,1.11022095E2,1.4471412E1,2.9159555E1,1.6763065E2,3.1513066E0,4.5232083E2,7.07768E1,8.271643E1,2.8305668E1,1.0046286E1,4.425126E0,2.4250378E1,4.909178E0,3.3503988E0,4.4897046E2,4.8005104E1,2.2771698E1,3.8006004E1,4.4710423E1,3.4214954E0,2.4884172E1,3.6075528E2,8.821517E1,4.9636345E0,4.304147E1,1.059352E1,1.2178178E1,3.1920149E1,6.085857E0,3.93038E1,5.406625E0,2.0580032E1,4.3041396E0,8.007175E1,2.8068353E2,3.635562E0,8.4579605E1,1.1728399E1,3.131307E1,4.86981E0,5.72371E0,7.3594203E0,4.818758E0,4.94847E0,2.6971678E1,3.403516E1,5.2686367E0],"tree_param":{"num_deleted":"0","num_feature":"43","num_nodes":"53","size_leaf_vector":"1"}},{"base_weights":[5.5474125E-2,-1.0968573E0,4.6207792E-1,-4.0973228E-1,-1.2362655E0,1.0641559E-1,6.9579905E-1,-4.8851013E-2,2.4880357E-1,-5.024672E-2,-6.651996E-3,2.3193222E-1,-1.2256877E0,7.724377E-1,-4.6311587E-2,8.196199E-1,-4.609124E-2,-1.1918353E-1,4.9465337E-1,-7.732355E-3,-5.5702895E-2,3.7600407E-1,8.3279383E-1,-8.246885E-2,5.2669865E-1,7.428997E-3,4.1244037E-2,6.708438E-1,-4.0934765E-1,-5.862948E-1,6.562436E-1,-6.954661E-2,5.754668E-1,8.817542E-1,2.37815E-1,-3.4458574E-2,9.22871E-1,3.5233207E-2,-1.8024681E-2,1.4418211E-2,-3.646626E-2,-6.1390664E-2,3.2074656E-2,2.9855844E-2,-2.1719715E-2,3.0302323E-2,-3.5136502E-2,3.6074545E-2,-1.0191502E-2,3.628519E-2,-1.1207256E-1,5.9007667E-3,4.2993296E-2],"categories":[],"categories_nodes":[],"categories_segments":[],"categories_sizes":[],"default_left":[0,0,0,0,0,0,0,0,0,0,0,0,0,0,0,0,0,0,0,0,0,0,0,0,0,0,0,0,0,0,0,0,0,0,0,0,0,0,0,0,0,0,0,0,0,0,0,0,0,0,0,0,0],"id":32,"left_children":[1,3,5,7,9,11,13,-1,15,-1,-1,17,19,21,23,25,-1,27,29,-1,-1,31,33,-1,35,-1,-1,37,39,41,43,-1,45,47,49,-1,51,-1,-1,-1,-1,-1,-1,-1,-1,-1,-1,-1,-1,-1,-1,-1,-1],"loss_changes":[3.802472E2,1.9687271E1,4.9750443E1,