{"learner":{"attributes":{"best_iteration":"41","best_score":"0.5114972395110062","scikit_learn":"{\"_estimator_type\": \"classifier\"}"},"feature_names":["max_waterlevel_6h","max_waterlevel_24h","waterlevel_slope_3h","waterlevel_slope_6h","waterlevel_std_24h","waterlevel_rise_rate_48h","waterlevel_lag_1d","waterlevel_lag_2d","waterlevel_lag_3d","waterlevel_days_above_threshold","waterlevel_pct_rank_30d","waterlevel_distance_to_max","waterlevel_mean_7d","waterlevel_cumrise_14d","sensor_soilmoisture_mean_6h","sensor_soilmoisture_mean_24h","sensor_soilmoisture_trend_6h","soilmoisture_lag_1d","soilmoisture_lag_2d","humidity_mean_24h","humidity_trend_6h","waterlevel_x_soilmoisture","humidity_x_waterlevel_slope","season_sin","season_cos","week_sin","week_cos","is_monsoon_season","waterlevel_monsoon","soilmoisture_monsoon","humidity_x_soilmoisture","soilmoisture_trend_3d","days_since_flood_level","waterlevel_falling_streak","post_flood_decay_7d","humidity_anomaly_vs_30d","soilmoist_anomaly_vs_30d","late_season_wet_flag","waterlevel_7d_std","soilmoist_7d_std","soil_saturation","wetness_trend"],"feature_types":["float","float","float","float","float","float","float","float","float","int","float","float","float","float","float","float","float","float","float","float","float","float","float","float","float","float","float","float","float","float","float","float","int","int","float","float","float","int","float","float","float","float"],"gradient_booster":{"model":{"cats":{"enc":[],"feature_segments":[],"sorted_idx":[]},"gbtree_model_param":{"num_parallel_tree":"1","num_trees":"72"},"iteration_indptr":[0,1,2,3,4,5,6,7,8,9,10,11,12,13,14,15,16,17,18,19,20,21,22,23,24,25,26,27,28,29,30,31,32,33,34,35,36,37,38,39,40,41,42,43,44,45,46,47,48,49,50,51,52,53,54,55,56,57,58,59,60,61,62,63,64,65,66,67,68,69,70,71,72],"tree_info":[0,0,0,0,0,0,0,0,0,0,0,0,0,0,0,0,0,0,0,0,0,0,0,0,0,0,0,0,0,0,0,0,0,0,0,0,0,0,0,0,0,0,0,0,0,0,0,0,0,0,0,0,0,0,0,0,0,0,0,0,0,0,0,0,0,0,0,0,0,0,0,0],"trees":[{"base_weights":[9.447955E-2,-2.7948596E0,9.065398E-1,-3.510206E0,-6.5833455E-1,-9.97377E-2,1.1183541E0,-1.4301722E-1,-1.1004182E-2,9.957253E-1,-1.3866574E-1,1.277844E-1,-1.3215391E-1,1.1582332E0,-1.3281176E0,1.1539319E0,-1.5582307E-2,3.450172E-1,-1.3023429E-1,1.1737382E0,-9.388445E-1,-1.2679623E-1,4.1953947E-2,5.108291E-2,-7.9052587E-4,4.6592626E-1,-1.1948012E-1,4.2273107E-1,1.2099054E0,4.1123994E-2,-1.073731E-1,-1.1948012E-1,2.3779908E-2,-1.202609E-1,3.9726146E-2,4.9643505E-2,3.203101E-2],"categories":[],"categories_nodes":[],"categories_segments":[],"categories_sizes":[],"default_left":[0,0,0,0,0,0,0,0,0,0,0,0,0,0,0,0,0,0,0,0,0,0,0,0,0,0,0,0,0,0,0,0,0,0,0,0,0],"id":0,"left_children":[1,3,5,7,9,11,13,-1,-1,15,-1,17,-1,19,21,23,-1,25,-1,27,29,-1,-1,-1,-1,31,-1,33,35,-1,-1,-1,-1,-1,-1,-1,-1],"loss_changes":[3.2700518E3,4.648059E2,2.3203864E2,4.710742E1,3.6564267E2,1.3912842E2,8.92229E1,0E0,0E0,1.1406212E1,0E0,1.3210664E2,0E0,2.9888794E1,6.849606E1,6.591629E0,0E0,6.917093E1,0E0,2.3280762E1,2.6968462E1,0E0,0E0,0E0,0E0,7.425524E1,0E0,8.501162E1,9.59436E0,0E0,0E0,0E0,0E0,0E0,0E0,0E0,0E0],"parents":[2147483647,0,0,1,1,2,2,3,3,4,4,5,5,6,6,9,9,11,11,13,13,14,14,15,15,17,17,19,19,20,20,25,25,27,27,28,28],"right_children":[2,4,6,8,10,12,14,-1,-1,16,-1,18,-1,20,22,24,-1,26,-1,28,30,-1,-1,-1,-1,32,-1,34,36,-1,-1,-1,-1,-1,-1,-1,-1],"split_conditions":[2.18E0,2.236E0,4.5878136E-1,4.7416717E-1,3.5822764E-2,3.3771E1,6.4324905E-16,-1.4301722E-1,-1.1004182E-2,1.514736E-2,-1.3866574E-1,1.3E1,-1.3215391E-1,7.9640366E-2,4.7377908E-1,3.2778E1,-1.5582307E-2,3.2E1,-1.3023429E-1,3.1774E1,2.279E0,-1.2679623E-1,4.1953947E-2,5.108291E-2,-7.9052587E-4,3.1171E1,-1.1948012E-1,-2.4201846E-1,2.437E0,4.1123994E-2,-1.073731E-1,-1.1948012E-1,2.3779908E-2,-1.202609E-1,3.9726146E-2,4.9643505E-2,3.203101E-2],"split_indices":[28,0,29,14,38,13,25,0,0,31,0,32,0,38,14,13,0,9,0,13,6,0,0,0,0,13,0,35,12,0,0,0,0,0,0,0,0],"split_type":[0,0,0,0,0,0,0,0,0,0,0,0,0,0,0,0,0,0,0,0,0,0,0,0,0,0,0,0,0,0,0,0,0,0,0,0,0],"sum_hessian":[1.3916556E3,3.0477E2,1.0868856E3,2.278241E2,7.6945885E1,1.890498E2,8.978359E2,2.2320332E2,4.620771E0,4.881945E1,2.8126432E1,1.7739742E2,1.1652379E1,8.839736E2,1.3862313E1,4.3997776E1,4.821674E0,1.6755318E2,9.844252E0,8.779465E2,6.0270925E0,7.6343174E0,6.2279954E0,3.977881E1,4.2189646E0,1.625306E2,5.0225773E0,4.098423E1,8.369622E2,3.0135462E0,3.0135462E0,5.0225773E0,1.5750801E2,5.22348E0,3.576075E1,7.756868E2,6.127544E1],"tree_param":{"num_deleted":"0","num_feature":"42","num_nodes":"37","size_leaf_vector":"1"}},{"base_weights":[8.907206E-2,-2.8541107E0,8.3743614E-1,-1.319602E0,-3.1766956E0,-2.6805515E0,9.398355E-1,-1.2381797E-1,-6.685158E-2,-1.2961541E-1,-2.5687067E-2,1.4279975E-2,-1.2581803E-1,9.786461E-1,-1.1936487E-1,6.789187E-1,-1.1598152E-1,3.625117E-1,1.1079826E0,1.1404767E0,-2.9952228E-2,5.275348E-1,-1.1610373E-1,-1.4796406E0,1.1340259E0,1.6029349E-2,5.114667E-2,2.4832608E-2,-1.0634378E-1,3.1348992E-2,-1.1213951E-1,4.5937743E-2,-3.297829E-2],"categories":[],"categories_nodes":[],"categories_segments":[],"categories_sizes":[],"default_left":[0,0,0,0,0,0,0,0,0,0,0,0,0,0,0,0,0,0,0,0,0,0,0,0,0,0,0,0,0,0,0,0,0],"id":1,"left_children":[1,3,5,7,9,11,13,-1,15,-1,-1,-1,-1,17,-1,19,-1,21,23,25,-1,27,-1,29,31,-1,-1,-1,-1,-1,-1,-1,-1],"loss_changes":[3.0417522E3,1.3416772E2,3.9905493E2,1.11689186E2,3.494873E1,4.558493E1,1.6586469E2,0E0,6.666516E1,0E0,0E0,0E0,0E0,8.406586E1,0E0,1.7346294E1,0E0,1.0142464E2,6.0713257E1,1.3779259E0,0E0,5.4315624E1,0E0,2.970341E1,2.5476196E1,0E0,0E0,0E0,0E0,0E0,0E0,0E0,0E0],"parents":[2147483647,0,0,1,1,2,2,3,3,4,4,5,5,6,6,8,8,13,13,15,15,17,17,18,18,19,19,21,21,23,23,24,24],"right_children":[2,4,6,8,10,12,14,-1,16,-1,-1,-1,-1,18,-1,20,-1,22,24,26,-1,28,-1,30,32,-1,-1,-1,-1,-1,-1,-1,-1],"split_conditions":[4.339891E-1,-5.6806475E-1,3.1215E1,2.226E0,2.418E0,-9.9270886E-1,1.9E1,-1.2381797E-1,2.2545714E0,-1.2961541E-1,-2.5687067E-2,1.4279975E-2,-1.2581803E-1,4.5842227E-1,-1.1936487E-1,3.0419292E-2,-1.1598152E-1,3.3771E1,2.248E0,1.7375408E-2,-2.9952228E-2,3.2E1,-1.1610373E-1,2.21E0,8.278326E-2,1.6029349E-2,5.114667E-2,2.4832608E-2,-1.0634378E-1,3.1348992E-2,-1.1213951E-1,4.5937743E-2,-3.297829E-2],"split_indices":[14,26,13,0,1,26,32,0,12,0,0,0,0,29,0,38,0,13,1,4,0,9,0,8,38,0,0,0,0,0,0,0,0],"split_type":[0,0,0,0,0,0,0,0,0,0,0,0,0,0,0,0,0,0,0,0,0,0,0,0,0,0,0,0,0,0,0,0,0],"sum_hessian":[1.3789607E3,2.7896405E2,1.0999967E3,4.936839E1,2.2959566E2,3.0386475E1,1.0696102E3,1.9795816E1,2.957257E1,2.2367665E2,5.919005E0,4.0498943E0,2.633658E1,1.0598905E3,9.719706E0,2.3997381E1,5.57519E0,1.8461409E2,8.7527637E2,1.8313246E1,5.6841345E0,1.76545E2,8.069091E0,8.146213E0,8.671302E2,3.5533848E0,1.4759861E1,1.723208E2,4.224201E0,3.142959E0,5.003253E0,8.6122925E2,5.9009066E0],"tree_param":{"num_deleted":"0","num_feature":"42","num_nodes":"33","size_leaf_vector":"1"}},{"base_weights":[1.1690211E-1,-2.7806482E0,7.913962E-1,-1.1774998E0,-1.18754566E-1,9.0219814E-1,-2.1574674E0,-1.1221884E-1,4.4819778E-1,9.483282E-2,1.0954664E0,-1.2508275E-1,-3.1742766E-1,4.446853E-2,-2.436369E-2,3.051607E-1,-1.1306911E-1,-7.9857126E-2,1.1253479E0,5.992829E-1,-1.0570013E-1,5.41093E-1,-1.6126674E0,8.049289E-1,-1.1285602E-1,1.1401365E0,-3.553965E-2,-1.0081672E-2,4.791952E-2,-1.035577E-1,2.7007047E-2,-1.145863E-1,4.9462166E-2,-1.0603633E-2,4.81194E-2,4.73302E-2,3.0453438E-2],"categories":[],"categories_nodes":[],"categories_segments":[],"categories_sizes":[],"default_left":[0,0,0,0,0,0,0,0,0,0,0,0,0,0,0,0,0,0,0,0,0,0,0,0,0,0,0,0,0,0,0,0,0,0,0,0,0],"id":2,"left_children":[1,3,5,7,-1,9,11,-1,13,15,17,-1,19,-1,-1,21,-1,23,25,27,-1,29,31,33,-1,35,-1,-1,-1,-1,-1,-1,-1,-1,-1,-1,-1],"loss_changes":[2.7105786E3,7.531958E1,3.6945215E2,7.866043E1,0E0,1.691286E2,7.201459E1,0E0,1.1546478E1,1.302065E2,3.0881104E1,0E0,3.426627E1,0E0,0E0,9.016763E1,0E0,5.7174732E1,2.6448853E1,6.344758E0,0E0,7.5771286E1,8.159987E1,7.966325E0,0E0,1.285083E1,0E0,0E0,0E0,0E0,0E0,0E0,0E0,0E0,0E0,0E0,0E0],"parents":[2147483647,0,0,1,1,2,2,3,3,5,5,6,6,8,8,9,9,10,10,12,12,15,15,17,17,18,18,19,19,21,21,22,22,23,23,25,25],"right_children":[2,4,6,8,-1,10,12,-1,14,16,18,-1,20,-1,-1,22,-1,24,26,28,-1,30,32,34,-1,36,-1,-1,-1,-1,-1,-1,-1,-1,-1,-1,-1],"split_conditions":[2.1108361E-2,-5.6806475E-1,7.980922E-2,2.228E0,-1.18754566E-1,4.5775214E-1,2.5230367E-2,-1.1221884E-1,2.219E0,3.3755E1,2.221E0,-1.2508275E-1,4.401258E-1,4.446853E-2,-2.436369E-2,1.3E1,-1.1306911E-1,9.0311825E-2,2.454E0,8.548001E-2,-1.0570013E-1,3.1215E1,1.8119413E0,2.547619E-1,-1.1285602E-1,6.905976E-2,-3.553965E-2,-1.0081672E-2,4.791952E-2,-1.035577E-1,2.7007047E-2,-1.145863E-1,4.9462166E-2,-1.0603633E-2,4.81194E-2,4.73302E-2,3.0453438E-2],"split_indices":[36,26,39,7,0,29,4,0,6,13,28,0,17,0,0,32,0,36,7,39,0,13,11,10,0,38,0,0,0,0,0,0,0,0,0,0,0],"split_type":[0,0,0,0,0,0,0,0,0,0,0,0,0,0,0,0,0,0,0,0,0,0,0,0,0,0,0,0,0,0,0,0,0,0,0,0,0],"sum_hessian":[1.3848496E3,2.608917E2,1.1239579E3,2.8201796E1,2.326899E2,1.0839404E3,4.0017445E1,1.3743812E1,1.4457984E1,2.0969649E2,8.7424396E2,2.5731636E1,1.42858095E1,8.880643E0,5.577341E0,1.964653E2,1.3231192E1,2.15928E1,8.526511E2,1.0763011E1,3.522799E0,1.7560608E2,2.085922E1,1.6844639E1,4.7481604E0,8.468907E2,5.7604585E0,4.6485476E0,6.1144633E0,6.4461412E0,1.6915993E2,1.4499887E1,6.359334E0,4.623792E0,1.2220847E1,7.583163E2,8.8574425E1],"tree_param":{"num_deleted":"0","num_feature":"42","num_nodes":"37","size_leaf_vector":"1"}},{"base_weights":[1.03271715E-1,-2.5833445E0,7.6970065E-1,-1.0055454E0,-1.09939754E-1,-4.6719676E-1,1.046345E0,-1.0547867E-1,6.693214E-1,-9.056948E-2,-1.1505262E-1,-1.07452124E-1,1.0846919E0,4.8818655E-2,-1.4318599E-2,-1.0761912E0,5.279625E-1,1.1028627E0,-1.0026014E-1,-5.8287704E-1,-1.1239808E-1,6.5160173E-1,-9.388105E-2,1.1147224E0,-3.2297235E-2,3.295693E-2,-5.7344068E-2,3.559222E-2,-1.7418176E-2,4.5007408E-2,-2.1424599E-2],"categories":[],"categories_nodes":[],"categories_segments":[],"categories_sizes":[],"default_left":[0,0,0,0,0,0,0,0,0,0,0,0,0,0,0,0,0,0,0,0,0,0,0,0,0,0,0,0,0,0,0],"id":3,"left_children":[1,3,5,7,-1,9,11,-1,13,15,-1,-1,17,-1,-1,19,21,23,-1,25,-1,27,-1,29,-1,-1,-1,-1,-1,-1,-1],"loss_changes":[2.5197456E3,6.9934814E1,3.863463E2,7.867021E1,0E0,1.8718613E2,1.3477667E2,0E0,8.776028E0,1.1023947E2,0E0,0E0,6.2282227E1,0E0,0E0,5.7812424E1,4.0951687E1,2.151538E1,0E0,6.769487E1,0E0,2.8210064E1,0E0,1.624353E1,0E0,0E0,0E0,0E0,0E0,0E0,0E0],"parents":[2147483647,0,0,1,1,2,2,3,3,5,5,6,6,8,8,9,9,12,12,15,15,16,16,17,17,19,19,21,21,23,23],"right_children":[2,4,6,8,-1,10,12,-1,14,16,-1,-1,18,-1,-1,20,22,24,-1,26,-1,28,-1,30,-1,-1,-1,-1,-1,-1,-1],"split_conditions":[1.8800275E-2,-5.6806475E-1,4.5855588E-1,2.253E0,-1.09939754E-1,7.74827E-2,2.248E0,-1.0547867E-1,6.942632E-1,4.5589796E-1,-1.1505262E-1,-1.07452124E-1,8.29627E-2,4.8818655E-2,-1.4318599E-2,2.308E0,3.546049E-1,4.8568565E-1,-1.0026014E-1,1.5736781E-2,-1.1239808E-1,4.5410642E-1,-9.388105E-2,8.278326E-2,-3.2297235E-2,3.295693E-2,-5.7344068E-2,3.559222E-2,-1.7418176E-2,4.5007408E-2,-2.1424599E-2],"split_indices":[36,26,15,0,0,39,1,0,30,14,0,0,39,0,0,7,26,17,0,39,0,17,0,38,0,0,0,0,0,0,0],"split_type":[0,0,0,0,0,0,0,0,0,0,0,0,0,0,0,0,0,0,0,0,0,0,0,0,0,0,0,0,0,0,0],"sum_hessian":[1.4052742E3,2.7871634E2,1.1265579E3,2.710953E1,2.5160681E2,2.057527E2,9.208052E2,1.3457009E1,1.3652519E1,1.7885062E2,2.6902092E1,8.648125E0,9.1215704E2,8.7947235E0,4.8577957E0,6.870736E1,1.1014325E2,9.082682E2,3.8888597E0,5.4550823E1,1.415654E1,1.0635998E2,3.7832758E0,9.0310406E2,5.1641016E0,2.054663E1,3.4004192E1,8.742928E1,1.8930696E1,8.977609E2,5.3431454E0],"tree_param":{"num_deleted":"0","num_feature":"42","num_nodes":"31","size_leaf_vector":"1"}},{"base_weights":[1.288936E-1,-2.1736026E0,8.5044444E-1,-8.441445E-1,-2.5360339E0,-2.6170385E-1,1.0116153E0,-1.0122025E-1,9.540349E-1,3.3174895E-3,-1.03269845E-1,-1.0476789E-1,3.8603712E-2,1.035437E0,-9.917947E-2,-1.507167E-2,1.19035E0,5.797132E-1,-1.2205606E0,1.0895267E0,3.9854926E-1,5.2486643E-2,8.895262E-3,7.857528E-1,-1.0051309E-1,7.1027654E-1,-1.1765557E-1,7.8550047E-1,1.161199E0,1.0838068E0,-2.112906E0,4.0942922E-2,-9.39919E-2,-1.08266175E-2,4.642805E-2,4.0623415E-2,-1.1565598E-2,-5.6706765E-3,4.6757866E-2,-4.0756785E-3,5.0465282E-2,2.2249267E-2,-1.1279069E-1],"categories":[],"categories_nodes":[],"categories_segments":[],"categories_sizes":[],"default_left":[0,0,0,0,0,0,0,0,0,0,0,0,0,0,0,0,0,0,0,0,0,0,0,0,0,0,0,0,0,0,0,0,0,0,0,0,0,0,0,0,0,0,0],"id":4,"left_children":[1,3,5,7,9,11,13,-1,15,-1,-1,-1,17,19,-1,-1,21,23,25,27,29,-1,-1,31,-1,33,-1,35,37,39,41,-1,-1,-1,-1,-1,-1,-1,-1,-1,-1,-1,-1],"loss_changes":[2.334683E3,1.5925696E2,1.9207562E2,2.2494366E2,3.1819946E1,9.663976E1,8.0229675E1,0E0,1.1878311E1,0E0,0E0,0E0,8.363405E1,3.1498047E1,0E0,0E0,3.2898178E0,5.660073E1,1.2477554E2,1.7636902E1,1.3024414E2,0E0,0E0,6.2948814E1,0E0,8.38973E0,0E0,4.149118E1,7.1850586E0,1.2650024E1,3.2373657E1,0E0,0E0,0E0,0E0,0E0,0E0,0E0,0E0,0E0,0E0,0E0,0E0],"parents":[2147483647,0,0,1,1,2,2,3,3,4,4,5,5,6,6,8,8,12,12,13,13,16,16,17,17,18,18,19,19,20,20,23,23,25,25,27,27,28,28,29,29,30,30],"right_children":[2,4,6,8,10,12,14,-1,16,-1,-1,-1,18,20,-1,-1,22,24,26,28,30,-1,-1,32,-1,34,-1,36,38,40,42,-1,-1,-1,-1,-1,-1,-1,-1,-1,-1,-1,-1],"split_conditions":[9.768368E-1,3.1273644E-2,1.0456364E0,2.245E0,1.0986775E1,4.394956E-1,8.29627E-2,-1.0122025E-1,7.952381E-1,3.3174895E-3,-1.03269845E-1,-1.0476789E-1,2.7908392E-2,3.387E1,-9.917947E-2,-1.507167E-2,8.477633E-1,3.3167E1,4.1389033E-1,1.081442E0,1.1566531E-2,5.2486643E-2,8.895262E-3,1.7E1,-1.0051309E-1,4.73505E-3,-1.1765557E-1,2.4113571E-2,2.296E0,2.386E0,-2.30314E-2,4.0942922E-2,-9.39919E-2,-1.08266175E-2,4.642805E-2,4.0623415E-2,-1.1565598E-2,-5.6706765E-3,4.6757866E-2,-4.0756785E-3,5.0465282E-2,2.2249267E-2,-1.1279069E-1],"split_indices":[21,38,21,1,13,14,39,0,10,0,0,0,39,13,0,0,21,13,17,21,39,0,0,32,0,31,0,39,1,28,16,0,0,0,0,0,0,0,0,0,0,0,0],"split_type":[0,0,0,0,0,0,0,0,0,0,0,0,0,0,0,0,0,0,0,0,0,0,0,0,0,0,0,0,0,0,0,0,0,0,0,0,0,0,0,0,0,0,0],"sum_hessian":[1.4032046E3,3.3431406E2,1.0688905E3,7.2358406E1,2.6195563E2,1.3517696E2,9.3371356E2,3.7144367E1,3.5214043E1,4.4610815E0,2.5749454E2,1.4420104E1,1.2075684E2,9.280984E2,5.6151996E0,5.188512E0,3.002553E1,8.4866066E1,3.5890778E1,8.547195E2,7.33789E1,2.6307558E1,3.7179718E0,8.027956E1,4.5865126E0,1.7176392E1,1.8714388E1,1.654703E2,6.8924915E2,5.8111404E1,1.5267494E1,7.5260796E1,5.0187554E0,5.495748E0,1.1680643E1,1.3637363E2,2.9096678E1,3.9337459E0,6.853154E2,7.597672E0,5.051373E1,3.2264903E0,1.2041004E1],"tree_param":{"num_deleted":"0","num_feature":"42","num_nodes":"43","size_leaf_vector":"1"}},{"base_weights":[4.327306E-2,-1.7988776E0,9.2536753E-1,-2.2350397E0,-5.4791886E-1,1.0307235E0,-9.214412E-1,-1.2338532E0,-9.721812E-2,6.1315334E-1,-1.0174197E0,1.0808504E0,4.300468E-2,-1.0660352E-1,1.4831625E-1,-9.5098E-2,1.104712E0,-8.21615E-2,1.0832247E0,-2.9868332E-1,-2.2913053E0,-8.3339894E-1,1.0993193E0,8.584517E-1,-1.1171766E-1,9.678859E-1,-1.6384921E0,4.9597383E-2,1.5685542E-2,5.074622E-2,-0E0,-1.9382099E0,3.3957872E-1,-1.07732125E-1,3.120405E-2,3.519953E-2,-8.867847E-2,4.5962003E-1,1.1229839E0,-3.2835256E-2,1.1922659E0,4.6181817E-2,2.2685663E-3,-1.0948847E-1,2.2075037E-2,3.0584494E-2,-1.0788711E-1,3.018646E-2,-8.996695E-2,4.693234E-2,-1.815631E-2,-1.35863E-2,4.5243125E-2,1.9221691E-2,5.028191E-2],"categories":[],"categories_nodes":[],"categories_segments":[],"categories_sizes":[],"default_left":[0,0,0,0,0,0,0,0,0,0,0,0,0,0,0,0,0,0,0,0,0,0,0,0,0,0,0,0,0,0,0,0,0,0,0,0,0,0,0,0,0,0,0,0,0,0,0,0,0,0,0,0,0,0,0],"id":5,"left_children":[1,3,5,7,9,11,13,15,-1,17,19,21,23,-1,25,-1,27,-1,29,31,33,35,37,39,-1,41,43,-1,-1,-1,-1,45,47,-1,-1,-1,-1,49,51,-1,53,-1,-1,-1,-1,-1,-1,-1,-1,-1,-1,-1,-1,-1,-1],"loss_changes":[2.1645127E3,2.3396655E2,1.7621484E2,5.9316772E1,6.21657E1,4.211206E1,9.213314E1,1.477518E2,0E0,4.3662674E1,7.313707E1,2.961438E1,1.00054634E2,0E0,4.74893E1,0E0,1.2130299E0,0E0,5.792923E0,5.6001614E1,3.79514E1,2.168456E1,1.1576721E1,1.9838108E1,0E0,3.6416836E0,2.6205769E1,0E0,0E0,0E0,0E0,3.2865982E1,4.3359566E1,0E0,0E0,0E0,0E0,2.0422478E1,9.594238E0,0E0,6.2166214E-1,0E0,0E0,0E0,0E0,0E0,0E0,0E0,0E0,0E0,0E0,0E0,0E0,0E0,0E0],"parents":[2147483647,0,0,1,1,2,2,3,3,4,4,5,5,6,6,7,7,9,9,10,10,11,11,12,12,14,14,16,16,18,18,19,19,20,20,21,21,22,22,23,23,25,25,26,26,31,31,32,32,37,37,38,38,40,40],"right_children":[2,4,6,8,10,12,14,16,-1,18,20,22,24,-1,26,-1,28,-1,30,32,34,36,38,40,-1,42,44,-1,-1,-1,-1,46,48,-1,-1,-1,-1,50,52,-1,54,-1,-1,-1,-1,-1,-1,-1,-1,-1,-1,-1,-1,-1,-1],"split_conditions":[4.5481634E-1,3.3166787E-1,-2.4492937E-16,3.1273644E-2,4.0831715E-1,3.3915E1,2.248E0,2.254E0,-9.721812E-2,3.1171E1,2.814E-1,2.248E0,1.1248237E-2,-1.0660352E-1,2.232E0,-9.5098E-2,3.1598E1,-8.21615E-2,3.5442922E-2,-3.3E-2,3.694278E-2,2.441E-1,3.1761E1,2.386E0,-1.1171766E-1,4.401258E-1,-6E-2,4.9597383E-2,1.5685542E-2,5.074622E-2,-0E0,1.4773567E0,3.3167E1,-1.07732125E-1,3.120405E-2,3.519953E-2,-8.867847E-2,2.787E-1,9E-3,-3.2835256E-2,2.443E0,4.6181817E-2,2.2685663E-3,-1.0948847E-1,2.2075037E-2,3.0584494E-2,-1.0788711E-1,3.018646E-2,-8.996695E-2,4.693234E-2,-1.815631E-2,-1.35863E-2,4.5243125E-2,1.9221691E-2,5.028191E-2],"split_indices":[15,29,23,38,18,13,0,1,0,13,40,1,39,0,7,0,13,0,38,34,31,40,13,28,0,17,34,0,0,0,0,19,13,0,0,0,0,40,11,0,1,0,0,0,0,0,0,0,0,0,0,0,0,0,0],"split_type":[0,0,0,0,0,0,0,0,0,0,0,0,0,0,0,0,0,0,0,0,0,0,0,0,0,0,0,0,0,0,0,0,0,0,0,0,0,0,0,0,0,0,0,0,0,0,0,0,0,0,0,0,0,0,0],"sum_hessian":[1.3300505E3,4.3030762E2,8.997429E2,3.1844962E2,1.1185801E2,8.5162854E2,4.8114376E1,5.324135E1,2.6520828E2,3.2089195E1,7.9768814E1,8.103578E2,4.1270725E1,1.7745543E1,3.0368834E1,3.5759243E1,1.7482103E1,4.287255E0,2.780194E1,5.1810585E1,2.795823E1,7.2962046E0,8.030616E2,3.260921E1,8.661514E0,2.1152805E1,9.216027E0,1.4012714E1,3.4693892E0,2.3596918E1,4.205022E0,1.3969154E1,3.784143E1,2.4845707E1,3.1125205E0,3.406039E0,3.8901656E0,2.9452023E1,7.7360956E2,5.140383E0,2.7468826E1,1.7289055E1,3.8637516E0,5.986355E0,3.2296724E0,3.0465436E0,1.092261E1,3.3239567E1,4.601862E0,1.6405602E1,1.3046422E1,3.9981382E0,7.6961145E2,3.058328E0,2.44105E1],"tree_param":{"num_deleted":"0","num_feature":"42","num_nodes":"55","size_leaf_vector":"1"}},{"base_weights":[7.762234E-2,-2.0927854E0,7.129997E-1,-6.832653E-1,-9.140597E-2,-2.7898157E-1,9.4966376E-1,-8.8626675E-2,7.9386437E-1,-9.92666E-1,3.6790314E-1,9.869438E-1,-9.145662E-2,4.9455334E-2,-1.6312964E-2,-4.2618868E-1,-9.62195E-2,-9.6291356E-2,5.1379615E-1,-9.64024E-1,1.0248553E0,9.4504565E-2,-9.410153E-2,6.376784E-1,-8.750568E-2,-9.341952E-2,1.8521813E-1,1.0412364E0,-8.6389667E-1,2.555831E-2,-4.778457E-2,3.1028317E-2,-8.2123764E-2,4.2607248E-2,-1.5370281E-2,4.207891E-2,-2.5689134E-2,3.1056056E-2,-8.83827E-2],"categories":[],"categories_nodes":[],"categories_segments":[],"categories_sizes":[],"default_left":[0,0,0,0,0,0,0,0,0,0,0,0,0,0,0,0,0,0,0,0,0,0,0,0,0,0,0,0,0,0,0,0,0,0,0,0,0,0,0],"id":6,"left_children":[1,3,5,7,-1,9,11,-1,13,15,17,19,-1,-1,-1,21,-1,-1,23,25,27,29,-1,31,-1,-1,33,35,37,-1,-1,-1,-1,-1,-1,-1,-1,-1,-1],"loss_changes":[1.8442661E3,8.0406006E1,2.431601E2,8.7451584E1,0E0,9.2729004E1,1.0298547E2,0E0,1.1170428E1,7.518136E1,4.3897762E1,6.2135864E1,0E0,0E0,0E0,6.987974E1,0E0,0E0,3.517428E1,2.6149553E1,2.6014221E1,3.9704235E1,0E0,3.7749615E1,0E0,0E0,5.3277283E0,1.5244873E1,1.8336166E1,0E0,0E0,0E0,0E0,0E0,0E0,0E0,0E0,0E0,0E0],"parents":[2147483647,0,0,1,1,2,2,3,3,5,5,6,6,8,8,9,9,10,10,11,11,15,15,18,18,19,19,20,20,21,21,23,23,26,26,27,27,28,28],"right_children":[2,4,6,8,-1,10,12,-1,14,16,18,20,-1,-1,-1,22,-1,-1,24,26,28,30,-1,32,-1,-1,34,36,38,-1,-1,-1,-1,-1,-1,-1,-1,-1,-1],"split_conditions":[2.1108361E-2,-5.6806475E-1,4.5749542E-1,2.237E0,-9.140597E-2,4.5532158E-1,8.29627E-2,-8.8626675E-2,2.265E0,6.2314626E-2,1.3926703E-2,2.247E0,-9.145662E-2,4.9455334E-2,-1.6312964E-2,8E0,-9.62195E-2,-9.6291356E-2,4.1246068E-2,9E-3,7.9640366E-2,2.25E0,-9.410153E-2,8.8715754E-2,-8.750568E-2,-9.341952E-2,4.2650145E-1,4.8568565E-1,-3.6E-2,2.555831E-2,-4.778457E-2,3.1028317E-2,-8.2123764E-2,4.2607248E-2,-1.5370281E-2,4.207891E-2,-2.5689134E-2,3.1056056E-2,-8.83827E-2],"split_indices":[36,26,15,0,0,14,39,0,1,39,39,1,0,0,0,32,0,0,4,2,38,0,0,39,0,0,14,17,2,0,0,0,0,0,0,0,0,0,0],"split_type":[0,0,0,0,0,0,0,0,0,0,0,0,0,0,0,0,0,0,0,0,0,0,0,0,0,0,0,0,0,0,0,0,0,0,0,0,0,0,0],"sum_hessian":[1.3353348E3,3.018528E2,1.033482E3,3.682613E1,2.6502667E2,1.9899622E2,8.3448584E2,1.7846113E1,1.8980019E1,9.439567E1,1.0460055E2,8.256843E2,8.801507E0,1.3881081E1,5.098938E0,6.8333916E1,2.606175E1,4.432981E0,1.00167564E2,1.5248173E1,8.1043616E2,5.4521667E1,1.3812248E1,9.652365E1,3.6439135E0,6.501193E0,8.74698E0,8.039388E2,6.4973893E0,3.871409E1,1.5807579E1,9.250851E1,4.0151467E0,3.1291308E0,5.6178493E0,7.9924634E2,4.692422E0,3.1020472E0,3.395342E0],"tree_param":{"num_deleted":"0","num_feature":"42","num_nodes":"39","size_leaf_vector":"1"}},{"base_weights":[1.133497E-1,-1.8052338E0,7.805101E-1,-2.1136248E0,-3.092032E-1,-5.794458E-2,1.0059988E0,-8.729594E-2,-5.3628075E-1,1.1441432E0,-8.713563E-2,5.299623E-1,-1.2297138E0,1.0578171E0,3.7011924E-1,3.1914723E-1,-7.534386E-2,4.9810633E-2,8.12764E-3,7.046081E-1,-8.195107E-2,-2.129749E0,1.3453692E-1,1.0810794E0,1.7361827E-1,1.0345198E0,-1.01028666E-1,4.1654434E-2,-8.479203E-3,9.3439025E-1,-8.333772E-1,-1.0486028E-1,2.0596327E-2,-9.1861434E-2,7.295664E-1,4.8004404E-1,1.1121259E0,4.7153972E-2,-9.668794E-2,-1.5920756E-2,1.1624215E0,4.1578874E-2,-1.2670663E-2,-9.985884E-2,3.1585198E-2,4.594905E-2,-2.4568118E-2,-1.8672163E-2,4.504618E-2,4.804349E-2,3.975039E-2,5.0584666E-2,-6.0784473E-4],"categories":[],"categories_nodes":[],"categories_segments":[],"categories_sizes":[],"default_left":[0,0,0,0,0,0,0,0,0,0,0,0,0,0,0,0,0,0,0,0,0,0,0,0,0,0,0,0,0,0,0,0,0,0,0,0,0,0,0,0,0,0,0,0,0,0,0,0,0,0,0,0,0],"id":7,"left_children":[1,3,5,7,9,11,13,-1,15,17,-1,19,21,23,25,27,-1,-1,-1,29,-1,31,33,35,37,39,-1,-1,-1,41,43,-1,-1,-1,45,47,49,-1,-1,-1,51,-1,-1,-1,-1,-1,-1,-1,-1,-1,-1,-1,-1],"loss_changes":[1.7377186E3,1.6083472E2,1.9053699E2,3.017688E1,1.6843484E2,1.4836438E2,2.5695312E1,0E0,1.6217157E1,3.0043945E0,0E0,6.596768E1,8.873245E1,1.4835388E1,1.2072815E2,3.7445703E0,0E0,0E0,0E0,4.852295E1,0E0,5.794023E1,4.429705E1,1.2717041E1,5.499958E1,9.788345E0,0E0,0E0,0E0,1.588266E1,5.080228E1,0E0,0E0,0E0,1.4526059E1,2.3150032E1,5.8410034E0,0E0,0E0,0E0,5.716507E0,0E0,0E0,0E0,0E0,0E0,0E0,0E0,0E0,0E0,0E0,0E0,0E0],"parents":[2147483647,0,0,1,1,2,2,3,3,4,4,5,5,6,6,8,8,9,9,11,11,12,12,13,13,14,14,15,15,19,19,21,21,22,22,23,23,24,24,25,25,29,29,30,30,34,34,35,35,36,36,40,40],"right_children":[2,4,6,8,10,12,14,-1,16,18,-1,20,22,24,26,28,-1,-1,-1,30,-1,32,34,36,38,40,-1,-1,-1,42,44,-1,-1,-1,46,48,50,-1,-1,-1,52,-1,-1,-1,-1,-1,-1,-1,-1,-1,-1,-1,-1],"split_conditions":[9.768368E-1,2.236E0,1.0637923E0,4.631149E-1,3.1273644E-2,2.3969969E-2,3.3915E1,-8.729594E-2,-6.75882E-3,3.5714286E-3,-8.713563E-2,4.6472317E-1,1.4E-2,6.4324905E-16,1.1566531E-2,4.6335948E-1,-7.534386E-2,4.9810633E-2,8.12764E-3,2.297E0,-8.195107E-2,4.7517392E-1,1.0417302E-1,4.5817152E-1,2.212E0,2.354E0,-1.01028666E-1,4.1654434E-2,-8.479203E-3,1E0,1.0581644E0,-1.0486028E-1,2.0596327E-2,-9.1861434E-2,4.0640697E-1,2.35E0,-8.2298386E-1,4.7153972E-2,-9.668794E-2,-1.5920756E-2,8E0,4.1578874E-2,-1.2670663E-2,-9.985884E-2,3.1585198E-2,4.594905E-2,-2.4568118E-2,-1.8672163E-2,4.504618E-2,4.804349E-2,3.975039E-2,5.0584666E-2,-6.0784473E-4],"split_indices":[21,0,21,14,38,39,13,0,31,5,0,26,2,25,39,14,0,0,0,1,0,14,36,15,7,8,0,0,0,41,21,0,0,0,18,8,25,0,0,0,33,0,0,0,0,0,0,0,0,0,0,0,0],"split_type":[0,0,0,0,0,0,0,0,0,0,0,0,0,0,0,0,0,0,0,0,0,0,0,0,0,0,0,0,0,0,0,0,0,0,0,0,0,0,0,0,0,0,0,0,0,0,0,0,0,0,0,0,0],"sum_hessian":[1.3555288E3,3.4928714E2,1.0062417E3,2.8922104E2,6.0066093E1,2.1337013E2,7.928716E2,2.767396E2,1.24814415E1,3.399509E1,2.6071005E1,1.424196E2,7.095053E1,7.324422E2,6.0429367E1,8.078385E0,4.4030566E0,3.0356207E1,3.6388812E0,1.3408482E2,8.33478E0,4.243228E1,2.8518251E1,7.1339435E2,1.9047838E1,4.968907E1,1.0740295E1,3.0561657E0,5.022219E0,1.1702561E2,1.7059204E1,3.580265E1,6.62963E0,5.02881E0,2.3489443E1,3.592797E1,6.7746643E2,1.4129798E1,4.918041E0,3.8676257E0,4.582145E1,1.0815139E2,8.874221E0,8.17496E0,8.884244E0,1.8043512E1,5.445929E0,1.4653706E1,2.1274265E1,3.813113E2,2.961551E2,4.2133617E1,3.6878288E0],"tree_param":{"num_deleted":"0","num_feature":"42","num_nodes":"53","size_leaf_vector":"1"}},{"base_weights":[6.5987945E-2,-1.8420354E0,7.0561475E-1,-8.190902E-1,-2.0491848E0,9.1303533E-1,-3.0844375E-1,-1.7830421E0,4.597917E-1,-8.345163E-2,1.8914571E-2,9.4158566E-1,-8.020351E-2,6.698299E-1,-1.1743174E0,-8.404619E-2,1.49446875E-2,4.5932036E-2,-7.977638E-2,1.0320762E0,2.813609E-1,-8.2557864E-2,9.3684864E-1,5.123778E-1,-1.6938654E0,-1.170919E-1,1.0438554E0,-9.364779E-2,6.4861023E-1,1.121452E0,-3.0793256E-1,-6.736935E-2,1.029995E0,-1.0182303E-1,-6.9031644E-1,1.854331E-2,-2.2858538E-2,4.2090178E-2,-1.3051588E-2,-1.069331E-1,3.56071E-2,-8.1270365E-3,4.926101E-2,4.1497E-2,-4.1882962E-2,4.8352107E-2,1.0116196E-2,2.213226E-2,-7.9116866E-2],"categories":[],"categories_nodes":[],"categories_segments":[],"categories_sizes":[],"default_left":[0,0,0,0,0,0,0,0,0,0,0,0,0,0,0,0,0,0,0,0,0,0,0,0,0,0,0,0,0,0,0,0,0,0,0,0,0,0,0,0,0,0,0,0,0,0,0,0,0],"id":8,"left_children":[1,3,5,7,9,11,13,15,17,-1,-1,19,-1,21,23,-1,-1,-1,-1,25,27,-1,29,31,33,35,37,-1,39,41,43,-1,45,-1,47,-1,-1,-1,-1,-1,-1,-1,-1,-1,-1,-1,-1,-1,-1],"loss_changes":[1.5814001E3,6.7115845E1,2.0442978E2,7.052825E1,2.6319214E1,6.8980225E1,1.4099796E2,2.312687E1,4.4580124E1,0E0,0E0,4.736914E1,0E0,5.9044605E1,7.8202866E1,0E0,0E0,0E0,0E0,9.672363E0,9.556194E1,0E0,1.694255E1,2.6160303E1,5.5921738E1,2.375692E0,8.378906E0,0E0,7.172547E1,9.4867935E0,1.10853615E1,0E0,2.1289425E0,0E0,5.3152397E1,0E0,0E0,0E0,0E0,0E0,0E0,0E0,0E0,0E0,0E0,0E0,0E0,0E0,0E0],"parents":[2147483647,0,0,1,1,2,2,3,3,4,4,5,5,6,6,7,7,8,8,11,11,13,13,14,14,19,19,20,20,22,22,23,23,24,24,25,25,26,26,28,28,29,29,30,30,32,32,34,34],"right_children":[2,4,6,8,10,12,14,16,18,-1,-1,20,-1,22,24,-1,-1,-1,-1,26,28,-1,30,32,34,36,38,-1,40,42,44,-1,46,-1,48,-1,-1,-1,-1,-1,-1,-1,-1,-1,-1,-1,-1,-1,-1],"split_conditions":[4.339891E-1,-5.6806475E-1,2.8527062E-2,2.238E0,1.0997478E0,1.8E1,2.43E-1,6E0,2.2545714E0,-8.345163E-2,1.8914571E-2,3.3755E1,-8.020351E-2,2.243E0,2.4205257E-1,-8.404619E-2,1.49446875E-2,4.5932036E-2,-7.977638E-2,9E-3,1.1051787E0,-8.2557864E-2,3.083E-1,2.207E0,3.83E-1,2.219E0,2.0583544E0,-9.364779E-2,2.301E0,2.211E0,2.212E0,-6.736935E-2,2.266E0,-1.0182303E-1,-9.350162E-1,1.854331E-2,-2.2858538E-2,4.2090178E-2,-1.3051588E-2,-1.069331E-1,3.56071E-2,-8.1270365E-3,4.926101E-2,4.1497E-2,-4.1882962E-2,4.8352107E-2,1.0116196E-2,2.213226E-2,-7.9116866E-2],"split_indices":[14,26,39,0,21,32,11,33,12,0,0,13,0,0,18,0,0,0,0,11,21,0,40,0,11,6,30,0,8,6,7,0,0,0,26,0,0,0,0,0,0,0,0,0,0,0,0,0,0],"split_type":[0,0,0,0,0,0,0,0,0,0,0,0,0,0,0,0,0,0,0,0,0,0,0,0,0,0,0,0,0,0,0,0,0,0,0,0,0,0,0,0,0,0,0,0,0,0,0,0,0],"sum_hessian":[1.2937621E3,3.243273E2,9.6943475E2,5.5492023E1,2.6883527E2,8.0493774E2,1.6449704E2,3.1439505E1,2.4052517E1,2.6512717E2,3.7081234E0,7.978264E2,7.111309E0,7.73147E1,8.718234E1,2.7440834E1,3.998672E0,1.9214502E1,4.838015E0,7.010952E2,9.673122E1,6.264188E0,7.105051E1,2.0511152E1,6.667119E1,6.9796877E0,6.9411554E2,1.1204922E1,8.552629E1,6.1995678E1,9.054829E0,3.463344E0,1.704781E1,3.5205738E1,3.1465452E1,3.006784E0,3.9729037E0,6.901534E2,3.9621248E0,5.101324E0,8.042497E1,4.6566935E0,5.7338985E1,3.0436647E0,6.0111637E0,1.3354953E1,3.6928558E0,1.6276438E1,1.51890135E1],"tree_param":{"num_deleted":"0","num_feature":"42","num_nodes":"49","size_leaf_vector":"1"}},{"base_weights":[4.9944934E-2,-1.8564739E0,6.616737E-1,-6.816603E-1,-7.9503804E-2,-2.7571023E-1,8.869089E-1,-7.660742E-2,5.304637E-1,-1.4492769E0,3.2515079E-3,9.273135E-1,-7.366011E-1,4.753527E-2,-7.055413E-2,3.0910596E-2,-8.096188E-2,9.925409E-1,-6.7523307E-1,1.6156174E-1,9.929502E-1,-9.0644024E-2,9.101215E-1,1.171235E0,-6.923534E-2,-9.73554E-2,9.037322E-2,6.126038E-1,-8.0750026E-2,-4.1331805E-2,1.0104445E0,1.2887904E-2,4.552706E-2,5.0957218E-2,-2.9866623E-3,2.8760906E-2,-5.427749E-2,-3.021967E-2,3.920911E-2,4.0955104E-2,-2.7557103E-2],"categories":[],"categories_nodes":[],"categories_segments":[],"categories_sizes":[],"default_left":[0,0,0,0,0,0,0,0,0,0,0,0,0,0,0,0,0,0,0,0,0,0,0,0,0,0,0,0,0,0,0,0,0,0,0,0,0,0,0,0,0],"id":9,"left_children":[1,3,5,7,-1,9,11,-1,13,15,17,19,21,-1,-1,-1,-1,23,25,27,29,-1,31,33,-1,-1,35,37,-1,-1,39,-1,-1,-1,-1,-1,-1,-1,-1,-1,-1],"loss_changes":[1.4674706E3,4.5599854E1,2.014076E2,4.9307823E1,0E0,6.0732536E1,5.1095215E1,0E0,2.7773293E1,4.711831E1,1.0180915E2,3.7486877E1,5.0451603E1,0E0,0E0,0E0,0E0,3.203829E1,1.2142382E2,6.064294E1,2.5526733E1,0E0,8.9251995E-1,7.6449203E0,0E0,0E0,5.880992E1,2.6351213E1,0E0,0E0,1.6366455E1,0E0,0E0,0E0,0E0,0E0,0E0,0E0,0E0,0E0,0E0],"parents":[2147483647,0,0,1,1,2,2,3,3,5,5,6,6,8,8,9,9,10,10,11,11,12,12,17,17,18,18,19,19,20,20,22,22,23,23,26,26,27,27,30,30],"right_children":[2,4,6,8,-1,10,12,-1,14,16,18,20,22,-1,-1,-1,-1,24,26,28,30,-1,32,34,-1,-1,36,38,-1,-1,40,-1,-1,-1,-1,-1,-1,-1,-1,-1,-1],"split_conditions":[1.8800275E-2,-5.6806475E-1,1.0456364E0,2.237E0,-7.9503804E-2,3.1171E1,6.4324905E-16,-7.660742E-2,3.0419292E-2,0E0,3.1403E1,4.5718867E-1,5.7857144E-3,4.753527E-2,-7.055413E-2,3.0910596E-2,-8.096188E-2,3.5442922E-2,-7.485108E-1,3.3755E1,2.229E0,-9.0644024E-2,1.8E-2,4.6472317E-1,-6.923534E-2,-9.73554E-2,2.632E-1,1.0723472E0,-8.0750026E-2,-4.1331805E-2,2.454E0,1.2887904E-2,4.552706E-2,5.0957218E-2,-2.9866623E-3,2.8760906E-2,-5.427749E-2,-3.021967E-2,3.920911E-2,4.0955104E-2,-2.7557103E-2],"split_indices":[36,26,21,0,0,13,25,0,38,41,13,29,5,0,0,0,0,38,26,13,0,0,2,25,0,0,40,21,0,0,7,0,0,0,0,0,0,0,0,0,0],"split_type":[0,0,0,0,0,0,0,0,0,0,0,0,0,0,0,0,0,0,0,0,0,0,0,0,0,0,0,0,0,0,0,0,0,0,0,0,0,0,0,0,0],"sum_hessian":[1.2563209E3,3.0468146E2,9.516394E2,3.1251951E1,2.734295E2,1.8427548E2,7.6736395E2,1.5222207E1,1.6029745E1,3.461928E1,1.496562E2,7.491786E2,1.8185337E1,1.2848994E1,3.1807508E0,7.025904E0,2.7593376E1,6.0724873E1,8.893133E1,5.9479755E1,6.8969885E2,9.248983E0,8.936354E0,5.7537895E1,3.186976E0,2.6331736E1,6.259959E1,4.9899075E1,9.580679E0,5.382294E0,6.843165E2,3.233212E0,5.703141E0,5.3172684E1,4.3652143E0,4.4017868E1,1.8581722E1,1.0316314E1,3.958276E1,6.7937317E2,4.9433575E0],"tree_param":{"num_deleted":"0","num_feature":"42","num_nodes":"41","size_leaf_vector":"1"}},{"base_weights":[7.961716E-2,-1.5121229E0,8.042136E-1,-1.8659916E0,-3.6694133E-1,8.6011344E-1,-1.5109503E0,-1.8976282E0,3.2534953E-2,7.3013467E-1,-7.909662E-2,3.0600274E-1,9.6518004E-1,4.3613482E-2,-8.200473E-2,-7.697305E-2,-1.2704046E0,9.292094E-1,-7.56157E-2,-9.0751514E-2,4.7806832E-1,-1.0247681E0,9.9244165E-1,2.3609543E-2,-7.301087E-2,1.0767495E-3,1.0653372E0,6.26384E-1,-9.058278E-2,-8.398646E-2,4.2052392E-2,1.0286078E0,4.3811798E-1,1.9492231E-2,-1.5608653E-2,4.814601E-2,-7.5417785E-3,3.0448472E-2,-7.321582E-2,4.1767806E-2,-8.658385E-3,-1.1682368E-1,4.0133566E-2],"categories":[],"categories_nodes":[],"categories_segments":[],"categories_sizes":[],"default_left":[0,0,0,0,0,0,0,0,0,0,0,0,0,0,0,0,0,0,0,0,0,0,0,0,0,0,0,0,0,0,0,0,0,0,0,0,0,0,0,0,0,0,0],"id":10,"left_children":[1,3,5,7,9,11,13,15,-1,17,-1,19,21,-1,-1,-1,23,25,-1,-1,27,29,31,-1,-1,33,35,37,-1,-1,-1,39,41,-1,-1,-1,-1,-1,-1,-1,-1,-1,-1],"loss_changes":[1.4536887E3,1.5898285E2,1.1335309E2,2.7105957E1,1.6820914E2,4.891266E1,3.1400288E1,2.3814697E0,0E0,3.1357449E1,0E0,6.144059E1,3.9580444E1,0E0,0E0,0E0,1.680588E1,6.706108E0,0E0,0E0,5.3702263E1,2.4741676E1,1.3545715E1,0E0,0E0,1.6965712E0,8.362354E0,4.20593E1,0E0,0E0,0E0,1.3037415E1,8.790418E1,0E0,0E0,0E0,0E0,0E0,0E0,0E0,0E0,0E0,0E0],"parents":[2147483647,0,0,1,1,2,2,3,3,4,4,5,5,6,6,7,7,9,9,11,11,12,12,16,16,17,17,20,20,21,21,22,22,25,25,26,26,27,27,31,31,32,32],"right_children":[2,4,6,8,10,12,14,16,-1,18,-1,20,22,-1,-1,-1,24,26,-1,-1,28,30,32,-1,-1,34,36,38,-1,-1,-1,40,42,-1,-1,-1,-1,-1,-1,-1,-1,-1,-1],"split_conditions":[4.3802127E-1,2.236E0,8.183254E-2,1.0730094E0,3.4985274E-2,4.5817766E-1,-4.6E-2,2.226E0,3.2534953E-2,1.1619717E0,-7.909662E-2,-9.7094184E-1,2.246E0,4.3613482E-2,-8.200473E-2,-7.697305E-2,2.3396643E-1,-6.6312265E-1,-7.56157E-2,-9.0751514E-2,3.2E1,3.2378E1,2.403E0,2.3609543E-2,-7.301087E-2,2.296E0,1.3E1,3.3755E1,-9.058278E-2,-8.398646E-2,4.2052392E-2,6.4324905E-16,2.345E0,1.9492231E-2,-1.5608653E-2,4.814601E-2,-7.5417785E-3,3.0448472E-2,-7.321582E-2,4.1767806E-2,-8.658385E-3,-1.1682368E-1,4.0133566E-2],"split_indices":[29,0,39,21,38,29,2,0,0,30,0,25,1,0,0,0,17,25,0,0,9,13,6,0,0,1,32,13,0,0,0,25,8,0,0,0,0,0,0,0,0,0,0],"split_type":[0,0,0,0,0,0,0,0,0,0,0,0,0,0,0,0,0,0,0,0,0,0,0,0,0,0,0,0,0,0,0,0,0,0,0,0,0,0,0,0,0,0,0],"sum_hessian":[1.2583608E3,3.932789E2,8.65082E2,2.999265E2,9.335239E1,8.4532166E2,1.9760302E1,2.9673328E2,3.1932485E0,5.583348E1,3.7518906E1,1.3543568E2,7.09886E2,3.2011147E0,1.6559187E1,2.825583E2,1.4174965E1,5.2509E1,3.324483E0,7.7022963E0,1.2773339E2,9.074493E0,7.008115E2,3.22079E0,1.0954175E1,6.8922386E0,4.5616756E1,1.2192956E2,5.803833E0,5.9872875E0,3.0872056E0,6.5700055E2,4.3810932E1,3.0208614E0,3.8713775E0,4.1156776E1,4.45998E0,1.1625975E2,5.669811E0,6.490761E2,7.924474E0,5.6977286E0,3.8113205E1],"tree_param":{"num_deleted":"0","num_feature":"42","num_nodes":"43","size_leaf_vector":"1"}},{"base_weights":[8.055936E-2,-1.4421341E0,7.7801824E-1,-7.408807E-2,-5.335795E-1,8.998732E-1,-1.7163171E-1,4.8749968E-1,-7.6486E-2,9.218619E-1,-7.1495056E-2,-9.9974734E-1,1.1354595E0,8.128007E-1,-1.1569026E0,4.3584076E-1,1.0034189E0,2.4803755E-1,-1.8842018E0,1.4834508E-2,4.8474763E-2,9.8243856E-1,-6.688268E-2,1.5541478E-2,-7.0508406E-2,6.8604946E-1,-7.6022245E-2,1.0206218E0,-1.9492964E-1,-7.463158E-2,7.6693004E-1,-9.6978135E-2,2.8078046E-2,4.3388903E-2,-1.0056204E-2,3.3728417E-2,-8.893935E-2,-1.1251783E-2,4.129391E-2,4.349598E-2,-7.758259E-2,1.8448676E-3,4.6766266E-2],"categories":[],"categories_nodes":[],"categories_segments":[],"categories_sizes":[],"default_left":[0,0,0,0,0,0,0,0,0,0,0,0,0,0,0,0,0,0,0,0,0,0,0,0,0,0,0,0,0,0,0,0,0,0,0,0,0,0,0,0,0,0,0],"id":11,"left_children":[1,3,5,-1,7,9,11,13,-1,15,-1,17,19,21,23,25,27,29,31,-1,-1,33,-1,-1,-1,35,-1,37,39,-1,41,-1,-1,-1,-1,-1,-1,-1,-1,-1,-1,-1,-1],"loss_changes":[1.3216997E3,1.4455579E2,9.896033E1,0E0,1.7418033E2,4.6315002E1,1.0705272E2,3.9145584E1,0E0,2.9267212E1,0E0,6.727384E1,1.7147408E0,2.7011902E1,1.2164488E1,6.54299E1,1.3483459E1,2.982743E1,5.141722E1,0E0,0E0,7.515888E0,0E0,0E0,0E0,4.7501034E1,0E0,9.999268E0,2.4277596E1,0E0,6.134568E0,0E0,0E0,0E0,0E0,0E0,0E0,0E0,0E0,0E0,0E0,0E0,0E0],"parents":[2147483647,0,0,1,1,2,2,4,4,5,5,6,6,7,7,9,9,11,11,12,12,13,13,14,14,15,15,16,16,17,17,18,18,21,21,25,25,27,27,28,28,30,30],"right_children":[2,4,6,-1,8,10,12,14,-1,16,-1,18,20,22,24,26,28,30,32,-1,-1,34,-1,-1,-1,36,-1,38,40,-1,42,-1,-1,-1,-1,-1,-1,-1,-1,-1,-1,-1,-1],"split_conditions":[4.3802127E-1,2.246E0,2.8527062E-2,-7.408807E-2,3.7412733E-2,1.9E1,5.5714287E-3,1.3E1,-7.6486E-2,4.5878136E-1,-7.1495056E-2,2.19E0,2.1690464E-2,7.980922E-2,2.4119952E-1,3.3755E1,7.9640366E-2,1E0,3.2633E1,1.4834508E-2,4.8474763E-2,9E0,-6.688268E-2,1.5541478E-2,-7.0508406E-2,3.2E1,-7.6022245E-2,2.246E0,2.292E0,-7.463158E-2,3.3169184E-2,-9.6978135E-2,2.8078046E-2,4.3388903E-2,-1.0056204E-2,3.3728417E-2,-8.893935E-2,-1.1251783E-2,4.129391E-2,4.349598E-2,-7.758259E-2,1.8448676E-3,4.6766266E-2],"split_indices":[29,1,39,0,38,32,5,32,0,29,0,8,4,39,15,13,38,33,13,0,0,9,0,0,0,9,0,1,6,0,38,0,0,0,0,0,0,0,0,0,0,0,0],"split_type":[0,0,0,0,0,0,0,0,0,0,0,0,0,0,0,0,0,0,0,0,0,0,0,0,0,0,0,0,0,0,0,0,0,0,0,0,0,0,0,0,0,0,0],"sum_hessian":[1.2424943E3,3.8997055E2,8.5252374E2,2.679432E2,1.22027336E2,7.5566516E2,9.6858574E1,7.0453766E1,5.157357E1,7.5020215E2,5.4630504E0,5.9460438E1,3.7398136E1,5.9265747E1,1.118802E1,1.0879849E2,6.414036E2,2.4939255E1,3.452118E1,3.9890897E0,3.3409046E1,5.606316E1,3.202587E0,3.2283869E0,7.959633E0,9.893151E1,9.866979E0,6.325136E2,8.890015E0,4.38478E0,2.0554476E1,2.8623535E1,5.8976464E0,5.1920406E1,4.1427546E0,9.4551605E1,4.3799105E0,5.4027605E0,6.271109E2,5.324499E0,3.565516E0,7.80555E0,1.2748925E1],"tree_param":{"num_deleted":"0","num_feature":"42","num_nodes":"43","size_leaf_vector":"1"}},{"base_weights":[8.038023E-2,-1.3663043E0,7.647664E-1,-1.740355E0,-2.4724393E-1,8.853541E-1,-2.4099015E-1,-1.7699372E0,3.1312913E-2,1.311204E-1,-7.186191E-2,9.0218586E-1,-6.61605E-2,-1.1662494E0,1.0774962E0,-7.178945E-2,-1.1580225E0,-4.88067E-1,9.796499E-1,9.52286E-1,2.8550254E-2,-1.0258042E-1,-4.5486808E-1,1.1828206E-3,4.7316328E-2,2.2669656E-2,-6.790398E-2,7.92621E-1,-1.655786E0,4.5899067E-2,9.044467E-3,5.927565E-1,1.0171682E0,8.069219E-1,-1.7258056E0,9.661017E-1,-1.1288111E0,-1.6774662E-2,4.732868E-2,1.4650976E-2,-7.8933984E-2,3.0704902E-2,-6.906317E-2,7.278399E-4,4.129955E-2,4.3197464E-2,-2.8487168E-2,1.2532506E-2,-9.524063E-2,4.631058E-2,1.2783761E-2,-7.844014E-2,3.9895065E-2],"categories":[],"categories_nodes":[],"categories_segments":[],"categories_sizes":[],"default_left":[0,0,0,0,0,0,0,0,0,0,0,0,0,0,0,0,0,0,0,0,0,0,0,0,0,0,0,0,0,0,0,0,0,0,0,0,0,0,0,0,0,0,0,0,0,0,0,0,0,0,0,0,0],"id":12,"left_children":[1,3,5,7,9,11,13,15,-1,17,-1,19,-1,21,23,-1,25,27,29,31,33,-1,35,-1,-1,-1,-1,37,39,-1,-1,41,43,45,47,49,51,-1,-1,-1,-1,-1,-1,-1,-1,-1,-1,-1,-1,-1,-1,-1,-1],"loss_changes":[1.2133866E3,1.6421753E2,1.01142944E2,2.3437805E1,5.8820614E1,3.321692E1,1.10822075E2,2.2004395E0,0E0,4.31208E1,0E0,3.2264404E1,0E0,5.167637E1,4.050331E0,0E0,1.4288059E1,7.2434E1,4.045868E0,1.5615845E1,5.7551975E1,0E0,3.6101513E1,0E0,0E0,0E0,0E0,1.1575789E1,1.6988098E1,0E0,0E0,4.561998E1,8.964661E0,1.2902569E1,1.8148968E1,1.0769405E0,4.6729393E1,0E0,0E0,0E0,0E0,0E0,0E0,0E0,0E0,0E0,0E0,0E0,0E0,0E0,0E0,0E0,0E0],"parents":[2147483647,0,0,1,1,2,2,3,3,4,4,5,5,6,6,7,7,9,9,11,11,13,13,14,14,16,16,17,17,18,18,19,19,20,20,22,22,27,27,28,28,31,31,32,32,33,33,34,34,35,35,36,36],"right_children":[2,4,6,8,10,12,14,16,-1,18,-1,20,-1,22,24,-1,26,28,30,32,34,-1,36,-1,-1,-1,-1,38,40,-1,-1,42,44,46,48,50,52,-1,-1,-1,-1,-1,-1,-1,-1,-1,-1,-1,-1,-1,-1,-1,-1],"split_conditions":[4.3802127E-1,2.236E0,3.0565687E-2,1.0730094E0,3.1E-2,2E1,2.336E0,2.226E0,3.1312913E-2,3.08E-1,-7.186191E-2,2.409E0,-6.61605E-2,7.2402254E-2,9.785714E-1,-7.178945E-2,2.3396643E-1,2.386E-1,4E0,4.5810592E-1,1.1955206E-2,-1.0258042E-1,7.634516E-2,1.1828206E-3,4.7316328E-2,2.2669656E-2,-6.790398E-2,7.952381E-1,1.4252902E0,4.5899067E-2,9.044467E-3,3.3755E1,2.246E0,6E0,5.0476193E-1,-7.93998E-3,2.959086E-2,-1.6774662E-2,4.732868E-2,1.4650976E-2,-7.8933984E-2,3.0704902E-2,-6.906317E-2,7.278399E-4,4.129955E-2,4.3197464E-2,-2.8487168E-2,1.2532506E-2,-9.524063E-2,4.631058E-2,1.2783761E-2,-7.844014E-2,3.9895065E-2],"split_indices":[29,0,39,21,34,32,1,0,0,40,0,6,0,39,10,0,17,40,32,29,39,0,39,0,0,0,0,10,19,0,0,13,1,33,10,31,4,0,0,0,0,0,0,0,0,0,0,0,0,0,0,0,0],"split_type":[0,0,0,0,0,0,0,0,0,0,0,0,0,0,0,0,0,0,0,0,0,0,0,0,0,0,0,0,0,0,0,0,0,0,0,0,0,0,0,0,0,0,0,0,0,0,0,0,0,0,0,0,0],"sum_hessian":[1.2235055E3,3.9258118E2,8.3092426E2,2.9378308E2,9.87981E1,7.4211584E2,8.88084E1,2.906933E2,3.0897934E0,8.011569E1,1.8682415E1,7.378893E2,4.226566E0,5.2276382E1,3.653202E1,2.7743497E2,1.3258328E1,4.652872E1,3.358697E1,6.9772955E2,4.015975E1,1.672573E1,3.555065E1,3.4993184E0,3.3032703E1,3.1252916E0,1.0133037E1,2.2323729E1,2.4204994E1,2.698727E1,6.5997005E0,1.0833311E2,5.893964E2,2.8211458E1,1.1948296E1,1.1273478E1,2.4277172E1,5.3917866E0,1.6931942E1,3.2432187E0,2.0961775E1,1.0138015E2,6.952954E0,8.98505E0,5.804114E2,2.4186617E1,4.02484E0,3.013939E0,8.934357E0,8.025972E0,3.247506E0,1.752074E1,6.756432E0],"tree_param":{"num_deleted":"0","num_feature":"42","num_nodes":"53","size_leaf_vector":"1"}},{"base_weights":[8.606474E-2,-1.5576895E0,6.6309035E-1,-1.7156498E0,-6.611358E-1,-1.4990864E0,7.4847925E-1,-6.977164E-2,1.6849678E-2,7.265909E-1,-7.16322E-2,1.7647501E-3,-6.956538E-2,3.189052E-1,9.4914776E-1,4.488293E-2,-2.1631498E-2,4.1627806E-1,-7.064993E-2,-1.2655357E0,9.7519684E-1,4.968394E-1,-6.939147E-2,5.001198E-3,-9.531728E-2,1.0325122E0,3.924787E-1,3.3618003E-2,-4.963638E-3,4.1747317E-2,-2.0075362E-2,-1.0975233E-1,2.9777553E-2],"categories":[],"categories_nodes":[],"categories_segments":[],"categories_sizes":[],"default_left":[0,0,0,0,0,0,0,0,0,0,0,0,0,0,0,0,0,0,0,0,0,0,0,0,0,0,0,0,0,0,0,0,0],"id":13,"left_children":[1,3,5,7,9,11,13,-1,-1,15,-1,-1,-1,17,19,-1,-1,21,-1,23,25,27,-1,-1,-1,29,31,-1,-1,-1,-1,-1,-1],"loss_changes":[1.1568687E3,4.3628967E1,1.6775296E2,1.725055E1,7.840097E1,1.2981514E1,7.4554504E1,0E0,0E0,1.2036774E1,0E0,0E0,0E0,5.717608E1,3.5361633E1,0E0,0E0,4.7022385E1,0E0,1.1742604E1,1.9079163E1,5.5165432E1,0E0,0E0,0E0,9.676392E0,6.1688423E1,0E0,0E0,0E0,0E0,0E0,0E0],"parents":[2147483647,0,0,1,1,2,2,3,3,4,4,5,5,6,6,9,9,13,13,14,14,17,17,19,19,20,20,21,21,25,25,26,26],"right_children":[2,4,6,8,10,12,14,-1,-1,16,-1,-1,-1,18,20,-1,-1,22,-1,24,26,28,-1,-1,-1,30,32,-1,-1,-1,-1,-1,-1],"split_conditions":[4.339891E-1,2.241E0,3.1185E1,2.402E0,3.0419292E-2,1.0986775E1,1.081442E0,-6.977164E-2,1.6849678E-2,7.7529895E-1,-7.16322E-2,1.7647501E-3,-6.956538E-2,1.7E1,-7.142857E-3,4.488293E-2,-2.1631498E-2,3.3755E1,-7.064993E-2,-1.81305E-2,6.905976E-2,2.4113571E-2,-6.939147E-2,5.001198E-3,-9.531728E-2,2.57937E-2,-4.4421455E-1,3.3618003E-2,-4.963638E-3,4.1747317E-2,-2.0075362E-2,-1.0975233E-1,2.9777553E-2],"split_indices":[14,0,13,1,38,13,21,0,0,21,0,0,0,32,5,0,0,13,0,2,38,39,0,0,0,16,35,0,0,0,0,0,0],"split_type":[0,0,0,0,0,0,0,0,0,0,0,0,0,0,0,0,0,0,0,0,0,0,0,0,0,0,0,0,0,0,0,0,0],"sum_hessian":[1.2176554E3,3.159195E2,9.017359E2,2.6777237E2,4.8147125E1,3.3607277E1,8.6812866E2,2.6443524E2,3.337141E0,2.1746046E1,2.640108E1,4.60579E0,2.9001486E1,2.773149E2,5.908137E2,1.669158E1,5.0544667E0,2.6573013E2,1.1584772E1,6.2928786E0,5.845208E2,2.56901E2,8.829145E0,3.1794767E0,3.1134021E0,5.313958E2,5.3125027E1,1.6520615E2,9.1694855E1,5.279049E2,3.4908907E0,4.660232E0,4.8464794E1],"tree_param":{"num_deleted":"0","num_feature":"42","num_nodes":"33","size_leaf_vector":"1"}},{"base_weights":[7.514496E-2,-1.5061318E0,6.3790774E-1,-6.7408246E-1,-1.6685163E0,8.344046E-1,-3.821273E-1,-6.658194E-2,1.780864E-1,-6.781141E-2,-0E0,8.7310296E-1,-6.5872705E-1,-1.0316128E0,9.02405E-1,8.0849266E-1,-6.85025E-2,-5.3773474E-2,8.8487476E-1,-8.556779E-2,3.702328E-1,3.3190027E-1,-1.4080014E0,-5.8586523E-2,1.1428444E0,4.205016E-2,-6.6091004E-3,9.482513E-1,4.6235847E-1,-2.6306868E-2,4.233269E-2,-5.9095476E-2,4.2821594E-2,-5.0221965E-2,-1.8003407E0,1.7720012E-2,4.7691815E-2,4.0770363E-2,2.7841631E-2,-9.7255066E-2,3.250872E-2,3.7149508E-2,-8.24894E-2,-7.934205E-2,-7.107892E-3],"categories":[],"categories_nodes":[],"categories_segments":[],"categories_sizes":[],"default_left":[0,0,0,0,0,0,0,0,0,0,0,0,0,0,0,0,0,0,0,0,0,0,0,0,0,0,0,0,0,0,0,0,0,0,0,0,0,0,0,0,0,0,0,0,0],"id":14,"left_children":[1,3,5,7,9,11,13,-1,15,-1,-1,17,19,21,23,25,-1,-1,27,-1,29,31,33,-1,35,-1,-1,37,39,-1,-1,-1,-1,41,43,-1,-1,-1,-1,-1,-1,-1,-1,-1,-1],"loss_changes":[1.0622389E3,4.1091248E1,1.7678998E2,4.5013153E1,1.1619507E1,4.3257324E1,1.201051E2,0E0,3.626924E1,0E0,0E0,1.9968811E1,3.011917E1,4.9462128E1,2.9247093E1,5.5785227E0,0E0,0E0,1.8693848E1,0E0,9.313927E0,3.0173841E1,3.9744965E1,0E0,9.3310547E-1,0E0,0E0,1.0353699E1,9.880994E1,0E0,0E0,0E0,0E0,3.7150414E1,1.6809494E1,0E0,0E0,0E0,0E0,0E0,0E0,0E0,0E0,0E0,0E0],"parents":[2147483647,0,0,1,1,2,2,3,3,4,4,5,5,6,6,8,8,11,11,12,12,13,13,14,14,15,15,18,18,20,20,21,21,22,22,24,24,27,27,28,28,33,33,34,34],"right_children":[2,4,6,8,10,12,14,-1,16,-1,-1,18,20,22,24,26,-1,-1,28,-1,30,32,34,-1,36,-1,-1,38,40,-1,-1,-1,-1,42,44,-1,-1,-1,-1,-1,-1,-1,-1,-1,-1],"split_conditions":[4.339891E-1,-5.6806475E-1,3.0565687E-2,2.227E0,1.0997478E0,9E0,5.5714287E-3,-6.658194E-2,2.2545714E0,-6.781141E-2,-0E0,1.5238096E-1,8.666667E-1,3.161478E-1,2.225E0,9.85759E-3,-6.85025E-2,-5.3773474E-2,3.3755E1,-8.556779E-2,-6.3571427E-3,2.246E0,-9.9270886E-1,-5.8586523E-2,0E0,4.205016E-2,-6.6091004E-3,1.6631275E-2,2.334E0,-2.6306868E-2,4.233269E-2,-5.9095476E-2,4.2821594E-2,-7.93998E-3,2.5E-2,1.7720012E-2,4.7691815E-2,4.0770363E-2,2.7841631E-2,-9.7255066E-2,3.250872E-2,3.7149508E-2,-8.24894E-2,-7.934205E-2,-7.107892E-3],"split_indices":[14,26,39,0,21,33,5,0,12,0,0,10,10,17,6,31,0,0,13,0,5,0,26,0,41,0,0,39,8,0,0,0,0,31,2,0,0,0,0,0,0,0,0,0,0],"split_type":[0,0,0,0,0,0,0,0,0,0,0,0,0,0,0,0,0,0,0,0,0,0,0,0,0,0,0,0,0,0,0,0,0,0,0,0,0,0,0,0,0,0,0,0,0],"sum_hessian":[1.1916521E3,3.123189E2,8.793332E2,5.189105E1,2.6042786E2,7.3749506E2,1.4183812E2,2.3584461E1,2.830659E1,2.5627997E2,4.147874E0,7.193013E2,1.8193802E1,9.4362404E1,4.7475716E1,2.1677422E1,6.629166E0,3.1782026E0,7.1612305E2,7.037644E0,1.11561575E1,2.0410017E1,7.3952385E1,3.8890822E0,4.3586636E1,1.7328836E1,4.3485866E0,6.215319E2,9.459111E1,4.4620285E0,6.694129E0,5.6072645E0,1.48027525E1,1.6859993E1,5.7092396E1,3.6005228E0,3.998611E1,4.8245972E2,1.390722E2,9.558871E0,8.503224E1,1.1687101E1,5.172891E0,5.1072617E1,6.01978E0],"tree_param":{"num_deleted":"0","num_feature":"42","num_nodes":"45","size_leaf_vector":"1"}},{"base_weights":[4.1909423E-2,-1.2567352E0,7.0548093E-1,-1.595098E0,-1.7296803E-1,-2.469954E-2,8.582985E-1,-1.6222475E0,3.0538466E-2,5.432071E-1,-9.1277736E-1,3.4025356E-1,-1.1427372E0,-4.6706167E-1,9.243049E-1,-6.5938145E-2,2.59809E-3,9.542989E-1,-6.639116E-2,-7.030938E-2,3.7930336E-2,-1.0607116E0,6.786536E-1,-8.6954646E-2,4.7524884E-1,-7.9727255E-2,4.1386482E-1,-1.3366142E-1,9.61862E-1,4.783987E-2,-3.3181276E-2,6.3864243E-1,-8.0496185E-2,8.296462E-1,-6.725284E-2,4.4815134E-2,-2.063329E-2,-2.592676E-2,8.678793E-1,-9.9507704E-2,4.3282073E-2,1.0038749E0,3.1124216E-1,-6.0209487E-2,4.11583E-2,4.280786E-2,4.671733E-3,4.0045764E-2,-1.6551847E-2,9.876556E-4,4.3603554E-2,-2.587764E-2,4.061742E-2,3.0229544E-2,-8.731333E-2],"categories":[],"categories_nodes":[],"categories_segments":[],"categories_sizes":[],"default_left":[0,0,0,0,0,0,0,0,0,0,0,0,0,0,0,0,0,0,0,0,0,0,0,0,0,0,0,0,0,0,0,0,0,0,0,0,0,0,0,0,0,0,0,0,0,0,0,0,0,0,0,0,0,0,0],"id":15,"left_children":[1,3,5,7,9,11,13,15,-1,17,19,21,23,25,27,-1,-1,29,-1,-1,-1,31,33,-1,35,-1,37,39,41,-1,43,45,-1,47,-1,-1,-1,-1,49,-1,-1,51,53,-1,-1,-1,-1,-1,-1,-1,-1,-1,-1,-1,-1],"loss_changes":[9.888581E2,1.4193805E2,8.480643E1,2.0207764E1,5.004601E1,5.4432716E1,5.540262E1,1.3121338E1,0E0,4.5104065E1,7.465756E1,4.8355003E1,5.589678E1,4.1808132E1,2.3957886E1,0E0,0E0,9.927486E0,0E0,0E0,0E0,3.356588E1,3.0429722E1,0E0,9.292081E0,0E0,1.0264263E1,6.3880573E1,1.5429993E1,0E0,1.5692315E1,1.5926259E0,0E0,1.6945404E1,0E0,0E0,0E0,0E0,2.641551E0,0E0,0E0,1.1032959E1,4.215419E1,0E0,0E0,0E0,0E0,0E0,0E0,0E0,0E0,0E0,0E0,0E0,0E0],"parents":[2147483647,0,0,1,1,2,2,3,3,4,4,5,5,6,6,7,7,9,9,10,10,11,11,12,12,13,13,14,14,17,17,21,21,22,22,24,24,26,26,27,27,28,28,30,30,31,31,33,33,38,38,41,41,42,42],"right_children":[2,4,6,8,10,12,14,16,-1,18,20,22,24,26,28,-1,-1,30,-1,-1,-1,32,34,-1,36,-1,38,40,42,-1,44,46,-1,48,-1,-1,-1,-1,50,-1,-1,52,54,-1,-1,-1,-1,-1,-1,-1,-1,-1,-1,-1,-1],"split_conditions":[4.3802127E-1,2.241E0,4.5878136E-1,1.0730094E0,-5.6806475E-1,2.828E-1,-8.660254E-1,4.7416717E-1,3.0538466E-2,2.2692857E0,4.6143493E-1,2.436E-1,3.7703734E-2,1.4587778E0,3.1747E1,-6.5938145E-2,2.59809E-3,3.628512E-1,-6.639116E-2,-7.030938E-2,3.7930336E-2,4.372262E-1,2.3931566E-1,-8.6954646E-2,4.1246068E-2,-7.9727255E-2,4.636135E-1,5.259998E-1,2.403E0,4.783987E-2,2.4E-2,-4.6E-2,-8.0496185E-2,3.3205E1,-6.725284E-2,4.4815134E-2,-2.063329E-2,-2.592676E-2,2E-3,-9.9507704E-2,4.3282073E-2,9E-3,-6.6312265E-1,-6.0209487E-2,4.11583E-2,4.280786E-2,4.671733E-3,4.0045764E-2,-1.6551847E-2,9.876556E-4,4.3603554E-2,-2.587764E-2,4.061742E-2,3.0229544E-2,-8.731333E-2],"split_indices":[29,0,29,21,26,40,24,14,0,12,15,40,4,30,13,0,0,18,0,0,0,18,25,0,4,0,15,35,6,0,2,2,0,13,0,0,0,0,2,0,0,11,25,0,0,0,0,0,0,0,0,0,0,0,0],"split_type":[0,0,0,0,0,0,0,0,0,0,0,0,0,0,0,0,0,0,0,0,0,0,0,0,0,0,0,0,0,0,0,0,0,0,0,0,0,0,0,0,0,0,0,0,0,0,0,0,0,0,0,0,0,0,0],"sum_hessian":[1.1455117E3,3.870551E2,7.584566E2,2.945696E2,9.24855E1,1.3135204E2,6.2710455E2,2.91547E2,3.0226068E0,4.709407E1,4.539143E1,9.951802E1,3.1834013E1,2.9425676E1,5.976789E2,2.8713962E2,4.40738E0,4.018483E1,6.909243E0,3.1274426E1,1.4117003E1,1.8917583E1,8.060043E1,1.9252129E1,1.2581884E1,1.0327846E1,1.909783E1,2.0356453E1,5.7732245E2,3.2154175E1,8.030653E0,6.8904037E0,1.202718E1,7.638303E1,4.2173967E0,7.572601E0,5.009283E0,5.558224E0,1.3539606E1,6.5902843E0,1.376617E1,5.417217E2,3.5600765E1,3.2107122E0,4.819941E0,3.1438992E0,3.7465043E0,6.7331604E1,9.05143E0,3.102628E0,1.0436978E1,3.3550138E0,5.3836664E2,3.082427E1,4.776496E0],"tree_param":{"num_deleted":"0","num_feature":"42","num_nodes":"55","size_leaf_vector":"1"}},{"base_weights":[8.914513E-2,-1.2808678E0,7.130107E-1,-6.4296454E-2,-2.143017E-1,8.321886E-1,-2.2494519E-1,7.622717E-1,-6.605402E-2,1.4231437E-1,9.058172E-1,-1.0455973E0,1.0138088E0,9.568017E-1,-5.9667997E-2,-7.927792E-2,3.520928E-1,9.344795E-1,-2.5841175E-2,1.4692523E-1,-1.8570902E0,-3.7257452E-3,4.5673274E-2,-2.4453266E-2,1.1225941E0,9.7421044E-1,-2.1287252E-1,9.463227E-1,-1.6691757E-2,5.257515E-1,-9.167543E-2,4.3033246E-2,-8.699852E-1,-8.480654E-2,1.9972987E-2,4.7487587E-2,9.690917E-3,4.285665E-2,2.4990656E-3,-4.1582458E-2,3.0380245E-2,-3.4213527E-3,3.843322E-2,-2.1245694E-2,4.0668134E-2,4.20767E-2,-6.839013E-2],"categories":[],"categories_nodes":[],"categories_segments":[],"categories_sizes":[],"default_left":[0,0,0,0,0,0,0,0,0,0,0,0,0,0,0,0,0,0,0,0,0,0,0,0,0,0,0,0,0,0,0,0,0,0,0,0,0,0,0,0,0,0,0,0,0,0,0],"id":16,"left_children":[1,3,5,-1,7,9,11,13,-1,15,17,19,21,23,-1,-1,25,27,29,31,33,-1,-1,-1,35,37,39,41,-1,43,-1,-1,45,-1,-1,-1,-1,-1,-1,-1,-1,-1,-1,-1,-1,-1,-1],"loss_changes":[9.800346E2,1.2452051E2,8.828305E1,0E0,1.2099423E2,3.5337463E1,9.2103355E1,2.3956396E1,0E0,3.122433E1,1.6934875E1,5.2988598E1,5.284733E0,1.3187309E1,0E0,0E0,2.2522943E1,1.0231934E1,2.6006296E1,2.2600859E1,2.1262772E1,0E0,0E0,0E0,2.130371E0,2.5694504E0,2.8131233E1,9.22522E0,0E0,9.227882E0,0E0,0E0,2.0344963E1,0E0,0E0,0E0,0E0,0E0,0E0,0E0,0E0,0E0,0E0,0E0,0E0,0E0,0E0],"parents":[2147483647,0,0,1,1,2,2,4,4,5,5,6,6,7,7,9,9,10,10,11,11,12,12,13,13,16,16,17,17,18,18,19,19,20,20,24,24,25,25,26,26,27,27,29,29,32,32],"right_children":[2,4,6,-1,8,10,12,14,-1,16,18,20,22,24,-1,-1,26,28,30,32,34,-1,-1,-1,36,38,40,42,-1,44,-1,-1,46,-1,-1,-1,-1,-1,-1,-1,-1,-1,-1,-1,-1,-1,-1],"split_conditions":[4.3802127E-1,2.241E0,3.0565687E-2,-6.4296454E-2,3.5822764E-2,4.5045316E-1,2.336E0,7.3288724E-2,-6.605402E-2,4.526222E-1,9E0,2.19E0,2.307E0,-6.6312265E-1,-5.9667997E-2,-7.927792E-2,4.6335948E-1,8.510548E-2,2.376E0,-9.9270886E-1,3.2633E1,-3.7257452E-3,4.5673274E-2,-2.4453266E-2,1.996166E-2,7E0,1.8861223E0,1.5E-2,-1.6691757E-2,2.295E0,-9.167543E-2,4.3033246E-2,-4.6E-2,-8.480654E-2,1.9972987E-2,4.7487587E-2,9.690917E-3,4.285665E-2,2.4990656E-3,-4.1582458E-2,3.0380245E-2,-3.4213527E-3,3.843322E-2,-2.1245694E-2,4.0668134E-2,4.20767E-2,-6.839013E-2],"split_indices":[29,0,39,0,38,14,1,39,0,17,33,8,0,25,0,0,17,38,8,26,13,0,0,0,31,32,20,11,0,0,0,0,2,0,0,0,0,0,0,0,0,0,0,0,0,0,0],"split_type":[0,0,0,0,0,0,0,0,0,0,0,0,0,0,0,0,0,0,0,0,0,0,0,0,0,0,0,0,0,0,0,0,0,0,0,0,0,0,0,0,0,0,0,0,0,0,0],"sum_hessian":[1.144601E3,3.5778015E2,7.8682086E2,2.734927E2,8.4287445E1,6.982645E2,8.855633E1,5.0442833E1,3.3844612E1,6.768563E1,6.3057886E2,5.3385612E1,3.5170715E1,4.6985424E1,3.45741E0,5.3027415E0,6.2382885E1,6.1180743E2,1.8771471E1,2.192429E1,3.1461325E1,3.6337066E0,3.1537006E1,4.206804E0,4.277862E1,2.9387098E1,3.299579E1,6.068278E2,4.9796224E0,1.5696586E1,3.0748858E0,1.1453351E1,1.0470938E1,2.8410967E1,3.0503585E0,3.947655E1,3.3020692E0,2.6347986E1,3.0391126E0,1.7824354E1,1.5171434E1,8.298064E0,5.985297E2,4.920437E0,1.0776149E1,3.0890758E0,7.381862E0],"tree_param":{"num_deleted":"0","num_feature":"42","num_nodes":"47","size_leaf_vector":"1"}},{"base_weights":[4.1404378E-2,-1.4614022E0,5.5978364E-1,-6.2399864E-2,-4.837993E-1,-2.0692345E-1,8.0729187E-1,4.1131E-2,-6.0947936E-2,-1.3273386E0,-4.524147E-3,-5.211884E-1,8.794468E-1,2.5058085E-2,-6.323877E-2,1.043521E0,-3.8452396E-1,7.7611816E-1,-1.655437E0,8.9704704E-1,-5.9508845E-2,4.7293875E-2,-3.089668E-3,3.031753E-1,-1.2091597E0,-9.30652E-3,4.4490386E-2,8.673794E-3,-8.362206E-2,9.147468E-1,-3.6700707E-2,-5.6927226E-2,2.689452E-2,9.487479E-3,-7.347836E-2,3.8787626E-2,1.750702E-2],"categories":[],"categories_nodes":[],"categories_segments":[],"categories_sizes":[],"default_left":[0,0,0,0,0,0,0,0,0,0,0,0,0,0,0,0,0,0,0,0,0,0,0,0,0,0,0,0,0,0,0,0,0,0,0,0,0],"id":17,"left_children":[1,3,5,-1,7,9,11,-1,-1,13,15,17,19,-1,-1,21,23,25,27,29,-1,-1,-1,31,33,-1,-1,-1,-1,35,-1,-1,-1,-1,-1,-1,-1],"loss_changes":[8.483607E2,2.6063599E1,1.5385365E2,0E0,4.4177807E1,4.4907196E1,5.9175446E1,0E0,0E0,1.6056717E1,6.769019E1,4.861995E1,2.55206E1,0E0,0E0,7.1817474E0,7.12006E1,5.61026E0,1.4792698E1,1.9389587E1,0E0,0E0,0E0,4.478841E1,5.2268097E1,0E0,0E0,0E0,0E0,1.4512482E1,0E0,0E0,0E0,0E0,0E0,0E0,0E0],"parents":[2147483647,0,0,1,1,2,2,4,4,5,5,6,6,9,9,10,10,11,11,12,12,15,15,16,16,17,17,18,18,19,19,23,23,24,24,29,29],"right_children":[2,4,6,-1,8,10,12,-1,-1,14,16,18,20,-1,-1,22,24,26,28,30,-1,-1,-1,32,34,-1,-1,-1,-1,36,-1,-1,-1,-1,-1,-1,-1],"split_conditions":[1.8800275E-2,2.254E0,4.5855588E-1,-6.2399864E-2,3.089863E-2,3.1215E1,2.241E0,4.1131E-2,-6.0947936E-2,-2.1E-2,3.1403E1,8.40438E-2,8.29627E-2,2.5058085E-2,-6.323877E-2,7E0,-8.85456E-1,2.279E0,-1.806941E-2,2.454E0,-5.9508845E-2,4.7293875E-2,-3.089668E-3,-9.7094184E-1,3.5877818E-1,-9.30652E-3,4.4490386E-2,8.673794E-3,-8.362206E-2,6.905976E-2,-3.6700707E-2,-5.6927226E-2,2.689452E-2,9.487479E-3,-7.347836E-2,3.8787626E-2,1.750702E-2],"split_indices":[36,0,15,0,38,13,0,0,0,3,13,36,39,0,0,32,25,7,16,7,0,0,0,25,18,0,0,0,0,38,0,0,0,0,0,0,0],"split_type":[0,0,0,0,0,0,0,0,0,0,0,0,0,0,0,0,0,0,0,0,0,0,0,0,0,0,0,0,0,0,0,0,0,0,0,0,0],"sum_hessian":[1.0870127E3,2.7829794E2,8.087148E2,2.5221442E2,2.6083515E1,1.9734875E2,6.11366E2,1.06136875E1,1.5469827E1,2.9307446E1,1.680413E2,3.1138763E1,5.802273E2,3.1758535E0,2.6131592E1,4.4215797E1,1.23825516E2,1.4652035E1,1.6486729E1,5.7658246E2,3.6448102E0,3.9333344E1,4.882451E0,6.7830475E1,5.599504E1,3.7017999E0,1.0950234E1,3.1818917E0,1.3304837E1,5.71531E2,5.051443E0,1.1423376E1,5.64071E1,1.7112713E1,3.8882324E1,5.1148627E2,6.0044754E1],"tree_param":{"num_deleted":"0","num_feature":"42","num_nodes":"37","size_leaf_vector":"1"}},{"base_weights":[5.3885635E-2,-1.2057936E0,6.5250033E-1,-3.6901593E-1,-1.470387E0,7.895396E-1,-3.238556E-1,3.2433158E-1,-1.4454443E0,-1.471745E-1,-6.157757E-2,8.5665137E-1,-8.767938E-2,-9.667687E-1,9.3769157E-1,-5.8414187E-2,9.756924E-1,1.7571663E-2,-6.5968595E-2,-6.2817976E-2,7.7897286E-1,-8.8141955E-2,8.9884114E-1,7.9961175E-1,-7.6112896E-2,2.6438826E-1,-1.4874357E0,-1.8489611E-3,4.3419454E-2,1.1062608E0,-1.5128208E-3,4.215126E-2,8.001864E-3,4.816434E-1,-9.329913E-2,4.4119507E-1,9.6906525E-1,1.0559545E0,-3.748126E-2,-6.5841906E-2,7.843572E-1,2.4985863E-2,-7.516103E-2,7.314598E-3,4.7553897E-2,3.8968164E-2,-5.4808505E-2,2.3650467E-2,-7.96812E-2,-2.1535715E-2,3.9597493E-2,1.7020088E-2,4.61275E-2,-6.6971825E-3,4.6841424E-2],"categories":[],"categories_nodes":[],"categories_segments":[],"categories_sizes":[],"default_left":[0,0,0,0,0,0,0,0,0,0,0,0,0,0,0,0,0,0,0,0,0,0,0,0,0,0,0,0,0,0,0,0,0,0,0,0,0,0,0,0,0,0,0,0,0,0,0,0,0,0,0,0,0,0,0],"id":18,"left_children":[1,3,5,7,9,11,13,15,17,19,-1,21,23,25,27,-1,29,-1,-1,-1,31,33,35,37,-1,39,41,-1,-1,43,-1,-1,-1,45,-1,47,49,51,-1,-1,53,-1,-1,-1,-1,-1,-1,-1,-1,-1,-1,-1,-1,-1,-1],"loss_changes":[8.2265186E2,7.717453E1,9.92262E1,6.45671E1,2.4050781E1,3.8311584E1,7.527142E1,6.298817E1,1.3777077E1,2.0198835E1,0E0,2.4150452E1,7.721766E1,3.971905E1,4.6730614E0,0E0,5.3136406E0,0E0,0E0,0E0,1.2139807E0,3.527068E1,1.8053131E1,1.5343868E1,0E0,2.0147642E1,3.698845E1,0E0,0E0,2.383892E0,0E0,0E0,0E0,2.1427588E1,0E0,2.9852863E1,1.6272186E1,1.1823997E0,0E0,0E0,6.007189E0,0E0,0E0,0E0,0E0,0E0,0E0,0E0,0E0,0E0,0E0,0E0,0E0,0E0,0E0],"parents":[2147483647,0,0,1,1,2,2,3,3,4,4,5,5,6,6,7,7,8,8,9,9,11,11,12,12,13,13,14,14,16,16,20,20,21,21,22,22,23,23,25,25,26,26,29,29,33,33,35,35,36,36,37,37,40,40],"right_children":[2,4,6,8,10,12,14,16,18,20,-1,22,24,26,28,-1,30,-1,-1,-1,32,34,36,38,-1,40,42,-1,-1,44,-1,-1,-1,46,-1,48,50,52,-1,-1,54,-1,-1,-1,-1,-1,-1,-1,-1,-1,-1,-1,-1,-1,-1],"split_conditions":[4.467428E-1,-5.6806475E-1,3.0565687E-2,3.183988E-2,-9.350162E-1,3.3915E1,5.5714287E-3,2.226143E0,-1.58E-1,2.341E0,-6.157757E-2,2.219E0,1.1566531E-2,-9.9270886E-1,4E0,-5.8414187E-2,7.025969E-2,1.7571663E-2,-6.5968595E-2,-6.2817976E-2,2.192E0,4.6085373E-1,4.5962977E-1,5E0,-7.6112896E-2,1E0,3.9243504E-1,-1.8489611E-3,4.3419454E-2,-5E-4,-1.5128208E-3,4.215126E-2,8.001864E-3,1.5531991E-2,-9.329913E-2,3.2E1,1.5E-2,2.3778775E0,-3.748126E-2,-6.5841906E-2,4.5454573E-2,2.4985863E-2,-7.516103E-2,7.314598E-3,4.7553897E-2,3.8968164E-2,-5.4808505E-2,2.3650467E-2,-7.96812E-2,-2.1535715E-2,3.9597493E-2,1.7020088E-2,4.61275E-2,-6.6971825E-3,4.6841424E-2],"split_indices":[15,26,39,38,25,13,5,12,34,12,0,0,39,26,9,0,39,0,0,0,0,15,15,33,0,33,17,0,0,5,0,0,0,39,0,9,11,19,0,0,38,0,0,0,0,0,0,0,0,0,0,0,0,0,0],"split_type":[0,0,0,0,0,0,0,0,0,0,0,0,0,0,0,0,0,0,0,0,0,0,0,0,0,0,0,0,0,0,0,0,0,0,0,0,0,0,0,0,0,0,0,0,0,0,0,0,0,0,0,0,0,0,0],"sum_hessian":[1.088953E3,3.5043225E2,7.385208E2,8.4808525E1,2.6562372E2,6.4783466E2,9.068616E1,5.197969E1,3.2828835E1,1.33653965E1,2.5225832E2,6.01869E2,4.5965626E1,6.0253105E1,3.0433052E1,1.3545936E1,3.8433754E1,3.066321E0,2.9762514E1,5.0157113E0,8.349685E0,2.5630417E1,5.762386E2,3.1230997E1,1.4734627E1,1.802583E1,4.2227272E1,4.0199513E0,2.64131E1,3.401013E1,4.423621E0,5.0472302E0,3.3024545E0,2.1049541E1,4.5808764E0,7.7722206E1,4.985164E2,2.7580622E1,3.6503763E0,3.372604E0,1.4653226E1,6.491557E0,3.5735718E1,3.1056533E0,3.090448E1,1.702273E1,4.026812E0,7.393961E1,3.7825956E0,6.4367867E0,4.920796E2,4.4723787E0,2.3108242E1,4.359722E0,1.0293504E1],"tree_param":{"num_deleted":"0","num_feature":"42","num_nodes":"55","size_leaf_vector":"1"}},{"base_weights":[9.437626E-2,-1.1617415E0,6.781714E-1,-1.4745854E0,-1.2749948E-1,7.9265475E-1,-2.9022393E-1,-6.0203604E-2,1.8381841E-2,7.016563E-1,-6.1826415E-2,-4.0291786E-1,8.219374E-1,-1.0097417E0,1.0158631E0,8.9041513E-1,-5.592234E-2,4.5718428E-1,-7.4936844E-2,9.1230345E-1,4.7576374E-1,-1.7094392E0,4.789915E-1,1.38021875E-2,4.5124818E-2,1.0609884E0,2.9181883E-2,4.4015482E-2,-1.3312408E-2,-5.228785E-2,9.3323207E-1,-1.8989743E0,8.3523893E-1,1.4229149E-2,-7.6992616E-2,-5.5021446E-2,1.111609E0,4.592918E-2,1.4094951E-3,-3.7624482E-2,3.8318135E-2,3.7954953E-2,-1.5020926E-2,-1.1039478E-1,3.7500765E-2,3.7532855E-2,-6.812103E-2,1.9182868E-2,5.061447E-2],"categories":[],"categories_nodes":[],"categories_segments":[],"categories_sizes":[],"default_left":[0,0,0,0,0,0,0,0,0,0,0,0,0,0,0,0,0,0,0,0,0,0,0,0,0,0,0,0,0,0,0,0,0,0,0,0,0,0,0,0,0,0,0,0,0,0,0,0,0],"id":19,"left_children":[1,3,5,7,9,11,13,-1,-1,15,-1,17,19,21,23,25,-1,27,-1,29,31,33,35,-1,-1,37,39,-1,-1,-1,41,43,45,-1,-1,-1,47,-1,-1,-1,-1,-1,-1,-1,-1,-1,-1,-1,-1],"loss_changes":[7.96013E2,1.1117578E2,8.2408844E1,1.6338379E1,9.6516556E1,2.3563263E1,7.5292E1,0E0,0E0,2.1772654E1,0E0,2.177154E1,1.975238E1,5.4507626E1,1.6866379E0,6.9971695E0,0E0,6.0858593E0,0E0,2.4996735E1,1.1783841E2,1.644812E1,2.1716745E1,0E0,0E0,3.4947128E0,9.0507765E0,0E0,0E0,0E0,1.0786285E1,4.712039E1,3.270765E1,0E0,0E0,0E0,6.09272E-1,0E0,0E0,0E0,0E0,0E0,0E0,0E0,0E0,0E0,0E0,0E0,0E0],"parents":[2147483647,0,0,1,1,2,2,3,3,4,4,5,5,6,6,9,9,11,11,12,12,13,13,14,14,15,15,17,17,19,19,20,20,21,21,22,22,25,25,26,26,30,30,31,31,32,32,36,36],"right_children":[2,4,6,8,10,12,14,-1,-1,16,-1,18,20,22,24,26,-1,28,-1,30,32,34,36,-1,-1,38,40,-1,-1,-1,42,44,46,-1,-1,-1,48,-1,-1,-1,-1,-1,-1,-1,-1,-1,-1,-1,-1],"split_conditions":[4.3802127E-1,2.241E0,3.0565687E-2,2.393E0,3.5822764E-2,4.3494114E-1,5.5714287E-3,-6.0203604E-2,1.8381841E-2,7.980922E-2,-6.1826415E-2,2.441E-1,3.3461E1,3.83E-1,2.2794109E-2,2.276E0,-5.592234E-2,2.241E0,-7.4936844E-2,2.5E-2,2.33E0,2.199E-1,7.6603067E-1,1.38021875E-2,4.5124818E-2,1.3E1,3.1581003E-2,4.4015482E-2,-1.3312408E-2,-5.228785E-2,1.8E1,1.2571429E-2,1.4690329E-2,1.4229149E-2,-7.6992616E-2,-5.5021446E-2,4.563888E-1,4.592918E-2,1.4094951E-3,-3.7624482E-2,3.8318135E-2,3.7954953E-2,-1.5020926E-2,-1.1039478E-1,3.7500765E-2,3.7532855E-2,-6.812103E-2,1.9182868E-2,5.061447E-2],"split_indices":[29,0,39,1,38,14,5,0,0,39,0,40,13,11,4,6,0,8,0,11,8,40,6,0,0,32,38,0,0,0,32,5,39,0,0,0,14,0,0,0,0,0,0,0,0,0,0,0,0],"split_type":[0,0,0,0,0,0,0,0,0,0,0,0,0,0,0,0,0,0,0,0,0,0,0,0,0,0,0,0,0,0,0,0,0,0,0,0,0,0,0,0,0,0,0,0,0,0,0,0,0],"sum_hessian":[1.0834574E3,3.4343433E2,7.4002313E2,2.6331198E2,8.0122345E1,6.6199536E2,7.802775E1,2.5946738E2,3.844584E0,5.0857487E1,2.9264856E1,1.548048E1,6.465149E2,5.048239E1,2.7545357E1,4.7212917E1,3.6445694E0,1.0180795E1,5.299685E0,5.1127145E2,1.3524344E2,3.426387E1,1.6218521E1,4.5966535E0,2.2948702E1,3.916585E1,8.047067E0,5.4300823E0,4.750713E0,4.1795287E0,5.0709192E2,1.7199522E1,1.18043915E2,3.1524396E0,3.1111431E1,3.806453E0,1.2412067E1,3.5940895E1,3.2249534E0,3.9040244E0,4.1430426E0,5.0141238E2,5.679524E0,1.3229054E1,3.9704678E0,1.1406174E2,3.9821777E0,3.2982283E0,9.11384E0],"tree_param":{"num_deleted":"0","num_feature":"42","num_nodes":"49","size_leaf_vector":"1"}},{"base_weights":[6.634174E-2,-1.1703192E0,6.4117485E-1,-5.1196605E-1,-1.4515923E0,7.2955215E-1,-7.1619034E-1,-5.794445E-2,-1.2120586E-3,-5.8932316E-2,4.0138145E-3,1.6819555E-1,8.429401E-1,1.0026162E-1,-6.7800775E-2,8.050824E-1,-8.450307E-1,3.7593603E-1,-6.6588774E-2,-6.859871E-2,8.7344784E-1,-5.6577362E-2,8.405802E-1,1.0206144E0,-1.3885593E-2,7.4333245E-1,-6.608549E-2,5.1536644E-1,-7.5924054E-2,8.9434636E-1,-4.200386E-1,4.6536103E-2,-8.961474E-3,2.0833815E-2,4.3949094E-2,4.337672E-2,2.1569631E-5,2.532937E-2,-9.146888E-2,3.870653E-2,2.6043996E-2,3.930771E-2,-7.3092386E-2],"categories":[],"categories_nodes":[],"categories_segments":[],"categories_sizes":[],"default_left":[0,0,0,0,0,0,0,0,0,0,0,0,0,0,0,0,0,0,0,0,0,0,0,0,0,0,0,0,0,0,0,0,0,0,0,0,0,0,0,0,0,0,0],"id":20,"left_children":[1,3,5,7,9,11,13,-1,15,-1,-1,17,19,21,-1,23,25,27,-1,-1,29,-1,31,33,-1,35,-1,37,-1,39,41,-1,-1,-1,-1,-1,-1,-1,-1,-1,-1,-1,-1],"loss_changes":[7.510313E2,6.1240143E1,8.704062E1,4.87006E1,8.11264E0,4.2941406E1,3.5858646E1,0E0,4.627561E1,0E0,0E0,4.442664E1,4.5426025E1,2.9429836E1,0E0,9.0178585E0,4.3915565E1,3.39839E1,0E0,0E0,1.5469666E1,0E0,6.3506107E0,5.009117E-1,0E0,2.9540296E0,0E0,3.409397E1,0E0,9.079834E0,2.0604067E1,0E0,0E0,0E0,0E0,0E0,0E0,0E0,0E0,0E0,0E0,0E0,0E0],"parents":[2147483647,0,0,1,1,2,2,3,3,4,4,5,5,6,6,8,8,11,11,12,12,13,13,15,15,16,16,17,17,20,20,22,22,23,23,25,25,27,27,29,29,30,30],"right_children":[2,4,6,8,10,12,14,-1,16,-1,-1,18,20,22,-1,24,26,28,-1,-1,30,-1,32,34,-1,36,-1,38,-1,40,42,-1,-1,-1,-1,-1,-1,-1,-1,-1,-1,-1,-1],"split_conditions":[4.4611874E-1,1E1,6.4324905E-16,3.1215E1,8.428571E-1,4.5962977E-1,4.0831715E-1,-5.794445E-2,3.1618E1,-5.8932316E-2,4.0138145E-3,3.3771E1,2.246E0,2.261E0,-6.7800775E-2,3.183988E-2,-9.350162E-1,3.2E1,-6.6588774E-2,-6.859871E-2,7.789876E-2,-5.6577362E-2,1.5242352E-1,-1.213402E-2,-1.3885593E-2,2.272E0,-6.608549E-2,3.306E-1,-7.5924054E-2,4.7143093E-1,1.4174695E-2,4.6536103E-2,-8.961474E-3,2.0833815E-2,4.3949094E-2,4.337672E-2,2.1569631E-5,2.532937E-2,-9.146888E-2,3.870653E-2,2.6043996E-2,3.930771E-2,-7.3092386E-2],"split_indices":[15,32,25,13,10,15,18,0,13,0,0,13,1,1,0,38,25,9,0,0,38,0,36,16,0,8,0,40,0,15,39,0,0,0,0,0,0,0,0,0,0,0,0],"split_type":[0,0,0,0,0,0,0,0,0,0,0,0,0,0,0,0,0,0,0,0,0,0,0,0,0,0,0,0,0,0,0,0,0,0,0,0,0,0,0,0,0,0,0],"sum_hessian":[1.0544723E3,3.3425455E2,7.202177E2,1.0095512E2,2.3329942E2,6.7666016E2,4.3557602E1,3.494224E1,6.601287E1,2.3016176E2,3.1376753E0,1.1420124E2,5.624589E2,2.4210146E1,1.9347458E1,3.375019E1,3.2262684E1,1.03313934E2,1.0887307E1,5.959208E0,5.564997E2,7.62705E0,1.6583096E1,2.856458E1,5.1856084E0,1.0876029E1,2.1386654E1,9.809471E1,5.2192254E0,5.4799316E2,8.506552E0,1.2689464E1,3.8936322E0,4.984102E0,2.3580479E1,7.092136E0,3.7838933E0,9.489488E1,3.199828E0,4.1863022E2,1.293629E2,4.393449E0,4.113103E0],"tree_param":{"num_deleted":"0","num_feature":"42","num_nodes":"43","size_leaf_vector":"1"}},{"base_weights":[9.69865E-2,-1.1907238E0,6.1029035E-1,-1.3639574E0,-7.462779E-2,1.6649699E-2,8.13823E-1,4.1003016E-1,-1.4161501E0,9.32496E-1,-5.6168657E-2,4.27782E-1,-7.632221E-1,8.5458595E-1,8.249824E-2,4.197542E-3,2.6510563E-2,-5.7803616E-2,7.27595E-3,4.356295E-2,-3.1421843E-3,5.795281E-1,-6.325357E-2,6.87814E-2,-1.6786193E0,8.687019E-1,-2.3684748E-2,-9.231831E-2,7.8078514E-1,7.271576E-1,-5.6133524E-2,7.733801E-1,-5.8753222E-2,1.263259E-2,-7.59502E-2,8.964531E-1,2.0890193E-1,-1.4424002E-2,4.154419E-2,-1.6723244E-2,3.537118E-2,-9.59815E-3,4.436437E-2,3.6354788E-2,-2.2286186E-2,3.1179322E-2,-7.358365E-2],"categories":[],"categories_nodes":[],"categories_segments":[],"categories_sizes":[],"default_left":[0,0,0,0,0,0,0,0,0,0,0,0,0,0,0,0,0,0,0,0,0,0,0,0,0,0,0,0,0,0,0,0,0,0,0,0,0,0,0,0,0,0,0,0,0,0,0],"id":21,"left_children":[1,3,5,7,9,11,13,15,17,19,-1,21,23,25,27,-1,-1,-1,-1,-1,-1,29,-1,31,33,35,-1,-1,37,39,-1,41,-1,-1,-1,43,45,-1,-1,-1,-1,-1,-1,-1,-1,-1,-1],"loss_changes":[6.930624E2,5.760733E1,9.051825E1,2.4574524E1,5.656905E1,6.2023296E1,1.6521545E1,5.1963425E-1,1.1955566E1,3.9434948E0,0E0,3.9499123E1,5.1040833E1,1.1321167E1,5.2869675E1,0E0,0E0,0E0,0E0,0E0,0E0,3.5696346E1,0E0,4.000039E1,1.46644745E1,9.349091E0,0E0,0E0,7.6110125E0,2.0373505E1,0E0,8.916569E0,0E0,0E0,0E0,9.590332E0,2.7703022E1,0E0,0E0,0E0,0E0,0E0,0E0,0E0,0E0,0E0,0E0],"parents":[2147483647,0,0,1,1,2,2,3,3,4,4,5,5,6,6,7,7,8,8,9,9,11,11,12,12,13,13,14,14,21,21,23,23,24,24,25,25,28,28,29,29,31,31,35,35,36,36],"right_children":[2,4,6,8,10,12,14,16,18,20,-1,22,24,26,28,-1,-1,-1,-1,-1,-1,30,-1,32,34,36,-1,-1,38,40,-1,42,-1,-1,-1,44,46,-1,-1,-1,-1,-1,-1,-1,-1,-1,-1],"split_conditions":[9.768368E-1,2.241E0,1.0661504E0,1.0986775E1,3.1273644E-2,2.3969969E-2,2.465143E0,4.5669928E-1,4.7360113E-1,8.477633E-1,-5.6168657E-2,1.6E1,4.1389033E-1,3.4218E1,2.356E0,4.197542E-3,2.6510563E-2,-5.7803616E-2,7.27595E-3,4.356295E-2,-3.1421843E-3,3.3755E1,-6.325357E-2,5.490198E-2,-3.7552476E0,5.7336792E-2,-2.3684748E-2,-9.231831E-2,-3.5714286E-3,1.13137085E-2,-5.6133524E-2,4.5532158E-1,-5.8753222E-2,1.263259E-2,-7.59502E-2,1.2496017E0,4.6335948E-1,-1.4424002E-2,4.154419E-2,-1.6723244E-2,3.537118E-2,-9.59815E-3,4.436437E-2,3.6354788E-2,-2.2286186E-2,3.1179322E-2,-7.358365E-2],"split_indices":[21,0,21,13,38,39,12,14,14,21,0,32,18,13,8,0,0,0,0,0,0,13,0,31,20,39,0,0,5,4,0,14,0,0,0,35,17,0,0,0,0,0,0,0,0,0,0],"split_type":[0,0,0,0,0,0,0,0,0,0,0,0,0,0,0,0,0,0,0,0,0,0,0,0,0,0,0,0,0,0,0,0,0,0,0,0,0,0,0,0,0,0,0,0,0,0,0],"sum_hessian":[1.0464716E3,2.9784912E2,7.486225E2,2.5759927E2,4.024985E1,1.9147568E2,5.571468E2,7.1389356E0,2.5046033E2,2.305069E1,1.719916E1,1.25716255E2,6.575942E1,5.275074E2,2.9639393E1,3.9652605E0,3.173675E0,2.4612997E2,4.3303437E0,1.9935617E1,3.1150732E0,1.175726E2,8.143656E0,3.4904762E1,3.0854662E1,5.2283997E2,4.6674075E0,6.1633897E0,2.3476002E1,1.10038445E2,7.5341516E0,2.4299328E1,1.0605434E1,3.0012753E0,2.7853386E1,5.0131998E2,2.1520008E1,4.2165346E0,1.9259468E1,1.3036708E1,9.700174E1,6.0810876E0,1.821824E1,4.9747968E2,3.8402987E0,1.7335361E1,4.1846466E0],"tree_param":{"num_deleted":"0","num_feature":"42","num_nodes":"47","size_leaf_vector":"1"}},{"base_weights":[8.631367E-2,-1.304141E0,5.80855E-1,-6.8403655E-1,-5.715303E-2,7.5039726E-1,-2.1796714E-1,-5.6071114E-2,7.1409874E-4,7.9291904E-1,-5.866539E-1,-1.229641E0,1.4041752E-1,7.871606E-1,-5.6935593E-2,8.414464E-1,1.3864125E-1,3.5723187E-2,-1.539254E0,-1.9514015E-2,-6.226633E-2,-1.7549719E-1,9.8385656E-1,-4.945048E-3,4.0884275E-2,8.562232E-1,-4.7782104E-2,-9.8055564E-2,5.8666694E-1,9.664633E-3,-8.672665E-2,3.3772763E-2,-4.3874886E-2,-1.3500116E0,1.6419867E-1,4.386838E-2,1.2732714E-2,-2.4148796E-2,3.4893464E-2,-6.7078434E-2,3.7858136E-2,-0E0,-6.7024246E-2,1.6174199E-2,-4.625426E-2],"categories":[],"categories_nodes":[],"categories_segments":[],"categories_sizes":[],"default_left":[0,0,0,0,0,0,0,0,0,0,0,0,0,0,0,0,0,0,0,0,0,0,0,0,0,0,0,0,0,0,0,0,0,0,0,0,0,0,0,0,0,0,0,0,0],"id":22,"left_children":[1,3,5,7,-1,9,11,-1,13,15,17,19,21,23,-1,25,27,-1,29,31,-1,33,35,-1,-1,37,-1,-1,39,-1,-1,-1,-1,41,43,-1,-1,-1,-1,-1,-1,-1,-1,-1,-1],"loss_changes":[6.94045E2,1.9391296E1,1.01015625E2,2.2834595E1,0E0,3.540628E1,4.7746902E1,0E0,2.8715256E1,1.8755066E1,2.885984E1,1.351321E1,2.6230015E1,3.7144194E0,0E0,1.7688538E1,5.056405E1,0E0,1.4324606E1,8.726985E0,0E0,2.8943579E1,1.593113E0,0E0,0E0,1.3504883E1,0E0,0E0,3.1671185E1,0E0,0E0,0E0,0E0,7.110594E0,1.8374432E1,0E0,0E0,0E0,0E0,0E0,0E0,0E0,0E0,0E0,0E0],"parents":[2147483647,0,0,1,1,2,2,3,3,5,5,6,6,8,8,9,9,10,10,11,11,12,12,13,13,15,15,16,16,18,18,19,19,21,21,22,22,25,25,28,28,33,33,34,34],"right_children":[2,4,6,8,-1,10,12,-1,14,16,18,20,22,24,-1,26,28,-1,30,32,-1,34,36,-1,-1,38,-1,-1,40,-1,-1,-1,-1,42,44,-1,-1,-1,-1,-1,-1,-1,-1,-1,-1],"split_conditions":[4.339891E-1,-5.6806475E-1,2.8527062E-2,2.238E0,-5.715303E-2,9E0,4.5589796E-1,-5.6071114E-2,2.2545714E0,2.403E0,3.7538268E-2,3.7763947E-1,2.308E0,-7E-2,-5.6935593E-2,2E1,2.347E0,3.5723187E-2,-2.3243525E0,1.3043882E-2,-6.226633E-2,5.7970308E-2,5.09475E-3,-4.945048E-3,4.0884275E-2,4.4017395E-1,-4.7782104E-2,-9.8055564E-2,-6.6312265E-1,9.664633E-3,-8.672665E-2,3.3772763E-2,-4.3874886E-2,3.4474882E-1,2.3E0,4.386838E-2,1.2732714E-2,-2.4148796E-2,3.4893464E-2,-6.7078434E-2,3.7858136E-2,-0E0,-6.7024246E-2,1.6174199E-2,-4.625426E-2],"split_indices":[14,26,39,1,0,33,14,0,12,6,38,15,28,34,0,32,7,0,20,4,0,39,16,0,0,15,0,0,26,0,0,0,0,17,1,0,0,0,0,0,0,0,0,0,0],"split_type":[0,0,0,0,0,0,0,0,0,0,0,0,0,0,0,0,0,0,0,0,0,0,0,0,0,0,0,0,0,0,0,0,0,0,0,0,0,0,0,0,0,0,0,0,0],"sum_hessian":[1.0072692E3,2.638078E2,7.4346136E2,4.53169E1,2.1849092E2,6.1339703E2,1.3006433E2,2.1649857E1,2.3667042E1,5.949213E2,1.8475712E1,3.342325E1,9.6641075E1,1.5557786E1,8.109255E0,5.535057E2,4.1415657E1,7.2397494E0,1.1235963E1,7.368542E0,2.6054705E1,7.084016E1,2.5800922E1,3.2438316E0,1.2313954E1,5.5011707E2,3.3886216E0,5.431735E0,3.598392E1,3.0723662E0,8.163597E0,4.1838217E0,3.1847205E0,1.5257982E1,5.5582172E1,2.1442085E1,4.3588367E0,5.57339E0,5.445437E2,4.4138494E0,3.1570072E1,3.1718817E0,1.2086101E1,4.764848E1,7.9336963E0],"tree_param":{"num_deleted":"0","num_feature":"42","num_nodes":"45","size_leaf_vector":"1"}},{"base_weights":[7.83362E-2,-1.1015242E0,6.39297E-1,-5.5827964E-2,-4.4848832E-1,6.901942E-1,-5.86646E-2,3.835848E-1,-5.73821E-2,1.6731617E-1,8.202126E-1,6.160834E-1,-5.962826E-2,-1.5178931E0,2.936664E-1,-5.732566E-1,8.6311173E-1,8.6249477E-1,-7.285398E-1,-1.03499904E-1,-1.2191102E-3,3.8695562E-1,-7.02346E-2,4.7231135E-1,-8.048327E-2,9.2491806E-1,3.5448045E-1,4.179683E-2,-3.6692105E-2,3.6653504E-3,-4.9810443E-2,2.9536312E-2,-3.8244526E-3,-1.8961241E-2,4.0566273E-2,3.7431333E-2,-7.6665124E-3,-1.1961021E-1,2.8723557E-2],"categories":[],"categories_nodes":[],"categories_segments":[],"categories_sizes":[],"default_left":[0,0,0,0,0,0,0,0,0,0,0,0,0,0,0,0,0,0,0,0,0,0,0,0,0,0,0,0,0,0,0,0,0,0,0,0,0,0,0],"id":23,"left_children":[1,3,5,-1,7,9,-1,11,-1,13,15,17,-1,19,21,23,25,27,29,-1,-1,31,-1,33,-1,35,37,-1,-1,-1,-1,-1,-1,-1,-1,-1,-1,-1,-1],"loss_changes":[6.679005E2,6.17529E1,7.42789E1,0E0,8.471832E1,4.5259094E1,0E0,2.5436058E1,0E0,2.9013449E1,3.249237E1,1.7491314E1,0E0,1.4923719E1,2.4691029E1,2.5917973E1,1.5938812E1,1.508353E1,3.727415E0,0E0,0E0,2.0675447E1,0E0,5.8261776E0,0E0,5.8274536E0,7.2564606E1,0E0,0E0,0E0,0E0,0E0,0E0,0E0,0E0,0E0,0E0,0E0,0E0],"parents":[2147483647,0,0,1,1,2,2,4,4,5,5,7,7,9,9,10,10,11,11,13,13,14,14,15,15,16,16,17,17,18,18,21,21,23,23,25,25,26,26],"right_children":[2,4,6,-1,8,10,-1,12,-1,14,16,18,-1,20,22,24,26,28,30,-1,-1,32,-1,34,-1,36,38,-1,-1,-1,-1,-1,-1,-1,-1,-1,-1,-1,-1],"split_conditions":[4.38462E-1,2.246E0,8.29627E-2,-5.5827964E-2,3.7412733E-2,4.5943993E-1,-5.86646E-2,1.1619717E0,-5.73821E-2,1.3672881E-2,2.234E0,1.3E1,-5.962826E-2,2.4155715E0,3.2E1,-1.5E-2,6.905976E-2,4.697048E-1,2.5521412E-1,-1.03499904E-1,-1.2191102E-3,1.5860574E-2,-7.02346E-2,2.311E0,-8.048327E-2,2.250659E-2,2.284E0,4.179683E-2,-3.6692105E-2,3.6653504E-3,-4.9810443E-2,2.9536312E-2,-3.8244526E-3,-1.8961241E-2,4.0566273E-2,3.7431333E-2,-7.6665124E-3,-1.1961021E-1,2.8723557E-2],"split_indices":[29,1,39,0,38,29,0,30,0,39,28,32,0,12,9,3,38,18,18,0,0,39,0,8,0,16,8,0,0,0,0,0,0,0,0,0,0,0,0],"split_type":[0,0,0,0,0,0,0,0,0,0,0,0,0,0,0,0,0,0,0,0,0,0,0,0,0,0,0,0,0,0,0,0,0,0,0,0,0,0,0],"sum_hessian":[1.00710443E3,3.2418927E2,6.8291516E2,2.2266908E2,1.0152018E2,6.6747906E2,1.5436117E1,5.5363194E1,4.6156982E1,1.3345438E2,5.3402466E2,4.987444E1,5.4887557E0,8.512248E0,1.2494212E2,1.5545352E1,5.184793E2,4.2484592E1,7.3898473E0,4.5017896E0,4.0104585E0,1.20301895E2,4.64023E0,9.371929E0,6.1734223E0,4.6148523E2,5.6994102E1,3.8934834E1,3.5497594E0,3.1368048E0,4.253042E0,6.936037E1,5.0941525E1,3.4242666E0,5.947663E0,4.5724255E2,4.2426767E0,4.8665633E0,5.212754E1],"tree_param":{"num_deleted":"0","num_feature":"42","num_nodes":"39","size_leaf_vector":"1"}},{"base_weights":[6.976148E-2,-1.0198619E0,5.9777E-1,-5.496412E-2,-2.2393829E-1,2.2155447E-1,8.0003786E-1,4.9934056E-1,-5.6243133E-2,3.6567318E-1,-7.9224885E-1,8.8143444E-1,5.9864584E-2,7.322469E-1,-5.2371196E-2,4.8890397E-1,-4.4331774E-1,1.4099112E-1,-6.244481E-2,-3.4820527E-2,9.002487E-1,-2.242563E0,7.5629735E-1,9.191867E-1,-6.0191566E-1,-6.998117E-1,5.556395E-1,-8.1942976E-2,8.9778155E-2,6.815175E-1,-4.7465988E-2,-1.9351508E-2,9.1322166E-1,-0E0,-1.3273706E-1,-2.8886491E-2,4.1637607E-2,-8.416553E-3,4.3004E-2,4.023072E-3,-4.592637E-2,1.1482291E-2,-7.7958524E-2,-1.1781992E-2,2.522108E-2,2.2948364E-2,-7.529916E-2,4.466391E-2,-7.533461E-4,1.8744512E-2,3.8330484E-2],"categories":[],"categories_nodes":[],"categories_segments":[],"categories_sizes":[],"default_left":[0,0,0,0,0,0,0,0,0,0,0,0,0,0,0,0,0,0,0,0,0,0,0,0,0,0,0,0,0,0,0,0,0,0,0,0,0,0,0,0,0,0,0,0,0,0,0,0,0,0,0],"id":24,"left_children":[1,3,5,-1,7,9,11,13,-1,15,17,19,21,23,-1,25,27,29,-1,-1,31,33,35,37,39,41,43,-1,45,47,-1,-1,49,-1,-1,-1,-1,-1,-1,-1,-1,-1,-1,-1,-1,-1,-1,-1,-1,-1,-1],"loss_changes":[5.566588E2,8.865744E1,4.9363907E1,0E0,8.497349E1,3.3776623E1,2.540689E1,2.6973827E1,0E0,2.0309263E1,2.096842E1,1.3352997E1,7.0697266E1,1.439616E1,0E0,1.4296986E1,2.348147E1,1.0761928E1,0E0,0E0,7.24588E0,2.4699966E1,1.5008081E1,8.90892E0,3.001634E0,1.2633577E1,1.0815105E1,0E0,2.1330803E1,3.28866E0,0E0,0E0,6.98172E0,0E0,0E0,0E0,0E0,0E0,0E0,0E0,0E0,0E0,0E0,0E0,0E0,0E0,0E0,0E0,0E0,0E0,0E0],"parents":[2147483647,0,0,1,1,2,2,4,4,5,5,6,6,7,7,9,9,10,10,11,11,12,12,13,13,15,15,16,16,17,17,20,20,21,21,22,22,23,23,24,24,25,25,26,26,28,28,29,29,32,32],"right_children":[2,4,6,-1,8,10,12,14,-1,16,18,20,22,24,-1,26,28,30,-1,-1,32,34,36,38,40,42,44,-1,46,48,-1,-1,50,-1,-1,-1,-1,-1,-1,-1,-1,-1,-1,-1,-1,-1,-1,-1,-1,-1,-1],"split_conditions":[4.3802127E-1,2.222E0,1.0861213E0,-5.496412E-2,3.7412733E-2,6.4324905E-16,6.916285E-2,1.1793205E0,-5.6243133E-2,3.3276E1,4.518668E-1,-7.6428573E-3,1.05530895E-1,1.3E1,-5.2371196E-2,-1.691336E-2,2.385E0,-6.3E-2,-6.244481E-2,-3.4820527E-2,9E-3,-6.071429E-3,2.290033E0,-6.6312265E-1,2.176E0,2.228E0,2.214E0,-8.1942976E-2,-7.485108E-1,2.216E0,-4.7465988E-2,-1.9351508E-2,4.619548E-1,-0E0,-1.3273706E-1,-2.8886491E-2,4.1637607E-2,-8.416553E-3,4.3004E-2,4.023072E-3,-4.592637E-2,1.1482291E-2,-7.7958524E-2,-1.1781992E-2,2.522108E-2,2.2948364E-2,-7.529916E-2,4.466391E-2,-7.533461E-4,1.8744512E-2,3.8330484E-2],"split_indices":[29,0,21,0,38,25,38,30,0,13,29,5,36,32,0,16,7,34,0,0,11,5,19,25,8,6,7,0,25,0,0,0,29,0,0,0,0,0,0,0,0,0,0,0,0,0,0,0,0,0,0],"split_type":[0,0,0,0,0,0,0,0,0,0,0,0,0,0,0,0,0,0,0,0,0,0,0,0,0,0,0,0,0,0,0,0,0,0,0,0,0,0,0,0,0,0,0,0,0,0,0,0,0,0,0],"sum_hessian":[9.655233E2,3.1481985E2,6.507035E2,2.1731181E2,9.750805E1,2.2833885E2,4.2236462E2,6.0827026E1,3.6681023E1,2.0052199E2,2.7816875E1,3.8028625E2,4.2078346E1,5.4439342E1,6.387683E0,1.744119E2,2.611009E1,1.2904843E1,1.4912031E1,3.531308E0,3.7675494E2,9.239713E0,3.2838634E1,4.805456E1,6.3847795E0,8.7270565E0,1.6568483E2,5.8239713E0,2.028612E1,9.543643E0,3.3612006E0,3.1258361E0,3.7362912E2,3.3202868E0,5.9194264E0,5.0250983E0,2.7813536E1,5.7469954E0,4.2307568E1,3.109794E0,3.2749856E0,5.2832747E0,3.4437819E0,1.3121143E1,1.5256369E2,1.6878996E1,3.4071226E0,5.5641003E0,3.9795427E0,3.5519485E1,3.3810962E2],"tree_param":{"num_deleted":"0","num_feature":"42","num_nodes":"51","size_leaf_vector":"1"}},{"base_weights":[6.8589814E-2,-1.029926E0,6.323807E-1,-1.190805E0,2.3898523E-1,6.759353E-2,8.1145346E-1,-5.6097466E-1,-1.3154935E0,4.8270994E-1,-7.290275E-2,5.044099E-1,-4.1120115E-1,8.717868E-1,2.429322E-1,1.1109291E-2,-5.809162E-2,-1.363519E0,3.546E-1,7.304519E-1,-3.277015E-2,-1.0191777E0,7.345537E-1,-1.4938627E-1,-7.0784934E-2,-2.204362E-2,8.848473E-1,-1.2562952E0,8.076478E-1,-4.9685888E-2,6.155451E-1,-5.5482768E-2,1.0285072E-2,-2.0314374E-3,2.808497E-2,8.449173E-1,1.0450822E-4,-9.48032E-2,1.5037882E-3,8.8609713E-1,-5.5567224E-2,-7.1009E-1,4.8618755E-1,-1.2800488E-2,9.02793E-1,-1.0565305E-1,1.5979163E-2,-2.8375712E-1,4.4784486E-2,4.0684957E-2,-1.3456756E-4,3.7998952E-2,8.900388E-3,3.8998745E-2,-1.5912084E-2,-5.1860213E-2,4.9025943E-3,3.915491E-2,-3.27188E-2,-6.0971335E-2,3.8746182E-2,3.7002657E-2,7.450583E-3,-3.0865723E-2,3.477571E-2,-5.6262758E-2,3.665141E-2],"categories":[],"categories_nodes":[],"categories_segments":[],"categories_sizes":[],"default_left":[0,0,0,0,0,0,0,0,0,0,0,0,0,0,0,0,0,0,0,0,0,0,0,0,0,0,0,0,0,0,0,0,0,0,0,0,0,0,0,0,0,0,0,0,0,0,0,0,0,0,0,0,0,0,0,0,0,0,0,0,0,0,0,0,0,0,0],"id":25,"left_children":[1,3,5,7,9,11,13,15,17,19,-1,21,23,25,27,29,-1,31,33,35,-1,37,39,41,-1,-1,43,45,47,-1,49,-1,-1,-1,-1,51,-1,-1,-1,53,-1,55,57,59,61,-1,63,65,-1,-1,-1,-1,-1,-1,-1,-1,-1,-1,-1,-1,-1,-1,-1,-1,-1,-1,-1],"loss_changes":[5.956047E2,6.691736E1,6.4173935E1,2.1917023E1,1.9653992E1,3.2450527E1,1.6277496E1,2.5420351E1,1.9863373E1,1.167243E1,0E0,2.9174854E1,2.5970491E1,8.599457E0,4.1413574E1,2.4380465E1,0E0,9.362976E0,1.1249576E0,2.4061766E0,0E0,1.5958344E1,2.4080357E1,2.2876934E1,0E0,0E0,7.0161133E0,2.3839306E1,1.2382933E1,0E0,5.4612255E0,0E0,0E0,0E0,0E0,1.3880062E0,0E0,0E0,0E0,8.058502E0,0E0,1.683038E1,2.0195072E1,1.5448619E1,6.533661E0,0E0,6.0364156E0,1.2917596E1,0E0,0E0,0E0,0E0,0E0,0E0,0E0,0E0,0E0,0E0,0E0,0E0,0E0,0E0,0E0,0E0,0E0,0E0,0E0],"parents":[2147483647,0,0,1,1,2,2,3,3,4,4,5,5,6,6,7,7,8,8,9,9,11,11,12,12,13,13,14,14,15,15,17,17,18,18,19,19,21,21,22,22,23,23,26,26,27,27,28,28,30,30,35,35,39,39,41,41,42,42,43,43,44,44,46,46,47,47],"right_children":[2,4,6,8,10,12,14,16,18,20,-1,22,24,26,28,30,-1,32,34,36,-1,38,40,42,-1,-1,44,46,48,-1,50,-1,-1,-1,-1,52,-1,-1,-1,54,-1,56,58,60,62,-1,64,66,-1,-1,-1,-1,-1,-1,-1,-1,-1,-1,-1,-1,-1,-1,-1,-1,-1,-1,-1],"split_conditions":[4.5045316E-1,4.5914492E-1,1.0637923E0,3.0419292E-2,2.4113571E-2,2.3969969E-2,6.905976E-2,-5.6806475E-1,1.0879376E0,2.4105713E0,-7.290275E-2,2.89E-1,2.2821429E0,2.241E0,2.371E0,2.226143E0,-5.809162E-2,4.8051625E-1,-7.485108E-1,4.65904E-1,-3.277015E-2,-1.2E-2,1.7E1,2.2532856E0,-7.0784934E-2,-2.204362E-2,2.5E-2,2.5764873E0,1.0272522E-1,-4.9685888E-2,2.7908392E-2,-5.5482768E-2,1.0285072E-2,-2.0314374E-3,2.808497E-2,4.7467488E-1,1.0450822E-4,-9.48032E-2,1.5037882E-3,2.341E0,-5.5567224E-2,4.09E-1,4.3549153E-1,2.469E0,5.6806475E-1,-1.0565305E-1,2.296E0,1E-1,4.4784486E-2,4.0684957E-2,-1.3456756E-4,3.7998952E-2,8.900388E-3,3.8998745E-2,-1.5912084E-2,-5.1860213E-2,4.9025943E-3,3.915491E-2,-3.27188E-2,-6.0971335E-2,3.8746182E-2,3.7002657E-2,7.450583E-3,-3.0865723E-2,3.477571E-2,-5.6262758E-2,3.665141E-2],"split_indices":[14,15,21,38,39,39,38,26,21,12,0,11,12,0,8,12,0,17,25,29,0,34,32,12,0,0,11,19,36,0,39,0,0,0,0,17,0,0,0,12,0,11,18,1,26,0,8,34,0,0,0,0,0,0,0,0,0,0,0,0,0,0,0,0,0,0,0],"split_type":[0,0,0,0,0,0,0,0,0,0,0,0,0,0,0,0,0,0,0,0,0,0,0,0,0,0,0,0,0,0,0,0,0,0,0,0,0,0,0,0,0,0,0,0,0,0,0,0,0,0,0,0,0,0,0,0,0,0,0,0,0,0,0,0,0,0,0],"sum_hessian":[9.5966754E2,3.2517206E2,6.344955E2,2.8867352E2,3.6498558E1,1.5314375E2,4.8135168E2,4.8679905E1,2.399936E2,3.3346333E1,3.1522245E0,8.010912E1,7.303464E1,4.3460828E2,4.674343E1,3.0216883E1,1.8463024E1,2.3349274E2,6.5008636E0,2.841651E1,4.929822E0,1.0034366E1,7.007476E1,6.2194405E1,1.084023E1,3.5434444E0,4.3106482E2,1.2430171E1,3.431326E1,9.461445E0,2.0755438E1,2.3032083E2,3.1719077E0,3.3283465E0,3.1725173E0,2.4356476E1,4.0600348E0,3.8795662E0,6.1547995E0,6.59734E1,4.1013603E0,3.3022953E1,2.917145E1,8.3999195E0,4.2266492E2,5.454976E0,6.975195E0,7.6121964E0,2.6701063E1,1.2246608E1,8.508829E0,2.0320024E1,4.03645E0,6.196383E1,4.0095706E0,1.9084944E1,1.3938012E1,2.1381643E1,7.7898064E0,3.109309E0,5.2906103E0,4.0957242E2,1.3092489E1,3.64678E0,3.328415E0,3.8652582E0,3.7469382E0],"tree_param":{"num_deleted":"0","num_feature":"42","num_nodes":"67","size_leaf_vector":"1"}},{"base_weights":[8.1531614E-2,-1.0014577E0,6.117285E-1,-1.783183E-1,-1.3224505E0,7.125165E-1,-9.5253974E-2,-5.3069953E-2,2.9802325E-1,-5.3558007E-2,-4.636393E-3,-2.9847127E-1,7.4696696E-1,-6.598187E-1,1.0204917E0,8.844221E-1,-3.502537E-1,-7.334869E-2,5.545295E-1,8.3537394E-1,4.2449722E-1,3.8141012E-1,-1.5092624E0,1.3323058E-2,4.3747373E-2,4.26724E-2,-9.194455E-3,-5.8641057E-2,3.9831232E-2,-4.3651843E-3,3.829471E-2,-6.6475576E-1,8.692577E-1,-2.3503006E0,7.2791755E-1,7.249753E-1,-5.1415227E-2,7.228502E-3,-6.8741664E-2,-7.131581E-2,3.6400095E-2,-1.3868244E-3,3.5535734E-2,-1.1964717E-1,-6.283059E-2,-2.6873933E-2,3.554018E-2,4.093768E-2,-8.027078E-3],"categories":[],"categories_nodes":[],"categories_segments":[],"categories_sizes":[],"default_left":[0,0,0,0,0,0,0,0,0,0,0,0,0,0,0,0,0,0,0,0,0,0,0,0,0,0,0,0,0,0,0,0,0,0,0,0,0,0,0,0,0,0,0,0,0,0,0,0,0],"id":26,"left_children":[1,3,5,7,9,11,13,-1,15,-1,-1,17,19,21,23,25,27,-1,29,31,33,35,37,-1,-1,-1,-1,-1,-1,-1,-1,39,41,43,45,47,-1,-1,-1,-1,-1,-1,-1,-1,-1,-1,-1,-1,-1],"loss_changes":[5.320455E2,8.015677E1,4.442032E1,4.7843708E1,4.129883E0,1.9212555E1,5.005944E1,0E0,2.3915709E1,0E0,0E0,2.5454872E1,1.4605499E1,4.725731E1,9.0849304E-1,6.9716873E0,4.67417E1,0E0,3.5452745E0,2.1551758E1,9.890697E1,1.4908627E1,1.0735931E1,0E0,0E0,0E0,0E0,0E0,0E0,0E0,0E0,1.8647036E1,7.057831E0,8.7323E-1,2.4194748E1,6.031966E0,0E0,0E0,0E0,0E0,0E0,0E0,0E0,0E0,0E0,0E0,0E0,0E0,0E0],"parents":[2147483647,0,0,1,1,2,2,3,3,4,4,5,5,6,6,8,8,11,11,12,12,13,13,14,14,15,15,16,16,18,18,19,19,20,20,21,21,22,22,31,31,32,32,33,33,34,34,35,35],"right_children":[2,4,6,8,10,12,14,-1,16,-1,-1,18,20,22,24,26,28,-1,30,32,34,36,38,-1,-1,-1,-1,-1,-1,-1,-1,40,42,44,46,48,-1,-1,-1,-1,-1,-1,-1,-1,-1,-1,-1,-1,-1],"split_conditions":[4.3802127E-1,5E0,2.8527062E-2,2.238E0,4.6113268E-1,4.3555507E-1,5.5714287E-3,-5.3069953E-2,2.2692857E0,-5.3558007E-2,-4.636393E-3,2.271161E-1,3.3461E1,2.19E0,1.9416489E-2,4.1389033E-1,7.485108E-1,-7.334869E-2,4.5810592E-1,4E-2,2.301E0,1.2857143E-3,-4.857143E-3,1.3323058E-2,4.3747373E-2,4.26724E-2,-9.194455E-3,-5.8641057E-2,3.9831232E-2,-4.3651843E-3,3.829471E-2,3.7E-2,7.6531973E-3,3.387E1,4.5669928E-1,4.5983744E-1,-5.1415227E-2,7.228502E-3,-6.8741664E-2,-7.131581E-2,3.6400095E-2,-1.3868244E-3,3.5535734E-2,-1.1964717E-1,-6.283059E-2,-2.6873933E-2,3.554018E-2,4.093768E-2,-8.027078E-3],"split_indices":[29,32,39,1,15,14,5,0,12,0,0,20,13,8,4,17,26,0,29,11,8,5,5,0,0,0,0,0,0,0,0,2,4,13,14,17,0,0,0,0,0,0,0,0,0,0,0,0,0],"split_type":[0,0,0,0,0,0,0,0,0,0,0,0,0,0,0,0,0,0,0,0,0,0,0,0,0,0,0,0,0,0,0,0,0,0,0,0,0,0,0,0,0,0,0,0,0,0,0,0,0],"sum_hessian":[9.245565E2,3.035457E2,6.210108E2,8.5641594E1,2.179041E2,5.4358044E2,7.743038E1,2.4615294E1,6.10263E1,2.1481529E2,3.0888045E0,1.761232E1,5.2596814E2,5.1715767E1,2.5714617E1,3.189161E1,2.913469E1,5.9008164E0,1.1711503E1,4.1142734E2,1.1454078E2,2.3456028E1,2.8259739E1,3.074367E0,2.264025E1,2.7480953E1,4.410656E0,1.590145E1,1.3233239E1,4.6521916E0,7.059312E0,8.643888E0,4.0278345E2,1.06091E1,1.0393168E2,1.99408E1,3.5152278E0,3.1026597E0,2.515708E1,4.996067E0,3.6478217E0,8.27892E0,3.9450452E2,4.2301235E0,6.378977E0,1.0336642E1,9.359504E1,1.5039762E1,4.9010386E0],"tree_param":{"num_deleted":"0","num_feature":"42","num_nodes":"49","size_leaf_vector":"1"}},{"base_weights":[5.1149018E-2,-9.8390156E-1,5.675799E-1,-5.266021E-2,-2.9504815E-1,1.699642E-1,7.7338034E-1,5.32189E-1,-5.4031298E-2,4.543747E-1,-4.7190544E-1,-7.1509786E-2,7.9799956E-1,7.434973E-1,-5.178304E-2,6.7467284E-1,-8.7114334E-1,4.018908E-1,-9.581811E-1,8.6042386E-1,2.670776E-1,9.302197E-1,-4.526253E-2,7.985283E-1,-6.543172E-2,3.814034E-1,-1.6428282E0,8.5348904E-1,-5.2122377E-2,-1.3536302E0,4.177816E-2,-2.895228E-2,8.770652E-1,-1.4819111E0,9.5457953E-1,-1.1433358E-2,4.451836E-2,-2.8546965E-2,3.679186E-2,3.3464946E-2,-7.0090997E-3,-8.165435E-2,-1.1065985E-2,4.4645447E-2,-2.0630064E-3,-6.8145305E-2,3.8673215E-2,2.4127495E-3,3.6253914E-2,4.4189245E-3,-9.799934E-2,3.6355709E-3,4.3932293E-2],"categories":[],"categories_nodes":[],"categories_segments":[],"categories_sizes":[],"default_left":[0,0,0,0,0,0,0,0,0,0,0,0,0,0,0,0,0,0,0,0,0,0,0,0,0,0,0,0,0,0,0,0,0,0,0,0,0,0,0,0,0,0,0,0,0,0,0,0,0,0,0,0,0],"id":27,"left_children":[1,3,5,-1,7,9,11,13,-1,15,17,-1,19,21,-1,23,25,27,29,31,33,35,-1,37,-1,39,41,43,-1,45,-1,-1,47,49,51,-1,-1,-1,-1,-1,-1,-1,-1,-1,-1,-1,-1,-1,-1,-1,-1,-1,-1],"loss_changes":[4.8684564E2,6.899106E1,4.9542282E1,0E0,8.814122E1,3.8293915E1,2.6599442E1,2.2855936E1,0E0,4.2951893E1,2.7813166E1,0E0,1.2868774E1,1.9094656E1,0E0,3.70427E1,2.1069187E1,1.9355776E1,3.450213E1,9.991791E0,5.344553E1,1.090696E1,0E0,2.2555E1,0E0,2.4157658E0,6.5387383E0,4.7184153E0,0E0,3.0379128E1,0E0,0E0,8.301849E0,1.9791477E1,3.7765808E0,0E0,0E0,0E0,0E0,0E0,0E0,0E0,0E0,0E0,0E0,0E0,0E0,0E0,0E0,0E0,0E0,0E0,0E0],"parents":[2147483647,0,0,1,1,2,2,4,4,5,5,6,6,7,7,9,9,10,10,12,12,13,13,15,15,16,16,17,17,18,18,19,19,20,20,21,21,23,23,25,25,26,26,27,27,29,29,32,32,33,33,34,34],"right_children":[2,4,6,-1,8,10,12,14,-1,16,18,-1,20,22,-1,24,26,28,30,32,34,36,-1,38,-1,40,42,44,-1,46,-1,-1,48,50,52,-1,-1,-1,-1,-1,-1,-1,-1,-1,-1,-1,-1,-1,-1,-1,-1,-1,-1],"split_conditions":[4.3802127E-1,2.246E0,1.0829931E0,-5.266021E-2,3.7412733E-2,2.4253067E-2,-8.357143E-3,7.980922E-2,-5.4031298E-2,3.3276E1,2.19E0,-7.1509786E-2,6.905976E-2,1.3E1,-5.178304E-2,1.6E1,-8.971488E-1,1.2857143E-3,2.33E0,9E-3,2.371E0,-6.6312265E-1,-4.526253E-2,1.065699E-2,-6.543172E-2,4.4436815E-1,6.850493E-2,4.5983744E-1,-5.2122377E-2,4.840024E0,4.177816E-2,-2.895228E-2,4.5673475E-1,4.5608196E-1,2.3358572E0,-1.1433358E-2,4.451836E-2,-2.8546965E-2,3.679186E-2,3.3464946E-2,-7.0090997E-3,-8.165435E-2,-1.1065985E-2,4.4645447E-2,-2.0630064E-3,-6.8145305E-2,3.8673215E-2,2.4127495E-3,3.6253914E-2,4.4189245E-3,-9.799934E-2,3.6355709E-3,4.3932293E-2],"split_indices":[29,1,21,0,38,39,5,39,0,13,8,0,38,32,0,32,35,5,28,11,8,25,0,4,0,17,22,17,0,20,0,0,15,18,12,0,0,0,0,0,0,0,0,0,0,0,0,0,0,0,0,0,0],"split_type":[0,0,0,0,0,0,0,0,0,0,0,0,0,0,0,0,0,0,0,0,0,0,0,0,0,0,0,0,0,0,0,0,0,0,0,0,0,0,0,0,0,0,0,0,0,0,0,0,0,0,0,0,0],"sum_hessian":[9.087826E2,3.0216666E2,6.0661597E2,2.0311267E2,9.9053986E1,2.075973E2,3.9901865E2,5.5788544E1,4.326544E1,1.441118E2,6.34855E1,3.09791E0,3.9592075E2,5.0560413E1,5.228131E0,1.2402745E2,2.0084352E1,2.2723679E1,4.076182E1,3.5362744E2,4.22933E1,4.6463997E1,4.0964165E0,1.183587E2,5.6687427E0,7.8247337E0,1.2259619E1,1.8383173E1,4.3405066E0,3.4331596E1,6.4302254E0,3.2030535E0,3.5042438E2,1.1587288E1,3.0706013E1,5.96064E0,4.0503357E1,8.393629E0,1.0996507E2,4.0771766E0,3.7475572E0,9.080051E0,3.1795676E0,1.4110404E1,4.2727685E0,3.0081652E1,4.2499437E0,1.22938595E1,3.3813052E2,4.696402E0,6.890886E0,4.6633325E0,2.604268E1],"tree_param":{"num_deleted":"0","num_feature":"42","num_nodes":"53","size_leaf_vector":"1"}},{"base_weights":[7.3591895E-2,-1.2259685E0,4.8549882E-1,-5.1905345E-2,-4.6543747E-1,6.588666E-1,-3.0030027E-1,3.6508102E-2,-4.942116E-2,7.682763E-1,1.2838511E-1,-1.2001425E0,1.3362022E-1,3.03662E-1,8.482708E-1,4.1604182E-1,-8.2651067E-1,-5.67318E-2,1.3973188E-2,-2.4430129E-1,9.031688E-1,-8.097372E-2,5.278924E-1,-4.119548E-1,8.7047595E-1,5.7874316E-1,-1.1645409E0,-2.2908256E0,1.1181643E-1,2.1186334E-1,-6.8966895E-2,-7.647229E-3,4.218643E-2,-7.780107E-2,2.8859274E-2,2.6178376E-3,-3.0694058E-2,3.7061326E-2,1.8770222E-2,-5.310108E-2,2.7688878E-2,-1.0938062E-2,-6.8956666E-2,-4.6917956E-2,-1.1510134E-1,-5.9219167E-2,2.9849555E-2,-1.4697339E-2,3.537321E-2],"categories":[],"categories_nodes":[],"categories_segments":[],"categories_sizes":[],"default_left":[0,0,0,0,0,0,0,0,0,0,0,0,0,0,0,0,0,0,0,0,0,0,0,0,0,0,0,0,0,0,0,0,0,0,0,0,0,0,0,0,0,0,0,0,0,0,0,0,0],"id":28,"left_children":[1,3,5,-1,7,9,11,-1,-1,13,15,17,19,21,23,25,27,-1,-1,29,31,-1,33,35,37,39,41,43,45,47,-1,-1,-1,-1,-1,-1,-1,-1,-1,-1,-1,-1,-1,-1,-1,-1,-1,-1,-1],"loss_changes":[4.7378497E2,1.0918304E1,9.176688E1,0E0,2.2331335E1,3.1831833E1,4.7889503E1,0E0,0E0,1.6649323E1,2.6548927E1,1.4023003E1,2.4462185E1,3.6852703E1,1.1260132E1,1.9694887E1,3.1139763E1,0E0,0E0,3.8628147E1,4.8323708E0,0E0,3.1727896E1,1.3359199E0,8.095642E0,1.5567017E1,3.0260963E0,2.203453E0,1.579985E1,1.753204E1,0E0,0E0,0E0,0E0,0E0,0E0,0E0,0E0,0E0,0E0,0E0,0E0,0E0,0E0,0E0,0E0,0E0,0E0,0E0],"parents":[2147483647,0,0,1,1,2,2,4,4,5,5,6,6,9,9,10,10,11,11,12,12,13,13,14,14,15,15,16,16,19,19,20,20,22,22,23,23,24,24,25,25,26,26,27,27,28,28,29,29],"right_children":[2,4,6,-1,8,10,12,-1,-1,14,16,18,20,22,24,26,28,-1,-1,30,32,-1,34,36,38,40,42,44,46,48,-1,-1,-1,-1,-1,-1,-1,-1,-1,-1,-1,-1,-1,-1,-1,-1,-1,-1,-1],"split_conditions":[1.8800275E-2,2.254E0,3.0565687E-2,-5.1905345E-2,3.089863E-2,4E0,4.5589796E-1,3.6508102E-2,-4.942116E-2,4.5962977E-1,2.4105713E0,3.349463E-2,5.5714287E-3,-9.7094184E-1,2.22E0,1E0,5.36017E-3,-5.67318E-2,1.3973188E-2,2.267E0,2.311E0,-8.097372E-2,1.13137085E-2,1.477984E-2,6.916285E-2,4.3802127E-1,-6.668162E-1,4.6027172E-1,4.5669928E-1,2.261E0,-6.8966895E-2,-7.647229E-3,4.218643E-2,-7.780107E-2,2.8859274E-2,2.6178376E-3,-3.0694058E-2,3.7061326E-2,1.8770222E-2,-5.310108E-2,2.7688878E-2,-1.0938062E-2,-6.8956666E-2,-4.6917956E-2,-1.1510134E-1,-5.9219167E-2,2.9849555E-2,-1.4697339E-2,3.537321E-2],"split_indices":[36,0,39,0,38,33,14,0,0,15,12,16,5,25,0,41,31,0,0,1,1,0,4,39,38,29,20,29,14,1,0,0,0,0,0,0,0,0,0,0,0,0,0,0,0,0,0,0,0],"split_type":[0,0,0,0,0,0,0,0,0,0,0,0,0,0,0,0,0,0,0,0,0,0,0,0,0,0,0,0,0,0,0,0,0,0,0,0,0,0,0,0,0,0,0,0,0,0,0,0,0],"sum_hessian":[8.8304376E2,2.1202145E2,6.710223E2,1.9305759E2,1.8963858E1,5.4992065E2,1.2110167E2,6.7084465E0,1.2255412E1,4.5544452E2,9.447613E1,3.886169E1,8.223998E1,6.769394E1,3.8775058E2,7.307837E1,2.1397758E1,3.416805E1,4.6936417E0,5.5568253E1,2.6671728E1,5.222452E0,6.2471485E1,6.3709517E0,3.813796E2,6.6861305E1,6.217063E0,7.814563E0,1.3583195E1,4.3104504E1,1.2463748E1,3.1712427E0,2.3500486E1,3.8598723E0,5.8611614E1,3.0069327E0,3.3640192E0,3.333685E2,4.8011105E1,3.130731E0,6.373057E1,3.0062783E0,3.210785E0,3.7513664E0,4.0631967E0,3.4676268E0,1.0115568E1,2.336015E1,1.9744354E1],"tree_param":{"num_deleted":"0","num_feature":"42","num_nodes":"49","size_leaf_vector":"1"}},{"base_weights":[5.5303924E-2,-1.1142563E0,5.168457E-1,-1.1794316E0,4.5712647E-1,-2.4207974E-2,7.0532084E-1,-6.326154E-1,-1.2794135E0,-2.6077513E-2,4.1657366E-2,1.2744227E-1,-5.122211E-2,7.765326E-1,1.3045649E-1,-4.993691E-2,2.078782E-1,-5.2252367E-2,1.2693857E-2,2.586974E-1,-9.828797E-1,7.982733E-1,-4.4164717E-2,-1.3391806E0,6.2147176E-1,3.5154246E-2,-6.1846204E-2,3.5736066E-1,-5.4417994E-2,3.419535E-2,-6.8968296E-2,8.203037E-1,-2.458329E-2,2.423243E-2,-2.564022E0,4.4050593E-2,-3.7549797E-1,-6.8285335E-3,2.251111E-2,3.4007296E-2,-6.4984947E-3,-1.308993E-1,-5.0462067E-2,-1.0509115E-1,4.0498618E-2],"categories":[],"categories_nodes":[],"categories_segments":[],"categories_sizes":[],"default_left":[0,0,0,0,0,0,0,0,0,0,0,0,0,0,0,0,0,0,0,0,0,0,0,0,0,0,0,0,0,0,0,0,0,0,0,0,0,0,0,0,0,0,0,0,0],"id":29,"left_children":[1,3,5,7,9,11,13,15,17,-1,-1,19,-1,21,23,-1,25,-1,-1,27,29,31,-1,33,35,-1,-1,37,-1,-1,-1,39,-1,-1,41,-1,43,-1,-1,-1,-1,-1,-1,-1,-1],"loss_changes":[4.6750977E2,2.5674011E1,6.3377533E1,1.1976654E1,7.4703054E0,3.0959085E1,1.8711609E1,2.0226665E1,8.973389E0,0E0,0E0,2.1325161E1,0E0,1.7613678E1,3.835972E1,0E0,2.1442871E1,0E0,0E0,2.1259861E1,2.2606052E1,1.3136993E1,0E0,3.3401993E1,1.9452723E1,0E0,0E0,1.35326395E1,0E0,0E0,0E0,1.1911285E1,0E0,0E0,3.3818817E0,0E0,4.530524E1,0E0,0E0,0E0,0E0,0E0,0E0,0E0,0E0],"parents":[2147483647,0,0,1,1,2,2,3,3,4,4,5,5,6,6,7,7,8,8,11,11,13,13,14,14,16,16,19,19,20,20,21,21,23,23,24,24,27,27,31,31,34,34,36,36],"right_children":[2,4,6,8,10,12,14,16,18,-1,-1,20,-1,22,24,-1,26,-1,-1,28,30,32,-1,34,36,-1,-1,38,-1,-1,-1,40,-1,-1,42,-1,44,-1,-1,-1,-1,-1,-1,-1,-1],"split_conditions":[4.394956E-1,1.0997478E0,1.0581644E0,3.0419292E-2,1.8005564E0,4.6472317E-1,6.905976E-2,2.245E0,4.8211804E-1,-2.6077513E-2,4.1657366E-2,2.304E0,-5.122211E-2,3.25E-1,2.33E0,-4.993691E-2,3.3555394E-1,-5.2252367E-2,1.2693857E-2,1.5242352E-1,1.53E-1,3.432E-1,-4.4164717E-2,-2.4E-1,-8.660254E-1,3.5154246E-2,-6.1846204E-2,1.2992672E-2,-5.4417994E-2,3.419535E-2,-6.8968296E-2,3.4268E1,-2.458329E-2,2.423243E-2,3.3815E1,4.4050593E-2,2.484E0,-6.8285335E-3,2.251111E-2,3.4007296E-2,-6.4984947E-3,-1.308993E-1,-5.0462067E-2,-1.0509115E-1,4.0498618E-2],"split_indices":[14,21,21,38,19,26,38,1,17,0,0,1,0,11,8,0,17,0,0,36,11,40,0,34,23,0,0,4,0,0,0,13,0,0,13,0,1,0,0,0,0,0,0,0,0],"split_type":[0,0,0,0,0,0,0,0,0,0,0,0,0,0,0,0,0,0,0,0,0,0,0,0,0,0,0,0,0,0,0,0,0,0,0,0,0,0,0,0,0,0,0,0,0],"sum_hessian":[8.640666E2,2.440682E2,6.199984E2,2.3461833E2,9.449871E0,1.6033438E2,4.5966403E2,3.7477207E1,1.9714113E2,3.1912668E0,6.258604E0,1.4383159E2,1.6502789E1,4.086094E2,5.1054607E1,2.1383919E1,1.6093287E1,1.9408517E2,3.0559514E0,1.2935242E2,1.4479174E1,4.0453503E2,4.0743923E0,1.2327747E1,3.872686E1,1.2021939E1,4.0713477E0,1.22686646E2,6.6657786E0,4.098442E0,1.0380732E1,3.9877185E2,5.7631764E0,4.943026E0,7.384721E0,2.6107925E1,1.2618935E1,3.433803E1,8.834861E1,3.8718616E2,1.15857E1,3.778533E0,3.606188E0,4.485289E0,8.133646E0],"tree_param":{"num_deleted":"0","num_feature":"42","num_nodes":"45","size_leaf_vector":"1"}},{"base_weights":[8.613841E-2,-8.281162E-1,6.4207315E-1,-2.4815948E-1,-1.2373714E0,7.250311E-1,-4.1007695E-1,3.0486506E-1,-7.0674384E-1,-1.2680764E0,1.6099734E-2,8.023752E-1,3.198086E-1,-1.0889312E0,2.5850424E-1,5.7147294E-1,-4.7419716E-2,5.3328943E-1,-1.0876012E0,-5.168372E-2,4.565263E-3,8.9224344E-1,5.211928E-1,7.2254384E-1,-5.2115136E-1,-2.4488735E-1,-6.587488E-2,-4.7799233E-2,5.7469505E-1,-3.124989E-2,7.315382E-1,4.3645483E-2,-2.4670517E-2,-1.3537229E0,5.1932107E-3,-3.894047E-2,9.133831E-1,6.56908E-1,-1.1125124E0,8.8553065E-1,-5.2212715E-2,-2.2147717E0,3.6146405E-1,-4.9473204E-2,2.8528437E-2,8.665182E-1,-1.5166496E-2,3.4739025E-2,-2.7875084E-2,-1.3668801E-2,-5.7832856E-2,-4.2757258E-2,2.6615238E-2,3.9657403E-2,2.7136007E-2,-3.6015492E-2,3.1875946E-2,1.2359664E-2,-8.19446E-2,-1.0808583E-3,3.869364E-2,-2.694654E-2,-1.1386287E-1,3.499904E-2,-4.366688E-2,1.4244454E-2,4.4616595E-2],"categories":[],"categories_nodes":[],"categories_segments":[],"categories_sizes":[],"default_left":[0,0,0,0,0,0,0,0,0,0,0,0,0,0,0,0,0,0,0,0,0,0,0,0,0,0,0,0,0,0,0,0,0,0,0,0,0,0,0,0,0,0,0,0,0,0,0,0,0,0,0,0,0,0,0,0,0,0,0,0,0,0,0,0,0,0,0],"id":30,"left_children":[1,3,5,7,9,11,13,15,17,19,-1,21,23,25,27,29,-1,31,33,-1,-1,35,37,39,41,43,-1,-1,45,-1,47,-1,-1,49,51,-1,53,55,57,59,-1,61,63,-1,-1,65,-1,-1,-1,-1,-1,-1,-1,-1,-1,-1,-1,-1,-1,-1,-1,-1,-1,-1,-1,-1,-1],"loss_changes":[4.4236444E2,7.7736115E1,4.7550385E1,3.509802E1,1.0254364E1,1.5422089E1,1.8544428E1,2.5665524E1,3.626468E1,6.493286E0,0E0,1.0097931E1,2.8237316E1,8.990971E0,1.030574E1,1.2285984E1,0E0,1.2488644E1,1.6976715E1,0E0,0E0,1.3402969E1,2.3868643E1,1.9664482E1,4.150626E1,9.679409E0,0E0,0E0,5.3492603E0,0E0,1.0186205E1,0E0,0E0,3.7765198E0,9.442543E0,0E0,5.009186E0,2.1881771E1,1.1837866E1,3.9934044E0,0E0,7.1249657E0,1.4899383E1,0E0,0E0,1.3190479E0,0E0,0E0,0E0,0E0,0E0,0E0,0E0,0E0,0E0,0E0,0E0,0E0,0E0,0E0,0E0,0E0,0E0,0E0,0E0,0E0,0E0],"parents":[2147483647,0,0,1,1,2,2,3,3,4,4,5,5,6,6,7,7,8,8,9,9,11,11,12,12,13,13,14,14,15,15,17,17,18,18,21,21,22,22,23,23,24,24,25,25,28,28,30,30,33,33,34,34,36,36,37,37,38,38,39,39,41,41,42,42,45,45],"right_children":[2,4,6,8,10,12,14,16,18,20,-1,22,24,26,28,30,-1,32,34,-1,-1,36,38,40,42,44,-1,-1,46,-1,48,-1,-1,50,52,-1,54,56,58,60,-1,62,64,-1,-1,66,-1,-1,-1,-1,-1,-1,-1,-1,-1,-1,-1,-1,-1,-1,-1,-1,-1,-1,-1,-1,-1],"split_conditions":[4.5568365E-1,1.2E1,-2.4492937E-16,3.3921078E-2,1.5034848E-1,4E0,1.1949595E-2,7.025969E-2,-9.350162E-1,8.214286E-1,1.6099734E-2,1.6352912E-2,2.879E-1,2.637E-1,4.5669928E-1,9.476453E-3,-4.7419716E-2,3.905316E-2,1.2162644E-1,-5.168372E-2,4.565263E-3,7.6531973E-3,3.306E-1,1E0,8.952381E-1,4.6493223E-1,-6.587488E-2,-4.7799233E-2,3.546049E-1,-3.124989E-2,2.4141448E-2,4.3645483E-2,-2.4670517E-2,-8.85456E-1,4.6275666E-1,-3.894047E-2,1E0,4E-2,-1.85E-1,2.384E-1,-5.2212715E-2,-9.350162E-1,6.365424E-2,-4.9473204E-2,2.8528437E-2,1E0,-1.5166496E-2,3.4739025E-2,-2.7875084E-2,-1.3668801E-2,-5.7832856E-2,-4.2757258E-2,2.6615238E-2,3.9657403E-2,2.7136007E-2,-3.6015492E-2,3.1875946E-2,1.2359664E-2,-8.19446E-2,-1.0808583E-3,3.869364E-2,-2.694654E-2,-1.1386287E-1,3.499904E-2,-4.366688E-2,1.4244454E-2,4.4616595E-2],"split_indices":[15,32,23,38,36,33,22,39,25,10,0,39,40,40,14,4,0,36,36,0,0,4,40,41,10,15,0,0,25,0,4,0,0,25,14,0,41,11,34,40,0,25,38,0,0,33,0,0,0,0,0,0,0,0,0,0,0,0,0,0,0,0,0,0,0,0,0],"split_type":[0,0,0,0,0,0,0,0,0,0,0,0,0,0,0,0,0,0,0,0,0,0,0,0,0,0,0,0,0,0,0,0,0,0,0,0,0,0,0,0,0,0,0,0,0,0,0,0,0,0,0,0,0,0,0,0,0,0,0,0,0,0,0,0,0,0,0],"sum_hessian":[8.6831274E2,3.2812308E2,5.401897E2,1.3646571E2,1.9165738E2,5.0104285E2,3.914684E1,6.196541E1,7.4500305E1,1.883872E2,3.2701724E0,4.198108E2,8.123204E1,1.9149332E1,1.9997507E1,5.3114025E1,8.851385E0,1.7380297E1,5.712001E1,1.8526941E2,3.1177888E0,3.1635132E2,1.03459465E2,5.506278E1,2.6169264E1,8.229064E0,1.0920268E1,3.0481498E0,1.6949356E1,5.1762314E0,4.7937794E1,1.17671795E1,5.6131167E0,4.5778763E1,1.1341248E1,3.0129905E0,3.1333835E2,9.6104385E1,7.3550773E0,5.151065E1,3.552129E0,8.467874E0,1.770139E1,3.925825E0,4.303239E0,1.3088917E1,3.8604403E0,4.4133835E1,3.8039584E0,4.2568307E0,4.152193E1,4.0526776E0,7.2885695E0,2.326345E2,8.0703835E1,7.4491434E0,8.865524E1,3.1651666E0,4.1899104E0,4.2428136E0,4.7267838E1,3.0859416E0,5.381932E0,1.3398782E1,4.302608E0,5.153138E0,7.9357786E0],"tree_param":{"num_deleted":"0","num_feature":"42","num_nodes":"67","size_leaf_vector":"1"}},{"base_weights":[7.901124E-2,-1.0467287E0,5.10461E-1,-1.1668297E0,5.9438443E-1,6.5599024E-1,-1.951357E-1,-6.2995756E-1,-5.116923E-2,-2.4579959E-2,3.8636256E-2,-5.253712E-2,6.748899E-1,-5.200531E-1,7.2611725E-1,-5.0908394E-2,1.5935063E-1,6.9178563E-1,-4.7472466E-2,7.423171E-2,-1.0289164E0,-4.4497404E-2,4.0241722E-2,3.2934416E-2,-4.8509754E-2,7.7994955E-1,3.3814818E-1,3.6160806E-1,-4.7334414E-2,-1.2271237E0,4.2987607E-2,2.5811754E-2,3.687874E-2,2.2514943E-2,-5.134982E-2,-4.3833196E-2,2.513516E-2,-5.9259485E-2,1.04387505E-2],"categories":[],"categories_nodes":[],"categories_segments":[],"categories_sizes":[],"default_left":[0,0,0,0,0,0,0,0,0,0,0,0,0,0,0,0,0,0,0,0,0,0,0,0,0,0,0,0,0,0,0,0,0,0,0,0,0,0,0],"id":31,"left_children":[1,3,5,7,9,11,13,15,-1,-1,-1,-1,17,19,21,-1,23,25,-1,27,29,-1,-1,-1,-1,31,33,35,-1,37,-1,-1,-1,-1,-1,-1,-1,-1,-1],"loss_changes":[4.105189E2,4.6880463E1,6.288922E1,1.2289185E1,8.06838E0,1.9718231E1,3.1850842E1,2.0494972E1,0E0,0E0,0E0,0E0,1.6607529E1,2.382657E1,1.5421837E1,0E0,1.8068144E1,1.5232101E1,0E0,1.3773926E1,1.8978638E1,0E0,0E0,0E0,0E0,6.945282E0,3.76513E1,1.2698761E1,0E0,1.5277756E1,0E0,0E0,0E0,0E0,0E0,0E0,0E0,0E0,0E0],"parents":[2147483647,0,0,1,1,2,2,3,3,4,4,5,5,6,6,7,7,12,12,13,13,14,14,16,16,17,17,19,19,20,20,25,25,26,26,27,27,29,29],"right_children":[2,4,6,8,10,12,14,16,-1,-1,-1,-1,18,20,22,-1,24,26,-1,28,30,-1,-1,-1,-1,32,34,36,-1,38,-1,-1,-1,-1,-1,-1,-1,-1,-1],"split_conditions":[4.394956E-1,1.0861213E0,3.0565687E-2,-5.6806475E-1,1.8182007E0,4.374284E-1,5.5714287E-3,2.238E0,-5.116923E-2,-2.4579959E-2,3.8636256E-2,-5.253712E-2,2E1,-6.75882E-3,2.216E0,-5.0908394E-2,9.830723E-1,2.3995714E0,-4.7472466E-2,8.8715754E-2,5.326462E0,-4.4497404E-2,4.0241722E-2,3.2934416E-2,-4.8509754E-2,2.315E0,1.4690329E-2,-3.370609E-2,-4.7334414E-2,4.7605115E-1,4.2987607E-2,2.5811754E-2,3.687874E-2,2.2514943E-2,-5.134982E-2,-4.3833196E-2,2.513516E-2,-5.9259485E-2,1.04387505E-2],"split_indices":[14,21,39,26,19,15,5,0,0,0,0,0,32,31,8,0,30,12,0,39,20,0,0,0,0,0,39,31,0,14,0,0,0,0,0,0,0,0,0],"split_type":[0,0,0,0,0,0,0,0,0,0,0,0,0,0,0,0,0,0,0,0,0,0,0,0,0,0,0,0,0,0,0,0,0,0,0,0,0,0,0],"sum_hessian":[8.431656E2,2.3318822E2,6.0997736E2,2.175843E2,1.5603912E1,5.057978E2,1.041796E2,3.8888252E1,1.7869604E2,3.48279E0,1.2121122E1,4.1315804E0,5.016662E2,