tree
version=v4
num_class=1
num_tree_per_iteration=1
label_index=0
max_feature_idx=42
objective=binary sigmoid:1
feature_names=max_waterlevel_6h max_waterlevel_24h waterlevel_slope_3h waterlevel_slope_6h waterlevel_std_24h waterlevel_rise_rate_48h waterlevel_lag_1d waterlevel_lag_2d waterlevel_lag_3d waterlevel_days_above_threshold waterlevel_pct_rank_30d waterlevel_distance_to_max waterlevel_mean_7d waterlevel_cumrise_14d sensor_soilmoisture_mean_6h sensor_soilmoisture_mean_24h sensor_soilmoisture_trend_6h soilmoisture_lag_1d soilmoisture_lag_2d humidity_mean_24h humidity_trend_6h waterlevel_x_soilmoisture humidity_x_waterlevel_slope season_sin season_cos week_sin week_cos is_monsoon_season waterlevel_monsoon soilmoisture_monsoon humidity_x_soilmoisture soilmoisture_trend_3d days_since_flood_level waterlevel_falling_streak post_flood_decay_7d humidity_anomaly_vs_30d soilmoist_anomaly_vs_30d late_season_wet_flag waterlevel_7d_std soilmoist_7d_std orbit_flag soil_saturation wetness_trend
feature_infos=[0.59748816000000005:2.5790000000000002] [0.65394739999999996:2.5790000000000002] [-1.4685958699999999:1.4665217999999998] [-1.4685958699999999:1.4665217999999998] [0.0033028476653417:0.80015229150803713] [-0.1179243785714285:0.1066283357142857] [0.59748816000000005:2.5790000000000002] [0.59748816000000005:2.5790000000000002] [0.59748816000000005:2.5790000000000002] [0:86] [0.0047619047619046999:1] [0:1.8746006500000001] [0.77930047571428573:2.5790000000000002] [10.986775740000001:35.537000000000006] [0.22562619:0.49812856] [0.22680907857142851:0.48080359571428571] [-0.043703799999999897:0.1432048099999999] [0.22562619:0.49812856] [0.22562619:0.49812856] [0.66739007714285725:4.8692490428571427] [-6.4436203800000005:6.5878532100000005] [0.1742193226235314:1.2317317373957144] [0:3.8581618164290821] [-1:1] [-1:1] [-1:1] [-1:1] [0:1] [0:2.5790000000000002] [0:0.48080359571428571] [0.2262906610028485:2.2197940327375609] [-0.1300896799999999:0.24581511] [0:227] [0:21] [-1.5213374999999998:1.6286147000000002] [-2.0856294710000003:2.2854443635714281] [-0.17582188472789109:0.1605837038231292] [0:1] [0.017956935446014399:0.76122563799360099] [0.0074824325400083998:0.10545239538209129] [0:1] [0.1862:0.36980000000000002] [-1:1]
tree_sizes=1665 1891 1895 2094 1900 1705

Tree=0
num_leaves=15
num_cat=0
split_feature=0 15 32 29 39 8 5 39 39 10 13 20 15 38
split_gain=4974.15 726.233 547.9 325.84 225.771 98.2333 84.9281 75.5081 115.129 74.5423 54.1603 53.6011 31.3027 6.88385
threshold=2.2215000000000003 0.45715297214285716 4.5000000000000009 0.44154320142857145 0.078080353160934313 2.1885000000000008 -0.004464285714285649 0.061621809490905809 0.082926226243599313 0.84805194805194817 31.202500000000004 3.5163758350000007 0.46503098571428575 0.077386856492201603
decision_type=2 2 2 2 2 2 2 2 2 2 2 2 2 2
left_child=3 2 4 -1 6 -5 -2 13 12 -4 -8 -7 -9 -3
right_child=1 7 9 5 -6 11 10 8 -10 -11 -12 -13 -14 -15
leaf_value=-1.6296990462074077 -1.6192797570414466 -1.4239481292723795 -1.6286905890179582 -1.453231666323644 -1.6254861950197339 -1.6252522126265492 -1.6151622325161834 -1.5438843293877549 -1.6227259587548153 -1.4738740877846921 -1.4490668097845338 -1.4806227246542896 -1.4410685822048126 -1.4735966502667268
leaf_weight=153.94774952530861 2.526034176349639 669.82003498077393 29.049393028020862 11.928494274616243 7.4377672970294944 7.0167616009712201 1.5436875522136677 4.6310625672340455 4.2100569605827323 2.1050283908843985 83.780130475759506 2.2453636229038239 18.24357944726944 13.612517058849333
leaf_count=1097 18 475 207 15 53 50 11 19 30 1 121 2 18 27
internal_value=-1.46911 -1.43872 -1.50608 -1.6144 -1.47068 -1.50671 -1.45735 -1.42688 -1.4845 -1.61478 -1.4523 -1.58272 -1.45886 -1.42476
internal_weight=1012.1 836.959 126.442 175.138 95.2876 21.1906 87.8499 710.517 27.0847 31.1544 85.3238 9.26213 22.8746 683.433
internal_count=2144 980 411 1164 203 67 150 569 67 208 132 52 37 502
is_linear=0
shrinkage=1


Tree=1
num_leaves=17
num_cat=0
split_feature=0 15 32 29 18 0 8 32 39 39 20 21 15 39 1 35
split_gain=3955.24 521.302 454.607 302.773 249.785 110.31 79.5506 69.3629 49.5087 95.8994 49.1636 28.8022 22.7718 21.9542 86.1059 7.03682
threshold=2.2215000000000003 0.45715297214285716 4.5000000000000009 0.44154320142857145 0.45399129500000007 2.3535000000000008 2.1885000000000008 210.50000000000003 0.061621809490905809 0.082926226243599313 3.5163758350000007 1.0392223481807144 0.46503098571428575 0.071482162998199913 2.3200000000000007 -1.0000000180025095e-35
decision_type=2 2 2 2 2 2 2 2 2 2 2 2 2 2 2 2
left_child=3 2 4 -1 13 -6 -5 -4 11 12 -8 -3 -10 -2 -15 -7
right_child=1 8 7 6 5 15 10 -9 9 -11 -12 -13 -14 14 -16 -17
leaf_value=-0.035632611389791499 0.14199094317739544 -0.015492278133887623 -0.0346131864401618 0.12559343495609776 -0.033855756613684701 0.049356597290453788 -0.031153724156658704 0.11136109303327012 0.047412261710043285 -0.028626037245619625 0.1052591834520515 0.14723271304213861 0.13505642892840328 -0.028315573905868981 0.13768799480296218 0.12078258547182852
leaf_weight=150.30841371417046 69.585157454013824 0.78195273876190086 28.381892323493961 13.05537670850754 13.276546090841295 4.6197004467248917 6.8713769316673261 2.274397373199462 4.7851788103580537 4.1298173367977133 2.4157587587833405 760.38049754500389 20.117974936962128 3.881488308310507 6.9295506477355957 4.9276804625987989
leaf_count=1097 61 5 207 15 91 16 50 1 19 30 2 497 18 28 3 4
internal_value=0.111482 0.136085 0.080334 -0.0202155 0.110224 0.0214065 0.0805218 -0.0205602 0.145415 0.0992096 0.0109668 0.147043 0.120754 0.134847 0.0806095 0.0943201
internal_weight=1096.72 924.072 133.876 172.651 103.22 22.8239 22.3425 30.6563 790.195 29.033 9.28714 761.162 24.9032 80.3962 10.811 9.54738
internal_count=2144 980 411 1164 203 111 67 208 569 67 52 502 37 92 31 20
is_linear=0
shrinkage=0.03


Tree=2
num_leaves=17
num_cat=0
split_feature=0 21 38 29 8 28 29 7 14 21 25 23 19 39 39 0
split_gain=3245.4 335.603 497.469 282.781 65.7555 58.2395 56.7658 100.73 54.016 104.893 43.2748 23.7586 57.9668 20.2544 11.7115 27.8944
threshold=2.2215000000000003 1.0392223481807144 0.031824130849429706 0.44154320142857145 2.1885000000000008 2.3405000000000005 0.45719674000000005 2.3875000000000006 0.46143514000000002 1.090875609427143 -0.99635443704902682 1.0000000180025095e-35 3.8891671857142858 0.061910585163232258 0.08206906203112406 2.3435000000000001
decision_type=2 2 2 2 2 2 2 2 2 2 2 2 2 2 2 2
left_child=3 2 11 -1 -5 -4 7 8 9 -3 -6 12 -2 -8 -15 -16
right_child=1 6 5 4 10 -7 13 -9 -10 -11 -12 -13 -14 14 15 -17
leaf_value=-0.035422196657480545 -0.028410381190883922 -0.031591434373701682 -0.034787246085775839 0.11367539248419187 0.094465976849765557 0.089455508103617451 0.13092828976967327 -0.029746107911074661 0.12356597881645651 0.11082213478658089 -0.030878993533198121 0.12552844500863178 0.11724607964605127 0.1041665332763211 -0.025511025623358503 0.095253058926124567
leaf_weight=146.72534281015396 3.5844964385032636 6.8713566213846233 32.152661472558975 14.079312533140184 2.6848788857460022 2.8175316900014868 804.64634799957275 4.7165532410144797 52.136274605989456 11.334014490246771 6.6202453374862653 54.275373131036758 5.0285263061523438 18.248558714985851 2.5982424914836875 2.6508276015520096
leaf_count=1097 24 48 235 15 3 3 479 33 48 12 49 49 2 26 19 2
internal_value=0.101144 0.121713 0.0678081 -0.0198955 0.0749223 -0.0225267 0.12747 0.0987731 0.107708 0.0581459 0.0107995 0.11763 0.0598224 0.129947 0.0922952 0.0407193
internal_weight=1171.17 1001.06 97.8586 170.11 23.3844 34.9702 903.202 75.0582 70.3416 18.2054 9.30512 62.8884 8.61302 828.144 23.4976 5.24907
internal_count=2144 980 313 1164 67 238 667 141 108 60 52 75 26 526 47 21
is_linear=0
shrinkage=0.03


Tree=3
num_leaves=19
num_cat=0
split_feature=0 15 32 29 18 0 10 8 20 7 38 1 12 0 14 24 38 15
split_gain=2726.12 305.751 337.356 265.179 170.623 92.1688 60.1041 55.3103 42.2815 38.0927 12.7063 39.0574 10.2199 35.8256 34.7995 5.10463 7.94303 5.03864
threshold=2.2215000000000003 0.45715297214285716 4.5000000000000009 0.44154320142857145 0.45399129500000007 2.3535000000000008 0.84805194805194817 2.1885000000000008 3.5163758350000007 2.1965000000000008 0.033526432558920662 2.3405000000000005 2.2538571428571434 2.2695000000000003 0.48409312500000007 -0.9330127018922193 0.040900519134027209 0.45478446785714283
decision_type=2 2 2 2 2 2 2 2 2 2 2 2 2 2 2 2 2 2
left_child=3 2 4 -1 10 -6 -4 -5 -9 -3 -2 -12 13 14 -11 16 -14 -7
right_child=1 9 6 7 5 17 -8 8 -10 12 11 -13 15 -15 -16 -17 -18 -19
leaf_value=-0.035219950728472865 0.1181825029109963 -0.022041437788626359 -0.034248911920371813 0.10398525164495662 -0.033616402216941038 0.04355940081096172 0.096054789298990584 -0.030710444600171014 0.092925827077263087 -0.030441866182052881 0.02067048165864847 0.10829823951872379 0.042178756568149456 0.11384547485753418 0.090750512172249997 0.11829589632077678 0.10003484406734597 0.10216203623540944
leaf_weight=143.19987723231316 70.76379656791687 1.4633329510688771 27.272935494780544 15.007543712854387 12.961806178092958 4.9658099114894849 2.6153056621551505 6.6108948588371259 2.710123598575592 4.1072735190391567 7.3477404862642315 14.530401676893232 5.084009841084483 10.983199119567869 2.7457997798919678 883.21803298592567 15.477847024798391 5.6451782435178757
leaf_count=1097 47 9 207 15 91 16 1 50 2 25 33 12 18 4 1 493 19 4
internal_value=0.0928235 0.110441 0.0692613 -0.0195909 0.0922205 0.0191027 -0.0200578 0.0701019 0.0106126 0.116875 0.110407 0.081124 0.117121 0.0822186 0.0232977 0.117716 0.0884189 0.0809795
internal_weight=1236.71 1069.18 146.103 167.528 116.215 23.5728 29.8882 24.3286 9.32102 923.079 92.6419 21.8781 921.616 17.8363 6.85307 903.78 20.5619 10.611
internal_count=2144 980 411 1164 203 111 208 67 52 569 92 45 560 30 26 530 37 20
is_linear=0
shrinkage=0.03


Tree=4
num_leaves=17
num_cat=0
split_feature=0 29 14 38 39 39 1 8 36 38 39 38 21 17 1 21
split_gain=2332.34 249.601 217.188 198.033 76.6618 92.7675 58.6503 47.1402 46.4017 94.9847 42.2622 19.9284 79.2785 17.0077 63.8266 6.82541
threshold=2.2215000000000003 0.44154320142857145 0.43582479000000002 0.037351281066022354 0.079245414270556008 0.082926226243599313 2.2435000000000005 2.1885000000000008 0.040740492486394504 0.038736386223704206 0.012783849775415652 0.077386856492201603 1.1750430998364287 0.38999057000000004 2.4175000000000004 1.0726695960085719
decision_type=2 2 2 2 2 2 2 2 2 2 2 2 2 2 2 2
left_child=1 -1 3 6 8 -6 -2 -3 9 -4 -9 15 -13 -8 -15 -10
right_child=2 7 4 -5 5 -7 13 10 11 -11 -12 12 -14 14 -16 -17
leaf_value=-0.035025459131957391 -0.028068341422457947 0.095948069912739853 0.10249139966506836 -0.033799190481037029 0.092262324301477308 -0.031843986788716763 0.1093266625561853 0.093164303821984498 0.097145205652278438 -0.031830428688504588 -0.030639832714428654 -0.031557031942422251 0.10140626125204781 -0.030050279456685584 0.10102299795293294 0.10885641686215845
leaf_weight=139.73312854766846 3.5375476777553549 15.846806168556215 11.8819567412138 19.132990717887878 12.92000560462475 8.193640008568762 23.340353280305862 2.6856405735015851 153.33736638724804 6.8662502914667121 6.6392452418804169 4.8283464014530209 15.160596221685408 4.4772121459245673 8.8168283700942975 856.76384274661541
leaf_count=1097 25 15 7 146 14 60 12 1 162 48 51 30 10 30 4 432
internal_value=0.085981 -0.0193003 0.10136 0.0443968 0.104472 0.0447701 0.0815925 0.0659386 0.105628 0.0541013 0.0104413 0.106511 0.0692441 0.092686 0.0577607 0.107178
internal_weight=1294.16 164.905 1129.26 59.3049 1069.95 21.1136 40.1719 25.1717 1048.84 18.7482 9.32489 1030.09 19.9889 36.6344 13.294 1010.1
internal_count=2144 1164 980 217 763 74 71 67 689 55 52 634 40 46 34 594
is_linear=0
shrinkage=0.03


Tree=5
num_leaves=15
num_cat=0
split_feature=0 29 15 32 39 18 10 15 8 39 9 39 38 39
split_gain=2023.59 235.684 208.694 272.414 131.83 57.8525 53.0376 47.6324 40.6132 39.2837 12.1104 5.97432 10.5906 6.09397
threshold=2.2215000000000003 0.44154320142857145 0.4587125335714286 4.5000000000000009 0.078080353160934313 0.46924938500000007 0.84805194805194817 0.45715297214285716 2.1885000000000008 0.012783849775415652 11.500000000000002 0.061621809490905809 0.024921057251888954 0.079802680917825206
decision_type=2 2 2 2 2 2 2 2 2 2 2 2 2 2
left_child=1 -1 3 4 5 10 -5 -7 -3 -10 -2 -4 -13 -14
right_child=2 8 11 6 -6 7 -8 -9 9 -11 -12 12 13 -15
leaf_value=-0.034838333053232119 0.097557047478079056 0.089170989507434406 0.099780435426717773 -0.033987768096643486 -0.031894478653978334 -0.0318225762012284 0.084553085957948845 0.074224325089106688 0.087923524663847966 -0.030406392993584535 0.061724966192234373 -0.015050443988875811 0.090647873228555331 0.050083066781255792
leaf_weight=136.32602851092815 106.36439561843872 16.603375524282459 974.18065656721592 26.48948880285025 8.4720556288957578 6.3682164996862394 2.9058532714843741 7.1012082099914551 2.8178479671478254 6.4993067383766174 16.994870230555534 0.74658402800559898 23.293310642242432 9.4921413958072645
leaf_count=1097 80 15 489 208 63 42 1 7 1 51 35 5 23 27
internal_value=0.0802189 -0.0190224 0.0938423 0.0628674 0.0796278 0.0867252 -0.0198239 0.0252485 0.0623079 0.0102889 0.0931687 0.099143 0.0782267 0.0807778
internal_weight=1344.66 162.247 1182.41 174.696 145.301 136.829 29.3953 13.4694 25.9205 9.31715 123.359 1007.71 33.532 32.7855
internal_count=2144 1164 980 436 227 164 209 49 67 52 115 544 55 50
is_linear=0
shrinkage=0.03


end of trees

feature_importances:
soilmoist_7d_std=15
max_waterlevel_6h=10
sensor_soilmoisture_mean_24h=8
waterlevel_7d_std=8
soilmoisture_monsoon=7
waterlevel_lag_3d=6
waterlevel_x_soilmoisture=5
days_since_flood_level=5
max_waterlevel_24h=4
waterlevel_pct_rank_30d=3
sensor_soilmoisture_mean_6h=3
soilmoisture_lag_2d=3
humidity_trend_6h=3
waterlevel_lag_2d=2
waterlevel_rise_rate_48h=1
waterlevel_days_above_threshold=1
waterlevel_mean_7d=1
waterlevel_cumrise_14d=1
soilmoisture_lag_1d=1
humidity_mean_24h=1
season_sin=1
season_cos=1
week_sin=1
waterlevel_monsoon=1
humidity_anomaly_vs_30d=1
soilmoist_anomaly_vs_30d=1

parameters:
[boosting: gbdt]
[objective: binary]
[metric: binary_logloss]
[tree_learner: serial]
[device_type: cpu]
[data_sample_strategy: bagging]
[data: ]
[valid: ]
[num_iterations: 800]
[learning_rate: 0.03]
[num_leaves: 63]
[num_threads: 12]
[seed: 42]
[deterministic: 0]
[force_col_wise: 0]
[force_row_wise: 0]
[histogram_pool_size: -1]
[max_depth: 6]
[min_data_in_leaf: 10]
[min_sum_hessian_in_leaf: 0.001]
[bagging_fraction: 0.75]
[pos_bagging_fraction: 1]
[neg_bagging_fraction: 1]
[bagging_freq: 0]
[bagging_seed: 400]
[bagging_by_query: 0]
[feature_fraction: 0.8]
[feature_fraction_bynode: 1]
[feature_fraction_seed: 30056]
[extra_trees: 0]
[extra_seed: 12879]
[early_stopping_round: 0]
[early_stopping_min_delta: 0]
[first_metric_only: 0]
[max_delta_step: 0]
[lambda_l1: 0.05]
[lambda_l2: 1]
[linear_lambda: 0]
[min_gain_to_split: 0]
[drop_rate: 0.1]
[max_drop: 50]
[skip_drop: 0.5]
[xgboost_dart_mode: 0]
[uniform_drop: 0]
[drop_seed: 17869]
[top_rate: 0.2]
[other_rate: 0.1]
[min_data_per_group: 100]
[max_cat_threshold: 32]
[cat_l2: 10]
[cat_smooth: 10]
[max_cat_to_onehot: 4]
[top_k: 20]
[monotone_constraints: ]
[monotone_constraints_method: basic]
[monotone_penalty: 0]
[feature_contri: ]
[forcedsplits_filename: ]
[refit_decay_rate: 0.9]
[cegb_tradeoff: 1]
[cegb_penalty_split: 0]
[cegb_penalty_feature_lazy: ]
[cegb_penalty_feature_coupled: ]
[path_smooth: 0]
[interaction_constraints: ]
[verbosity: -1]
[saved_feature_importance_type: 0]
[use_quantized_grad: 0]
[num_grad_quant_bins: 4]
[quant_train_renew_leaf: 0]
[stochastic_rounding: 1]
[linear_tree: 0]
[max_bin: 255]
[max_bin_by_feature: ]
[min_data_in_bin: 3]
[bin_construct_sample_cnt: 200000]
[data_random_seed: 175]
[is_enable_sparse: 1]
[enable_bundle: 1]
[use_missing: 1]
[zero_as_missing: 0]
[feature_pre_filter: 1]
[pre_partition: 0]
[two_round: 0]
[header: 0]
[label_column: ]
[weight_column: ]
[group_column: ]
[ignore_column: ]
[categorical_feature: ]
[forcedbins_filename: ]
[precise_float_parser: 0]
[parser_config_file: ]
[objective_seed: 16083]
[num_class: 1]
[is_unbalance: 0]
[scale_pos_weight: 15]
[sigmoid: 1]
[boost_from_average: 1]
[reg_sqrt: 0]
[alpha: 0.9]
[fair_c: 1]
[poisson_max_delta_step: 0.7]
[tweedie_variance_power: 1.5]
[lambdarank_truncation_level: 30]
[lambdarank_norm: 1]
[label_gain: ]
[lambdarank_position_bias_regularization: 0]
[eval_at: ]
[multi_error_top_k: 1]
[auc_mu_weights: ]
[num_machines: 1]
[local_listen_port: 12400]
[time_out: 120]
[machine_list_filename: ]
[machines: ]
[gpu_platform_id: -1]
[gpu_device_id: -1]
[gpu_use_dp: 0]
[num_gpu: 1]

end of parameters

pandas_categorical:[]
